0.3206935524940491
1.6114277839660645
-1.2284129858016968
-0.4146869480609894
1.0221712589263916
-1.6593760251998901
-0.7238179445266724
-0.6096368432044983
1.4973543882369995
0.3752030730247498
-1.6760535240173340
-2.1900286674499512
-0.0049910517409444
2.0822942256927490
0.2106787264347076
0.3405994474887848
-1.3420869112014771
-1.0158876180648804
-1.2347714900970459
0.3233946561813354
1.8229368925094604
-0.2666928172111511
1.9097141027450562
-2.6106176376342773
-0.1999142765998840
1.2548879384994507
-0.1557088047266006
0.7067952752113342
-0.0735667496919632
-0.5626283884048462
1.3441303968429565
2.2251169681549072
0.0818738266825676
0.1569013595581055
-0.2164498269557953
1.2254604101181030
0.6036242842674255
0.3273278772830963
-0.9285849928855896
1.7605249881744385
-0.9682372212409973
0.6159743666648865
-1.2955702543258667
-0.1014209166169167
-0.0647343471646309
0.2640405595302582
-0.6338262557983398
3.2945089340209961
-0.2801783382892609
-0.6860847473144531
-1.4449802637100220
-1.3502020835876465
-0.3032644689083099
-0.8128315806388855
0.4319267272949219
-1.2607510089874268
0.1605671048164368
0.6123722195625305
-0.3247093260288239
0.4848197400569916
-1.5700153112411499
-0.8737037777900696
-0.1252820044755936
0.0180957242846489
0.8619945645332336
-1.8480917215347290
2.9023926258087158
-0.2346999496221542
2.3754606246948242
-1.7536157369613647
-0.3217400908470154
0.9637129306793213
-1.0066249370574951
-0.9779763817787170
0.7806608676910400
-1.0728734731674194
-0.2951046228408813
-0.6073250174522400
0.3589184284210205
1.3054766654968262
-2.4540703296661377
0.3483069837093353
-1.1678979396820068
0.5293557643890381
0.4012168049812317
-0.3048568964004517
-1.1464223861694336
-1.2991538047790527
0.3031734526157379
1.7318958044052124
0.1740952730178833
-0.8698582649230957
-1.0180604457855225
-0.5660762190818787
1.5671521425247192
-1.0972807407379150
0.9308401346206665
-0.5947054028511047
0.4046427011489868
0.8732297420501709
0.4952404499053955
-0.2344715297222137
-0.5356363654136658
-0.2996725142002106
-1.7176409959793091
-2.5979475975036621
-0.4618785083293915
-2.5429670810699463
1.0577510595321655
2.2884800434112549
-1.3444030284881592
1.2835888862609863
1.1654641628265381
0.8929935097694397
-0.5114518404006958
0.2967166900634766
0.3826154768466949
-1.3207855224609375
0.0705618858337402
1.2766531705856323
-0.2763611376285553
-0.2144736349582672
0.5596439242362976
-0.8472852110862732
1.3165448904037476
0.3786962330341339
0.0156577434390783
2.6204767227172852
