-0.4421117305755615
-0.0377180129289627
-0.3315258622169495
0.1231751367449760
0.3234365284442902
0.0517231039702892
-0.8240377306938171
-2.1039218902587891
-0.9919465184211731
-0.3177148699760437
0.5779708623886108
0.1674183011054993
0.2409811913967133
-0.3044379055500031
0.0031671642791480
-0.0882163271307945
-0.0362103879451752
0.3586580455303192
0.5179539918899536
0.4808182716369629
0.6643289923667908
-0.0105490377172828
0.5039179325103760
0.1566378474235535
0.1665957719087601
0.4280156493186951
0.3859835863113403
0.5254785418510437
0.1603175848722458
0.4806869626045227
0.0437511652708054
-0.1582684367895126
0.5231517553329468
0.8155131340026855
0.8429535627365112
0.1439253985881805
0.3722803294658661
0.7639403343200684
0.2841000258922577
0.2957256734371185
-0.0019173945765942
0.3475739955902100
0.6464239358901978
0.2643201053142548
0.4287663698196411
0.1148905456066132
0.3684568405151367
-0.5465021729469299
0.0625775530934334
0.6918004155158997
0.5688836574554443
0.6406890749931335
0.3906231820583344
0.6845927238464355
-0.3607507646083832
-0.2028951942920685
-1.5572704076766968
-2.3895988464355469
-0.8662771582603455
-2.9848539829254150
-2.0128326416015625
-2.6578376293182373
-0.6363015174865723
-2.5653972625732422
