-2.5083947181701660
-0.5287537574768066
-0.3905489444732666
0.4251109659671783
0.1402349472045898
0.4377415478229523
-1.2791606187820435
0.4759948849678040
0.9066190123558044
0.2328162193298340
0.1948837041854858
0.2015718817710876
0.3970699906349182
-0.1070164367556572
-1.2071506977081299
-0.6756042242050171
-0.2381553947925568
-1.0539655685424805
0.8588995337486267
0.0930023640394211
-0.3563137352466583
-0.6717058420181274
-0.3625479340553284
0.7756941318511963
0.7489051222801208
0.0785771086812019
-1.5846778154373169
0.4947565793991089
0.8787190914154053
-1.1288983821868896
0.0043222079984844
-0.9778196811676025
0.9303292632102966
-0.8160148262977600
0.3711367249488831
-1.4002557992935181
0.9210145473480225
-1.4076681137084961
-0.7665898799896240
0.6801466941833496
-1.6631489992141724
-0.0796561613678932
-0.5784998536109924
-0.6305361390113831
1.4458817243576050
-0.2618962526321411
1.6512150764465332
0.9090757966041565
1.0557394027709961
-1.4281353950500488
-1.2076749801635742
1.1164566278457642
-0.3717634379863739
-0.5377019047737122
-1.0576765537261963
1.0291131734848022
0.0842533186078072
2.0661511421203613
0.0827517956495285
-0.1959891915321350
-0.1204682439565659
-0.3334636390209198
-1.8370407819747925
0.0884979069232941
-0.1612355113029480
-1.4294650554656982
-0.1422200649976730
0.2038529217243195
-2.2964940071105957
0.2850296497344971
0.1173708662390709
-0.9286879897117615
0.0955854579806328
0.4889621734619141
-0.3707795739173889
-1.1466964483261108
0.4643259346485138
-0.5502492785453796
-0.3244183361530304
0.5243526101112366
1.7906663417816162
-0.2876800894737244
-0.2035884708166122
0.1884938925504684
2.0424840450286865
1.6120712757110596
0.2210088670253754
0.4742148816585541
1.4389897584915161
-0.5689899921417236
0.0323406532406807
-1.3679980039596558
-0.5540591478347778
-1.1849611997604370
-0.0715453699231148
0.3949569463729858
0.5284096598625183
1.5601053237915039
0.0724695473909378
-2.1884806156158447
-2.0094218254089355
-0.0198034197092056
0.5687335133552551
0.9944691658020020
-0.1390959769487381
-0.5139372944831848
-0.1976203918457031
0.2130554616451263
-0.2534965574741364
0.4475580155849457
-0.9478170275688171
0.4245255291461945
-1.0413243770599365
-1.5839931964874268
0.5458745956420898
0.4703525006771088
1.1108988523483276
-1.9693566560745239
0.0296164304018021
-0.4187725484371185
-0.1485788971185684
0.0737465769052505
0.5739750266075134
-0.6704588532447815
2.1053419113159180
-0.5673270821571350
0.1440267562866211
-1.1880158185958862
