0.1464340835809708 0.1325364559888840 0.1392868757247925 0.0172774568200111 -0.0893079712986946 -0.0767643004655838 0.1257223933935165 -0.1763897836208344 -0.0280893966555595 0.0642072409391403 0.0806543007493019 -0.0925297290086746 -0.0216324646025896 0.0156882032752037 -0.0240392144769430 0.1763085573911667 -0.0266334433108568 0.0319312848150730 -0.0153240840882063 -0.0171067938208580 -0.0467161796987057 -0.0209590103477240 0.0937992632389069 0.0351013578474522 -0.0022886164952070 -0.0823459923267365 0.0375264286994934 -0.0174208041280508 -0.0017197121633217 0.0677860826253891 0.1834695935249329 0.1630905121564865 0.0597142130136490 0.0110176904127002 0.0655022263526917 -0.0385570414364338 0.0556392632424831 0.1249811276793480 0.1459461897611618 0.0726928636431694 0.0390009470283985 0.0669979304075241 0.0313722342252731 0.0497858598828316 0.0022984987590462 0.0653667077422142 0.1243762820959091 0.0392004959285259 0.0584614314138889 -0.0662779062986374 0.0225593484938145 0.0068745962344110 0.0097772683948278 0.0782260820269585 0.0396202057600021 0.0335394367575645 -0.1198364049196243 0.1162007004022598 -0.0385352261364460 -0.3561487495899200 0.4727355837821960 0.0240397024899721 0.0247077774256468 -0.2378581613302231
-0.1356444060802460 -0.1534669101238251 -0.0310007985681295 -0.0953301861882210 -0.0097160283476114 -0.1305162310600281 -0.1483903229236603 0.0539297722280025 -0.1330633163452148 -0.0282372161746025 -0.1100127622485161 0.0333744622766972 -0.0191552750766277 0.0031972958240658 -0.0428155325353146 -0.1339832693338394 -0.0992911532521248 -0.0805160403251648 0.0159072391688824 -0.0786799490451813 0.1334716379642487 0.0705346688628197 0.0056652794592083 0.0543566904962063 0.0864742919802666 -0.0680521801114082 -0.0478972233831882 0.1213218346238136 -0.0953307747840881 0.0339804664254189 -0.0180106479674578 0.1000532284379005 -0.2025267332792282 0.0254149958491325 -0.0146532999351621 -0.0160502139478922 -0.0246041286736727 -0.0499339811503887 -0.0283588077872992 -0.0289629008620977 0.1323522478342056 -0.1722592562437057 -0.0414144136011600 -0.0224456712603569 -0.0146848876029253 -0.0500573702156544 -0.1252211779356003 -0.0374708697199821 -0.0173848792910576 -0.0443468168377876 -0.0531912147998810 0.0309773162007332 -0.0508431345224380 -0.0237201098352671 -0.0137409567832947 -0.1116530597209930 0.3348877131938934 -0.2380582839250565 -0.0103940023109317 -0.0012378445826471 -0.0682391896843910 0.0672508180141449 -0.1937432438135147 -0.2110493630170822
-0.2024321705102921 -0.2301615923643112 -0.3738878369331360 -0.4363729953765869 -0.3110646903514862 -0.2298511266708374 -0.1163029149174690 0.2010337710380554 -0.2881272137165070 -0.2366001307964325 -0.3779113292694092 -0.3213400244712830 -0.1651602983474731 -0.3115587830543518 -0.1796677857637405 0.1038893014192581 -0.4548681080341339 -0.2254600524902344 -0.2488373965024948 -0.3081200122833252 -0.2919696867465973 -0.2273488044738770 -0.2231537848711014 -0.1264482885599136 -0.3133754730224609 -0.1418339461088181 -0.3387776911258698 -0.2424795180559158 -0.1959701329469681 -0.2161264568567276 -0.3174798190593719 -0.0330832973122597 -0.2158359885215759 -0.1798157989978790 -0.1726120859384537 -0.2556513249874115 -0.2398605048656464 -0.2280165553092957 -0.1353771835565567 -0.2351432591676712 -0.0984500125050545 -0.1963840276002884 -0.1913882344961166 -0.2185804396867752 -0.0498782396316528 -0.0920212492346764 -0.1490173190832138 -0.2467889040708542 -0.3111802637577057 -0.0702190250158310 -0.3226700425148010 -0.1532275825738907 -0.1805774271488190 -0.1561348736286163 -0.1230498552322388 -0.1137177646160126 0.3573801219463348 -0.2973410487174988 0.0878678709268570 -0.6238973736763000 0.1017813682556152 -0.1741862595081329 -0.1098819226026535 -0.1176147609949112
0.1086254268884659 0.0404593162238598 -0.0348398387432098 0.1209424585103989 0.1672700494527817 0.1817026883363724 0.2311326861381531 0.0728588178753853 0.1284063309431076 0.2417547106742859 0.1385144591331482 0.0834458693861961 0.1840297132730484 0.2115348279476166 0.1844818145036697 0.3198742568492889 0.3043874204158783 0.2211126089096069 0.1810477674007416 0.0507530309259892 0.1303117275238037 0.0904914289712906 0.1914298087358475 0.1404344588518143 0.2888846993446350 0.2402381151914597 0.1881082653999329 0.1465774476528168 0.1040046885609627 0.1938472986221313 0.1419645696878433 0.2727832794189453 0.1716254651546478 0.1888101547956467 0.1605840623378754 -0.0021191057749093 0.2248159497976303 0.1335092186927795 0.2184638381004333 0.2178989052772522 -0.0180791765451431 0.2298588305711746 0.1119236424565315 0.1764400154352188 0.1439159661531448 0.2316353172063828 0.1219343319535255 0.2509113252162933 0.2197892665863037 0.0561359450221062 0.1478316336870193 0.1626105755567551 0.0888638421893120 0.2054878175258636 0.0805181935429573 0.2043600380420685 0.3005308806896210 0.0922049283981323 0.1241358518600464 0.0056812306866050 0.1628630012273788 0.0064242887310684 0.1706717312335968 0.0996588319540024
-0.2141376882791519 0.0538840554654598 0.0360545180737972 -0.0515749976038933 0.0554337762296200 0.1302333027124405 0.0023371716961265 0.0641257166862488 0.0309268385171890 -0.0348155423998833 0.0626432225108147 0.1369136720895767 0.0637205764651299 0.1549202650785446 0.0250135064125061 0.2430649101734161 -0.1073023751378059 0.0656258240342140 0.0605897642672062 -0.0256396699696779 0.1436516791582108 -0.0518789999186993 0.1372993141412735 0.1110283136367798 -0.0524374581873417 0.0258161164820194 0.0707134976983070 0.1093775406479836 0.0054621677845716 0.0149219594895840 0.0459075458347797 0.0633504092693329 0.0413569249212742 0.1219238489866257 0.1645807176828384 0.0909573137760162 0.1069612503051758 -0.0170234013348818 -0.0733478069305420 -0.0521052181720734 0.0861149430274963 0.0825100690126419 0.2308107018470764 0.1398851424455643 0.2077040076255798 -0.0460122972726822 0.0013367660576478 -0.1041139587759972 0.0116111412644386 0.0410122275352478 0.0013435288565233 -0.0000818606931716 0.0103149488568306 -0.0013438472524285 -0.0319666340947151 0.0056466972455382 0.1327240467071533 -0.2131119966506958 -0.0032697191927582 -0.3783805668354034 -0.1335219591856003 -0.0770467966794968 -0.3089581727981567 0.0003218771016691
0.2279185950756073 0.0744997486472130 0.0828472673892975 0.0219144150614738 -0.0150328949093819 -0.0307690370827913 0.0570892617106438 0.0692724436521530 -0.0130259776487947 0.1975275874137878 0.0664578750729561 -0.0163980294018984 -0.0387137308716774 0.0186036601662636 -0.0067125675268471 -0.0330879241228104 0.2229185104370117 -0.0061823590658605 0.0956577658653259 0.0236609075218439 0.1170680075883865 0.0112262647598982 0.1349011361598969 0.0521201714873314 0.1228037774562836 0.1231677457690239 -0.0126208690926433 0.0108308326452971 0.0298410970717669 0.0999804213643074 -0.0476766191422939 -0.0445383824408054 0.2359705120325089 -0.0187097918242216 0.1839347928762436 0.1110844910144806 0.0814270302653313 0.0213081799447536 0.1163104251027107 -0.0487405844032764 0.1111033037304878 0.2497490495443344 0.0166359562426805 0.0461179353296757 0.1222056522965431 0.0699064359068871 -0.1154765337705612 0.1140380948781967 0.1524974703788757 -0.0375189743936062 0.1311042904853821 0.0228180736303329 -0.0180959720164537 0.0323670580983162 -0.0274914111942053 -0.1634687930345535 0.0558313801884651 0.3251971602439880 0.1199137791991234 0.0730484351515770 0.1503205746412277 0.0427048318088055 0.0369424633681774 0.1265912353992462
-0.0240308549255133 -0.0472502782940865 -0.1660666018724442 -0.1542863845825195 -0.1141893714666367 -0.0956551209092140 -0.1090429201722145 -0.1756624728441238 -0.1008758023381233 -0.1583281755447388 -0.1727543026208878 -0.1332195252180099 -0.2573361396789551 -0.2162291407585144 -0.1914061903953552 -0.2100516110658646 -0.1146883666515350 -0.1374303102493286 -0.1948566138744354 -0.2074253708124161 -0.1080309227108955 -0.1565703898668289 -0.2522716820240021 -0.0681188106536865 0.1124541833996773 -0.1857353448867798 -0.0827556401491165 -0.1256036907434464 -0.2282033115625381 -0.1931302398443222 -0.1060887649655342 -0.2566143870353699 -0.1178905591368675 -0.0081478180363774 -0.0878539457917213 -0.1205890402197838 -0.1340242922306061 -0.1037134826183319 -0.1790143251419067 0.0097151016816497 0.0460069030523300 -0.1006486490368843 -0.2184912860393524 -0.2105874121189117 -0.1013576537370682 -0.1269275397062302 -0.0229191854596138 -0.1625383347272873 -0.1907864063978195 -0.1478523164987564 -0.3112162947654724 -0.1746030002832413 -0.1205114200711250 0.0085225505754352 -0.0683196485042572 0.1458559632301331 -0.0743476673960686 -0.0218628961592913 -0.0731256008148193 -0.0881543979048729 0.2682854831218719 0.1595797538757324 0.0934768021106720 -0.2036048769950867
-0.0927718728780746 0.0009147084783763 -0.0229535736143589 -0.0278152860701084 -0.0354454405605793 0.0572924688458443 -0.0010965674882755 -0.5131514072418213 -0.0250342469662428 -0.0488290227949619 0.0629468858242035 -0.0089056957513094 0.0667123198509216 0.1150863766670227 0.0381055213510990 -0.1586471349000931 -0.2062642425298691 0.0754720494151115 -0.0389567166566849 0.0132360626012087 -0.0313402600586414 0.0415206626057625 0.0906725451350212 0.1108442917466164 -0.0205225776880980 0.0164051018655300 -0.0158675312995911 -0.1293734610080719 0.0306005254387856 -0.0139001160860062 0.1567699015140533 0.0021163041237742 0.0804247036576271 -0.0750166550278664 -0.0810122489929199 0.0201644022017717 -0.2123225182294846 -0.0204498041421175 0.0207373462617397 0.2046986222267151 0.0861277431249619 -0.0135509269312024 -0.0415610969066620 -0.1715079098939896 0.1215453594923019 -0.0298200715333223 0.0345677807927132 -0.0498853772878647 0.1952966451644897 -0.0040704836137593 0.0055458373390138 0.0597005076706409 -0.0922825261950493 0.1004519313573837 0.1409419476985931 0.0126650100573897 0.0934802442789078 -0.3814806640148163 0.1405703425407410 0.0701552852988243 0.1329537183046341 0.0172741152346134 0.2056493014097214 -0.3297016024589539
-0.0005749068222940 -0.0476684160530567 -0.0293013770133257 -0.0919202044606209 -0.0288432724773884 -0.1741862595081329 0.0876768603920937 -0.1515974253416061 -0.1205386593937874 -0.0164741463959217 -0.1184134781360626 -0.0483843535184860 -0.1918647587299347 -0.0297304168343544 -0.2750716805458069 0.2093405723571777 -0.0533329807221889 -0.0753570646047592 -0.0770891085267067 -0.0687969550490379 -0.0778660476207733 -0.1184585466980934 -0.1526531130075455 0.0400746725499630 0.0791026130318642 0.1146972477436066 -0.1415393203496933 -0.0684876739978790 -0.0561562851071358 -0.1809157282114029 -0.0417662002146244 0.0726909413933754 -0.0364802442491055 -0.1049986928701401 0.0082220621407032 -0.0404891297221184 -0.0910644382238388 -0.0537087917327881 -0.0279124118387699 -0.0692377239465714 0.0725225880742073 0.0525474287569523 -0.0395206063985825 -0.0588807761669159 -0.0122074270620942 -0.1125306263566017 0.0782696083188057 -0.0365927480161190 0.1166794672608376 -0.0170069057494402 0.0334464646875858 -0.0098482323810458 0.0294142588973045 -0.0839137732982635 -0.0693915784358978 -0.1787513643503189 -0.0705884695053101 0.2562063932418823 -0.3768868744373322 -0.3527181148529053 0.1227650567889214 -0.1223793476819992 -0.3037755191326141 0.3858120143413544
-0.2149427086114883 -0.0686455890536308 -0.1918016672134399 -0.2178806066513062 -0.1210168898105621 -0.1427409499883652 -0.0874936357140541 0.1814824491739273 -0.0581808947026730 -0.3006368577480316 -0.0836346447467804 -0.0907252207398415 -0.0892429575324059 -0.1681593954563141 -0.0995103716850281 -0.1696630567312241 -0.1661414802074432 -0.0917052701115608 -0.1076584458351135 -0.0713149681687355 -0.1152954250574112 -0.0967546626925468 -0.1963936835527420 -0.0762676671147346 -0.0956376343965530 -0.0387201234698296 -0.0886235684156418 0.0283032543957233 0.0282995905727148 -0.0571958199143410 -0.0379020124673843 -0.0965421423316002 -0.0512639209628105 -0.1732595562934875 -0.0119445910677314 -0.1417750716209412 -0.0048423125408590 -0.1042279452085495 -0.0568159483373165 -0.1831769049167633 0.0249896645545959 0.0251855924725533 -0.1398032605648041 -0.0709315761923790 -0.0835753381252289 -0.1158355772495270 -0.0421900898218155 -0.1288321316242218 -0.0731792822480202 -0.0888898149132729 -0.0702515542507172 -0.1431923657655716 -0.0803755372762680 -0.0811125859618187 -0.1143544018268585 -0.2403630763292313 0.0554973445832729 -0.0433363802731037 -0.0444009453058243 -0.3102463781833649 -0.1996807157993317 -0.0212224256247282 0.1293700486421585 0.3249993324279785
0.1222974136471748 0.0506076775491238 -0.0752509161829948 -0.0008886671275832 0.1037428379058838 0.1796974837779999 0.2250486910343170 0.2272179573774338 0.0776231437921524 -0.0619014389812946 0.0664073675870895 0.0926009863615036 0.0992799252271652 0.0797223374247551 0.0674508437514305 0.1170750483870506 0.1105474159121513 0.1350371837615967 -0.0479826219379902 0.1470177322626114 0.1623416244983673 0.1026195064187050 0.0981716811656952 0.0895560085773468 0.1293993294239044 -0.0570337586104870 0.0857704728841782 -0.1139213442802429 0.0794574320316315 0.1610977649688721 0.0729663148522377 0.1047825664281845 0.0687131881713867 0.1112959980964661 0.1227875128388405 0.0669150575995445 0.1997702866792679 0.1062112972140312 0.0818182826042175 0.2029273808002472 0.1021457985043526 0.3010698854923248 0.2118299752473831 0.1153929457068443 0.0684689357876778 0.1873239725828171 0.1118146032094955 0.0185753945261240 0.1204872801899910 0.1233744472265244 0.2438632696866989 0.0783928558230400 0.0833175927400589 0.1149474233388901 -0.0117205586284399 0.1310872286558151 -0.0320382863283157 0.1045624315738678 0.3945703506469727 -0.1294056773185730 0.1441213339567184 0.0119740711525083 0.1239576637744904 -0.2098724544048309
-0.1838399618864059 0.0836053341627121 -0.0906259939074516 -0.1219157204031944 0.0218405816704035 -0.0342362970113754 -0.0678013190627098 0.1890871226787567 0.0054949405603111 -0.0702842622995377 0.0526109561324120 -0.0793145075440407 -0.1060261726379395 -0.0214531887322664 0.1699295043945312 0.0241047125309706 -0.0954536944627762 0.0148763675242662 -0.0881617292761803 -0.1388988345861435 -0.1083131134510040 -0.0762351155281067 -0.0075980783440173 0.0903369486331940 -0.0404184497892857 0.0334644094109535 -0.0730943232774734 -0.0544367246329784 -0.1732259839773178 -0.0896919965744019 -0.0336107909679413 -0.1783616393804550 0.0570183023810387 -0.1423385590314865 -0.0199581813067198 -0.0131222456693649 -0.1074831858277321 -0.0588521137833595 -0.0429846979677677 -0.1534201204776764 -0.0396840050816536 0.0368494056165218 -0.0436106286942959 -0.0678874403238297 -0.0829778835177422 -0.1162998974323273 -0.0845802947878838 -0.2416886091232300 0.0845575556159019 -0.0721215158700943 -0.0812046155333519 -0.0807894095778465 -0.0612214021384716 -0.1821753531694412 -0.1051183417439461 -0.1468707323074341 0.1454920619726181 -0.0884034484624863 -0.1790192723274231 -0.3028115332126617 0.1910125315189362 -0.0955839678645134 -0.0264545250684023 -0.2276641875505447
0.0210422445088625 -0.0254718102514744 -0.1305561214685440 -0.0794896334409714 -0.0717283189296722 0.0638300254940987 -0.0004598611558322 0.1291397362947464 0.0415125414729118 -0.0126121202483773 -0.0341984853148460 -0.0145857818424702 0.0184743218123913 -0.0344594120979309 0.0171462967991829 0.0848143622279167 0.0105053707957268 0.0427712090313435 -0.0296647250652313 0.0086888754740357 -0.0396254546940327 -0.0860196426510811 -0.0438037663698196 0.0246459413319826 0.0742937475442886 0.1915641278028488 0.0154136018827558 0.0750835612416267 0.1065831780433655 -0.0336236320436001 0.0517432056367397 0.0826855301856995 0.0433864332735538 0.0897186324000359 0.0195819102227688 -0.0024721617810428 -0.0134993875399232 0.0309781953692436 0.0155927781015635 0.0276430249214172 0.0595850311219692 0.0736857429146767 -0.0415442921221256 -0.1005942821502686 0.0652310699224472 0.0510215386748314 0.0881367549300194 0.0059890272095799 0.1509024649858475 -0.0034406981430948 0.1054509058594704 -0.0002914250944741 0.0457018241286278 0.1292629837989807 0.1084253415465355 0.0799304395914078 -0.2556179165840149 0.1771690100431442 -0.4089477062225342 -0.6793974637985229 -0.0935358926653862 0.1922732442617416 0.1448881179094315 0.1179818809032440
0.0954584479331970 0.1402083188295364 0.0926606878638268 0.0012517379363999 0.0809411630034447 0.1357818841934204 0.0926601067185402 0.4824495911598206 0.0971221551299095 0.5733454227447510 0.1663254797458649 0.1031504049897194 0.1401389837265015 0.1380772292613983 0.1580218225717545 0.0955013483762741 0.0683956891298294 0.0413153953850269 0.1285328567028046 0.0675223544239998 0.2126389890909195 0.0734423622488976 0.1182190179824829 0.1428965777158737 0.1454036980867386 0.1823898404836655 0.1906504482030869 0.0341817252337933 0.1057173609733582 0.1059781610965729 0.0934727042913437 0.1895864456892014 -0.0220341999083757 0.1945198923349380 0.0399450659751892 0.1968315690755844 0.0637650340795517 0.2033498436212540 0.1191219016909599 0.1943595856428146 0.2791685163974762 -0.0155501756817102 0.2015934735536575 -0.0052974512800574 0.1356633603572845 0.1593299955129623 0.1721620410680771 0.1125847026705742 0.1477533280849457 0.2390664964914322 0.0980619043111801 0.0774602219462395 0.1613442897796631 0.0131169594824314 0.2139613628387451 0.2048606574535370 0.0255490690469742 -0.0917119756340981 0.3158373236656189 -0.1555048972368240 0.0494741015136242 -0.2522793710231781 0.1973121017217636 0.3166172206401825
-0.1518200039863586 -0.1871847063302994 -0.1071457490324974 0.0162448566406965 -0.1088593453168869 -0.0250251106917858 -0.2047971189022064 -0.1379733979701996 -0.0207358244806528 -0.0586469173431396 -0.0276356488466263 -0.0979573205113411 -0.0480193309485912 -0.1241129264235497 -0.1328511685132980 -0.2575920224189758 0.0002754609740805 -0.0641783028841019 0.0322348028421402 -0.1961572915315628 -0.1837664544582367 -0.1816179752349854 -0.2408157140016556 -0.3023378849029541 -0.0658921152353287 -0.1333694756031036 -0.1749763786792755 -0.0536390393972397 -0.2588158249855042 -0.1972491443157196 -0.1897797286510468 -0.2860924005508423 -0.1679782718420029 -0.1409115046262741 -0.0530462563037872 -0.2092569470405579 -0.1502079218626022 -0.1745748370885849 -0.2593111097812653 -0.1282201409339905 -0.1324873566627502 -0.2246526032686234 -0.1784137934446335 -0.1691623926162720 -0.1887091249227524 -0.1407970935106277 -0.1071778908371925 -0.2729166448116302 -0.3203289806842804 -0.1568172276020050 -0.1959600746631622 -0.1783089637756348 -0.1651571840047836 -0.1970969438552856 -0.1708448827266693 -0.2455451637506485 -0.4575107991695404 -0.3758903145790100 -0.2707917094230652 -0.3176230192184448 -0.4345727264881134 -0.3370376527309418 -0.2278517931699753 -0.4893249273300171
-0.1575207859277725 -0.2349796891212463 -0.2022925764322281 -0.3001715838909149 -0.4108562171459198 -0.2284377813339233 -0.3102166652679443 -0.4600468873977661 -0.2148407697677612 -0.1783354580402374 -0.1728602498769760 -0.1562396883964539 -0.2243521958589554 -0.3427469432353973 -0.2294133007526398 -0.3377796113491058 -0.2077869176864624 -0.3950026333332062 -0.2432679086923599 -0.2424196153879166 -0.2790836691856384 -0.0974368676543236 -0.2820099592208862 -0.2914009392261505 -0.3110707402229309 -0.2254796773195267 -0.3547872900962830 -0.2023262679576874 -0.1258610635995865 -0.3116083443164825 -0.2333503961563110 -0.1484942138195038 -0.1533332318067551 -0.3245912492275238 -0.2452806532382965 -0.2614876329898834 -0.2909621000289917 -0.2816642522811890 -0.3510478734970093 -0.2978243529796600 -0.0954842641949654 -0.2190500199794769 -0.1415493041276932 -0.2486846894025803 -0.1876502633094788 -0.4162948429584503 -0.4281398057937622 -0.4627693593502045 -0.2079166173934937 -0.1260904520750046 -0.1932323873043060 -0.1717669814825058 -0.2105056047439575 -0.2687013447284698 -0.3740683197975159 -0.4264872074127197 -0.1856353282928467 -0.3100289702415466 -0.1101073995232582 -0.5712938904762268 -0.3768582642078400 -0.3526759445667267 -0.4282721579074860 -0.1758344769477844
0.1048954129219055 0.1708001196384430 0.2147475630044937 0.1460777968168259 0.2077418267726898 0.0363066531717777 0.1082147359848022 -0.0365763008594513 -0.0138406772166491 0.1304925978183746 0.1463382691144943 0.0695560723543167 -0.0150136807933450 0.1532310992479324 -0.0259589254856110 0.2303846031427383 0.0715968683362007 0.0739890635013580 0.1725702881813049 0.0727897509932518 0.1988338083028793 0.0015892531955615 0.2871333956718445 0.0350848883390427 0.0358884371817112 0.1254706531763077 0.0220211595296860 0.0806690678000450 -0.0317103043198586 0.1842299997806549 -0.0631335303187370 0.1884700804948807 0.1574705690145493 0.1162234470248222 0.1600075364112854 0.0628192275762558 0.1256060153245926 0.1386214345693588 0.2094590514898300 0.1051426082849503 0.1413508206605911 0.1100244745612144 0.1016086116433144 0.0890114158391953 0.1124208047986031 0.1052681803703308 0.1391610950231552 0.2702345848083496 0.0265490487217903 0.0978847816586494 0.1006035581231117 0.1071384549140930 0.1249119043350220 0.1581515371799469 0.0884946659207344 0.0150892892852426 0.2429414391517639 0.0679080784320831 -0.0046192468144000 0.3933774828910828 0.1518090367317200 0.0655887797474861 -0.1375660151243210 -0.0099342633038759
-0.2026833891868591 -0.2854239642620087 -0.3161568045616150 -0.3741771876811981 -0.2294536828994751 -0.1896910965442657 -0.3505905866622925 -0.3165869414806366 -0.2776812613010406 -0.2860334515571594 -0.3787473738193512 -0.2857611775398254 -0.2956362068653107 -0.2287513911724091 -0.2279411852359772 -0.2947952449321747 -0.1765201389789581 -0.2841150164604187 -0.2750388085842133 -0.2553234696388245 -0.2014923691749573 -0.2580023109912872 -0.3292230665683746 -0.2183310389518738 -0.2404478043317795 -0.1873542815446854 -0.2106740772724152 -0.3074766099452972 -0.2085880488157272 -0.2931536436080933 -0.1862626075744629 -0.2807270586490631 -0.2826473712921143 -0.2809013128280640 -0.3125934004783630 -0.2312953025102615 -0.2791391611099243 -0.2106010168790817 -0.4170403778553009 -0.1696300804615021 -0.3858706057071686 -0.1879401952028275 -0.3806177079677582 -0.2630519270896912 -0.2762466073036194 -0.3431405723094940 -0.2575359046459198 -0.3397377729415894 -0.1515829712152481 -0.2966366112232208 -0.2045267373323441 -0.3792185783386230 -0.2382849603891373 -0.2260911017656326 -0.2882903814315796 -0.1962179541587830 -0.2229783087968826 -0.1175873801112175 -0.1633993238210678 -0.4467033743858337 -0.4515670835971832 -0.4297097325325012 -0.1931301951408386 -0.3028902113437653
-0.3009526729583740 -0.1793220490217209 -0.2533051669597626 -0.3027063310146332 -0.1710280030965805 -0.3677853941917419 -0.2105934321880341 -0.3230513930320740 -0.4298681914806366 -0.3140574693679810 -0.2325308918952942 -0.2938265800476074 -0.3318297863006592 -0.2582179307937622 -0.2165333628654480 -0.3062299787998199 -0.3151459991931915 -0.4377920627593994 -0.3437280058860779 -0.2331236451864243 -0.2968688905239105 -0.3385241925716400 -0.2633443474769592 -0.3476731181144714 -0.2688761055469513 -0.2946867942810059 -0.2355145514011383 -0.2850576937198639 -0.2900682389736176 -0.3366562426090240 -0.3862320184707642 -0.2553752660751343 -0.2280251830816269 -0.3349427580833435 -0.2709298729896545 -0.1431508362293243 -0.4370426535606384 -0.3076710402965546 -0.2874521017074585 -0.2802640497684479 -0.1732714474201202 -0.3689357042312622 -0.3320662081241608 -0.2302961200475693 -0.3617470264434814 -0.4088100194931030 -0.1448402106761932 -0.3999370634555817 -0.2648991942405701 -0.2287019491195679 -0.2772206366062164 -0.2124069631099701 -0.2847558259963989 -0.2095048278570175 -0.1634683161973953 -0.0626552551984787 0.2628685534000397 -0.3595588207244873 0.0937372818589211 0.4023220837116241 0.2053461223840714 -0.5413072705268860 0.3326505720615387 -0.2362161874771118
0.0023251231759787 0.1476488262414932 -0.0039833281189203 0.0248875841498375 0.0010216820519418 0.0036739201750606 -0.0241199042648077 -0.0412586964666843 0.2038120627403259 -0.0790228396654129 0.1040462404489517 -0.0459113493561745 0.0322191976010799 -0.1175949573516846 0.0436523817479610 0.0352530516684055 -0.0453316494822502 0.1648505777120590 -0.0923350304365158 0.1375743746757507 -0.0754533559083939 0.0443221218883991 -0.0777890384197235 -0.0251835025846958 0.0484199859201908 -0.0129726044833660 0.0637660771608353 0.0545559935271740 -0.0092627136036754 -0.0603565834462643 -0.0063981977291405 -0.0561461076140404 0.0912915170192719 0.0018814549548551 0.0190823953598738 0.0027764039114118 -0.0156220747157931 -0.0056811976246536 -0.1107548549771309 0.0535897985100746 -0.0608651787042618 0.0158024709671736 -0.1081379875540733 -0.0024948115460575 -0.0376110337674618 -0.1071094796061516 0.1214156001806259 -0.0030267038382590 0.1460555344820023 -0.0317028760910034 0.0687133297324181 0.0129367411136627 -0.0026488504372537 0.1412698626518250 0.0257614832371473 0.0783569589257240 -0.5525757670402527 -0.0422356165945530 -0.1223512887954712 -0.2475415468215942 -0.0263668373227119 -0.1993461847305298 0.2018256783485413 0.0314893014729023
0.2552106976509094 0.0781780406832695 0.2345801293849945 0.1329177469015121 0.2028729319572449 0.1279787868261337 0.0733772441744804 0.4060511291027069 0.1603831946849823 0.1319995224475861 0.1214852780103683 0.2212356328964233 0.1042064502835274 0.1458803564310074 0.0475231930613518 0.1639941632747650 0.1882294267416000 0.0334128886461258 -0.0311650447547436 0.0306150633841753 0.0350934825837612 0.0732554122805595 -0.0048353872261941 0.1251994669437408 0.1099500283598900 0.0886281952261925 0.0435810051858425 0.0020769014954567 0.1279076933860779 0.1210800409317017 0.0714078992605209 0.2315959036350250 0.1289426386356354 0.0657995939254761 0.0758280977606773 0.0475596562027931 0.1326952278614044 0.1226132959127426 0.0881485790014267 0.1043974757194519 -0.0984727367758751 0.1896263211965561 0.1329261660575867 -0.0310592129826546 0.1068505123257637 0.0613679885864258 0.0571694411337376 -0.0285510607063770 -0.1178596094250679 0.0806287527084351 0.0352346710860729 0.1074658110737801 0.0291221030056477 0.1186710149049759 -0.0291933994740248 0.0904225558042526 -0.2637345194816589 -0.0661568045616150 -0.0630224421620369 -0.3340866565704346 0.1119636967778206 0.3926657736301422 -0.3431309163570404 -0.0790495425462723
0.1007040515542030 0.0081112748011947 0.0038186132442206 0.0377381108701229 -0.0668347552418709 -0.0538279414176941 0.0006086986977607 0.0261590275913477 0.0584411770105362 0.0668919757008553 0.0375720299780369 -0.0197856295853853 0.0117950923740864 0.0661844387650490 0.0258842557668686 -0.0287431925535202 0.1369907855987549 0.0393896326422691 0.1083699688315392 -0.0270784590393305 0.1212516725063324 -0.0211381334811449 0.0471888184547424 -0.0270491484552622 -0.0937008857727051 0.0564154461026192 -0.0328069366514683 0.0476863048970699 0.0079807229340076 0.0290653612464666 0.0809826180338860 -0.0061887376941741 0.1452413499355316 -0.0613918937742710 0.0777008756995201 -0.0262126922607422 0.0097109274938703 0.1604400277137756 0.0491802617907524 -0.0076921288855374 -0.0294647924602032 0.1653488129377365 0.0127325411885977 0.0182621516287327 0.0598894543945789 -0.0789264217019081 0.1522813290357590 0.1222153156995773 0.1101941391825676 0.1122321039438248 0.0543287955224514 -0.0161349475383759 -0.1515245735645294 -0.0225601475685835 0.0111288363113999 -0.0109535306692123 0.0758319795131683 -0.0972733199596405 0.3006691932678223 -0.3996279835700989 -0.1287446916103363 -0.2063805460929871 0.0019602465908974 0.1741811335086823
-0.2594506144523621 0.0283585079014301 -0.1110166683793068 -0.0992596149444580 -0.0508262887597084 -0.1780776530504227 0.0029595522210002 -0.0751404389739037 -0.0378919802606106 -0.1474530696868896 -0.0348995700478554 -0.1659078449010849 -0.0697989612817764 -0.0425074808299541 -0.0151958335191011 0.1091498732566833 -0.2654312551021576 0.0211807414889336 -0.0448028557002544 -0.0957203209400177 -0.1069271340966225 -0.0108206514269114 -0.0582203082740307 0.0051060128025711 0.0552002452313900 -0.1824096143245697 -0.0458175241947174 -0.0584843717515469 -0.0387249551713467 -0.0382355786859989 -0.0069880294613540 -0.1969372928142548 -0.2810338139533997 -0.0374792478978634 -0.1352462768554688 -0.1180241107940674 -0.0878722518682480 -0.0861591175198555 -0.1292876452207565 -0.0240186005830765 -0.0288036987185478 -0.1716037690639496 -0.0817212685942650 -0.1084127500653267 -0.0859541222453117 -0.0816630944609642 -0.0790383741259575 -0.2256659716367722 0.0106514897197485 -0.0531888380646706 -0.0440540723502636 -0.0630739629268646 -0.2162907570600510 -0.0905880853533745 -0.1028476655483246 -0.1521134674549103 0.0198420770466328 0.0044572115875781 0.1067246124148369 -0.4634455144405365 -0.3726125359535217 -0.3880627751350403 -0.1992186009883881 0.2143605649471283
0.1445968747138977 0.2231647819280624 0.1381682902574539 0.2143261134624481 0.1396143138408661 0.0656603947281837 0.0901650711894035 0.2569293975830078 0.1206301301717758 0.1890665590763092 0.2510970234870911 0.1208878308534622 0.1789814531803131 0.2320600301027298 0.0380613319575787 0.3425379991531372 0.1111702173948288 0.2338301390409470 0.1908658444881439 0.1458619982004166 0.2107619345188141 0.0328780338168144 0.2407418042421341 0.2217773050069809 0.2130576521158218 0.2465283274650574 0.1346503943204880 0.2237184345722198 0.0990487709641457 0.3008392751216888 0.1802288144826889 0.3440738320350647 0.1185065582394600 0.2151221036911011 0.1959394067525864 0.1850817799568176 0.2105982452630997 0.1323209255933762 0.2156814932823181 0.2125080972909927 0.1828737109899521 0.2359450608491898 0.1925313770771027 0.1522996276617050 0.1836994141340256 0.0805615037679672 0.2185309976339340 0.1345289349555969 0.2389141023159027 0.1645509749650955 0.2206315249204636 0.1436666101217270 0.1161408424377441 0.0754592493176460 -0.0180013440549374 0.1791428476572037 0.2849728465080261 0.2440449744462967 0.1876675039529800 0.2574045062065125 0.0297708921134472 -0.0441240407526493 0.4135427474975586 -0.2431427687406540
0.3090609610080719 0.2501589357852936 0.2098668664693832 0.2118057608604431 0.1749389916658401 0.2000874429941177 0.2025770992040634 0.3189974427223206 0.4731220602989197 0.3312952816486359 0.2778961062431335 0.2827781736850739 0.3880156874656677 0.3041936755180359 0.3150879740715027 0.3906189799308777 0.3039155006408691 0.3966310918331146 0.2914399206638336 0.3946808576583862 0.3384848833084106 0.4159222841262817 0.2156209051609039 0.2959158718585968 0.3374618887901306 0.4350949823856354 0.3729858696460724 0.3034265637397766 0.3703132867813110 0.3517714440822601 0.4007443487644196 0.3106984794139862 0.2679034173488617 0.2859770655632019 0.2795695364475250 0.2630252838134766 0.3270045816898346 0.3735589981079102 0.3107168674468994 0.3138148188591003 0.3190532624721527 0.1761542409658432 0.2124472856521606 0.2283247858285904 0.2674114406108856 0.3648958802223206 0.3702404499053955 0.4017892181873322 0.0985442996025085 0.3394189476966858 0.3305338323116302 0.2062951624393463 0.3919850885868073 0.2662307620048523 0.3741421103477478 0.0778115391731262 0.5261556506156921 0.0003996990853921 0.1511211544275284 0.0808392241597176 -0.0872756391763687 0.2113293707370758 0.3275262117385864 0.3003481328487396
0.2598491609096527 0.0067128688097000 0.1184552162885666 0.0135926343500614 -0.0064830579794943 0.0027027551550418 0.0217111650854349 0.1503748297691345 0.0064841373823583 0.1742390692234039 0.1207560822367668 -0.0062714391387999 0.0580914057791233 -0.0147647354751825 0.1055173501372337 -0.0070181931369007 0.1233290135860443 0.1237984821200371 0.1781422048807144 0.1768759936094284 0.0347866937518120 0.1341210901737213 -0.0760729014873505 0.1667074561119080 0.0003100543690380 0.1207763776183128 0.0841709300875664 0.1575367599725723 0.0404536761343479 0.1213161945343018 0.0970505848526955 -0.0128068486228585 0.0524169206619263 0.0489668771624565 0.0101927686482668 0.0775140598416328 0.1149379014968872 0.1170461401343346 0.0321971550583839 0.2066293507814407 -0.0123952794820070 -0.0521815642714500 0.0777248591184616 0.0136913349851966 0.0918755158782005 0.1778843700885773 0.0393763221800327 0.1871549487113953 -0.1268185824155807 0.0416230745613575 -0.0349316522479057 0.0521453060209751 0.0129525661468506 0.0287126377224922 0.0181215014308691 0.2124923020601273 0.0313248410820961 -0.0402320958673954 0.2992008030414581 -0.0692620575428009 -0.0780573859810829 -0.0134949479252100 0.1426880955696106 0.0085055651143193
0.3234045207500458 0.2403319031000137 0.1781392693519592 0.1435797065496445 0.1776052415370941 0.2576363384723663 0.3671663403511047 -0.0251050833612680 0.3487417399883270 0.3408147692680359 0.2021065503358841 0.1605374068021774 0.2049491703510284 0.2679184675216675 0.2013044506311417 0.2150031030178070 0.3119991421699524 0.1518088430166245 0.2093714177608490 0.0815152749419212 0.2001253664493561 0.2428406178951263 0.2240646034479141 0.3056317567825317 0.1453483402729034 0.2500437498092651 0.0802880823612213 0.0572369359433651 0.1694506704807281 0.1511884182691574 0.1932729482650757 0.2935141324996948 0.1690390110015869 0.1849728822708130 0.1458696722984314 0.1437863707542419 0.1581506878137589 0.1304532736539841 0.2135560214519501 0.1964986175298691 0.2397836595773697 0.1451504230499268 0.1988141685724258 0.1260862350463867 0.1968159526586533 0.2573394775390625 0.1768225133419037 0.1805798262357712 0.2295905053615570 0.2914794087409973 0.2272490411996841 0.1304537206888199 0.3092311024665833 0.2940720021724701 0.4010927677154541 0.1180362701416016 0.1730620563030243 0.2381443828344345 0.1133588626980782 -0.1403248012065887 0.0618935599923134 0.4250162839889526 0.5463416576385498 0.3407375216484070
0.0028739327099174 -0.0675122588872910 0.0580103136599064 0.0363147519528866 -0.0145495282486081 0.1289864182472229 -0.1550686955451965 0.0051645529456437 -0.0540296174585819 0.0785824209451675 -0.0519837364554405 0.0438391491770744 0.0821295380592346 0.0118705034255981 0.0991768091917038 -0.0776571631431580 0.0293634776026011 -0.1031493544578552 0.0691826716065407 -0.1497464030981064 -0.0020670131780207 0.0320043563842773 0.0345586687326431 -0.0056770555675030 -0.0430196374654770 -0.0135990716516972 -0.1077156141400337 0.0746753141283989 -0.0398646816611290 0.0257717706263065 0.0883090868592262 0.0041899424977601 -0.0125479577109218 -0.1200344488024712 -0.0272268354892731 -0.0449530929327011 0.0448331758379936 -0.0048416978679597 0.0220526978373528 0.0891326740384102 -0.0214008670300245 0.0329003669321537 0.0073756081983447 0.0434021204710007 -0.0158727932721376 -0.0367748104035854 0.1293732821941376 -0.1927674710750580 -0.0016519953496754 0.0123887816444039 -0.0184639506042004 0.0377653613686562 -0.0151069983839989 0.0702297464013100 0.0268746037036180 -0.1178762018680573 0.0391790382564068 -0.1934176385402679 -0.0787574574351311 -0.4046379923820496 0.1497794389724731 -0.1696485877037048 -0.1805125623941422 0.0418790280818939
0.2064609974622726 0.0636728256940842 0.1409593820571899 0.0545532666146755 0.0724821314215660 0.2552340626716614 0.0639489740133286 0.3362430036067963 0.0955050364136696 0.1494784504175186 0.1851014047861099 0.0554086640477180 0.2117155641317368 0.1146110594272614 0.1467467099428177 0.1657732576131821 0.1329320669174194 0.1674406528472900 0.1382708698511124 0.2668298780918121 0.1642457842826843 0.1098557561635971 0.2147709578275681 -0.0077968393452466 0.1184530630707741 0.1066734418272972 0.2079795002937317 0.0596728175878525 0.1195313259959221 0.2960599064826965 0.0365076214075089 0.1470182240009308 0.1052335724234581 0.1197736188769341 0.1839729249477386 0.1168425902724266 0.0988683924078941 0.1506186127662659 0.2684107720851898 0.0866887122392654 0.0968245342373848 0.1879990249872208 0.1402500718832016 0.1437895894050598 0.1079867780208588 0.1090346127748489 0.2306737750768661 0.1493880599737167 0.0504987910389900 0.1130464822053909 0.2073010951280594 -0.0193454902619123 0.0810645520687103 0.1521497070789337 0.0796332359313965 0.3493476212024689 0.5285863876342773 0.0950474292039871 0.1132784038782120 0.4787377715110779 -0.1982261836528778 -0.0587150640785694 0.3887561857700348 0.1723213344812393
0.0955200716853142 0.0926285684108734 0.0106690796092153 0.1018237695097923 0.2389382719993591 0.0806282535195351 0.2066971212625504 0.2189630717039108 0.0640001296997070 0.1103089302778244 0.1536261737346649 0.1555996686220169 0.0396138802170753 0.0796324685215950 0.1268855780363083 -0.0836904197931290 0.1051978766918182 0.1135254949331284 0.0534252002835274 0.0724648386240005 0.0813970044255257 -0.0414036475121975 -0.0850403010845184 0.2795645594596863 -0.0245626326650381 0.0574201308190823 0.0585562810301781 0.0928392559289932 0.0748079046607018 -0.0022360722068697 0.1788161695003510 0.0627018883824348 0.0450753271579742 0.0638252273201942 0.0401624180376530 0.0123566081747413 0.0217505265027285 0.1119218766689301 0.1384175121784210 0.2334833145141602 0.1190905272960663 0.0900593101978302 0.0518815480172634 0.0020613004453480 0.1264017969369888 0.0274898614734411 0.0331811308860779 0.2644364535808563 0.0491882972419262 0.1177942678332329 0.0267992857843637 0.1074540913105011 0.0701997801661491 0.0968919172883034 0.1787087172269821 -0.0059615676291287 -0.0031226587016135 0.3380067050457001 0.1695371419191360 -0.1087234169244766 0.5939167141914368 -0.0763013213872910 0.3232694864273071 0.2491505146026611
0.1379218548536301 0.1197078526020050 -0.0561312735080719 0.0555904135107994 -0.0474900230765343 0.1392262876033783 -0.3069768249988556 0.0290091056376696 0.0601962283253670 0.0370883420109749 0.0612513944506645 0.0648543089628220 0.0812816843390465 -0.0002164901816286 0.1086534410715103 -0.1605775505304337 0.1171605885028839 0.0379821397364140 0.0642454698681831 0.0233301632106304 0.0963562279939651 0.0695027112960815 -0.1299797296524048 0.0946310907602310 0.0703597292304039 0.0651323199272156 0.0874876454472542 0.1234832555055618 0.0908549875020981 0.0219376403838396 0.1675879508256912 0.0022512937430292 0.0442136488854885 0.0403346642851830 0.1060852557420731 0.0395995527505875 0.1331694126129150 0.0402843952178955 0.0228653457015753 0.0385474301874638 0.0513597503304482 0.1080772951245308 0.0633304119110107 0.1864493936300278 0.0823526158928871 -0.0190582424402237 0.1581867933273315 -0.1412969678640366 0.0280479565262794 0.0837985873222351 0.1119299307465553 0.0609331801533699 0.0384117923676968 0.1510554999113083 -0.0000361466445611 0.1428241580724716 0.1497437208890915 -0.0573928877711296 0.0610560178756714 0.0831684991717339 0.3934924006462097 -0.1660453975200653 0.0988846868276596 -0.0746492668986320
-0.0504312962293625 -0.0476035177707672 -0.0111035993322730 -0.0601312816143036 0.0198662243783474 0.0813483744859695 0.0821975022554398 -0.0578995570540428 0.1544536203145981 -0.0172355137765408 -0.0506144650280476 -0.0049266782589257 -0.0229214709252119 -0.0505114011466503 0.0005133242812008 -0.0597667768597603 0.0808741748332977 0.0939939841628075 0.0134294349700212 0.0340295657515526 -0.0650889500975609 -0.0460760369896889 0.0531157143414021 -0.1760845035314560 0.1349820792675018 0.0669809356331825 0.0656734257936478 -0.0513610094785690 0.0664023682475090 -0.0639373213052750 0.0061177606694400 -0.0399692468345165 0.1097114756703377 0.0756015330553055 0.0861803814768791 0.0390739105641842 -0.0471182465553284 0.0618916414678097 -0.0609061717987061 0.0134856924414635 0.0821786671876907 0.0154038332402706 0.1152899339795113 -0.0201921015977859 -0.0122682182118297 0.0047147730365396 0.0743734389543533 0.0262875687330961 -0.0320731736719608 0.1639180183410645 -0.0671357885003090 0.1221390813589096 -0.0351269096136093 0.0049791308119893 -0.0094189681112766 0.1407611966133118 0.1840410232543945 -0.1747660338878632 0.1385125368833542 -0.2275429368019104 -0.1507751792669296 0.0908979102969170 -0.0814740359783173 0.1944427341222763
-0.0268758609890938 -0.0955890715122223 0.0976515784859657 0.0430038534104824 0.1608533412218094 -0.1252062171697617 -0.0583215989172459 0.2193229198455811 0.0842837616801262 0.0288071595132351 0.0581007003784180 0.0068462593480945 0.0015054723480716 0.0586572475731373 0.1699261218309402 0.1394498348236084 0.1105317398905754 0.0727145448327065 0.0379923917353153 -0.0586366839706898 0.1289703249931335 -0.0681784898042679 0.2730273008346558 0.1016541048884392 0.0921268090605736 0.1093159541487694 0.0930884853005409 0.0373012423515320 -0.0030594703275710 0.0882224962115288 0.0536612980067730 0.1492140740156174 0.0926945731043816 0.1204528883099556 0.0332701094448566 -0.0452591963112354 0.0966325998306274 -0.0055218483321369 0.0284724868834019 0.1030889153480530 0.0078967763110995 -0.0345030650496483 0.0170754119753838 -0.0715018510818481 -0.0046991296112537 0.0463282838463783 0.0145746087655425 0.1240805238485336 0.0119516626000404 0.0375973619520664 0.0294429492205381 0.0454888790845871 -0.0072701820172369 -0.0118864774703979 -0.0458827912807465 0.4746734499931335 0.0828742831945419 -0.0394954606890678 0.0641102865338326 0.1531673371791840 -0.0039121005684137 -0.1068626418709755 0.2447471171617508 0.4239308834075928
-0.0788744762539864 -0.1225369647145271 0.0507785789668560 -0.2209043353796005 -0.0524593889713287 -0.0927852168679237 -0.1662029772996902 -0.1218735873699188 -0.0431669726967812 -0.0617812611162663 -0.1712446063756943 -0.0990872457623482 -0.1117720827460289 -0.2301397919654846 0.0323626026511192 -0.2136742919683456 -0.0837236195802689 -0.0863005742430687 -0.0841749459505081 -0.2117503434419632 -0.2112426906824112 -0.0753509625792503 -0.1772151291370392 -0.1453682929277420 0.0375723578035831 -0.1055714935064316 -0.1951631307601929 -0.1329085826873779 -0.1082426533102989 -0.0944584831595421 -0.1072777956724167 -0.1349559128284454 -0.0748772025108337 -0.0806845277547836 -0.0648915171623230 0.0139556806534529 -0.0513850860297680 -0.0839670971035957 -0.1036083474755287 -0.2474107444286346 0.0438073091208935 -0.0699725225567818 -0.0478459298610687 -0.0915656238794327 0.0223381854593754 0.0464422516524792 -0.1083961799740791 -0.1743827164173126 -0.0926232114434242 -0.1177902072668076 -0.1057549417018890 -0.0235295798629522 0.0597240738570690 -0.1007267162203789 -0.0219326857477427 -0.1814056336879730 0.2002111524343491 -0.2679141759872437 -0.2815466225147247 -0.1512544602155685 0.0400899052619934 0.2126533687114716 -0.0857211947441101 0.1351878046989441
-0.1074811071157455 -0.0525802746415138 -0.0927477255463600 0.0427529774606228 -0.0132407583296299 -0.0208985544741154 -0.1438656449317932 -0.1280729621648788 0.0300308689475060 -0.1763089746236801 -0.0116222938522696 -0.0617661736905575 0.0591794662177563 -0.0572256930172443 -0.1305241137742996 -0.1843881607055664 -0.1053200438618660 -0.1097761839628220 -0.1407495588064194 0.0674171522259712 -0.0287665985524654 -0.0637104734778404 -0.0620089285075665 -0.0747547447681427 -0.1092378124594688 -0.0975895524024963 -0.0318358279764652 -0.0757104903459549 -0.0060541150160134 -0.1964356601238251 -0.0939983725547791 -0.1398160904645920 -0.0697839111089706 -0.0721997395157814 -0.0866475105285645 -0.0464877523481846 -0.1133700236678123 -0.1082274541258812 -0.1701064556837082 -0.0330074280500412 -0.0565893352031708 -0.0848839208483696 0.0266692787408829 -0.0706462860107422 -0.2397842556238174 -0.2834608554840088 -0.0094318203628063 -0.0466157831251621 -0.0198828019201756 0.0304710045456886 -0.0880502089858055 -0.0572075881063938 -0.0929599627852440 -0.0240070074796677 -0.1006497293710709 -0.0075309625826776 -0.2018702626228333 -0.3085534274578094 -0.1049668639898300 0.0383117571473122 -0.2965169250965118 0.0151468012481928 -0.1701719909906387 0.2093749791383743
0.0222599152475595 0.1563358753919601 0.1325766295194626 0.0761128067970276 0.0551998279988766 0.0054539446718991 0.0849126204848289 -0.2059864997863770 -0.0204754211008549 0.1402323842048645 0.1692241281270981 0.0484043993055820 0.0048516476526856 0.0112942242994905 -0.0114709120243788 -0.0473291277885437 0.0158680547028780 -0.0218098536133766 0.0852256119251251 -0.0141638014465570 -0.1049553975462914 -0.0043567675165832 0.0365139581263065 -0.1033857017755508 0.0231693740934134 0.0605159439146519 -0.0623057000339031 0.0543901100754738 -0.0829942002892494 0.1207093894481659 -0.0782286301255226 0.1657370179891586 0.0383596420288086 -0.0682364478707314 0.0539247058331966 -0.1105045154690742 0.0949184969067574 -0.0586724020540714 0.0774947926402092 -0.0643332526087761 -0.0394835211336613 0.0315827317535877 -0.1217550113797188 -0.0076492293737829 -0.0462002716958523 0.0340944416821003 -0.0448468178510666 0.0216960832476616 0.0692175701260567 -0.0168742779642344 0.0765599384903908 0.0160563569515944 0.0821882411837578 0.0285631939768791 0.1586084663867950 -0.0883795917034149 -0.3553240299224854 0.2486978769302368 0.0411430634558201 -0.2696105539798737 -0.2958759367465973 -0.0264075361192226 0.2079761773347855 -0.2183208763599396
0.2865778505802155 0.0190982222557068 0.0485776662826538 0.1718865931034088 0.0715695023536682 0.1350565105676651 0.0882806330919266 0.0710855796933174 0.0445555709302425 0.1460361629724503 0.0270366799086332 0.1015519425272942 0.0869425013661385 0.0943419709801674 0.1639475375413895 0.2176853418350220 0.1322616785764694 0.1034731790423393 0.1239267736673355 0.1066760942339897 0.1332045346498489 0.0972483828663826 0.1962684541940689 0.1608318835496902 0.0816343575716019 0.1136914491653442 0.1369219273328781 0.2111876010894775 0.2116258889436722 0.2300630956888199 0.1506410390138626 0.1817554980516434 0.0888349413871765 0.1236250028014183 0.0892361402511597 0.1558510959148407 0.1403065919876099 0.2627075612545013 0.1622067093849182 0.1251754760742188 0.1764394193887711 0.0923260077834129 0.1028371527791023 0.2218848615884781 0.2054496258497238 0.1931463479995728 0.4008130431175232 0.0264071840792894 0.1678615510463715 0.1628730446100235 0.1975034475326538 0.1565995514392853 0.2513968944549561 0.3159174621105194 0.1496748477220535 0.1747700273990631 0.4862221777439117 0.0009268790017813 0.1200005635619164 0.6931835412979126 0.1572154909372330 0.4175340831279755 0.2811130583286285 -0.1548459529876709
0.1133188307285309 -0.0847660377621651 0.0312908031046391 -0.0409199893474579 -0.1065192148089409 -0.1309904903173447 -0.1093290671706200 0.1162302568554878 -0.1949779391288757 0.0280387829989195 -0.0974096730351448 -0.1082884892821312 -0.0571049898862839 -0.1374197900295258 -0.0618756227195263 -0.0350448079407215 0.0065750293433666 -0.1157774478197098 -0.0514056459069252 -0.0204616822302341 -0.0647529140114784 -0.0328587517142296 -0.1107481271028519 -0.0476479344069958 -0.0592014901340008 -0.0842357128858566 -0.0073688845150173 -0.1334901005029678 -0.0629901885986328 -0.0963731557130814 -0.0130790024995804 -0.3059892356395721 -0.0994384810328484 -0.0133838364854455 -0.1832498311996460 -0.0335998684167862 -0.1001174300909042 -0.0229146331548691 -0.1970580667257309 -0.1151028200984001 0.0198347233235836 -0.0225504226982594 0.0297560375183821 -0.1576965749263763 -0.0053817057050765 -0.1386198699474335 -0.0184276960790157 -0.0609331950545311 -0.1527389287948608 -0.0145020708441734 -0.1169762611389160 -0.1314366757869720 -0.1443505585193634 -0.0351482592523098 -0.1598217487335205 -0.0992044061422348 -0.2079495191574097 0.2107490748167038 -0.0585730895400047 -0.3655047118663788 0.1594609022140503 -0.2570828199386597 -0.0044403788633645 0.1848732084035873
0.0968208611011505 0.1132544875144958 0.0582085698843002 0.1258776634931564 0.0077637885697186 -0.0733526349067688 0.0541715994477272 0.2397257834672928 0.1595028787851334 0.1160087287425995 0.1701374799013138 0.0949095413088799 0.0878366678953171 -0.0465482473373413 0.0189078859984875 0.0137246064841747 0.0941016897559166 0.1784126758575439 0.1061903983354568 0.3175425231456757 0.0164330601692200 0.1663881242275238 -0.1018547490239143 0.0916206985712051 0.2078911215066910 0.0865988060832024 0.2247485071420670 0.1253482103347778 0.1093003451824188 0.0293806083500385 -0.0695584192872047 0.0633525103330612 0.0816014930605888 0.2212695479393005 0.2388061434030533 0.2730663418769836 0.1145010963082314 0.0735617280006409 0.1330232322216034 -0.0574934110045433 0.1706479042768478 0.2087209969758987 0.1936032325029373 0.2610830068588257 0.1807138621807098 0.1067411974072456 0.1427804529666901 0.0907095745205879 0.1476924866437912 0.1203966736793518 0.2704152166843414 0.1629137098789215 0.2199574857950211 0.1624370366334915 0.1425961107015610 -0.0820702910423279 0.1061803176999092 0.3309215903282166 0.2329143285751343 0.6757571101188660 0.0111780920997262 0.2002509981393814 0.1574466973543167 0.2971479594707489
0.0205869358032942 -0.1450935006141663 0.0172931849956512 -0.1017386987805367 -0.0199996139854193 -0.1892030239105225 -0.1349592208862305 -0.1474233120679855 0.0230229962617159 -0.0552083253860474 -0.1456873863935471 -0.0143262036144733 -0.1911335736513138 -0.0443093553185463 -0.2561322450637817 -0.1884491443634033 -0.1171510666608810 -0.0603217855095863 -0.1600304394960403 -0.1438249051570892 -0.1015171110630035 -0.1623262763023376 -0.1089453399181366 -0.0600698702037334 -0.1140022426843643 -0.1567599028348923 -0.1059298813343048 -0.1911744773387909 -0.0952658057212830 -0.0360345728695393 -0.1620490998029709 0.0260970368981361 -0.1427109092473984 -0.1439038515090942 -0.1645023226737976 -0.0097881499677896 -0.0775154680013657 -0.1246770173311234 -0.0061182295903563 -0.1326171308755875 -0.1851934641599655 -0.0563933923840523 -0.0715206637978554 -0.1333926916122437 -0.0005995121318847 0.0531397946178913 -0.1253667622804642 -0.1278311014175415 -0.0602203719317913 -0.1054687350988388 -0.0826326087117195 -0.1287860423326492 -0.0781125277280807 -0.0891366377472878 0.0064310310408473 -0.2369890958070755 0.0123272035270929 -0.1023440584540367 -0.1651163101196289 -0.2355924546718597 -0.2120065540075302 0.0712234303355217 -0.3135473728179932 0.2731015980243683
0.0442187711596489 -0.0481897220015526 0.0135653847828507 -0.0117937782779336 -0.0153084406629205 -0.0693419501185417 -0.0615563690662384 -0.1735728830099106 -0.0172898545861244 -0.0722253546118736 -0.0132754510268569 -0.0019592358730733 -0.0366525836288929 -0.0947379693388939 -0.2218694835901260 0.1316999495029449 -0.0401414856314659 0.0199008733034134 -0.0169389564543962 -0.0226758718490601 -0.0523886643350124 -0.0582226552069187 -0.0615487731993198 -0.0886604115366936 -0.0265999417752028 -0.1532300710678101 0.0383790582418442 -0.0055112354457378 0.0093258898705244 -0.0782423540949821 -0.1258202493190765 -0.0536599867045879 -0.0610919818282127 -0.1428801417350769 -0.0518359430134296 0.0448608435690403 -0.0454986840486526 -0.0508354604244232 -0.0706573352217674 -0.1008090898394585 -0.1512338966131210 -0.0774111524224281 -0.0596133284270763 -0.0735429078340530 0.0134192788973451 -0.0744554847478867 -0.0583439655601978 -0.1885566711425781 -0.0655912980437279 -0.0837893411517143 -0.0807331725955009 0.0170865897089243 -0.0061165438964963 0.0455950610339642 -0.0176642742007971 0.0400600247085094 -0.4474400877952576 0.0227085947990417 -0.1904944032430649 0.4383878707885742 0.2294582575559616 0.0554759651422501 0.3858967721462250 -0.3563704788684845
0.3234192430973053 0.1825723946094513 0.2615722715854645 0.1381497830152512 0.1568364799022675 0.1829504072666168 0.3367865383625031 0.0706957951188087 0.2698530852794647 0.2174672782421112 0.2042383104562759 0.2691152095794678 0.0751598700881004 0.2143125981092453 0.0010893912985921 0.0737074092030525 0.1554339826107025 0.0633760914206505 0.0724992230534554 0.2475123256444931 0.1710863262414932 0.0733112841844559 0.0945660173892975 0.0519123002886772 0.0618026889860630 0.0300957802683115 0.0638632923364639 0.1675320118665695 0.2098714560270309 0.1322619169950485 0.0210748538374901 0.0560444258153439 0.0262376014143229 -0.0273066330701113 0.0265494920313358 0.0309736095368862 0.1216626167297363 0.0914866477251053 0.0491625331342220 0.0956728532910347 0.1528624594211578 0.1678674072027206 0.2137657999992371 0.0273805614560843 0.1113976165652275 0.1322305947542191 0.0738945230841637 -0.0160064809024334 0.0384817272424698 0.3541148602962494 0.1242802813649178 0.3544214665889740 0.1145120486617088 0.1509201526641846 0.0778618305921555 -0.0857902318239212 0.1802819371223450 -0.0237004049122334 0.3190622627735138 -0.3935768306255341 -0.0168286357074976 0.0430360138416290 0.0434857085347176 0.0521703548729420
-0.0671340003609657 -0.0303889177739620 -0.1464347392320633 0.0096043711528182 -0.1421802639961243 -0.0605750940740108 -0.1650217175483704 -0.0690149143338203 -0.0460232757031918 -0.0408929958939552 0.0632840916514397 -0.1136546954512596 -0.1001815274357796 -0.0934672504663467 -0.0106461625546217 -0.0670338198542595 0.1237734034657478 0.1016614735126495 -0.0432783588767052 0.0639109611511230 -0.0616348870098591 -0.0977417379617691 -0.0132113341242075 -0.0453009307384491 0.0122122410684824 0.0806652456521988 0.0541119799017906 0.0210928283631802 0.0004942761734128 -0.0342506170272827 -0.0460200086236000 0.0820360407233238 0.1137341782450676 -0.0298960190266371 -0.0991618707776070 0.0253965798765421 -0.1396056413650513 -0.0668523535132408 0.0014051207108423 0.0394552089273930 0.0567922554910183 -0.0875216200947762 -0.0475237444043159 -0.0579739771783352 0.0040254294872284 0.0185660477727652 0.1124954000115395 0.0558225475251675 -0.0104527575895190 0.0450144223868847 -0.0279291179031134 0.0848645269870758 0.0283589940518141 0.0889563858509064 0.0520748943090439 0.2541779577732086 0.0448193214833736 -0.0175778176635504 0.0266596749424934 0.1769110709428787 0.2045712620019913 0.2520318031311035 0.2709583342075348 -0.1567552238702774
-0.0191595964133739 -0.1411698162555695 -0.0552193671464920 -0.0113857733085752 -0.0067501487210393 -0.1358300596475601 -0.0359341204166412 -0.2883163988590240 -0.0717419087886810 -0.1424912512302399 -0.0392706766724586 -0.0861503854393959 -0.0884255021810532 0.0018997619627044 -0.1836714744567871 -0.2398781180381775 0.0625204965472221 0.0004921808722429 -0.0544418022036552 0.0346404947340488 0.0364128313958645 -0.0998055413365364 -0.0971170812845230 -0.1780475378036499 -0.0890452936291695 -0.0265534333884716 -0.1298397332429886 0.0650613605976105 -0.1285435557365417 0.0664610415697098 -0.0644779801368713 -0.0956767350435257 0.1847880184650421 -0.1907175630331039 -0.0975907221436501 -0.0244442280381918 0.0486411303281784 -0.1377094537019730 -0.0650792568922043 -0.1183629781007767 0.1264593601226807 -0.1050043925642967 -0.0995529666543007 0.0716336593031883 -0.0795576944947243 -0.1405819505453110 -0.0618340894579887 0.0625321939587593 0.1447282433509827 0.0794805437326431 -0.0452240146696568 0.0492010600864887 -0.0083090988919139 -0.0538882352411747 -0.1031731367111206 -0.0788989961147308 0.7466033697128296 -0.2938733696937561 0.1019643768668175 -0.1546850502490997 -0.0252653006464243 -0.1427505165338516 -0.0046518612653017 0.1299129128456116
0.0673192664980888 0.0562392212450504 -0.0030591276008636 0.0408200174570084 0.0901454389095306 0.0130027513951063 0.1495247781276703 -0.3587886393070221 0.1765394061803818 -0.0244853980839252 0.0256242901086807 0.0270827021449804 0.0400729216635227 -0.0472632274031639 -0.0632234066724777 -0.0286885257810354 0.0738497078418732 0.2087184935808182 0.0208376981317997 -0.0153179233893752 0.1207158267498016 0.0249125137925148 0.0192322060465813 -0.0116910859942436 0.2540110349655151 0.1539256721735001 0.1137582510709763 0.0444171167910099 0.0820928215980530 0.0330705232918262 0.0341631956398487 0.1483229398727417 0.1962316483259201 0.1112645640969276 0.1573853045701981 0.1217799782752991 0.0641323328018188 0.0976075008511543 0.0896208733320236 0.0993968099355698 0.1099582016468048 0.1541474610567093 0.0803215429186821 -0.0313204228878021 0.0887822136282921 -0.0211580768227577 0.0879040881991386 0.1937474310398102 0.1420727074146271 0.0947467461228371 0.0818080306053162 0.0700964257121086 0.0892849490046501 0.1097149476408958 0.0312609896063805 0.0430655926465988 0.1212990880012512 0.2338072657585144 -0.1357445120811462 -0.0550222881138325 0.3755637109279633 0.1273122876882553 -0.0067238509654999 0.3068593442440033
-0.4349083006381989 -0.2692365944385529 -0.3995683789253235 -0.1626836210489273 -0.1929392218589783 -0.4317585229873657 -0.1399336904287338 -0.3985137045383453 -0.3515975475311279 -0.2843085825443268 -0.2599054574966431 -0.2520091235637665 -0.2458982169628143 -0.1723164767026901 -0.5007313489913940 -0.1700651347637177 -0.1801827400922775 -0.3603454232215881 -0.2871099412441254 -0.1924900412559509 -0.2798567712306976 -0.4380129873752594 -0.2354935109615326 -0.3392253518104553 -0.3096018433570862 -0.2291160374879837 -0.2454937845468521 -0.2960862219333649 -0.1750246584415436 -0.2559689283370972 -0.2879217565059662 -0.2072052061557770 -0.2624664902687073 -0.2256988584995270 -0.2339551746845245 -0.2741751968860626 -0.2773241102695465 -0.2022260278463364 -0.2686161696910858 -0.1820989996194839 -0.3436137139797211 -0.2765229046344757 -0.2312636524438858 -0.2921285629272461 -0.2473457455635071 -0.2973380684852600 -0.2410919219255447 -0.2458497881889343 -0.3283903002738953 -0.1858020871877670 -0.3668530583381653 -0.3408973515033722 -0.3056129217147827 -0.3554088771343231 -0.2517392933368683 -0.1862382441759109 -0.5940979719161987 -0.4116060435771942 0.0347620658576488 -0.0342986211180687 -0.4051378965377808 -0.3068525493144989 -0.3633655607700348 -0.0405292548239231
-0.2238964736461639 0.0997503027319908 -0.0010136769851670 0.1113597080111504 0.0983962118625641 0.1124912798404694 0.1353160887956619 0.1235291585326195 0.0188137423247099 0.1095728725194931 0.1695607453584671 0.1610345691442490 0.1892168521881104 0.1770683676004410 0.1679207384586334 -0.0019706578459591 -0.0070928190834820 -0.0456618070602417 0.1466175913810730 0.0880708694458008 0.1581640094518661 0.1582699716091156 0.0522267185151577 0.1387656480073929 0.1054574251174927 0.0004091814917047 0.1373579949140549 0.1889462769031525 -0.0502937994897366 0.0459252633154392 0.1533592343330383 0.1495295614004135 -0.0255537014454603 0.1812972277402878 0.2272154390811920 0.2037567496299744 0.1326300352811813 0.1119829937815666 0.1225719302892685 0.1163481920957565 0.2180495560169220 -0.0617776066064835 0.0525275021791458 0.1337947398424149 0.0686215683817863 0.0387317761778831 0.0160057656466961 0.2698105275630951 0.0506656840443611 0.0916336104273796 0.0891325995326042 0.1448362469673157 -0.0333572067320347 0.0595538280904293 0.3808638453483582 0.2143394201993942 0.6594478487968445 -0.0793655589222908 -0.0015558997401968 0.2850187420845032 0.1038792803883553 0.0066405516117811 0.4101501703262329 0.3643689751625061
0.1611937731504440 0.1178775280714035 0.4983684718608856 0.1726180016994476 0.1342486888170242 0.2543993592262268 0.0745123997330666 -0.0619913265109062 0.1488031744956970 0.3677045702934265 0.0700514167547226 0.2633762657642365 0.2727581262588501 0.2589225471019745 0.1817512512207031 0.2222871035337448 0.2158651947975159 0.1322598606348038 0.1625310033559799 0.1435446888208389 0.0853061825037003 0.2037213742733002 0.1221990212798119 0.0125802615657449 0.3286265432834625 0.1635607033967972 0.3072775006294250 0.2171429246664047 0.3004541695117950 0.3026162683963776 0.2795182466506958 0.4124914407730103 -0.0331295318901539 0.1847559213638306 0.0483508743345737 0.1737710088491440 0.1859076172113419 0.2116045504808426 0.1113346889615059 0.1934403181076050 0.3000063598155975 0.0765440464019775 0.1600953638553619 0.2066504359245300 0.1990501582622528 0.2241781055927277 0.1938707083463669 0.2026200294494629 0.0453672260046005 0.1908275336027145 0.2052035927772522 0.1240018531680107 0.2021332234144211 0.1700029075145721 0.2953343689441681 0.0393508784472942 -0.0775435566902161 -0.0751757323741913 -0.3249325156211853 -0.5569741725921631 -0.1298463642597198 0.1998143494129181 -0.0743233859539032 0.0900395810604095
0.0597994662821293 -0.0800593793392181 -0.0749830678105354 -0.0748879313468933 0.0235564354807138 -0.1064671501517296 0.0586538687348366 -0.0575206577777863 0.0369409583508968 0.0068519031628966 -0.0563422515988350 -0.1338306516408920 0.1209008246660233 0.0721394866704941 0.0090351747348905 -0.0668174251914024 0.0910196751356125 -0.0568654164671898 -0.0627719759941101 0.0186326075345278 0.0284900441765785 0.0243043117225170 0.0448008030653000 -0.1277264207601547 -0.0582427904009819 -0.0194229297339916 -0.0382932648062706 -0.0649230256676674 0.0194251704961061 0.0228792075067759 -0.0486387684941292 -0.0370137989521027 0.0017596846446395 -0.0502152293920517 -0.1605937033891678 -0.1391158252954483 -0.0714943110942841 -0.0089678643271327 0.0122751640155911 -0.1057060435414314 -0.0699310228228569 -0.0438094921410084 -0.1206563562154770 -0.1247276440262794 -0.0358539074659348 -0.0530834384262562 -0.0681602731347084 0.0122517989948392 0.0355974026024342 0.0034038962330669 0.0640360042452812 -0.0990479812026024 -0.0492099896073341 -0.0668944492936134 0.0422511175274849 -0.0045043877325952 -0.0098511436954141 0.4199651479721069 0.0371739566326141 -0.2464333772659302 0.0252108331769705 -0.1071478649973869 0.0422451682388783 -0.0398729406297207
0.0823920220136642 0.1395158469676971 0.0864052623510361 0.1225263848900795 -0.0120929637923837 0.1358212530612946 -0.0466362982988358 0.1764240413904190 0.0953754931688309 0.0232319626957178 0.0988907143473625 0.0690135136246681 0.0573469735682011 0.0675754249095917 0.1200421005487442 0.0996325835585594 0.1246783137321472 0.1283719241619110 0.1119782999157906 0.0989717245101929 0.0945628434419632 0.0673257932066917 0.0209409669041634 0.2495236545801163 0.1540353298187256 0.0303648151457310 0.1459000706672668 0.0861661583185196 0.0347975343465805 0.1670029908418655 0.1050638332962990 0.1473079621791840 -0.0465465635061264 0.0652909725904465 -0.0060865096747875 -0.0467160008847713 0.1729049831628799 0.0033501042053103 0.1395855098962784 0.0924651399254799 0.0905244126915932 -0.0132861342281103 0.1333852112293243 -0.0346260592341423 -0.0546071045100689 0.1641772687435150 0.1117619350552559 0.0146078970283270 0.0325371325016022 0.1350342482328415 0.0029989583417773 0.0525676012039185 0.0843376964330673 0.1024455577135086 0.1811002045869827 0.0267836656421423 0.0001881210773718 0.2119966000318527 0.1086593642830849 0.0492210313677788 0.1376541107892990 0.1456854045391083 0.6420953273773193 -0.0333652123808861
0.0030405533034354 0.1420283615589142 0.0794974341988564 0.0603937543928623 -0.0582019723951817 0.0601793602108955 -0.0881144255399704 0.0216220859438181 0.0821324214339256 -0.0519341081380844 0.0090503329411149 -0.1168005093932152 -0.0693835243582726 -0.0693683549761772 -0.0458789691329002 0.1126540973782539 0.1276052594184875 0.0515327490866184 0.0576401837170124 0.1266120523214340 0.0385488569736481 0.1120994091033936 0.1221819967031479 0.1192943379282951 0.0118585834279656 0.0927295461297035 -0.0969302058219910 -0.0487464144825935 0.0383690483868122 -0.0097507145255804 0.0438485629856586 0.0563972368836403 0.1576345562934875 0.0004478150221985 0.0976848825812340 0.0186049249023199 0.0249474104493856 0.0729986354708672 0.0284357722848654 0.1455032229423523 0.0179599374532700 0.1826445460319519 0.0576390884816647 0.0891523659229279 0.0471341386437416 0.1567962914705276 0.1281483918428421 -0.1569020748138428 0.0843407213687897 -0.0026784597430378 0.0794365853071213 -0.0096381567418575 0.1569314301013947 0.0161346290260553 0.0756220296025276 0.1579231619834900 0.0662109479308128 0.1780880391597748 -0.0891973227262497 0.7258903980255127 0.1778842955827713 0.4726065993309021 0.0219907462596893 0.1816787868738174
-0.1971808224916458 -0.2243596464395523 -0.2636216878890991 -0.0841681212186813 -0.1742714792490005 0.0264788940548897 -0.2161262631416321 0.0602328591048717 -0.2621484696865082 -0.2878793776035309 -0.2526829838752747 -0.2912922203540802 -0.1182776615023613 -0.2643619477748871 0.0129177859053016 -0.0675303786993027 -0.0738680139183998 -0.1471109986305237 -0.2461530566215515 -0.1661601513624191 -0.1453064978122711 -0.1248770877718925 0.0081840520724654 0.0366276353597641 -0.1904230713844299 -0.0640284940600395 -0.1189500838518143 -0.1099583879113197 -0.0818596407771111 -0.1390073299407959 -0.1877328008413315 -0.0595448762178421 -0.3053256273269653 -0.1827368736267090 -0.1169113516807556 -0.1277649104595184 -0.0675128698348999 -0.0963785052299500 -0.0603892467916012 -0.0708254948258400 -0.2983296513557434 -0.2056521922349930 -0.1325990110635757 -0.2094960510730743 -0.1440944969654083 -0.1003065332770348 -0.1679312288761139 -0.0310286507010460 -0.3288344144821167 -0.1595517098903656 -0.1738061904907227 -0.1039217635989189 -0.1112063378095627 -0.2062949389219284 -0.0281840674579144 -0.0031877537257969 0.0096571585163474 -0.0895133391022682 -0.1827787607908249 0.0940688773989677 -0.0886573269963264 -0.1824160218238831 -0.2002469897270203 0.3141752779483795
-0.0263673420995474 -0.0419967882335186 -0.1076183542609215 0.1029167398810387 0.0460178107023239 -0.0145027488470078 -0.1791632622480392 0.2116805166006088 0.0341146029531956 -0.1593303531408310 0.0336061418056488 -0.0461080968379974 0.0572320707142353 -0.2149026244878769 0.0207783933728933 0.0931016504764557 0.0159935094416142 0.0971828028559685 0.0066256630234420 0.0815899372100830 0.0369586795568466 0.0234576463699341 0.0357350856065750 0.0309093929827213 0.0375140942633152 -0.0646082907915115 0.0027784297708422 0.0277234483510256 -0.0007709693163633 0.0387558937072754 0.0821488425135612 -0.0306767802685499 0.0891284048557281 0.1023961901664734 0.0262197367846966 -0.0012909013312310 -0.0281063374131918 0.1418889164924622 -0.0948189347982407 0.0776884928345680 0.0119889546185732 -0.0104065537452698 0.1644092500209808 0.1147554740309715 0.1404436379671097 0.0323073193430901 0.0132357552647591 0.1317768543958664 0.0827205032110214 -0.0091735832393169 0.0546773411333561 0.0612414218485355 0.0796485543251038 0.0638089627027512 -0.2093505859375000 0.3648177981376648 0.4259099066257477 -0.1761986613273621 0.4699507057666779 -0.1719507575035095 -0.0113133620470762 0.0680380761623383 0.5490995645523071 0.3007270097732544
0.0937742367386818 0.2814975082874298 0.0748194679617882 -0.0258159320801497 0.0690149962902069 0.1503759622573853 -0.0377675667405128 0.0923839434981346 0.2216906547546387 0.0789341405034065 0.2060689330101013 0.1197887137532234 0.0560984537005424 0.0793219655752182 0.1528872698545456 0.1075569391250610 0.1002711355686188 0.1317022591829300 0.0389134474098682 -0.0024064173921943 0.1250182539224625 0.0227526389062405 0.0804120227694511 0.1421691030263901 0.1109648197889328 0.0534582547843456 0.1478836685419083 0.0364036001265049 -0.0201088171452284 0.0695649236440659 0.1259076297283173 0.0767097622156143 -0.0366553254425526 0.1027810871601105 0.1230718269944191 0.0438328459858894 0.0409928038716316 0.0577988922595978 0.0592636130750179 0.1999040246009827 -0.0185401067137718 0.1309416741132736 0.1170988157391548 0.1050378978252411 0.0649470165371895 0.0918113887310028 0.0512628927826881 -0.0003156320599373 0.1465978920459747 0.0841071903705597 0.2285533994436264 0.1964189708232880 0.1675387024879456 0.1409635394811630 0.1513903588056564 0.0837521404027939 0.3079615235328674 0.1201222240924835 0.1122611314058304 -0.0482218042016029 0.2689886391162872 -0.0771891698241234 0.0566668175160885 0.2122530490159988
0.0849770307540894 -0.0106818610802293 0.0983237177133560 0.0383241921663284 0.0034968766849488 0.0020931002218276 -0.0778604745864868 -0.0539119392633438 -0.0912311077117920 0.0374348759651184 0.0421282313764095 0.0147193893790245 0.0848805531859398 0.1583079695701599 -0.0319100543856621 0.0907952114939690 -0.0990763083100319 -0.0404676869511604 -0.0287001188844442 -0.0313235260546207 0.0889178514480591 -0.0490893982350826 0.1204804331064224 0.0713555738329887 0.0468763671815395 0.0449148006737232 0.0439705476164818 0.1204350814223289 -0.0691206157207489 0.0966001600027084 0.0365071445703506 0.1195137575268745 0.0066381515935063 0.0191064868122339 0.0764880701899529 0.0823256671428680 0.0223135072737932 -0.1465126276016235 -0.0516028665006161 0.0913762301206589 -0.0955391600728035 0.0167579967528582 0.0187426749616861 0.1065561100840569 -0.0401173382997513 -0.0832640975713730 -0.0080286329612136 0.0432475693523884 0.0158324670046568 -0.0102270245552063 -0.0360234789550304 0.0695398449897766 -0.0673682615160942 -0.1224758848547935 0.0892298892140388 0.1018456518650055 -0.2483809292316437 -0.0499653145670891 0.0880107507109642 -0.2044567763805389 0.0770982950925827 -0.1311043798923492 0.1922695636749268 0.1917436867952347
-0.0935474783182144 -0.0411497838795185 -0.1441508382558823 -0.0777005925774574 -0.0877535194158554 0.0362941771745682 -0.2202261388301849 0.0841935500502586 -0.0859503298997879 -0.1473077833652496 -0.0513345785439014 -0.1378091573715210 0.0220015384256840 -0.0500805899500847 -0.0312366914004087 0.0383464917540550 -0.0787943229079247 -0.0181257575750351 -0.0773331224918365 -0.0326016172766685 -0.1093345507979393 0.0066441344097257 -0.1172316595911980 -0.0031488223467022 -0.1291058212518692 -0.0256389323621988 -0.0429932698607445 0.0005058234091848 -0.0735911577939987 -0.0744926109910011 -0.0059787617065012 -0.0983578860759735 -0.0928919985890388 -0.1065182760357857 -0.0782852321863174 -0.0767636150121689 -0.0261304732412100 0.0306249111890793 -0.0938916727900505 -0.0262792538851500 -0.1605946570634842 -0.0177450682967901 -0.0094496151432395 0.0161503199487925 -0.0317676477134228 0.0515226870775223 0.0855741873383522 -0.1755771934986115 0.0941416397690773 -0.0179064627736807 -0.0231564529240131 -0.0007139194640331 -0.0545851849019527 -0.0602933801710606 -0.0677680671215057 -0.3850062787532806 -0.3952426910400391 0.1662269234657288 0.0974922701716423 0.0191207285970449 -0.3736412227153778 -0.0843735560774803 -0.1305774301290512 -0.1727470308542252
0.0171176753938198 0.0805511251091957 0.0465871654450893 -0.0474352687597275 0.2161069810390472 0.0467216670513153 0.3935304582118988 0.1165795549750328 0.1266601234674454 0.1213758736848831 0.0418135859072208 0.1555714160203934 0.0973924547433853 0.1837822645902634 0.0481872111558914 0.1383558511734009 0.0375581011176109 0.0355752110481262 0.0393445640802383 0.0422323234379292 0.1900711506605148 0.0651758089661598 0.0676287338137627 -0.1177175343036652 0.0292503982782364 0.1194263696670532 0.0899741053581238 0.1157336682081223 -0.0533004775643349 0.0992257222533226 -0.0309662949293852 -0.0629607141017914 0.1026091501116753 0.1181925311684608 0.1560524851083755 -0.0066885519772768 0.1195605620741844 0.0871948301792145 0.0410767048597336 0.0480949468910694 0.0140892518684268 0.1189412325620651 0.0187856536358595 0.0616225078701973 0.0140190888196230 0.1658179610967636 0.1031222790479660 -0.0117061147466302 0.0850092619657516 -0.0279953908175230 0.0962145775556564 -0.0180935300886631 0.1182162240147591 0.1636641323566437 0.1835683584213257 0.1224190443754196 -0.5471875071525574 0.5082116723060608 -0.1005932912230492 0.0382670499384403 0.0900243967771530 0.2109773308038712 0.2118757367134094 0.0797487124800682
-0.0405413508415222 -0.0181931722909212 -0.0871423184871674 -0.1116133406758308 0.0311077721416950 -0.0054072868078947 -0.1440091878175735 0.1814774870872498 -0.0587162338197231 -0.1398014873266220 -0.0879696458578110 0.0003842509177048 0.0163790211081505 -0.0896788612008095 0.0682751983404160 -0.2251066118478775 0.0282717049121857 -0.0824415981769562 -0.0406109243631363 -0.0206800531595945 0.0790949612855911 0.0670099183917046 -0.0791411101818085 -0.0996538400650024 -0.0505571439862251 -0.0324299037456512 0.0230392012745142 -0.0377332568168640 0.0083351386711001 -0.0298889987170696 0.0123267611488700 -0.1832029074430466 0.0539088621735573 0.0063722175545990 -0.0390878245234489 -0.0036931373178959 -0.1237940266728401 0.0615834333002567 -0.0204254426062107 -0.1105276420712471 -0.0478901602327824 -0.0376935750246048 0.0684977546334267 -0.1604960858821869 0.0189241208136082 -0.0449457541108131 0.0290264841169119 -0.0057352147996426 0.0406961254775524 -0.0005281804478727 -0.0400352962315083 0.0336111448705196 -0.0721723362803459 0.0419700890779495 0.0222610104829073 -0.0753438547253609 -0.5023186206817627 0.1309382319450378 0.0961282476782799 -0.9135079979896545 0.0188691094517708 0.0266473181545734 -0.1489124149084091 0.0038426234386861
-0.0030754148028791 0.1167471930384636 0.0629985630512238 0.2059835195541382 0.0167577546089888 0.0564703010022640 -0.0225989408791065 0.1029854342341423 0.3791359961032867 -0.0288582649081945 0.0758250206708908 -0.0271356645971537 0.1163126006722450 0.0704535767436028 -0.0070306789129972 -0.1015721186995506 -0.0624064318835735 0.0841178596019745 0.0468293502926826 0.1049889847636223 0.0309530030936003 0.0542928129434586 0.0386934168636799 0.0453489832580090 0.1109236180782318 -0.0584318637847900 -0.0276511199772358 -0.0919591560959816 0.0619230978190899 -0.0128668565303087 0.0818821415305138 0.1140734851360321 -0.1050857082009315 0.0042823920957744 0.0251368433237076 0.0533723756670952 -0.0566381849348545 0.1668822616338730 -0.0062852078117430 0.1357529610395432 0.0462498292326927 0.0009971148101613 -0.0186305027455091 0.0119678163900971 0.0748230069875717 -0.0014106199378148 0.0714048668742180 0.0868375524878502 -0.0058118426240981 0.0106403324753046 -0.0197247900068760 0.0339722298085690 0.0014613143866882 0.0645155236124992 0.0215381309390068 0.1957812011241913 -0.1087864488363266 -0.0302668642252684 -0.0467652194201946 0.3092194497585297 0.1034528464078903 0.2307728677988052 -0.1056108847260475 -0.0994383841753006
-0.0858131498098373 0.0294964369386435 -0.0407931804656982 -0.2046802490949631 -0.0363085456192493 -0.1652169972658157 -0.1176529973745346 -0.2688946425914764 -0.0899647846817970 0.0093254335224628 -0.1410855203866959 -0.0641963109374046 -0.1804070323705673 -0.0293328184634447 -0.1074709445238113 -0.1053724959492683 -0.1165425032377243 -0.1232414096593857 -0.0731605738401413 -0.1969429403543472 -0.1351187229156494 0.0215222742408514 -0.0346495024859905 -0.1818746775388718 -0.1220218613743782 -0.0742970779538155 -0.1348317116498947 -0.1731398105621338 -0.1379841119050980 -0.1698697209358215 -0.1412830799818039 -0.1073740199208260 -0.1016007289290428 -0.0811381414532661 -0.1704231947660446 -0.0464636497199535 -0.1814732551574707 -0.1232804059982300 -0.0892344266176224 -0.2139535248279572 -0.0120012667030096 -0.2391556948423386 -0.1479174643754959 -0.1400386691093445 -0.0350267291069031 -0.1458126157522202 -0.1493132114410400 -0.0796608105301857 -0.0877740755677223 -0.0515022352337837 -0.1750845760107040 -0.0541080757975578 -0.1677480190992355 -0.0261748228222132 -0.1562148779630661 -0.2480057179927826 0.5353267788887024 -0.1911619752645493 -0.0165014769881964 0.3722786307334900 0.0760881677269936 -0.0823634192347527 -0.0430423133075237 -0.3365132212638855
0.0200163964182138 -0.2793753445148468 -0.0330034382641315 -0.3529402315616608 -0.2982457876205444 -0.4472634494304657 -0.1868498921394348 -0.1722372323274612 -0.2335980534553528 -0.1488807201385498 -0.3513153791427612 -0.1366465389728546 -0.4187062382698059 -0.1758357286453247 -0.3203114569187164 -0.3285673260688782 -0.2357026338577271 -0.2942139804363251 -0.1276643276214600 -0.2933366000652313 -0.1941976249217987 -0.2785646021366119 -0.2275171279907227 -0.1324581056833267 -0.1674562245607376 -0.1758838146924973 -0.2824510037899017 -0.1745781600475311 -0.1919939965009689 -0.2777455449104309 -0.2647132575511932 -0.2169238328933716 -0.1786872893571854 -0.2426233291625977 -0.1676559895277023 -0.2044779360294342 -0.2552671432495117 -0.2312887012958527 -0.1480181813240051 -0.2396069765090942 -0.1698910295963287 -0.1375705748796463 -0.1560047268867493 -0.1430380493402481 -0.2144090682268143 -0.1437223851680756 -0.1481144875288010 -0.2920545637607574 -0.1339584589004517 -0.1881519556045532 -0.1625728458166122 -0.2054759711027145 -0.1264369487762451 -0.1358453333377838 -0.1289521902799606 -0.1701903641223907 0.0843764021992683 -0.3721134066581726 -0.3129731118679047 -0.0793712362647057 -0.3865250647068024 -0.0568109191954136 0.0438513681292534 -0.0879220068454742
-0.1419392675161362 -0.2944626212120056 -0.0959254354238510 -0.1318260133266449 0.0339254811406136 -0.2667877972126007 -0.2560170590877533 -0.1525814980268478 -0.2385524362325668 -0.1264819949865341 -0.2053771764039993 -0.0165862962603569 -0.1207137927412987 0.0232097469270229 -0.1991572529077530 -0.1963612586259842 -0.1155984103679657 -0.1516787111759186 -0.1855835020542145 -0.1197674497961998 -0.0538045763969421 -0.0577335096895695 -0.0934458076953888 -0.0676062032580376 -0.1694734841585159 -0.1976310312747955 -0.1148742437362671 -0.1859985888004303 -0.0758248791098595 -0.1379619240760803 0.0920385718345642 -0.2773383855819702 -0.1502242535352707 -0.1773702651262283 -0.1986255496740341 -0.0727324634790421 -0.1792338341474533 -0.0628996118903160 -0.1653889864683151 0.1600674688816071 -0.2125451564788818 -0.1728269904851913 -0.1177676543593407 -0.0778203383088112 -0.1483897417783737 -0.1304749846458435 -0.0703208670020103 -0.1684133559465408 -0.2161126434803009 -0.1859804540872574 -0.1490062326192856 -0.0685708150267601 -0.1496449857950211 -0.1724753975868225 -0.1004513949155807 0.0514150969684124 -0.1147496923804283 -0.2139884978532791 -0.1508666276931763 0.1750229299068451 -0.4949446916580200 -0.1256721168756485 0.0107806222513318 -0.1623159497976303
-0.1495539844036102 -0.1842586547136307 -0.1856766492128372 -0.1572477221488953 -0.2435984909534454 -0.2218343615531921 -0.0963906124234200 -0.2007041573524475 -0.1388999968767166 -0.2342815995216370 -0.1091061979532242 -0.2571838498115540 -0.2994527518749237 -0.2553164362907410 -0.2132702916860580 -0.0304401293396950 -0.0721219703555107 -0.0470942221581936 -0.2157979160547256 -0.1588120162487030 -0.2591925859451294 -0.2239800393581390 -0.1345925778150558 -0.0884335115551949 -0.0867983847856522 -0.1659373342990875 -0.1181285232305527 -0.1830748468637466 -0.1035294830799103 -0.2988943755626678 -0.1259963810443878 -0.2233365178108215 -0.1705795824527740 -0.1357579231262207 -0.2959510982036591 -0.1817882955074310 -0.2459380477666855 -0.0716974884271622 -0.3342905640602112 -0.1356610357761383 -0.2112079262733459 -0.2770125567913055 -0.1689849346876144 -0.1574567109346390 -0.1188630536198616 -0.2617150247097015 -0.2136506289243698 -0.2558445334434509 -0.2115937769412994 -0.1053707301616669 -0.1457957774400711 -0.0852870643138885 -0.1169678792357445 -0.1956366598606110 -0.1808650195598602 -0.2888881862163544 0.2351370602846146 -0.3899001181125641 -0.1960908174514771 -0.3752316832542419 -0.4506862461566925 -0.2093700170516968 -0.3110010921955109 -0.0574011504650116
0.0675311982631683 -0.0064244363456964 -0.0419220067560673 -0.0239772871136665 -0.1312986761331558 0.0094508295878768 0.0148988887667656 -0.0266919042915106 -0.0186238344758749 0.0095830475911498 -0.0454348251223564 -0.0433970652520657 -0.0132708409801126 -0.1021403595805168 -0.0903215408325195 0.0163572039455175 -0.0180964898318052 -0.0712548494338989 -0.0193966887891293 -0.0652364566922188 -0.0558006130158901 -0.1523828357458115 -0.0760509222745895 -0.0453080423176289 -0.0962821245193481 0.0124343475326896 -0.0253879167139530 0.0890539586544037 -0.0721955373883247 -0.0943975895643234 -0.1802446693181992 -0.2177582681179047 -0.1526191234588623 -0.0371205992996693 0.0642360299825668 -0.1089182943105698 0.0799196138978004 -0.1782779544591904 -0.1084863096475601 -0.0062664686702192 -0.0428236499428749 -0.0202307123690844 -0.0169578231871128 -0.0689722225070000 -0.0554865114390850 -0.1090874522924423 -0.0912535786628723 -0.0948028936982155 -0.0764435678720474 0.0055143190547824 -0.1732991486787796 0.0556914545595646 -0.0905969962477684 0.0133649399504066 -0.1337656229734421 -0.0261034220457077 -0.0678972601890564 -0.0686056017875671 0.1249039918184280 -0.5147777199745178 -0.0129649890586734 0.0433032102882862 -0.1193393096327782 0.2386586368083954
0.2134113311767578 0.1484727412462234 0.1288537383079529 0.1335917562246323 0.0546835437417030 0.0539275482296944 0.0940221771597862 0.5218106508255005 0.0272308737039566 0.2397003471851349 0.0929545089602470 0.0204032026231289 0.1395838707685471 0.0842880755662918 0.1363341212272644 0.1451634019613266 0.1418064683675766 0.1140410527586937 0.1381157338619232 0.1401598453521729 0.1032116562128067 0.1548184305429459 0.0831173956394196 0.2347157895565033 0.1581618338823318 0.2404222488403320 0.0439063347876072 0.1025716140866280 0.1713829636573792 0.0603014491498470 0.0894919335842133 0.0826919749379158 0.1160696297883987 0.1897200495004654 0.2102056890726089 0.1585330069065094 0.1343393623828888 0.1378522664308548 0.0303229633718729 0.1525735110044479 0.1395965218544006 0.1990180760622025 0.0835302397608757 0.2268653213977814 0.1394055336713791 0.1351524442434311 0.0867118760943413 -0.0087140984833241 0.2269892394542694 0.1427785903215408 0.1696715205907822 0.0376351848244667 0.2419710159301758 0.1206667497754097 0.1171891838312149 0.0202861260622740 0.0349350161850452 0.0875326991081238 0.1048624292016029 0.1997828334569931 0.5404187440872192 0.1207340583205223 0.0383837148547173 -0.1820271462202072
0.1710493564605713 0.1039051711559296 0.1379243731498718 0.2219564616680145 0.1039862036705017 0.3519844412803650 0.2636555731296539 0.1932260692119598 0.1799435317516327 0.1348211467266083 0.2044774591922760 0.0988935381174088 0.3220013082027435 0.0972298011183739 -0.0125316362828016 -0.0105880023911595 0.0749089494347572 0.0233781486749649 0.1033613458275795 0.1659829616546631 0.0793741643428802 0.2464243918657303 -0.0471812598407269 0.0842242166399956 0.1291784793138504 0.1318229287862778 0.0529243163764477 -0.0195467229932547 0.1683970987796783 0.0453285314142704 0.1262674927711487 0.0277087725698948 0.0740611776709557 0.0891165509819984 0.0538117848336697 0.0443586707115173 0.1006209626793861 0.1186738610267639 0.1670787930488586 0.0521554537117481 0.0296450387686491 0.0930642113089561 0.1565846055746078 0.0055340523831546 0.0694150105118752 0.2011569887399673 0.0723771303892136 0.1597804576158524 0.0871555283665657 0.1038688942790031 0.0824720039963722 0.1769122481346130 0.1697351634502411 0.1995467096567154 0.2882503569126129 0.1395264267921448 0.1924944221973419 0.2915277779102325 0.0157538540661335 -0.4851548075675964 -0.0202996451407671 0.2610128521919250 0.3345264494419098 0.3155019581317902
-0.1010966449975967 -0.2058517038822174 -0.1262971311807632 -0.1309452503919601 -0.0725200399756432 -0.1091337651014328 -0.1279845833778381 -0.2846292555332184 -0.1060984209179878 -0.1482544243335724 -0.2284193783998489 -0.0826971679925919 -0.1388401091098785 -0.0713525936007500 -0.1741819977760315 -0.1167697086930275 -0.1150379553437233 -0.0192975047975779 -0.1194715425372124 -0.1768028736114502 -0.1120705902576447 -0.1038820520043373 -0.0721708759665489 -0.1914406269788742 -0.0571526698768139 -0.0789230763912201 -0.0964216068387032 -0.0766241773962975 -0.1226288899779320 -0.0824682787060738 -0.1165106967091560 -0.1218672469258308 -0.2502410709857941 -0.2005975246429443 -0.1496287584304810 -0.0808048471808434 -0.1529616415500641 -0.0616751909255981 -0.1115216165781021 -0.1795614510774612 -0.2737666070461273 -0.2888320088386536 -0.1890370994806290 -0.1002919003367424 -0.0911885723471642 -0.1404403001070023 -0.1281971931457520 -0.2001364976167679 -0.1716273874044418 -0.2074069827795029 -0.0874728485941887 -0.0250830166041851 -0.0822489559650421 -0.1208262965083122 -0.0484531149268150 -0.3603343963623047 -0.1183024421334267 -0.2915008366107941 -0.2110735476016998 0.3003773391246796 -0.3629370033740997 -0.0882546678185463 -0.3489637672901154 -0.3338118195533752
-0.2219925373792648 0.0193924847990274 -0.1325850635766983 -0.1633265912532806 -0.1840649694204330 -0.0262293145060539 -0.0600052960216999 0.0591616369783878 -0.1136054843664169 -0.0756178423762321 -0.0874863117933273 -0.0216218680143356 -0.0382865183055401 -0.0320928692817688 -0.0139035619795322 -0.0074247154407203 0.0180922280997038 -0.1038535833358765 0.0778623819351196 0.0347879491746426 0.0337053015828133 0.1190339475870132 -0.1420522034168243 0.0767766088247299 -0.1760942339897156 0.0009713449398987 -0.0374213755130768 0.0715443566441536 0.0102735748514533 -0.0574920289218426 0.0396144539117813 -0.1573300957679749 0.0351475887000561 -0.2234604954719543 -0.0618598498404026 0.0199965201318264 0.1304666399955750 0.0631559640169144 -0.0640156865119934 -0.0213848203420639 -0.2073229104280472 -0.0556489303708076 -0.0590645931661129 0.0339023657143116 0.1090909615159035 0.0605236478149891 0.0665849670767784 -0.0990743637084961 -0.0960156470537186 -0.2238406687974930 -0.1570393890142441 -0.0409059822559357 0.0037111525889486 0.0008127174805850 -0.0642671585083008 -0.1096053868532181 0.2299114614725113 -0.0794708803296089 -0.4378760457038879 -0.1129256263375282 0.0775794088840485 0.0128741562366486 0.1042311191558838 0.1995110213756561
-0.3799170851707458 -0.1940769851207733 -0.1925921589136124 -0.2763670384883881 -0.1931184977293015 -0.3417944312095642 -0.3523930609226227 -0.3228934109210968 0.0884356126189232 -0.1649667620658875 -0.2170401215553284 -0.1839042156934738 -0.2427581399679184 -0.2685198783874512 -0.2876168787479401 -0.2556313872337341 -0.0518145002424717 -0.0336480960249901 -0.1052208021283150 -0.0886367857456207 -0.1515985429286957 -0.0901294350624084 -0.1586135923862457 -0.1484359204769135 -0.1712782829999924 -0.0458704121410847 -0.1821155846118927 -0.2093278318643570 -0.1802563667297363 -0.1382465213537216 -0.0404564291238785 -0.0790818110108376 -0.1057189330458641 -0.1544336825609207 -0.1076647564768791 -0.1504783928394318 -0.1391129940748215 -0.1386690884828568 0.0001374175335513 -0.0994699373841286 -0.2046315222978592 -0.1127299591898918 -0.1483996212482452 -0.1820236146450043 -0.1367307156324387 -0.0610930882394314 -0.1518667191267014 0.0864585414528847 -0.1263324916362762 -0.2044626176357269 -0.1153535693883896 -0.1331653147935867 -0.1955355852842331 -0.0790298730134964 -0.1183939054608345 0.0639584809541702 -0.3394845426082611 -0.1373678594827652 -0.1051146537065506 -0.1201391965150833 -0.0019790362566710 -0.1381767541170120 -0.1949698477983475 -0.3020768761634827
-0.1825462579727173 0.0052626705728471 -0.0961474180221558 -0.0479063466191292 -0.0915148034691811 -0.0832575634121895 0.0106167960911989 -0.1839677542448044 -0.0257476679980755 -0.1421879976987839 0.0321483723819256 -0.0975312814116478 -0.1149247214198112 -0.1125103160738945 0.0078505482524633 0.0659200325608253 -0.0119385644793510 -0.0504506900906563 -0.0515593588352203 -0.0875754132866859 -0.1780069917440414 -0.1433760672807693 -0.0287501718848944 -0.0524735450744629 -0.0968133956193924 -0.0114925820380449 -0.0465830452740192 -0.0838442146778107 -0.1010593101382256 -0.2014034688472748 -0.0505601018667221 -0.1241910383105278 -0.0113790072500706 -0.1669743061065674 -0.0353552177548409 -0.0544229820370674 -0.1476834267377853 -0.0667184218764305 -0.1657067388296127 -0.0553095936775208 0.0454147160053253 -0.2354773879051208 -0.1363723129034042 -0.1538223624229431 -0.1845171302556992 -0.1505174934864044 -0.1566204875707626 -0.2044421434402466 -0.2397382706403732 -0.0896654278039932 -0.1927317976951599 -0.2535385191440582 -0.1118465214967728 -0.2003945261240005 -0.0942213535308838 -0.0911202579736710 0.3276949226856232 -0.2358137667179108 -0.1786604225635529 0.0170669276267290 -0.2447586655616760 -0.1373460590839386 0.1960486173629761 -0.2464991360902786
0.0866079926490784 0.0757913738489151 0.1706359684467316 -0.0247417502105236 0.0644642487168312 0.0741919800639153 -0.0216691363602877 0.1386597454547882 0.0101076439023018 0.2688420116901398 0.0179199520498514 0.1683627068996429 0.1297885775566101 0.2248647809028625 0.1144128516316414 0.0584585554897785 0.0536569803953171 0.0463745817542076 0.0919876769185066 0.1184450685977936 0.1828901916742325 0.1279163509607315 0.2008641064167023 0.1309421807527542 0.1066061332821846 0.0766292512416840 0.0583139061927795 0.0023226623889059 0.1017725691199303 0.1394533216953278 0.0634094476699829 0.1344878077507019 0.1389715075492859 0.0152054242789745 0.0692496076226234 0.1379502713680267 0.0663193613290787 0.0756787955760956 0.0344762727618217 0.0119672724977136 0.1441121548414230 0.1132547780871391 0.0124026602134109 0.0799323469400406 0.1717161983251572 0.0528583303093910 0.0260388553142548 0.0800999626517296 0.3637579679489136 0.0308935511857271 0.0294674020260572 0.0841180682182312 -0.0051198340952396 0.1230359300971031 0.0019529539858922 -0.1050773411989212 -0.1175952181220055 0.1714856624603271 0.2407062947750092 -0.4247287213802338 0.2213962674140930 -0.1168057695031166 0.1187412962317467 0.0800447165966034
0.0580969415605068 -0.0082823894917965 0.0526515804231167 -0.0396957285702229 0.1026754602789879 -0.0480649396777153 0.0125879375264049 -0.0625372827053070 0.0972773656249046 -0.0251703821122646 -0.0253278147429228 0.0829271003603935 -0.1158749535679817 0.0054378276690841 0.0013345527695492 0.0541702397167683 0.0650606751441956 0.0422278307378292 0.0968033075332642 0.0532210581004620 0.0341130197048187 0.0028810256626457 -0.0656054466962814 0.0035919283982366 -0.0219736173748970 0.0291677583009005 -0.0329711250960827 0.0699513480067253 0.0530447065830231 0.0092654936015606 0.0685622394084930 0.0882321819663048 -0.0625088214874268 0.0279395859688520 -0.0183313060551882 0.0391261763870716 -0.0529741831123829 0.0938216671347618 0.1676287949085236 0.1814943552017212 0.0709944888949394 -0.0560371130704880 0.0337934754788876 -0.0731931701302528 0.0169142279773951 0.0453372746706009 0.1241238713264465 0.1009017452597618 -0.0269963517785072 0.0373439937829971 0.0066112615168095 0.0099634686484933 0.0197144560515881 -0.0495965555310249 0.1963984221220016 0.2478251904249191 0.2658774256706238 0.0831320062279701 0.2990323007106781 -0.3083722591400146 -0.1056087464094162 0.1944374442100525 -0.0291050765663385 -0.2178104072809219
-0.3179024755954742 0.0457292981445789 -0.2402220368385315 -0.0541682429611683 -0.0870354771614075 -0.0752260461449623 -0.1174455061554909 0.0022282020654529 -0.1913814246654510 -0.2345237582921982 0.0750061571598053 -0.0928355231881142 -0.0789438858628273 -0.1180512011051178 -0.1326035559177399 -0.2373547405004501 -0.2901661098003387 -0.2509022951126099 -0.1719200313091278 -0.0849710479378700 -0.1952071040868759 -0.0307843815535307 -0.1503022760152817 -0.1423718035221100 -0.2360906600952148 -0.2049489468336105 -0.1839077770709991 -0.0395248681306839 -0.0161922220140696 -0.0832420215010643 -0.1857911050319672 -0.1347377002239227 -0.1764754801988602 -0.2332697659730911 0.0126727931201458 -0.0309701338410378 -0.0608550421893597 -0.0079113757237792 -0.1363986581563950 -0.1465423107147217 -0.1558255553245544 -0.1612619310617447 -0.1823518723249435 0.0095249274745584 -0.1049172505736351 -0.1866341382265091 -0.1312641352415085 -0.1575019806623459 -0.2603801488876343 -0.1501949727535248 -0.1758111864328384 -0.1485652774572372 -0.2009853422641754 -0.1591782122850418 -0.2604964673519135 -0.1024341434240341 0.1032500565052032 -0.1836106777191162 -0.1480643451213837 0.2142291069030762 -0.1736241728067398 -0.3158787190914154 0.1106543242931366 -0.1179283484816551
-0.1673448234796524 -0.1375300735235214 -0.1424017697572708 -0.0423916950821877 -0.1996743381023407 -0.0194915123283863 -0.0433093756437302 0.0188292767852545 -0.0956493318080902 -0.0844250321388245 -0.0728530585765839 -0.1201474294066429 -0.0403724908828735 -0.0794157013297081 0.0015022179577500 -0.0312127675861120 -0.0288870409131050 -0.0681588724255562 -0.0942623391747475 -0.1783432364463806 -0.1484214514493942 -0.0745509341359138 -0.1244243308901787 0.0473410114645958 -0.0376184359192848 -0.0894018039107323 -0.1320313364267349 -0.0472465567290783 -0.0503682307898998 -0.0135611975565553 -0.0557044334709644 -0.1351961046457291 -0.1358547657728195 -0.0739005729556084 -0.1924663335084915 -0.0597657188773155 -0.1098552644252777 -0.0226936936378479 -0.1766559332609177 -0.0442437902092934 -0.0652821883559227 -0.1165754050016403 0.0101118572056293 -0.0466548390686512 0.0287030562758446 -0.1493502110242844 -0.1011082231998444 -0.2308237850666046 -0.1640685349702835 -0.0490815155208111 -0.0412143729627132 -0.1025948449969292 -0.0535822883248329 -0.0587169751524925 -0.2823649644851685 -0.0529736392199993 -0.0660025626420975 -0.1029717996716499 -0.2303296774625778 0.6876631379127502 0.1502075493335724 -0.2770835161209106 0.1160063073039055 -0.2449192702770233
-0.0551109425723553 -0.2028362601995468 0.0005630828673020 -0.1132567077875137 -0.0702683106064796 -0.0701045840978622 -0.1839051395654678 0.2084213495254517 0.0952951684594154 0.0218661315739155 -0.0855756849050522 -0.0168689209967852 -0.1302141696214676 -0.1243310123682022 -0.0558327659964561 -0.1090655401349068 -0.0182193182408810 -0.0012508180225268 0.0400869138538837 -0.0432002954185009 0.0128136398270726 -0.0951865091919899 -0.0152235049754381 0.0065644467249513 0.0122439032420516 -0.0504133403301239 -0.1213133558630943 0.0382592529058456 -0.0324384681880474 -0.0713155046105385 -0.1396237909793854 -0.1166022494435310 -0.0603295899927616 -0.1101372614502907 0.0269386116415262 0.0366712436079979 -0.0738128647208214 -0.0534596405923367 -0.0250876825302839 -0.0591500103473663 -0.0440901778638363 -0.0099010309204459 -0.0838330760598183 0.0161965060979128 -0.0055818902328610 0.0015288769500330 -0.0749303773045540 -0.0869870632886887 -0.0177988708019257 -0.0569259934127331 0.0227954834699631 0.0068891714327037 -0.0594602189958096 -0.0332702212035656 0.0599394813179970 -0.1342961341142654 -0.0192520581185818 -0.1295218169689178 -0.2891132235527039 0.1612367480993271 -0.1284088045358658 -0.1651182472705841 0.0598271228373051 -0.2338802665472031
0.0493503883481026 0.0870391950011253 0.0911988690495491 -0.0359638407826424 0.2171487957239151 0.0710242614150047 0.0675058066844940 0.0718124583363533 0.0664407610893250 -0.0292877946048975 0.1435151249170303 0.0586487092077732 0.0535407885909081 0.1623371690511703 0.1617185920476913 0.0395223088562489 -0.0045903432182968 0.1435873210430145 -0.0581245534121990 0.0888891518115997 0.1031905636191368 0.2038414478302002 0.1027404069900513 0.1207285076379776 0.1448984295129776 0.0414893105626106 0.0215238239616156 0.0640072301030159 0.0726414918899536 0.1038739383220673 -0.0107739241793752 0.0983608812093735 0.0193519964814186 0.0448975265026093 0.0301711857318878 0.0267164669930935 0.1219264864921570 0.1308767348527908 0.1283492296934128 0.0354197956621647 0.0801803842186928 -0.0418913140892982 0.1056279838085175 0.1762993782758713 0.1349408030509949 0.1532776653766632 0.1106912195682526 0.0745195969939232 -0.0474874973297119 0.0464948415756226 -0.0417232252657413 0.1085096597671509 0.0380134694278240 0.1034910678863525 0.0246352273970842 0.0297875273972750 0.3436937034130096 -0.4965995848178864 0.0868310406804085 0.1107987090945244 0.1705207824707031 -0.0243708733469248 0.2769924998283386 -0.1209424063563347
0.1196125373244286 -0.0241547580808401 0.0150463059544563 0.0425334610044956 -0.0033335329499096 0.0710541754961014 0.0790710374712944 0.0178577974438667 0.0038303590845317 0.1600097268819809 0.0606677681207657 -0.0556336231529713 0.1869877725839615 0.0019363085739315 0.2190836519002914 -0.0546626485884190 0.1626107394695282 0.0052945534698665 -0.0250377524644136 0.0605171732604504 -0.0744437351822853 0.0853986591100693 -0.1032602787017822 0.1659720242023468 0.1277588903903961 0.0673306807875633 0.0196438040584326 -0.0577055588364601 -0.0734692662954330 -0.0470542348921299 0.1124084591865540 0.0140976281836629 0.1450355350971222 -0.0128262052312493 0.0361055694520473 -0.0013512872392312 -0.0160197187215090 -0.0458949916064739 0.0179151296615601 0.0441658273339272 0.0607469230890274 -0.0129266027361155 -0.0419321842491627 0.0374299399554729 0.0278236828744411 0.0271860715001822 -0.0512171313166618 0.0064269159920514 0.0599621608853340 0.0446265116333961 0.0028597395867109 0.0439803414046764 -0.0637283474206924 -0.0073947226628661 -0.0310409106314182 0.1078489795327187 0.2540261149406433 0.0733541026711464 -0.1215229108929634 0.2281726151704788 0.1737693995237350 -0.1700389832258224 -0.0290933083742857 0.0023712262045592
-0.2489416301250458 -0.1298516243696213 -0.2485351115465164 -0.2340477406978607 -0.2959153950214386 -0.3949677348136902 -0.2045551985502243 -0.1922731101512909 -0.1831330955028534 -0.2754833698272705 -0.3157933056354523 -0.3372634053230286 -0.3271726369857788 -0.2504107654094696 -0.1964963078498840 -0.1234546750783920 -0.2294975221157074 -0.3091129064559937 -0.2235499620437622 -0.2313026785850525 -0.1917650997638702 -0.2276638597249985 -0.1569919586181641 -0.3318120241165161 -0.0874807462096214 -0.2892265915870667 -0.2884484827518463 -0.1490996330976486 -0.2358864545822144 -0.2453594952821732 -0.2248106747865677 -0.2703634798526764 -0.2345586121082306 -0.2413086891174316 -0.1588552296161652 -0.2268668264150620 -0.2857816815376282 -0.2352859228849411 -0.1583388894796371 -0.3634614050388336 -0.0289852507412434 -0.2311020642518997 -0.2029492855072021 -0.2261836379766464 -0.4263890981674194 -0.2411330193281174 -0.2555564641952515 -0.2802414298057556 -0.3392196893692017 -0.1600333303213120 -0.2565129101276398 -0.3437174856662750 -0.3194599151611328 -0.3665876984596252 -0.2139802277088165 -0.2910911142826080 0.0064739598892629 -0.1739609688520432 0.0159757751971483 -0.0228023882955313 -0.2524090111255646 -0.0988115593791008 -0.3028897643089294 -0.5942727327346802
-0.0264426134526730 0.0217084903270006 -0.1136422827839851 0.0663133412599564 -0.0261292625218630 -0.0534009970724583 -0.1852808296680450 -0.1019250154495239 0.1471468508243561 -0.0232448317110538 0.0623627826571465 0.0296573620289564 0.1227479502558708 0.0370263680815697 0.0122675653547049 -0.1555927991867065 0.0108892908319831 -0.0295055229216814 -0.0330665186047554 0.0773221701383591 0.1031212657690048 0.0659432411193848 -0.0340662524104118 -0.1531440317630768 0.1445580273866653 -0.0792647451162338 -0.0653303265571594 0.0102348905056715 0.0561522059142590 0.0191154740750790 0.0315676145255566 0.0213575884699821 0.0206910874694586 -0.0706734135746956 0.0051620253361762 0.0259474720805883 0.1113018840551376 -0.0327925197780132 0.0368812121450901 -0.0783482119441032 0.1039178147912025 -0.1097945272922516 -0.0705867633223534 -0.0151444980874658 0.0750839039683342 -0.0092424387112260 -0.1022828519344330 0.0881457328796387 -0.0856185927987099 -0.0146257160231471 -0.1504550576210022 0.0842713490128517 -0.0583630912005901 -0.0170103423297405 0.0181485991925001 -0.0056146634742618 0.1454950571060181 -0.2976318001747131 -0.1580133736133575 -0.3954996764659882 0.2106931805610657 -0.1581892371177673 0.0926250070333481 0.0351923443377018
0.1010849252343178 0.0739650651812553 0.0201275814324617 0.0509177111089230 -0.0519081726670265 -0.0252224300056696 0.0211379565298557 0.1795825064182281 -0.0422034934163094 0.0108620189130306 -0.0034311541821808 -0.1332232952117920 0.0761999860405922 -0.0240199007093906 0.0265863779932261 0.0923171862959862 0.0262050852179527 0.0300386808812618 -0.0617376267910004 0.0247556008398533 0.0261589977890253 0.0705612003803253 -0.0026933667249978 0.1942628622055054 -0.1270658075809479 0.0590471439063549 -0.0175697319209576 -0.0258977040648460 -0.0021068595815450 -0.0008990411879495 0.0097925886511803 0.0538000464439392 0.1227455586194992 -0.0135458186268806 0.0816761553287506 0.1177448183298111 0.0883039236068726 0.0497425720095634 -0.0358579419553280 0.1310003846883774 -0.0299296937882900 0.1456819772720337 0.0182882342487574 0.1087822094559669 0.1933198571205139 0.0604695975780487 0.0975248366594315 -0.0515954308211803 0.1158201992511749 -0.0449934490025043 0.1101494356989861 0.0299032200127840 0.1583492755889893 0.2075727880001068 -0.1540211737155914 0.0893548280000687 -0.2056441456079483 0.4055940508842468 -0.2679106295108795 -0.0537493675947189 0.3084801137447357 0.1096125543117523 0.0225789323449135 -0.0880698710680008
