1.2985876798629761 0.4955604374408722 -0.9165682196617126 0.3535472452640533 -0.6871821880340576 -0.8154265880584717 -0.8116184473037720 -0.0901171490550041 0.5528637766838074 -0.4017021954059601 0.1922403723001480 -0.5246337652206421 0.1840015053749084 -0.2541884481906891 1.0787074565887451 0.1032431945204735 2.1653716564178467 0.3583421707153320 1.2974308729171753 1.4549481868743896 -0.5663083791732788 -1.1957643032073975 -1.7015985250473022 0.8654981255531311 -0.4334508478641510 0.8414573669433594 -0.3425362110137939 0.1266759335994720 1.0077756643295288 -1.2821357250213623 0.0993967950344086 0.4487766325473785 1.0552130937576294 0.3601897060871124 -0.7532521486282349 0.0382922254502773 0.7837834954261780 1.8441833257675171 0.9997666478157043 -0.1782329529523849 1.2287690639495850 -2.1370060443878174 -0.1694702357053757 0.1534271091222763 -0.4881460666656494 -0.7140845656394958 0.2005862891674042 0.6463453173637390 1.0372995138168335 0.1197164952754974 0.2860724031925201 0.2062504589557648 0.0186756383627653 0.8190281987190247 -0.0031853856053203 -0.3377750813961029 1.8120592832565308 0.6920149922370911 -0.9756185412406921 1.3835703134536743 -0.3970164954662323 0.2481290400028229 -1.0651113986968994 -2.4260444641113281 -0.0902888625860214 0.2146278619766235 -0.0020344008225948 1.6743738651275635 0.5816965699195862 0.2226167172193527 -0.2770088315010071 0.4521539807319641 1.1420886516571045 1.3530254364013672 -0.7829338908195496 -0.1861744225025177 0.4914153218269348 0.7932552099227905 -0.2855269610881805 -0.5383393168449402 -0.2208960950374603 1.9165287017822266 -0.1999307423830032 0.2580377757549286 0.0315988361835480 -0.3001647293567657 0.0394303128123283 -0.5158888101577759 -1.0869528055191040 -0.3986944258213043 0.2498935908079147 -1.1613893508911133 0.4912062585353851 0.6977571249008179 -0.9325505495071411 1.3462545871734619 0.0744608268141747 -0.4320518970489502 0.4662390053272247 0.1078760996460915 -1.3179391622543335 0.7319176197052002 0.0040068831294775 -0.8116610646247864 -1.3303961753845215 -0.3314434289932251 -0.9402711391448975 -0.4638580381870270 0.3716514706611633 -0.3454532623291016 -0.9545248150825500 0.3468063175678253 1.6387348175048828 -0.6064534187316895 0.4879900813102722 -0.3767088353633881 0.9345405101776123 -0.6970698237419128 -1.1818178892135620 -0.1138094887137413 -1.3803256750106812 -0.8280127644538879 -0.8064816594123840 0.1989347338676453 0.5646181702613831 -0.5660915970802307 -0.0480830259621143 0.0629528388381004
-2.0675854682922363 0.4624733924865723 -0.4911631643772125 -3.1193313598632812 1.1809417009353638 2.0413978099822998 0.7951858639717102 -0.0200107377022505 0.2401206791400909 0.8704307675361633 -0.6129521727561951 1.3623811006546021 -1.3402067422866821 -0.6332882642745972 -1.8527106046676636 -0.5537472367286682 1.0517950057983398 1.0918174982070923 0.4092130959033966 0.1128783002495766 -1.2466102838516235 1.7388175725936890 1.6561280488967896 -0.4217512309551239 -0.1046263948082924 -0.2427337616682053 -0.9722488522529602 -0.2430847287178040 -1.3712282180786133 -0.0010510790161788 1.4358037710189819 -0.0826892703771591 0.4551863372325897 1.3635820150375366 0.0458773747086525 -0.1399396955966949 -0.2142648845911026 -0.7115620970726013 0.4155111908912659 0.9467994570732117 -1.3685894012451172 0.2041686922311783 -1.3222951889038086 -0.3328174352645874 -0.4558386802673340 -1.3817851543426514 1.1771171092987061 -1.4269924163818359 0.0069721098989248 -1.0232888460159302 -0.8429108858108521 0.6417326927185059 -0.2294202446937561 1.1804028749465942 0.4073964059352875 -1.4377847909927368 0.9761230349540710 1.3409304618835449 0.1811589896678925 -0.9981656074523926 -0.5296803712844849 0.9448958635330200 -1.7722696065902710 -0.2952499389648438 0.1676378697156906 0.8920899033546448 0.0487713292241096 1.3158527612686157 0.0224438644945621 -0.6659272313117981 0.4949049055576324 2.0030665397644043 0.5041634440422058 0.6114330291748047 0.6416941881179810 1.4855582714080811 -0.3880162537097931 2.2921862602233887 -0.5227398276329041 0.3871518373489380 -0.4238332808017731 0.2750402987003326 -0.9729391336441040 -1.1470445394515991 -1.7814196348190308 0.0909658595919609 -1.5780307054519653 0.7231259942054749 0.4139618575572968 0.2053618580102921 2.1792569160461426 -0.2136227488517761 0.1061898693442345 0.8218776583671570 -0.2582974135875702 0.0917858704924583 -0.6408401131629944 -0.1597267389297485 1.2641320228576660 -1.2553404569625854 -0.9686319828033447 0.0051290206611156 1.3242756128311157 -0.1721032112836838 -0.9744355678558350 0.1114295721054077 -0.2141673266887665 -0.8527941703796387 0.2966708838939667 1.2714686393737793 -1.0835708379745483 -0.0584834963083267 0.2376108020544052 -1.5341240167617798 -1.2819060087203979 -0.1084959730505943 0.2430004626512527 -0.9630659222602844 0.1129040494561195 0.6703636646270752 -0.2925454676151276 -0.7287577986717224 -0.0143990246579051 0.6866170167922974 1.7961813211441040 0.3842587769031525 0.4341922700405121 -2.0887980461120605
-1.4790786504745483 -0.9736028909683228 0.5201936960220337 0.3133592605590820 -0.3142746984958649 2.2244303226470947 0.5278946161270142 0.0676136761903763 -0.2416945695877075 -0.7185565233230591 0.3578888177871704 -1.4129928350448608 -1.0086855888366699 -1.2299323081970215 1.6238776445388794 -1.1775152683258057 -0.0630498081445694 -0.3352613449096680 -1.6315124034881592 1.0212829113006592 0.0785884782671928 2.2131648063659668 -0.5327823758125305 0.4896681904792786 1.0457066297531128 0.6000352501869202 0.3559359610080719 -0.4238356351852417 0.3599451780319214 0.0895153582096100 -1.5264405012130737 0.8876332044601440 0.4098060131072998 -0.5795780420303345 -0.6691634654998779 0.6181810498237610 -0.2109008580446243 1.1793230772018433 0.3570418059825897 1.6231502294540405 0.0337285846471786 3.0614078044891357 -1.1581019163131714 -0.2408401519060135 1.6514422893524170 -0.5640634894371033 -0.5500383377075195 0.7513442039489746 -0.8989052176475525 0.8034110069274902 0.7220094203948975 0.7688024640083313 -0.1784907132387161 1.8895041942596436 -1.2314656972885132 -0.0287173520773649 0.2651530504226685 -0.2364993095397949 1.3131361007690430 -0.0044985092245042 0.4521482884883881 0.7813012599945068 -0.0655970275402069 -0.5120750665664673 0.2893529534339905 0.7986176609992981 0.2231440395116806 1.0805134773254395 2.8475928306579590 0.5623459815979004 -0.2895076870918274 0.7167133092880249 -0.0593712143599987 -0.3987749516963959 -0.3888620436191559 1.0320640802383423 -0.5786054134368896 0.7847118973731995 1.1094644069671631 1.1176738739013672 1.3904813528060913 -1.1475694179534912 0.7523808479309082 0.8390313386917114 -0.0526735708117485 0.1136026382446289 -0.7699879407882690 0.0039187129586935 -0.1137015745043755 -0.2993411123752594 -0.3107311129570007 0.1749247312545776 -0.4111320972442627 0.6074219346046448 0.3202401697635651 1.6951696872711182 -2.2399384975433350 0.1603756397962570 0.7599711418151855 -0.3002996444702148 1.4273924827575684 -0.6130028367042542 -0.2300948053598404 1.0439717769622803 -0.4480204284191132 0.0943218022584915 -0.8905379176139832 0.0075329234823585 -1.5428669452667236 0.4899842441082001 -1.0091921091079712 -0.5478748679161072 1.6666809320449829 -0.6800813078880310 1.5338064432144165 1.0953729152679443 0.3120068311691284 -0.5989625453948975 -0.8528708815574646 1.2331210374832153 0.3326518833637238 -0.4873924851417542 0.1566649079322815 0.1326817125082016 -0.4007216393947601 -0.9207580089569092 0.0302473939955235 0.3837247192859650
-0.2057980597019196 -1.5820801258087158 -0.0416736863553524 0.5062030553817749 -0.8830432295799255 0.5596728324890137 0.3204863369464874 0.1569783687591553 1.5782843828201294 0.5068305730819702 -0.6970504522323608 0.7849837541580200 -2.0876042842864990 0.1416922062635422 0.6773435473442078 -2.2672040462493896 -0.2159525454044342 0.3793187439441681 0.4839010834693909 -0.5099868774414062 0.7258102297782898 -0.8385498523712158 -0.0272841062396765 1.7129333019256592 -0.0006798245012760 0.3588661849498749 0.1622101813554764 1.2808117866516113 -0.0160268750041723 -0.4095174968242645 0.6883228421211243 0.6663381457328796 -0.0476758815348148 -2.2607448101043701 0.2464611381292343 -0.5768795609474182 0.1077209934592247 -1.3448467254638672 0.3151134848594666 -1.2173428535461426 0.7078655362129211 -0.3855583369731903 -0.7141137719154358 0.2543841600418091 -0.5607771277427673 -0.6565275192260742 -1.4944593906402588 1.4058545827865601 0.3651356101036072 0.7766846418380737 0.3225134909152985 0.1505762040615082 -1.5674071311950684 0.1648406386375427 -0.2176906615495682 -0.0499189123511314 -0.5931054949760437 -1.6392340660095215 -1.4177790880203247 -0.4998268187046051 -1.4138416051864624 1.3389608860015869 -0.8454395532608032 0.8587059974670410 2.3887407779693604 0.1956170946359634 -1.1498147249221802 1.2249022722244263 1.5315183401107788 0.0125704072415829 0.0232101473957300 1.0049686431884766 -0.5022594332695007 -1.3261733055114746 0.1610701680183411 0.2730607390403748 0.2436646670103073 2.2348363399505615 0.1105180531740189 2.1230707168579102 -3.1848769187927246 1.5263173580169678 -0.0850047022104263 -0.7643061876296997 1.4083305597305298 -0.5962917208671570 0.1962815523147583 0.6179394721984863 -0.0726730972528458 0.8105409741401672 0.7699794173240662 -1.3279170989990234 -0.6729260087013245 -2.2034807205200195 -0.6467890143394470 0.7242130041122437 -0.0352372005581856 -0.3252848088741302 -1.0194618701934814 -0.0165733024477959 0.9624100327491760 -0.6611230969429016 2.4959256649017334 1.9262843132019043 -1.2290810346603394 -0.6536441445350647 0.6308169960975647 -0.4173218309879303 -0.5586332082748413 2.3140127658843994 0.8895735740661621 -0.9145711064338684 -0.9907672405242920 1.1618728637695312 -0.2391908168792725 0.0865145474672318 -0.1979093700647354 1.3598117828369141 1.1468091011047363 0.5374951958656311 1.1395844221115112 -1.9404594898223877 -1.8564654588699341 -0.6598560214042664 0.5124640464782715 -0.5364842414855957 -0.5438740253448486 -0.0516576655209064
2.3032681941986084 0.1700523197650909 0.4121261239051819 0.5633862614631653 0.9628220200538635 1.0152770280838013 0.7778621315956116 0.4078463912010193 -0.0688377618789673 -1.3766496181488037 0.0228820908814669 -0.0488159768283367 -2.1896648406982422 -1.0763926506042480 0.8869420289993286 0.0472614206373692 -1.1189651489257812 0.6367273926734924 -0.6968232393264771 0.4568952023983002 1.5851680040359497 0.9353480339050293 -0.7570518851280212 0.3413319587707520 0.0061558084562421 -0.1983256191015244 0.1351344436407089 -0.9288471341133118 1.9364666938781738 1.0680972337722778 1.5121213197708130 1.6096726655960083 -2.5722568035125732 0.2194610983133316 -0.1277885586023331 -1.2203667163848877 -0.6050364375114441 0.8733935356140137 -1.3056662082672119 -1.3491313457489014 -0.8982313275337219 -0.3653711676597595 -1.0760519504547119 -1.0586863756179810 1.1362433433532715 -1.4156022071838379 1.0211536884307861 0.8381500244140625 -1.0051491260528564 -0.1727507710456848 -0.8538055419921875 -1.3020108938217163 -0.7243058681488037 -1.5465651750564575 -0.6938539743423462 -0.3615861237049103 1.2565715312957764 -1.4233374595642090 -0.0188733004033566 -0.8097523450851440 1.2438378334045410 -1.3489891290664673 0.3452574312686920 -0.5157051682472229 -0.0413665249943733 1.2828671932220459 0.9573367834091187 -1.2350999116897583 -0.6680811643600464 0.0278325788676739 -0.4735109210014343 0.2170263826847076 0.2656871080398560 1.2109355926513672 1.3180104494094849 -1.5228302478790283 0.3419236242771149 -1.7914561033248901 -1.2270804643630981 0.0171484686434269 1.3779449462890625 -0.8488312959671021 -0.3655607700347900 -0.2869677543640137 -0.9905608296394348 -2.0194294452667236 0.2107267230749130 1.6627935171127319 -1.4145995378494263 0.5350614786148071 0.8776881098747253 0.9508088231086731 -0.0262426901608706 0.1708053499460220 0.8971294760704041 -0.3963338434696198 1.0944437980651855 -0.4575166702270508 -2.0827140808105469 -0.8067407011985779 0.8312928676605225 -0.1701679080724716 -0.0685239434242249 -0.9704052805900574 -1.9635465145111084 0.1894806772470474 -0.6601526141166687 1.7669422626495361 0.0416205264627934 0.5627716183662415 0.4916735887527466 -0.0961446464061737 1.1123354434967041 -1.5606032609939575 1.4562656879425049 -1.0555083751678467 0.9104548096656799 -1.0400869846343994 -0.9444245100021362 -0.3480974733829498 -0.1434919834136963 0.5114145874977112 -0.9363316893577576 0.4771912395954132 0.6962064504623413 0.7694263458251953 0.0842536464333534 -0.3333164155483246
0.8096985816955566 1.3864394426345825 -0.7897117137908936 -1.1760193109512329 0.6698175668716431 -1.5602703094482422 -0.3852237462997437 1.0529305934906006 0.8195943236351013 -0.3454631865024567 -1.0016028881072998 -2.2105860710144043 0.2904384136199951 -0.5648136734962463 -0.1143803671002388 -0.3134106695652008 0.8394473195075989 0.7019150853157043 -0.2778611481189728 1.0408655405044556 0.0959269702434540 0.6757813692092896 0.1172784939408302 -0.5364065766334534 0.3597135841846466 -1.7915195226669312 -1.5249228477478027 -0.1995253860950470 -1.2290161848068237 0.9839289784431458 -0.7928197979927063 0.8999245166778564 -1.0037900209426880 -0.0957800224423409 1.7599906921386719 -0.0649520978331566 0.8809122443199158 1.1619880199432373 1.0472303628921509 -0.9721273779869080 0.1827013045549393 -0.8321258425712585 -0.4379439651966095 0.7467125654220581 -2.4319400787353516 -0.2925672233104706 0.4822581112384796 -0.1916069239377975 1.3174598217010498 -0.0705385804176331 0.7362729907035828 -1.8156901597976685 0.0233761873096228 -0.4535354971885681 -0.0312905311584473 0.6706707477569580 0.3290208280086517 -0.8507624268531799 -1.3476197719573975 0.2178804576396942 0.1169985309243202 0.6254528164863586 0.8097914457321167 -0.4152074158191681 -1.4198116064071655 1.4667483568191528 -0.2274886518716812 -2.5161137580871582 -1.0983258485794067 0.3832467496395111 0.7281652688980103 0.8611548542976379 -0.4056901633739471 1.7148196697235107 -0.6799480915069580 1.0862283706665039 0.8958066105842590 -1.2683172225952148 -0.6971807479858398 -0.6109027266502380 -0.4570591449737549 -0.7079576849937439 -0.5777908563613892 -1.5920159816741943 -0.9389638304710388 1.6471140384674072 0.6343510746955872 -0.4733531475067139 -0.3410134613513947 -0.0331697426736355 -0.6471671462059021 0.1389947980642319 1.0231308937072754 0.8310305476188660 0.4527809023857117 -0.1428186595439911 0.4496113657951355 0.2541031241416931 0.0843422487378120 -0.7138903737068176 -1.2915958166122437 -0.7723933458328247 1.2239658832550049 -0.1380864977836609 1.3713054656982422 -1.2489413022994995 0.5256210565567017 -0.7133543491363525 0.9217324852943420 -0.0683021247386932 1.2662119865417480 -0.2095061242580414 0.3559530377388000 -0.7080812454223633 1.7000721693038940 -0.3497343659400940 -0.3772216439247131 -0.6194890737533569 -1.2027858495712280 -0.0475703552365303 0.1829761117696762 -0.3002280592918396 -1.1644048690795898 -1.3004313707351685 -0.4977573454380035 -0.1891130954027176 -0.9454936385154724 0.2008057832717896
-0.8302013278007507 -0.9641222357749939 -1.1964176893234253 -0.6661740541458130 0.3441636264324188 0.5259611010551453 -0.0806622877717018 -0.0802155286073685 0.0596189349889755 -0.3842967152595520 -0.1402272582054138 -0.7393342256546021 -1.2119380235671997 -0.3158642351627350 -0.6443912386894226 0.6063977479934692 0.0904268920421600 -1.9306727647781372 0.2818613052368164 0.1427799016237259 0.2611791491508484 0.0887321531772614 1.1262485980987549 -1.2433418035507202 -1.8902678489685059 0.1664361357688904 -0.2353417277336121 -0.7552702426910400 0.4257332086563110 1.1335622072219849 0.0746056959033012 -0.5642865300178528 0.4256763458251953 -0.9258370995521545 -0.1333528459072113 -0.4271220862865448 -0.8459652662277222 0.9640511870384216 0.7659161090850830 1.6618021726608276 0.6607167124748230 -0.4758821129798889 -0.0981811434030533 1.2121123075485229 -0.7281765341758728 0.4674193263053894 0.5006235241889954 -2.0126178264617920 0.0771435424685478 -0.8234069347381592 0.2514074742794037 -0.3796417713165283 0.3189499378204346 0.1114820092916489 0.5449884533882141 0.1297259926795959 0.3313941955566406 0.3425199687480927 -0.8758464455604553 0.0843546986579895 1.8011885881423950 -0.2295343130826950 -0.7805488109588623 0.0789734572172165 -0.3638392984867096 0.5604606866836548 -1.9385819435119629 -0.9577660560607910 0.4376445412635803 -0.9450263977050781 -0.6973951458930969 1.2129576206207275 0.7249323725700378 0.3477776348590851 -1.7129222154617310 -0.9326363801956177 -1.1662156581878662 -1.8555932044982910 1.0242753028869629 -0.8162356019020081 -0.5826897621154785 0.1351511180400848 -0.3392108380794525 0.4164452850818634 -0.8443524837493896 1.8818496465682983 -0.2532244920730591 0.3334389626979828 -1.6638040542602539 -1.3390952348709106 -2.1145656108856201 0.6655352711677551 0.4485049247741699 0.4883385598659515 0.4308515489101410 -1.1575943231582642 -1.1503710746765137 -1.3888294696807861 -0.1895667761564255 2.0071790218353271 -1.1050354242324829 -1.3973463773727417 -0.5709382295608521 0.7338340878486633 -0.7449072599411011 1.1552143096923828 0.2710417211055756 1.2958531379699707 -0.0532463975250721 0.5763137936592102 -1.1042455434799194 1.2335371971130371 1.0889627933502197 0.9702177643775940 0.4910778105258942 -1.1520010232925415 -0.1762738823890686 -1.0897587537765503 -0.9987377524375916 1.8387987613677979 -0.2563584744930267 -0.0717569589614868 0.0564713329076767 0.1669890135526657 -0.5377008914947510 -0.0763263925909996 0.1904410868883133 -0.3100146055221558
1.4490690231323242 1.1277284622192383 -0.2116027325391769 2.1304662227630615 -1.6569089889526367 -1.2556920051574707 -0.0755288749933243 -0.3158346116542816 0.6739151477813721 -1.5718574523925781 1.7441706657409668 0.4808739125728607 -0.5093320012092590 1.4684904813766479 -0.9425654411315918 2.4963648319244385 0.9017964005470276 0.0757382512092590 0.1451546847820282 -0.2037711292505264 0.3504192233085632 -0.5157399773597717 0.5248642563819885 0.3988259732723236 0.7779089808464050 -0.6025472283363342 1.3441673517227173 -0.9016102552413940 -0.6294431090354919 0.9508811235427856 -0.6644846796989441 0.7606936693191528 0.9615564346313477 1.4267717599868774 2.1253566741943359 0.6708750128746033 -0.4995429515838623 -0.3942940533161163 0.1388012170791626 0.5062677860260010 -0.1276309341192245 0.5498616695404053 -0.8344767689704895 0.5160540342330933 -0.7253783941268921 -1.1788921356201172 0.2805611789226532 0.6025339961051941 0.1902044266462326 -1.3889321088790894 0.4379622936248779 1.3689045906066895 0.6532504558563232 0.8684539794921875 0.4883454144001007 0.3163901269435883 0.8516270518302917 0.2833101451396942 0.0659241229295731 -0.9597459435462952 0.1621760725975037 -0.1920794695615768 -1.0699752569198608 0.8432517647743225 0.2814349830150604 -1.1551973819732666 -1.1798948049545288 0.1781450659036636 1.3876875638961792 0.8450219631195068 -2.3781099319458008 -1.3702260255813599 -0.2609936296939850 0.1337616443634033 0.6657755970954895 0.6531458497047424 2.1594543457031250 -0.7410539984703064 -0.4433362483978271 -1.7103683948516846 0.6267774105072021 -0.3447209596633911 1.5234104394912720 0.2075051963329315 0.7933264374732971 -0.4111445844173431 -0.1062605381011963 0.9470616579055786 -0.1184045001864433 0.9694941639900208 -1.4800661802291870 -0.8060508966445923 0.6062525510787964 0.0811496898531914 -0.0074303578585386 1.6008065938949585 -0.4319166839122772 -1.0546516180038452 0.7277840375900269 1.5679736137390137 1.3869318962097168 -0.8689410090446472 0.1562680602073669 -1.1725485324859619 -0.9164330363273621 -0.7944808602333069 0.5240209102630615 1.1461983919143677 -0.7375605702400208 1.4746501445770264 -0.2373108267784119 -1.1877911090850830 -2.1246063709259033 0.1120017319917679 1.1117762327194214 -0.4377483129501343 -1.9481123685836792 1.1387894153594971 0.4067734479904175 -0.2093943059444427 -1.1184259653091431 -0.1644501537084579 -1.7036811113357544 0.5706738829612732 0.3316145539283752 -0.1936225593090057 -0.0799691155552864 2.1987049579620361
0.0001552723115310 1.3347405195236206 0.0922472402453423 1.4901525974273682 0.1279185861349106 -0.9033469557762146 0.5756114721298218 0.1095172762870789 1.8654054403305054 1.2824975252151489 -0.1672421097755432 0.1177842542529106 -0.8352376222610474 0.5300408601760864 1.0629645586013794 -1.4680305719375610 0.4640078544616699 2.3501994609832764 -0.8116636276245117 0.2262791693210602 0.0198890157043934 -0.4053483605384827 -1.3458801507949829 1.1847156286239624 0.3368067741394043 0.2462406605482101 -0.3757861554622650 0.2326568812131882 0.4325076937675476 2.3731403350830078 -1.6129267215728760 -1.0014854669570923 0.0989513769745827 1.2788016796112061 -0.9889809489250183 -0.5147296786308289 0.8465261459350586 -1.3715122938156128 -2.1997594833374023 0.3825134038925171 0.4314956963062286 -1.0822466611862183 0.0461818203330040 -0.5094037652015686 0.5550739169120789 -1.5230416059494019 -1.0258877277374268 0.7061372995376587 2.2608959674835205 0.4550771117210388 -0.3934906423091888 -0.0506554767489433 -1.0084838867187500 0.0224868375808001 0.5890132784843445 -2.7597169876098633 0.9120755195617676 -2.0152351856231689 0.1072780713438988 -0.9008378982543945 -0.4579531848430634 0.8024775981903076 -1.0575474500656128 -0.0262615494430065 1.2618676424026489 -1.3314427137374878 -0.8911488652229309 0.2045750319957733 0.4672170281410217 0.4279276728630066 1.1246696710586548 0.3226979672908783 -2.0291414260864258 0.1041663661599159 0.6153463125228882 -0.9262529015541077 -0.7402229309082031 -0.6459462642669678 -1.6545722484588623 0.5629438757896423 0.5381428599357605 0.2187480777502060 -0.3493210375308990 -2.1464898586273193 -2.8790278434753418 -0.0548677518963814 0.6485234498977661 -0.0145856635645032 -1.2937455177307129 0.2534501254558563 0.9461906552314758 0.9030950069427490 0.8473380804061890 0.3731543421745300 0.7614787220954895 -0.1073465198278427 0.7046318650245667 0.0282996296882629 -1.0081709623336792 1.0718152523040771 0.5496912002563477 -0.8716570138931274 0.2247688472270966 0.9050856828689575 0.4994804859161377 0.0404688194394112 -0.0607553608715534 1.0158318281173706 0.6668909788131714 -0.1616466343402863 1.1766989231109619 0.8363450169563293 0.0812188386917114 0.9767928719520569 1.3434190750122070 -0.7050338983535767 -1.4505635499954224 0.2828200757503510 -1.7936630249023438 -0.6161103248596191 -2.5220777988433838 0.5782423019409180 -1.4069216251373291 0.2277228236198425 -0.3423359990119934 -1.3994529247283936 -0.4511123597621918 0.4247751533985138
-0.4755569994449615 -0.2455796450376511 2.1196403503417969 1.1599858999252319 0.2709747850894928 -2.4046537876129150 0.0625192672014236 -0.6236978173255920 0.7525216937065125 -0.9591590166091919 0.0119142532348633 -0.7292895317077637 -1.5361080169677734 -0.5489849448204041 -1.7636998891830444 -1.3349041938781738 -0.9154618978500366 1.2918212413787842 -0.5261490941047668 0.7247813940048218 0.8627597093582153 -1.4302749633789062 -0.4978634715080261 0.5613281726837158 -1.4562544822692871 1.0529298782348633 0.2078726142644882 -1.9360551834106445 0.3365077972412109 0.6195295453071594 2.4827206134796143 -0.3780920803546906 1.2609753608703613 -0.5040883421897888 0.2753548622131348 2.3339478969573975 0.5313751101493835 -0.3102290332317352 -2.3366146087646484 0.2557795047760010 0.2566073834896088 0.5639372467994690 -0.2207484096288681 0.5506078600883484 2.3872277736663818 -0.0327871777117252 -0.3919721245765686 1.2104262113571167 0.0254425257444382 0.2510829865932465 0.1542627513408661 -0.6268337368965149 -0.1142585128545761 -2.0564565658569336 -0.7139733433723450 -1.8598625659942627 -1.4498451948165894 -0.3617672026157379 0.0060329907573760 0.3084724545478821 -0.7869301438331604 0.9292029142379761 -0.3607189357280731 -0.5982227325439453 -2.2147104740142822 -0.0941873490810394 -1.7529724836349487 -0.0157623998820782 0.3166654407978058 0.0976617038249969 1.0426347255706787 -0.7926544547080994 -0.0616270340979099 -1.0227636098861694 -0.1364664584398270 -1.6170951128005981 -2.1567373275756836 1.0660698413848877 0.8982188701629639 -0.0000012102245819 -0.6145550012588501 1.3917261362075806 -0.8326478600502014 -0.0118590146303177 -0.3652145564556122 -1.6671353578567505 -0.6417415142059326 -0.4725840985774994 -0.2693618535995483 -0.4862331748008728 0.3939947485923767 -0.8122119903564453 -0.1182332858443260 -0.5687794685363770 0.7807124853134155 -1.1553254127502441 -0.6857727766036987 1.0081086158752441 -0.4876865148544312 0.3196692168712616 -0.4011858999729156 1.5966545343399048 0.2719513475894928 -2.3466305732727051 -0.7417613863945007 -2.2144224643707275 -0.2981064319610596 -0.6152881383895874 -1.8231880664825439 1.4488099813461304 -1.0127799510955811 1.8882802724838257 -0.6877532005310059 0.6599478721618652 -0.7201733589172363 -1.4364277124404907 -0.5368724465370178 1.6138862371444702 -0.9547898173332214 0.1859710812568665 -0.4152994155883789 -0.1399995833635330 0.6213977932929993 1.2008929252624512 0.7529544234275818 1.5827578306198120 0.1556520462036133 -0.2296913117170334
1.8328324556350708 1.2698334455490112 -1.3828127384185791 1.2100028991699219 1.5522106885910034 1.9432713985443115 -0.1925756633281708 -0.9122797846794128 1.1987098455429077 -0.4209022819995880 -0.0493283867835999 -1.3713600635528564 -1.6473444700241089 -0.4817232489585876 0.3650668859481812 0.8028663992881775 1.0195505619049072 -0.5994272828102112 -0.6325984001159668 0.8425602316856384 -0.2150682508945465 1.2081018686294556 -1.3435375690460205 0.9437552094459534 -0.1194123029708862 -0.9598613381385803 -2.1397886276245117 0.4741741418838501 -0.4216310083866119 -0.8811941742897034 -0.5910848975181580 1.5805020332336426 -1.4396961927413940 0.5209777951240540 -1.1452808380126953 0.4131207764148712 1.7413430213928223 0.1160932183265686 1.6797040700912476 0.2835502326488495 -0.1919003129005432 0.2755614817142487 0.2597975432872772 2.0885469913482666 -0.0245325267314911 1.3036069869995117 0.3637723028659821 1.4019027948379517 2.3046545982360840 -0.2238218486309052 -0.1662560403347015 -0.5420120954513550 1.2466996908187866 -1.5122338533401489 0.5103095173835754 0.9589276909828186 -1.4384607076644897 1.1432515382766724 -0.4841289818286896 0.5245192646980286 0.7201690077781677 -0.3388467431068420 -0.8531190156936646 -0.2488125860691071 1.1498516798019409 -0.5710581541061401 1.6136393547058105 -0.0015077018178999 -0.9538425207138062 0.1344653367996216 -0.4603522121906281 -0.3566178381443024 0.0858296826481819 0.9765759110450745 1.0679789781570435 0.1237740963697433 -1.0347154140472412 -1.6667281389236450 0.4358841180801392 0.0712221562862396 -0.2099319845438004 -0.6459505558013916 0.4620967805385590 -0.6264128684997559 -0.4709194004535675 -0.7976980209350586 0.0062002744525671 1.3647844791412354 0.6420255899429321 0.7058207392692566 2.8443646430969238 0.2482932955026627 -1.8178334236145020 -1.4917434453964233 0.5083564519882202 -0.1784137040376663 -0.3713760972023010 1.8688378334045410 0.6029199957847595 1.1383993625640869 1.0147279500961304 0.1510803699493408 -0.3899322152137756 -0.4432570338249207 1.1570559740066528 -0.4750113189220428 0.9802452325820923 -0.0175237711519003 0.2963190376758575 0.5217191576957703 -1.5223002433776855 -0.0464096218347549 -1.0666238069534302 -0.0449794605374336 -0.3887610137462616 0.1413997560739517 -0.3054376840591431 -0.5072075128555298 1.0841335058212280 1.3151624202728271 1.3356807231903076 1.1929147243499756 -0.3742690086364746 0.2458108663558960 0.1115460693836212 0.1282797753810883 0.2272949218750000 0.6513988971710205
-1.6939446926116943 3.3113942146301270 -0.8856474161148071 -0.3075058460235596 -0.2280691862106323 -1.2485610246658325 0.0833055377006531 0.3023476004600525 0.8561299443244934 1.6088602542877197 -0.1372098624706268 -0.5853272080421448 -0.8506104350090027 -0.0037170955911279 0.7579172849655151 -0.3357976973056793 1.7154119014739990 -0.6722599267959595 0.3865942358970642 0.5964671373367310 0.6520475745201111 -1.1712225675582886 0.5437366366386414 -0.6492917537689209 0.3132796883583069 -0.6246538758277893 -0.5281022787094116 -2.1077187061309814 -1.1137642860412598 1.7697731256484985 -0.0084930481389165 0.3547503650188446 0.2204412221908569 0.8272379636764526 -0.3149029016494751 -0.0168301630765200 -1.9742500782012939 0.0449824705719948 -1.0663218498229980 0.4556718766689301 0.8317568898200989 1.1669915914535522 0.1554213911294937 -1.2359108924865723 -0.1619771867990494 0.4809472858905792 -0.4424515068531036 1.3379377126693726 -0.1036629229784012 0.1115110218524933 -1.1276313066482544 1.5595819950103760 -0.0337401479482651 0.5979831814765930 -0.9981860518455505 1.0196293592453003 -0.0013577614445239 1.7791643142700195 0.5111055970191956 -0.0962565094232559 0.7845104932785034 -0.4669112563133240 -0.2258270680904388 0.8414285182952881 -1.2740166187286377 -1.5558205842971802 -1.4450861215591431 -0.4824046790599823 -0.7942306399345398 0.0594867952167988 0.0743993371725082 -0.0443091951310635 -1.1866002082824707 -0.1158232092857361 -0.5472863316535950 2.6696748733520508 -0.3860301375389099 0.8489935398101807 -0.5958792567253113 0.0741973370313644 1.9742389917373657 0.3972174823284149 1.1245088577270508 0.8674678206443787 -0.8577878475189209 -0.7671736478805542 -0.0135350534692407 -0.7983533740043640 -0.0746223032474518 -2.1648135185241699 -0.1524353772401810 -0.7160727381706238 2.6011750698089600 0.8897097110748291 0.2542646229267120 -1.7624752521514893 0.3924530744552612 0.6335677504539490 -0.6844012141227722 0.8122825622558594 0.3584559857845306 0.8866671323776245 -0.1241081804037094 1.7398756742477417 0.1914306432008743 -0.6659134030342102 -0.7712393403053284 0.0194729492068291 0.1224788725376129 0.3620049059391022 0.7021595239639282 -0.3047418892383575 0.3179703056812286 -1.0398377180099487 0.5670505762100220 -1.4475091695785522 0.9100738167762756 0.4466367363929749 -0.5519371628761292 -0.2558819651603699 -0.3965603709220886 0.4954911768436432 -0.5310178995132446 -0.4075308740139008 0.2643747031688690 0.5549171566963196 -1.2189996242523193 -1.4209984540939331
-0.7157863378524780 0.6248553395271301 1.1131678819656372 -0.0904031768441200 1.3651783466339111 0.3217088282108307 0.7918245792388916 -0.8437592983245850 -0.8611879348754883 -1.3330204486846924 -0.0783924385905266 0.7830214500427246 -2.4799637794494629 0.5093086361885071 1.4764413833618164 1.6544380187988281 -1.7366932630538940 1.2516745328903198 0.3653317987918854 -0.6733446121215820 -0.9982061982154846 -0.1299373656511307 -0.0107916621491313 -2.8431508541107178 -0.7839564085006714 0.3083462715148926 0.7724171876907349 1.1740043163299561 1.0576385259628296 0.6623553633689880 0.5462122559547424 -1.3614223003387451 -0.5740721225738525 1.0645954608917236 -1.5476918220520020 -0.0102717764675617 -1.1679513454437256 -0.7318288683891296 0.8640795946121216 -0.5023875236511230 -1.6175549030303955 1.3922195434570312 -1.1126374006271362 -1.0531760454177856 -0.1018654704093933 -0.5383321046829224 -1.0906624794006348 -0.2636351287364960 0.1184173598885536 0.1102909445762634 -0.0104699963703752 -1.4157656431198120 -1.0296928882598877 -1.1781278848648071 -0.6528670787811279 -1.2462308406829834 0.6829135417938232 1.2398976087570190 -0.1023527756333351 -1.1040703058242798 0.3616489171981812 0.3763561844825745 -0.4692703783512115 0.3272764086723328 -0.0709609687328339 0.4337744414806366 0.7360907196998596 -0.1294668763875961 1.2337418794631958 -1.0208344459533691 1.1254982948303223 -1.5432900190353394 0.3772097826004028 1.8024102449417114 0.3838830590248108 0.7000170946121216 -0.1063270568847656 -0.3464934229850769 -0.7482770681381226 -0.4204580485820770 -0.4553447365760803 0.5605757236480713 -0.2363310009241104 0.4244735538959503 0.4348600208759308 -0.8787603378295898 1.6221441030502319 -0.2466480433940887 0.7829532027244568 -0.0835954621434212 0.3163187503814697 -0.2920694947242737 0.2999569177627563 -2.0858237743377686 -1.5094513893127441 0.4235146641731262 -0.0950402468442917 -1.3129345178604126 -1.4347201585769653 -0.2879301607608795 1.7864875793457031 -0.3072668313980103 0.4866708815097809 0.7525636553764343 1.1483865976333618 0.1185557097196579 -0.4733958244323730 -2.0588479042053223 0.8042743206024170 0.6749473810195923 -0.0882383435964584 0.3839783668518066 -1.0279452800750732 -0.2817085087299347 -0.8003394007682800 0.2886086404323578 -1.3162428140640259 -1.4190164804458618 -0.7234631180763245 0.1180066764354706 2.8448357582092285 -0.1640017628669739 0.2832849323749542 0.4106794297695160 0.0127741880714893 0.4620255529880524 1.0532189607620239 0.7181193232536316
-0.0373581275343895 0.5228087902069092 -0.7360996007919312 0.1204992979764938 -0.3005674779415131 0.2833937108516693 -0.0854349434375763 -0.9904021620750427 0.3322018384933472 -1.0018091201782227 -0.1011461094021797 0.9026693701744080 1.5628236532211304 0.0771716311573982 -0.5879194140434265 -0.8515003919601440 1.1693278551101685 1.0295157432556152 -0.0736243575811386 1.1537880897521973 -0.2708997428417206 2.1274781227111816 -0.4730824828147888 0.7121525406837463 -0.0100259073078632 -0.4275730550289154 0.5960862636566162 0.0382955521345139 -1.4042139053344727 -1.0810481309890747 -0.9286667108535767 1.3341825008392334 0.3966586589813232 0.7796427011489868 0.4053355157375336 1.9379408359527588 -0.9818083047866821 3.3667120933532715 -2.1212942600250244 -0.1863926351070404 -1.4198129177093506 -1.0623587369918823 0.7214169502258301 1.8127055168151855 -1.4883168935775757 -0.6542847752571106 2.7954168319702148 -1.5567153692245483 -0.1084497720003128 0.7364113926887512 -0.1371632069349289 0.0619534738361835 2.3026175498962402 -1.1845178604125977 -0.6328644752502441 0.5032215714454651 0.3461092412471771 -2.2421870231628418 1.2258003950119019 1.4591258764266968 0.6721552610397339 -1.1543707847595215 0.9586144089698792 0.9283276796340942 -0.2254701554775238 -0.0480729676783085 0.0068163117393851 0.0531048029661179 -0.1209169402718544 1.7192333936691284 1.5066902637481689 0.1510696113109589 0.4439266920089722 -1.0993039608001709 -0.9950736165046692 0.1758838593959808 0.8988896012306213 -0.5270196795463562 1.7410295009613037 0.3131563067436218 -1.0616223812103271 -0.4923161566257477 0.1012478694319725 -0.2933120727539062 -0.6939844489097595 0.7668212652206421 1.6389057636260986 0.5664448738098145 0.0163030941039324 -0.4342847168445587 1.0586463212966919 -1.0273772478103638 1.0619252920150757 2.3832139968872070 -0.2633524835109711 3.3866689205169678 -0.3456817567348480 0.5401239991188049 -1.1260408163070679 -1.4243246316909790 -0.0851235166192055 0.1878448873758316 -0.2650779783725739 -0.2913143038749695 -0.2979619801044464 1.3078128099441528 0.7814707159996033 0.0646619796752930 -0.3373221755027771 -0.5725612044334412 0.2541051208972931 -0.2191128879785538 0.9098231792449951 0.6166233420372009 0.7496334314346313 -1.6778774261474609 1.9032851457595825 0.3329466283321381 0.3020916283130646 1.2495987415313721 -1.2992705106735229 -0.1624915599822998 -0.1002427935600281 0.8411701917648315 0.3175024390220642 1.9874268770217896 1.0254672765731812 0.4565520584583282
-0.0424087606370449 -1.4472534656524658 0.1706634759902954 -2.1268625259399414 -0.4661420583724976 -1.5183000564575195 1.1933752298355103 -0.7141805291175842 -1.1639276742935181 0.8197352886199951 1.1308960914611816 -1.0145069360733032 1.5230721235275269 -0.2342350482940674 -0.9317174553871155 0.1891871988773346 2.0444481372833252 -0.9696375131607056 2.0457804203033447 1.2930353879928589 0.6081584692001343 -1.3600775003433228 -0.3523203730583191 -0.0274957939982414 1.1732810735702515 -0.3284223973751068 0.9058136343955994 -0.2107923328876495 -1.0179808139801025 -1.2394794225692749 -0.2069185525178909 0.2938764095306396 1.1845626831054688 0.3199629187583923 -0.1320807486772537 -1.6054143905639648 1.4156796932220459 0.7392038106918335 0.2479057908058167 1.5221681594848633 -0.6225693821907043 0.6415855288505554 0.1162229850888252 0.5604597926139832 -0.6967445611953735 0.5742061734199524 -0.5373958349227905 -0.0791532397270203 -0.9090907573699951 1.6877343654632568 -0.2959482669830322 0.9917381405830383 0.5315639972686768 -0.6104000806808472 -0.6417940855026245 -0.5585243701934814 -0.5917663574218750 -0.8036818504333496 0.3510066568851471 -0.8514947295188904 -1.2682873010635376 0.7175435423851013 0.2450200021266937 -0.0469667986035347 0.7963798046112061 -1.5065498352050781 0.7831236720085144 -0.4047856926918030 0.6134940385818481 -0.0674969777464867 -0.6379559636116028 1.2120770215988159 -1.3135018348693848 -0.2705160379409790 1.3192963600158691 -0.2466818988323212 -0.2289636582136154 0.4024655222892761 0.6822381615638733 0.1388410776853561 2.0581085681915283 1.6705302000045776 -1.7424919605255127 -0.1903200000524521 0.6453924775123596 1.7732720375061035 -0.2192205190658569 -0.0745858326554298 -0.2816704809665680 0.7775478959083557 1.0738182067871094 0.0432082228362560 1.0864071846008301 -0.5096752047538757 -1.0888199806213379 -0.6073563694953918 0.4336359202861786 -0.3632829785346985 0.1848303973674774 -0.2335432022809982 -0.5682308077812195 0.0681748315691948 0.0171319730579853 -0.1624916642904282 -0.6794298887252808 0.6090330481529236 -0.5080759525299072 -0.3301728367805481 0.9605625271797180 -1.8668949604034424 -0.3993957340717316 -0.8068148493766785 -0.9537723660469055 -0.1858269125223160 -0.3329172134399414 -0.3854524791240692 0.7677302360534668 -0.6970431208610535 0.6148548722267151 -0.9424571990966797 1.4799028635025024 0.4706469774246216 -0.0652807578444481 0.3704919815063477 -0.0720418989658356 -1.9101908206939697 1.1043486595153809 0.2367050498723984
0.9063426852226257 1.1567946672439575 0.4760209023952484 0.7269735336303711 1.0266692638397217 -1.4565275907516479 0.8863911628723145 0.7423383593559265 -1.2035031318664551 -0.2838918566703796 -0.5828523635864258 -1.4163403511047363 0.2297394424676895 0.6433404088020325 -0.6729158759117126 -0.1521886736154556 1.2977988719940186 -0.5275755524635315 -0.1745034158229828 -0.2385352551937103 -0.4599614441394806 0.3323860466480255 -0.5825396776199341 -0.7619879245758057 1.8955645561218262 1.1462552547454834 -0.5295294523239136 -0.8811678290367126 -0.4290751218795776 0.6939909458160400 0.5257292389869690 -0.0439050383865833 -0.2051299065351486 -0.0197607558220625 -1.1874998807907104 -0.8990781903266907 -0.4685058295726776 -0.3906278610229492 -0.7694910764694214 -0.4157847464084625 0.1079459115862846 0.7132991552352905 0.0763595700263977 0.6870294809341431 1.5391205549240112 0.3989524543285370 0.0092238476499915 -0.7312693595886230 -0.4752146005630493 -0.6147362589836121 -0.7345709800720215 0.6472174525260925 -0.5554417967796326 -1.4817212820053101 -1.1016867160797119 -1.3746945858001709 -1.2848211526870728 -1.2725175619125366 -0.4460613131523132 -0.0357599481940269 -1.5886346101760864 -1.0249527692794800 -1.2865612506866455 -0.0387567356228828 -0.6961674690246582 1.0682978630065918 -0.9301521182060242 1.0593544244766235 0.2299399971961975 0.8100952506065369 1.7490183115005493 0.6421817541122437 1.9245326519012451 -0.1539267897605896 -0.0545270703732967 -1.0214071273803711 0.3904237747192383 -0.6855886578559875 -1.1001431941986084 1.0197368860244751 1.2424625158309937 -0.0187771040946245 0.4464519023895264 0.8418687582015991 0.0663929507136345 -0.8795743584632874 0.7003336548805237 0.4210529923439026 -0.8443675637245178 -0.4212650954723358 1.1715713739395142 -1.0828654766082764 1.5626144409179688 -0.0359407328069210 0.5747248530387878 1.8006566762924194 1.2567085027694702 0.5408614873886108 -1.1443018913269043 0.6266880035400391 0.2690220475196838 0.6239591240882874 -0.6824475526809692 -0.4428606331348419 0.5085472464561462 0.1802863180637360 -0.5742769241333008 0.6305989027023315 -0.2186253666877747 1.1311118602752686 -0.5286408066749573 0.6030060648918152 0.0531796962022781 -1.0155574083328247 -1.3842384815216064 -0.0116931702941656 -0.1923844665288925 -1.0409200191497803 0.9714964032173157 0.7581836581230164 -0.6609702110290527 2.1186676025390625 -0.0683682858943939 -0.6155624389648438 -0.2896099090576172 0.0954288169741631 -0.6825808286666870 1.4017608165740967
1.1501686573028564 -1.3627301454544067 1.4173096418380737 -0.3795739114284515 -0.3569667339324951 -0.4978121221065521 0.0673280954360962 -0.1050630286335945 0.7576267123222351 1.2737042903900146 -0.7743638753890991 -0.2635374665260315 -1.0187275409698486 0.1854449212551117 -1.0173203945159912 0.3761666417121887 -0.5617178082466125 -0.7216284871101379 0.7042006850242615 -1.9181306362152100 -0.9005920290946960 -0.0123735889792442 -0.2917800545692444 -0.1583600789308548 0.4302882552146912 0.8942901492118835 -0.2171900570392609 0.1546284854412079 -1.4869110584259033 -1.1044011116027832 -0.7743832468986511 -0.4290305078029633 1.3177585601806641 1.4657738208770752 0.6385850310325623 0.9361066818237305 0.4382096529006958 -0.6994125247001648 0.7637866735458374 0.5581699013710022 1.2273176908493042 0.5362105965614319 1.3713350296020508 0.4688732028007507 -1.2082319259643555 -1.6600828170776367 -0.6142733097076416 0.0505236126482487 -0.4860491156578064 0.2300453931093216 0.4846443831920624 -1.5078417062759399 -0.7579581141471863 0.1014937758445740 -0.6596292853355408 0.1356561332941055 0.0917384773492813 -2.2245967388153076 -1.7786040306091309 1.2764153480529785 -0.2242441773414612 -0.3923701047897339 -0.7548217177391052 0.0653348043560982 0.2416942566633224 -0.2477806508541107 -0.1090729162096977 0.3933975696563721 0.9205337166786194 -0.8862513899803162 -0.4031250476837158 0.7949423193931580 0.3393642902374268 -0.8472237586975098 -0.8626464605331421 -1.4476962089538574 0.2838645577430725 -0.5586149692535400 -0.3964873850345612 -0.5018409490585327 0.8617455959320068 -0.9050213694572449 -0.1070394515991211 1.2975146770477295 0.6284469962120056 -0.0315564088523388 -0.5451175570487976 1.0693920850753784 0.8742456436157227 1.1489182710647583 0.7840984463691711 0.1640643626451492 0.8051606416702271 1.4653215408325195 1.0784345865249634 0.8717489242553711 2.0890734195709229 0.8719352483749390 -0.3500067889690399 -1.3469277620315552 -2.1159186363220215 -0.9282112121582031 -0.0665987208485603 1.1218799352645874 -0.6207199692726135 0.4471083581447601 0.8487471938133240 -0.7684481739997864 1.6058471202850342 -0.6826204657554626 -0.4379931390285492 1.2048543691635132 0.1175939366221428 0.0028330604545772 -2.2585587501525879 0.1266158074140549 0.6207945346832275 0.3029768764972687 0.9984257817268372 -0.9882010817527771 -1.8913145065307617 1.1848313808441162 -1.2458024024963379 0.1551620215177536 0.8835450410842896 0.6723321080207825 -0.2092806845903397 -0.6490866541862488
1.0737721920013428 0.6585799455642700 -0.8211061954498291 1.0938519239425659 -2.6355910301208496 -1.0376461744308472 0.2761014401912689 -1.2484291791915894 0.4914515614509583 -0.9484339356422424 1.3408650159835815 0.3926948904991150 0.5166323184967041 1.8084002733230591 -0.0090245977044106 -1.0963320732116699 -0.8653087019920349 0.3318215012550354 0.6939245462417603 0.8023150563240051 0.0649544671177864 0.5129508376121521 0.6665530800819397 1.1457625627517700 -0.6916585564613342 -0.1454781144857407 0.0330959595739841 1.0858069658279419 -1.0045528411865234 -0.5617064237594604 -0.4364771842956543 0.6747690439224243 -0.4293110072612762 -0.1212718486785889 -0.4000484049320221 1.9210700988769531 1.3910034894943237 -0.7412336468696594 -0.5527777075767517 -1.2086240053176880 1.3819912672042847 0.8901816010475159 0.7819209098815918 -1.1989244222640991 -1.0579770803451538 0.8728591203689575 -2.6237254142761230 0.1031923219561577 0.6345004439353943 0.4694804549217224 0.3492258489131927 -0.1587967127561569 -0.0363363921642303 -0.1719768941402435 -0.7314747571945190 0.3004308342933655 -1.1920282840728760 0.2857053577899933 -0.4259261488914490 2.4156615734100342 0.7773064374923706 0.2771517932415009 0.1005190610885620 1.4359000921249390 2.2195336818695068 1.4989116191864014 2.9095764160156250 -1.4997888803482056 -0.9272099733352661 0.1250308752059937 -1.0671130418777466 0.4541266858577728 -0.3484656512737274 -0.1319174170494080 -0.1474204957485199 0.3558761179447174 2.3625280857086182 1.4498556852340698 -0.2390053570270538 -0.9097464084625244 -0.4572146236896515 0.6278896927833557 0.3382096290588379 -0.8034227490425110 -1.2473570108413696 0.7647030353546143 0.7810928821563721 1.1846913099288940 1.8404481410980225 -0.4068855345249176 2.0539548397064209 -1.0706192255020142 0.2729800939559937 0.3140801489353180 0.6989032030105591 -1.6932632923126221 -0.6282907128334045 -0.0756595656275749 -0.0312734395265579 0.4486660957336426 0.4414630532264709 -0.7734289765357971 -0.2343354672193527 -0.2859300076961517 1.7057723999023438 -0.1642239987850189 0.3976739048957825 0.4097240567207336 1.0706666707992554 0.1489480733871460 -0.3288878798484802 -1.5698502063751221 1.5953111648559570 -2.8695762157440186 -0.3891732990741730 -0.7116264104843140 1.0092931985855103 -0.4925363957881927 -1.2609488964080811 0.5408315062522888 -0.3197900056838989 1.0038431882858276 -1.0371266603469849 -1.2061690092086792 -0.1894969791173935 -0.9100736379623413 0.0709850937128067 -0.9755784273147583
-0.1563790142536163 -0.7859649658203125 0.1512192636728287 0.9182249903678894 -0.1141750365495682 0.4162038266658783 0.2635989785194397 2.9060761928558350 0.9582383632659912 0.5975095629692078 -0.9347884058952332 -1.1059049367904663 0.0065533649176359 -0.9690434932708740 -1.3293097019195557 -0.1537777781486511 1.4456298351287842 0.3657822310924530 -0.7227196693420410 -0.9928519725799561 0.9816241860389709 -0.3339389264583588 2.0688223838806152 0.6450267434120178 0.5952939987182617 -1.3888052701950073 -0.7716984748840332 -0.1787609010934830 -2.4215641021728516 0.6095456480979919 1.1573731899261475 0.1675495803356171 -0.8031275272369385 1.0069591999053955 -1.2544538974761963 -1.3451120853424072 -0.7844532132148743 0.9337413907051086 -0.5106783509254456 -1.9262515306472778 -0.3258049488067627 -0.3711786270141602 -0.5454434156417847 -0.2697210609912872 -1.0914027690887451 -0.2428391426801682 -0.1100856512784958 0.3687711954116821 -0.2527973353862762 -1.0647250413894653 -0.6305255889892578 0.2003975063562393 -0.0290720481425524 1.0165884494781494 -0.1553615033626556 -0.5512911677360535 -0.0218614935874939 -0.0229909960180521 -0.6201387047767639 1.0133377313613892 1.9363309144973755 0.4286784231662750 -0.8494697213172913 0.6092431545257568 2.2227094173431396 0.8297488689422607 0.2974601387977600 1.5611363649368286 0.4757545590400696 -0.3778756856918335 0.5091233849525452 0.2586541473865509 -0.3721016049385071 0.5944280028343201 -0.8402399420738220 -0.8056627511978149 -1.1274074316024780 -0.8377807140350342 0.3599233627319336 -0.1660196930170059 1.1707918643951416 -0.6979038119316101 -0.8618655800819397 -0.8885607123374939 0.2646568715572357 0.2359178066253662 0.9824582338333130 0.3057827353477478 0.0691019147634506 0.4281116127967834 0.0177478771656752 -0.9987779259681702 -2.1479351520538330 1.1624698638916016 -0.6294102072715759 -0.4324640929698944 -0.7707468867301941 0.3353351354598999 0.5152543783187866 -1.7927966117858887 -2.1442751884460449 1.4474782943725586 0.4814930558204651 -0.2912242710590363 -0.3746236562728882 1.3406666517257690 -0.1849877685308456 -1.0043522119522095 -1.2230052947998047 -1.3643430471420288 -0.1963851600885391 -0.7677435874938965 0.0447966866195202 0.0347155705094337 -1.2154422998428345 -0.2167019248008728 -0.7204750180244446 1.7584341764450073 0.4546596407890320 0.2387374341487885 1.1502156257629395 0.3432949483394623 -0.0926094278693199 -1.0250577926635742 -1.7715331315994263 0.0265802983194590 -0.8242517113685608 1.7468130588531494
-0.5067256689071655 -1.5320835113525391 -0.0042672390118241 -0.0166728161275387 0.8774872422218323 -0.3262281119823456 0.4263389408588409 1.0322510004043579 0.1897719651460648 0.7760409116744995 -1.4111590385437012 0.6360734105110168 1.1746879816055298 -1.0662784576416016 -0.4549523890018463 -0.8331322669982910 -1.1397924423217773 1.6173396110534668 -0.1157809719443321 -0.1007521152496338 -0.8442108035087585 -1.3741809129714966 -0.8909218907356262 0.5108730792999268 -1.1888906955718994 0.2230557501316071 0.7312481999397278 -0.5654257535934448 -2.9503161907196045 -0.4771154224872589 1.4778019189834595 -1.2291477918624878 -1.2381740808486938 -0.4891966879367828 0.0338945351541042 -0.4652597904205322 1.1263839006423950 -1.2509303092956543 -0.9017215967178345 2.1158955097198486 -0.5359966754913330 -1.3503729104995728 0.2813313901424408 0.3627153635025024 -0.4078563153743744 0.9167692065238953 0.6776064038276672 1.1863682270050049 1.1709918975830078 -1.3324046134948730 1.3417587280273438 0.1980182379484177 -0.9619076251983643 2.9925124645233154 -0.9973706603050232 -0.7692862749099731 0.7616340517997742 -0.4864516854286194 -0.7805229425430298 0.7964990139007568 -0.8685946464538574 0.1112546101212502 -0.4540330469608307 -0.2687732279300690 -0.4017524719238281 -0.2379573583602905 0.3069911301136017 -1.3397431373596191 -1.3894995450973511 -0.6140735745429993 -0.6888017654418945 0.6331265568733215 -1.2057032585144043 0.5780654549598694 0.4124859571456909 -1.9723178148269653 -2.2586829662322998 -0.0745987668633461 0.0415193736553192 0.3362734019756317 0.6027828454971313 0.3735783100128174 0.4700315892696381 -0.9654934406280518 1.2474590539932251 -1.9366710186004639 1.9474740028381348 -0.4784959852695465 0.3584150373935699 0.9218989014625549 0.6111868023872375 0.6174569129943848 0.4473657011985779 -0.1619219928979874 0.2075918316841125 -0.3151531517505646 -0.3692901134490967 1.4268733263015747 0.8346742391586304 1.3319424390792847 1.7849587202072144 1.3467757701873779 0.5484971404075623 0.5680376291275024 -0.7848525643348694 1.1336275339126587 0.6164677143096924 0.6043214797973633 -0.6368880271911621 0.1074209436774254 0.9416602253913879 2.0980565547943115 0.2685437500476837 0.0673183351755142 0.2217054516077042 1.8872787952423096 0.8964987993240356 -0.7105643153190613 0.6271913647651672 -1.6513327360153198 -1.5114090442657471 1.3895895481109619 -0.2678274810314178 -0.3432007133960724 1.4960297346115112 1.3861269950866699 1.0548136234283447 -0.3939863145351410
-1.6185083389282227 -0.9110136628150940 1.2805378437042236 0.8293935060501099 0.5879767537117004 -0.6010746359825134 -1.1115835905075073 -2.0491874217987061 1.0761108398437500 0.6359642148017883 -2.0472438335418701 0.7839389443397522 0.5989203453063965 0.5103892683982849 0.4789022505283356 -0.1727486252784729 0.6175341606140137 0.6820167303085327 -0.7405019998550415 -1.3465149402618408 1.4325910806655884 -0.2864505350589752 0.0491071827709675 0.3340230286121368 -0.0730600878596306 -0.0167655926197767 0.0494272522628307 -1.7265938520431519 0.3049943447113037 -1.1571780443191528 1.4349319934844971 -0.0407392419874668 1.3432639837265015 1.6092287302017212 -1.0109269618988037 0.4516009688377380 1.2252131700515747 0.1587819457054138 -0.5461189150810242 0.7621344923973083 -1.2208520174026489 0.3529312014579773 -1.1150752305984497 0.5122215747833252 -0.4191983342170715 -1.4761798381805420 -0.9907930493354797 -0.4221852719783783 -0.6455026268959045 0.7798481583595276 0.4011654555797577 -0.6043924689292908 0.7581327557563782 -1.2632498741149902 -0.0744860768318176 -0.8887471556663513 -0.6383000612258911 -3.0641868114471436 -0.6857022643089294 -2.2699036598205566 -0.3263076543807983 -0.3096993565559387 -0.4374817609786987 0.4830626547336578 1.1268452405929565 -1.1398956775665283 -0.0657284259796143 -0.6968626976013184 0.8501651883125305 -1.2073214054107666 0.0013542464002967 0.3722772896289825 -1.1278575658798218 0.3012801408767700 0.5330008268356323 -1.3801026344299316 -1.0509403944015503 -1.0908378362655640 0.1373407393693924 0.3072347342967987 0.9829143285751343 1.2508686780929565 0.1034592539072037 -0.3743501603603363 -0.0837121158838272 -0.1163041219115257 -0.7441167831420898 0.0877299755811691 1.5813599824905396 -1.1760057210922241 -0.2040268480777740 0.4787251055240631 -1.2409217357635498 -0.6131979823112488 0.7475782036781311 0.3745514452457428 -0.4524862170219421 0.4979470074176788 -0.9252747893333435 -1.6264296770095825 -1.1143394708633423 -0.4340865910053253 0.7197747826576233 -0.2732816338539124 -0.9703481793403625 0.3116161227226257 -0.2962890863418579 0.6648232340812683 -1.4645853042602539 1.3706222772598267 0.8305475711822510 0.8222669363021851 -0.7384297847747803 0.9291622638702393 0.7482661008834839 -0.1236623674631119 1.4711446762084961 0.6546536087989807 0.6339561939239502 -1.0101523399353027 0.3297974467277527 0.2484162300825119 -0.3387130200862885 1.0722889900207520 -0.8381776213645935 1.0629490613937378 0.5151962041854858 -0.2238466292619705
0.1100582554936409 -1.1981383562088013 -0.4905659258365631 -0.1411483436822891 1.1651710271835327 -0.1626762598752975 0.8299482464790344 -0.0898706614971161 1.2671413421630859 0.7565848231315613 0.8762761950492859 0.3200275897979736 -0.2925240397453308 1.4185770750045776 0.0497845932841301 1.4253554344177246 0.5201069116592407 0.1030238121747971 1.0047224760055542 -0.3594207763671875 -2.0102434158325195 -0.3020929098129272 0.2862710654735565 0.6708796024322510 -0.1560085862874985 0.5061937570571899 1.6740782260894775 -0.8726407885551453 0.6804739832878113 -0.5725751519203186 0.4674676358699799 0.9343100786209106 0.7772822380065918 -1.3161705732345581 1.2653416395187378 2.0049297809600830 0.2926350235939026 1.7574352025985718 -0.8612980246543884 -1.1545363664627075 -0.7189338803291321 -0.4222541749477386 0.2469931095838547 -0.0719233453273773 0.7626043558120728 0.3676871061325073 -0.2938485741615295 -0.1466577351093292 -0.7229547500610352 0.1703504920005798 -0.6211353540420532 -2.5079216957092285 0.0289543326944113 0.7245664000511169 1.7296769618988037 0.0498653985559940 -0.0112553369253874 -1.0128903388977051 -1.8277446031570435 0.3490205705165863 0.8067516088485718 0.5786752104759216 0.9240617156028748 -0.1938707530498505 -0.2163341045379639 0.0481273904442787 -0.0787831395864487 -1.3770128488540649 -1.2972147464752197 1.1693574190139771 0.8455587625503540 -0.4402377605438232 -1.4545954465866089 -0.0366160236299038 -0.4409380853176117 -0.0147917037829757 0.4102666974067688 1.4110015630722046 0.8578750491142273 -0.6942566037178040 0.0051946756429970 0.8176170587539673 1.5033621788024902 -1.0674393177032471 2.5648679733276367 -0.3269580602645874 -0.0076984791085124 -0.0198252778500319 0.6238225102424622 0.7418268322944641 1.8010069131851196 -2.8194744586944580 -0.2738823890686035 -0.2083113044500351 1.2141299247741699 1.1277853250503540 -0.0581429228186607 0.2247276306152344 -0.0153857190161943 -1.2913423776626587 -0.7579793930053711 0.6264934539794922 0.3918321132659912 1.2055335044860840 -2.8071656227111816 1.8085720539093018 0.1651839315891266 0.4016064405441284 -0.2321154624223709 -0.6459796428680420 0.6095433235168457 0.7483229637145996 -0.5221319794654846 -2.1681802272796631 -0.8684554696083069 0.1797804385423660 1.8617540597915649 -0.0585162490606308 -0.5157604813575745 0.8431570529937744 0.6266952157020569 0.6001361608505249 -0.0974859371781349 -1.9169179201126099 -0.5824181437492371 0.8819022774696350 -0.7851622700691223 -0.1417416632175446
0.4351657927036285 -0.2297030240297318 0.7759646773338318 -0.0763617157936096 0.6282156109809875 -0.0611409433186054 0.1289387345314026 -0.0454300977289677 -0.5460187196731567 -0.4387347102165222 -1.6263039112091064 -1.6250414848327637 0.5345532894134521 -0.4128743112087250 -1.6242809295654297 0.9434394836425781 1.5644477605819702 0.3963326811790466 0.1714587658643723 1.0965007543563843 -1.5182498693466187 -2.2366244792938232 -0.3506194651126862 0.3655061423778534 1.0831695795059204 0.8450019955635071 -0.2866441309452057 0.4905927479267120 -0.5180597305297852 0.2131577432155609 -1.5221529006958008 -0.2596518397331238 -0.9393826127052307 0.7719061374664307 0.4365417361259460 -0.2445925176143646 -0.8495866656303406 -1.5229121446609497 0.9242596030235291 1.4398236274719238 0.7034725546836853 -1.3517632484436035 1.5995347499847412 0.4659665822982788 0.5898019075393677 -0.3724668323993683 1.1582081317901611 -0.6674231886863708 -1.3134785890579224 0.9423114061355591 1.6417576074600220 0.6535428762435913 0.5480061173439026 0.7375887036323547 0.7558583617210388 -0.0447539053857327 -0.8549760580062866 0.6752752661705017 -0.1413270235061646 -0.7386251091957092 0.2427587062120438 -0.2861389517784119 -0.0517191439867020 -0.1149606853723526 0.7480465173721313 -0.5684260725975037 0.2400612980127335 0.6013967990875244 1.4037047624588013 -0.6385035514831543 0.9688133001327515 -1.2417101860046387 -1.3194979429244995 -0.5131496787071228 -2.6836988925933838 1.3476818799972534 -0.9996735453605652 0.3525223135948181 0.6721671223640442 -1.1773804426193237 -1.6280525922775269 -2.7273230552673340 0.9947135448455811 -0.7486457228660583 -1.1185656785964966 2.3734881877899170 -0.1658958047628403 0.7942918539047241 -0.3603320419788361 0.6764671206474304 0.7680496573448181 0.2548288702964783 -0.1617926657199860 0.4203071892261505 -0.5604165196418762 -0.3621620535850525 0.1168680340051651 0.3853309154510498 1.0657496452331543 -0.8287225365638733 0.8619140982627869 1.6149524450302124 1.7145144939422607 0.0971878021955490 -0.5224685072898865 -1.2132428884506226 0.3862666189670563 -1.3012204170227051 1.1789137125015259 -0.5765010118484497 -0.2750596404075623 -0.1096177846193314 -1.7782583236694336 -0.4646843671798706 1.0871613025665283 -0.5898173451423645 -1.3746311664581299 -0.8554375171661377 0.8368292450904846 -0.3192687928676605 -1.6579365730285645 -0.9942209124565125 -1.4246625900268555 -0.3458778560161591 -0.3602208197116852 -1.3590489625930786 1.3059110641479492 0.4703560769557953
0.2275730669498444 -0.1101086139678955 1.2946518659591675 0.7760055661201477 0.4109313786029816 -1.3302359580993652 1.9242498874664307 0.0212249569594860 0.2024698704481125 0.0178194195032120 -0.5302954316139221 1.2410013675689697 -1.7649719715118408 1.2188937664031982 0.1409855633974075 -1.2829225063323975 1.6159991025924683 -0.6619715094566345 0.0256329961121082 -0.0100260470062494 0.0263410285115242 -0.2796415984630585 1.1211776733398438 0.2825163602828979 -0.2209862768650055 0.6625281572341919 -0.7231091856956482 -2.0923695564270020 -1.9061741828918457 0.5356364250183105 0.9806343913078308 -0.6537917256355286 -0.0389470756053925 -0.3265811204910278 0.6992245912551880 -0.6221511363983154 -0.0807629227638245 -0.0538399927318096 0.0051029976457357 0.2263679653406143 0.2276683151721954 0.6469947695732117 -1.2151201963424683 -1.1681741476058960 2.5561556816101074 0.1755489259958267 -0.1378873735666275 -0.4992251098155975 -1.4509720802307129 2.1709370613098145 -2.1493782997131348 0.8056114912033081 0.3112325966358185 0.4502516388893127 0.0269999038428068 1.1595845222473145 0.4315104186534882 0.2259397804737091 0.5049838423728943 1.0219829082489014 -1.2307771444320679 -0.9521511197090149 0.9339758753776550 -0.3731010854244232 -1.5122960805892944 -1.2831305265426636 1.0770453214645386 1.5867729187011719 0.4013330638408661 1.1893576383590698 -1.1820129156112671 -0.6281481385231018 -0.9367724061012268 0.3108893930912018 0.4787843823432922 1.3906115293502808 0.4812837541103363 0.4032485485076904 -4.6174588203430176 1.3949468135833740 -0.0724411234259605 -1.7572818994522095 -0.1683124601840973 -0.5653730630874634 0.8273048996925354 0.6039022803306580 0.4890787899494171 1.2338119745254517 -0.6051681637763977 0.1724268347024918 -0.2334115803241730 0.1762403845787048 -0.5610240101814270 -0.0092366980388761 0.6026220321655273 0.6922533512115479 -2.1004738807678223 -0.1483618915081024 -1.1811500787734985 0.1679136604070663 -0.0254806112498045 0.4996826052665710 -0.3324055075645447 -0.9215447306632996 -0.5363338589668274 0.6537642478942871 0.4778723716735840 1.6287059783935547 -2.3406126499176025 0.5938484072685242 -0.2290100008249283 1.5148664712905884 0.8862037658691406 1.0164424180984497 1.5266200304031372 -1.7892931699752808 2.6053638458251953 -0.2794945836067200 0.0585595853626728 1.2019786834716797 -0.2600845694541931 -0.9337510466575623 0.6951621770858765 0.2466729283332825 -0.7745911478996277 -1.4730213880538940 -0.0612794570624828 0.8038665652275085
0.0618794821202755 0.3327163755893707 0.5109624266624451 0.0823022499680519 0.1044240668416023 0.1362889409065247 1.0845766067504883 1.1735796928405762 1.5380587577819824 -0.3170852661132812 -0.4365861415863037 -2.3502213954925537 0.8528789281845093 -0.0065839411690831 -0.5997599959373474 0.5427308082580566 -0.7943961024284363 -1.4457913637161255 -1.1217271089553833 -1.0910797119140625 -1.9470297098159790 0.8763847351074219 0.3243422806262970 1.2584925889968872 1.3087167739868164 0.2718852460384369 -0.1282168924808502 -0.0711697041988373 -1.2966338396072388 -0.6151123642921448 0.5939198136329651 0.5804345607757568 1.6395988464355469 -1.7290827035903931 3.0573437213897705 -0.2240633219480515 1.0745035409927368 -0.0234351139515638 0.3283225595951080 -0.1764917969703674 -1.0352631807327271 -0.2952136695384979 0.5825393199920654 0.5072342753410339 -0.0603426843881607 -0.4484725892543793 1.3378220796585083 0.8137704730033875 -0.2920120656490326 0.5955744385719299 -1.4546399116516113 0.9009543657302856 -1.2081816196441650 0.1869577169418335 0.4732626080513000 -0.7367416620254517 1.3904544115066528 -0.5979114174842834 -0.8009203672409058 -2.1553866863250732 1.8522294759750366 0.4222612082958221 -2.0320000648498535 1.4169559478759766 -1.4579213857650757 -1.2453117370605469 0.5779944062232971 0.2273061722517014 1.6464458703994751 1.1573922634124756 -0.3707699775695801 1.5730508565902710 -0.1981686502695084 0.2938955724239349 -0.1493083685636520 0.9644187688827515 0.1356213688850403 0.4129748642444611 -1.3770853281021118 0.8389338850975037 1.2176140546798706 -0.4289024770259857 -0.4092751145362854 0.4448628127574921 1.0137469768524170 -0.4695705771446228 -0.7506159543991089 1.4704582691192627 -0.3398661613464355 1.2267609834671021 -0.6477716565132141 -1.0253854990005493 0.1397866606712341 -1.3722766637802124 1.6316497325897217 -0.5689269304275513 -2.3869614601135254 -0.3022035658359528 1.3263710737228394 0.5541636347770691 0.0876471549272537 0.8608732819557190 -0.4641548097133636 -1.3618551492691040 -0.0702993571758270 0.1965064704418182 0.0295490883290768 0.4067533314228058 -1.2194676399230957 -0.9257510304450989 -0.0283493287861347 -0.8473258018493652 0.8756303787231445 0.2688485383987427 -2.1770458221435547 0.6630458831787109 -0.0462127327919006 -0.7136957049369812 0.5681855082511902 0.7083286046981812 -0.2597710192203522 1.6796706914901733 0.2273751050233841 0.5645323991775513 0.5619478225708008 -1.6412850618362427 0.5003289580345154 -0.3680231869220734
0.0994562059640884 -1.4512196779251099 -1.2227996587753296 0.0512813739478588 2.9450347423553467 0.3365583717823029 -0.2331164926290512 -2.4069240093231201 -0.5877110362052917 0.0728775784373283 0.2954842746257782 -0.6523659229278564 1.7093883752822876 1.2090982198715210 -0.8100407123565674 -0.6041962504386902 -0.4868829250335693 0.0971541032195091 1.3114693164825439 0.6979447007179260 1.3144090175628662 -0.1083416193723679 0.1362576931715012 -0.7366641759872437 1.2140036821365356 0.1536917984485626 0.0309682041406631 -0.6454222798347473 0.4085574746131897 0.8735848665237427 0.4426803290843964 -1.3936258554458618 -0.4898436069488525 0.2831598520278931 -3.6013720035552979 -1.8922028541564941 0.2269141823053360 1.2712606191635132 2.0624861717224121 1.5512715578079224 -0.2680999636650085 2.7114818096160889 0.3086209595203400 -1.8715552091598511 -0.8753068447113037 -0.3158423602581024 -1.6055566072463989 0.2602140009403229 -0.0291565060615540 -1.3918559551239014 -0.1188100129365921 -0.1745734214782715 -1.3346155881881714 0.6373067498207092 0.4895715713500977 -0.1683715581893921 -0.3659841418266296 0.1260404139757156 0.4306811988353729 -0.7334988713264465 -0.8283085227012634 0.8484438657760620 0.4043699502944946 -0.6821634173393250 0.5347678065299988 0.4334275722503662 -1.7124484777450562 -0.0153049752116203 1.1065498590469360 1.7482790946960449 -0.3011157512664795 1.6072649955749512 0.4570666849613190 -1.0713394880294800 0.9380626082420349 1.4137330055236816 0.4919993877410889 1.5202457904815674 0.3476357758045197 -1.2398790121078491 -0.7636926174163818 0.4065587818622589 -0.9992895722389221 1.0487494468688965 0.2609134912490845 0.8215463161468506 -1.2115767002105713 -0.1605576276779175 1.4392433166503906 -0.7430379986763000 1.9859149456024170 1.4648636579513550 -0.5326542854309082 -0.5856956839561462 1.1173959970474243 -0.8089416623115540 0.8390715122222900 0.4537790715694427 -1.4063687324523926 -0.8950746655464172 -0.0520608946681023 0.7306913137435913 1.6156040430068970 1.0226703882217407 2.7463893890380859 0.5580154657363892 -0.1595736294984818 1.3385126590728760 1.8597332239151001 0.8744325041770935 -0.7417172789573669 1.0720727443695068 0.4025262892246246 1.6216785907745361 -0.6881336569786072 0.4536998867988586 -0.3292886018753052 -0.1880143731832504 0.2036124616861343 -1.4139646291732788 -0.4657782614231110 -1.3866420984268188 1.2218391895294189 0.5472247600555420 0.0367479696869850 -0.5179120898246765 -1.0758529901504517 1.7282487154006958
0.2653461396694183 -0.7170022130012512 0.1348423212766647 0.2996512353420258 -0.4435693621635437 -0.2774434983730316 0.4938742816448212 -0.2432805597782135 1.5696587562561035 -2.4926972389221191 0.6429392099380493 1.3027867078781128 -0.4658055901527405 0.0452343225479126 -0.0604947172105312 -0.1709289252758026 1.3383768796920776 -0.8083788752555847 0.7622987627983093 0.7283970713615417 -1.0640794038772583 0.9257410764694214 1.8829069137573242 -0.8156228065490723 -0.7615602016448975 -0.2155604511499405 0.1366564631462097 -0.6658935546875000 -0.4729820489883423 0.5773531794548035 1.0650303363800049 -0.9820128083229065 1.6508302688598633 -1.1752613782882690 -0.5698646306991577 0.7741701602935791 2.3804910182952881 1.7669733762741089 0.4343902766704559 -0.9399509429931641 -0.6841378808021545 -1.1672948598861694 -0.0786525756120682 -0.4207787811756134 0.7723721265792847 -0.4422440826892853 2.0926442146301270 0.3803352117538452 -1.6068102121353149 -1.8640620708465576 0.7888877391815186 -0.7259601950645447 1.5577961206436157 -0.6445870995521545 0.9581682085990906 0.2386817634105682 -0.4049638509750366 1.1045714616775513 -1.3990968465805054 0.4821515381336212 2.1791255474090576 0.4076568186283112 1.1597887277603149 -0.2459534853696823 0.7905535697937012 -0.1699579954147339 -0.2384768873453140 -0.4217213690280914 -0.6317521929740906 -0.6370117664337158 -1.4548823833465576 0.5998209118843079 -1.3624634742736816 -0.7830231189727783 0.3606964647769928 -1.3557560443878174 -0.9853933453559875 2.5468173027038574 0.3798762559890747 -0.0567085891962051 0.9779831171035767 -0.4841692745685577 1.0489283800125122 0.3757359385490417 0.0133585454896092 -0.8924731016159058 0.0030476225074381 0.7544779181480408 -0.5760716199874878 -0.4513393640518188 -0.8188177943229675 -0.3693537414073944 -0.1142900139093399 0.6765094399452209 0.2296129912137985 2.1909661293029785 -1.3383482694625854 -1.4047787189483643 0.2732611894607544 -0.0003366047749296 0.3006383180618286 2.3719093799591064 -1.6444160938262939 0.8041655421257019 -0.7285084128379822 0.0701883286237717 -2.4976823329925537 2.2419271469116211 -1.0025984048843384 0.0383638143539429 0.6320756673812866 0.9269951581954956 -0.2354131042957306 1.0914065837860107 -0.4350339174270630 -1.8178728818893433 -0.9395905137062073 0.6228754520416260 0.2275176197290421 1.3684530258178711 -0.5440548062324524 -0.1332861483097076 -1.9761929512023926 -0.7388944625854492 0.2877110540866852 0.3976378142833710 -0.3809627294540405 -0.2736076414585114
0.1976215541362762 1.3636898994445801 0.7742916345596313 0.2516986429691315 1.1384822130203247 0.5580824613571167 0.4193508028984070 -1.2483540773391724 -0.6130281686782837 1.2361837625503540 -1.3757151365280151 -1.5414137840270996 0.0577682256698608 0.0780815556645393 -0.0902450084686279 -0.0065470873378217 1.1793150901794434 0.0486038178205490 0.2164757847785950 -0.7362758517265320 -0.4280438721179962 2.0282344818115234 0.4377261400222778 -0.6160039305686951 1.8585329055786133 -0.5116512179374695 -1.0169912576675415 -0.3903901875019073 1.3548442125320435 -0.3299682438373566 0.4192291200160980 0.2253496199846268 -1.5025901794433594 0.0278075654059649 -2.1235406398773193 2.1897606849670410 -1.2750699520111084 -0.9871523380279541 -1.8072191476821899 0.4433604180812836 -0.6595191955566406 0.2386137098073959 0.9411703348159790 -0.3162860274314880 -0.6218775510787964 0.2799690663814545 -1.6013002395629883 1.8876442909240723 0.7947866916656494 -0.4079063832759857 0.6338331699371338 -0.1940264403820038 0.7904955148696899 1.5594004392623901 0.7314903140068054 -1.4179055690765381 2.0890085697174072 -1.2157825231552124 -0.8153490424156189 -0.4462024569511414 -0.8042509555816650 -1.8750245571136475 0.1007488220930099 -0.4636494517326355 -1.6116712093353271 -0.1585458666086197 -0.6255538463592529 -1.2013281583786011 0.4694982469081879 -0.0377488955855370 1.7337328195571899 1.1589015722274780 1.5598849058151245 0.8920035958290100 -0.9947725534439087 -0.7445486187934875 -0.9456256031990051 -0.2131833881139755 -2.0681498050689697 -0.0239263232797384 1.3902102708816528 -0.3792900443077087 -0.3008103072643280 1.0731970071792603 0.6760930418968201 0.2306685894727707 0.7776278257369995 0.2474172413349152 0.3096021413803101 -1.5474541187286377 -1.6735321283340454 2.6951489448547363 0.1637442111968994 0.0303496420383453 2.8542549610137939 1.1278450489044189 -0.6537760496139526 -0.3856413066387177 -0.6086577773094177 0.5092313885688782 -0.1921724379062653 1.6616407632827759 -0.9020323157310486 -0.2702909409999847 -0.4503940641880035 0.5509713292121887 0.7560244202613831 0.5931778550148010 -0.9599649310112000 0.4766609072685242 1.1406474113464355 1.5044291019439697 -0.9257263541221619 -1.8717561960220337 0.7237163782119751 0.6809643507003784 -1.2484956979751587 -0.4205724895000458 1.5598334074020386 -0.8841221928596497 -0.0967136174440384 -0.5811898708343506 -1.7242406606674194 -0.9487345218658447 0.4019998610019684 -0.6212252974510193 0.6076402664184570 0.1480096280574799
-1.5963678359985352 1.0247173309326172 -0.0435992889106274 -0.0372990667819977 0.6327217817306519 0.6219168305397034 -1.0221288204193115 -0.4998864531517029 0.7088493704795837 0.6689532399177551 -0.0124119706451893 -0.1424458026885986 2.1631078720092773 -1.8094820976257324 1.1646300554275513 -0.1472185254096985 -1.5879396200180054 0.9757367372512817 0.3264987468719482 -0.8161895871162415 -1.3405416011810303 -0.6962597370147705 0.0514596477150917 -1.2723734378814697 -1.1872252225875854 -1.9550540447235107 2.2546494007110596 0.2735210657119751 0.9736222028732300 0.4336452484130859 -0.2054277062416077 0.1181422472000122 0.1714431792497635 0.9496308565139771 -0.5963467955589294 -0.4204304516315460 -0.7459626793861389 -0.2581631541252136 0.2430017441511154 -0.1861396729946136 0.5957078933715820 -1.3319669961929321 1.1842117309570312 -0.4992938339710236 0.5301914215087891 1.2599570751190186 1.8475197553634644 0.2235684990882874 -0.6581031084060669 -0.3097218871116638 -0.0218201167881489 -0.4876751899719238 -0.6587255001068115 -0.1437596827745438 -0.9891000986099243 -0.3732603192329407 0.2462775111198425 0.3491843342781067 -0.2937561273574829 1.1319563388824463 0.2221718728542328 0.9699674844741821 0.2969393730163574 -0.3791900873184204 -1.0389354228973389 1.0031315088272095 -1.5620418787002563 -0.2866518199443817 0.7242277860641479 1.2772568464279175 1.2546399831771851 -0.4460751712322235 -1.4591207504272461 -1.2753316164016724 -0.6113444566726685 0.8329167366027832 -1.9144127368927002 0.2966303229331970 0.5369344353675842 0.3757665157318115 -0.8118442296981812 -0.0072588901966810 0.8683229088783264 -0.6255521774291992 1.1612527370452881 0.9860076308250427 -0.0887488722801208 0.0271823853254318 0.3663663864135742 1.1765347719192505 1.3248937129974365 0.9743950963020325 -2.1492230892181396 -1.3711712360382080 0.8748451471328735 -0.2383496910333633 0.0337629765272141 -0.6540889143943787 0.3347081840038300 -1.4260027408599854 -0.8320717215538025 -0.6300092339515686 0.8495731949806213 0.1805323362350464 0.8544677495956421 -0.0956235453486443 0.6704617142677307 -0.2519409358501434 0.4222313761711121 1.2616393566131592 0.1510743796825409 0.1774852126836777 0.5930344462394714 -0.0517960973083973 0.5906561017036438 -0.5048342347145081 -1.1432926654815674 -1.0398738384246826 -0.1527754068374634 -0.6730644106864929 -0.9533988833427429 0.2240761369466782 -0.1812614649534225 0.0559583157300949 1.2604160308837891 -2.1468141078948975 -0.2109037786722183 -0.6312842965126038
1.0579036474227905 -0.2536062896251678 -1.3406478166580200 0.6976650357246399 -0.2310166805982590 0.4489522278308868 -0.0799096822738647 -0.8015878200531006 -0.6957378983497620 0.7903059124946594 -0.8201720118522644 0.3707142770290375 -0.2563223540782928 -0.0103335082530975 0.3785742521286011 0.2403597980737686 0.3180021345615387 0.5804491639137268 0.8874275088310242 0.8977949023246765 0.9796010255813599 0.3790206015110016 0.7724169492721558 -1.5377101898193359 0.4737151265144348 -0.9109814763069153 -1.1281911134719849 -0.7049017548561096 0.2643945515155792 -0.1553700417280197 -0.5008643865585327 -1.2689052820205688 -0.2424544990062714 0.2830461561679840 -1.1214724779129028 -0.3686545193195343 0.3742037117481232 0.2695338428020477 -0.2458069920539856 0.0904337912797928 1.7660398483276367 -0.9174656867980957 -1.0089129209518433 -0.9561980366706848 -0.5796752572059631 -0.1105935797095299 -0.5482256412506104 0.5713915228843689 -0.6293555498123169 0.4245405495166779 -0.7714670896530151 -0.2163614034652710 1.1815817356109619 -0.9160758256912231 -0.0251509249210358 -1.2273908853530884 -0.9356731772422791 0.3844290375709534 -1.6017789840698242 0.0769991353154182 -0.1917393356561661 0.4376566112041473 -0.2522675693035126 1.1271549463272095 -0.6601787805557251 -0.7333670854568481 0.1594436019659042 0.7380871176719666 0.0733955502510071 1.1161047220230103 0.2519848644733429 0.2307173609733582 0.2950106263160706 -0.1352179944515228 -2.5133974552154541 1.1338374614715576 -1.4043260812759399 0.6412642598152161 0.7817828059196472 -0.0957730486989021 0.9564632177352905 -1.3705868721008301 0.0278068333864212 -1.1849411725997925 -1.5518356561660767 -0.3036737740039825 -0.1434688121080399 2.2577621936798096 -1.0036238431930542 -0.6165893077850342 1.4859869480133057 0.0668031126260757 0.7258547544479370 -0.8440830111503601 0.8427215218544006 0.2571452260017395 -1.7534991502761841 -0.3629933297634125 -0.4589653015136719 -1.3183609247207642 -1.1073875427246094 -1.0842089653015137 -0.1060824692249298 1.0109653472900391 1.1737388372421265 1.2220733165740967 -1.7884362936019897 -0.4894674122333527 0.4737612307071686 -0.5327055454254150 -1.3347376585006714 0.0940828248858452 0.2651134431362152 0.8990715742111206 1.8854203224182129 -0.4150067269802094 -0.2610973417758942 -0.5486680269241333 -0.0072644264437258 0.8415238261222839 -0.3179128766059875 -0.0924002975225449 0.9630367159843445 -0.7809770107269287 0.4217217862606049 -0.4829089343547821 -2.2974145412445068 1.4753270149230957
-1.8674066066741943 0.0118237901479006 0.1271600574254990 -0.5356025099754333 0.3928380012512207 -0.6608937382698059 -0.5462203621864319 1.8220653533935547 -0.8186983466148376 0.5625663995742798 0.8765415549278259 0.7874485254287720 0.8011971116065979 0.5525381565093994 0.2450064122676849 0.7135213017463684 -2.0515987873077393 -1.6023913621902466 0.6993676424026489 0.9034357666969299 -0.5042067170143127 1.5420674085617065 1.6236265897750854 1.1960273981094360 0.2002029418945312 -0.2567636072635651 0.1519980281591415 -1.7975624799728394 0.9755042791366577 -2.0105032920837402 0.4640032052993774 0.2970937490463257 -0.2222299426794052 -1.1906114816665649 1.1134265661239624 -0.8109682202339172 -1.0481905937194824 0.7871021032333374 1.1098508834838867 0.6207205653190613 1.3204431533813477 1.4361653327941895 2.2837615013122559 0.2107202261686325 -1.0836634635925293 -0.6848405599594116 -0.2087395787239075 -0.3316623568534851 -0.2967965900897980 1.4568847417831421 -1.0506740808486938 -0.3660377264022827 0.5851199626922607 1.7509897947311401 0.6803135275840759 1.0782871246337891 -1.3563433885574341 0.7696905732154846 0.0381070263683796 -0.2951534092426300 -0.0458099506795406 -0.0439928174018860 -0.2020271569490433 0.2965910732746124 0.4935553073883057 1.7347307205200195 -0.2109429389238358 -0.3738882541656494 -0.4560990929603577 0.5554827451705933 2.2300264835357666 -1.5402802228927612 -0.9625861644744873 0.5349913239479065 1.4838812351226807 2.2126932144165039 1.1550314426422119 1.7647902965545654 -0.0593966357409954 -2.2215502262115479 -0.3939888775348663 1.1083291769027710 -0.6090536713600159 -0.0156795419752598 -0.9084037542343140 -1.0019632577896118 0.0767561569809914 0.2480554580688477 0.4574076831340790 -0.6436614990234375 2.3666160106658936 -0.6964289546012878 0.2248465865850449 -1.3360671997070312 1.8115477561950684 -0.7342574000358582 -0.3548246622085571 -0.3454061448574066 -1.7285178899765015 0.6177905797958374 1.4868175983428955 -0.9320693016052246 0.0371711738407612 0.0196946747601032 0.6167700290679932 -0.7467463612556458 -0.1600202023983002 -1.0957707166671753 0.2720710933208466 1.4767869710922241 0.2805739641189575 1.7477525472640991 1.2615576982498169 -0.1650558710098267 -1.4170711040496826 -0.4660346806049347 1.3801249265670776 -0.2021645009517670 -0.0453843958675861 -0.0765111744403839 1.3853191137313843 0.7890976667404175 -1.3682571649551392 0.4208973646163940 -0.2007650732994080 -0.5855842232704163 0.4871327280998230 -0.3660340607166290
-0.5908823013305664 0.0503019690513611 0.0550492145121098 0.9948048591613770 -2.0048954486846924 0.5629214644432068 0.3013970553874969 0.1287376135587692 0.5744683146476746 -0.4623546600341797 1.1397309303283691 -1.5017066001892090 -0.4621722102165222 -0.3579322397708893 0.6115874648094177 -0.5882063508033752 2.7842381000518799 -1.3222247362136841 -0.9306465387344360 1.4834676980972290 0.1003545820713043 -0.3506724238395691 -0.7217392325401306 -0.5060890913009644 0.8909281492233276 -0.5220764875411987 0.3479101359844208 -0.0124839600175619 1.1062829494476318 0.1531157195568085 0.5010061264038086 0.7376555800437927 -0.2216370552778244 0.1605608314275742 0.8188468813896179 -0.7841118574142456 -2.3089499473571777 0.0289162937551737 0.1312550455331802 1.3083257675170898 -0.5110719799995422 0.2274516224861145 0.2174938470125198 -2.0779628753662109 0.8167589902877808 0.9653213024139404 0.3688519299030304 -0.2340525686740875 0.5895441770553589 -0.9114834666252136 1.7782008647918701 -1.2244795560836792 0.3305290639400482 1.9486322402954102 1.2662909030914307 -0.2467664927244186 0.8166429996490479 -0.9390929341316223 0.4512861371040344 1.3657538890838623 -0.5171650648117065 -0.5232176184654236 -0.1751661151647568 1.0956352949142456 1.9809778928756714 0.7072364091873169 -0.0838076174259186 0.1708512008190155 -0.3984309434890747 2.4575350284576416 -0.1125575378537178 1.0420677661895752 1.8066530227661133 -0.2894693315029144 1.0431627035140991 -1.5982969999313354 0.2883097529411316 -1.7324271202087402 -1.2712908983230591 -0.9580473899841309 -0.3519151806831360 0.6916888952255249 0.7766949534416199 -0.1482437252998352 0.4492490589618683 -0.9522632360458374 -0.0127061130478978 1.9687589406967163 -0.5662627816200256 -0.5924855470657349 0.6527860164642334 -0.2951130270957947 -0.0786822736263275 1.0536509752273560 0.3178274035453796 -0.9080861806869507 -0.5356731414794922 0.2934130430221558 -0.3164012730121613 -0.9178708195686340 -0.2048193067312241 -0.4907027482986450 -0.2561077773571014 -0.4784568250179291 -0.9006609916687012 0.9555004239082336 0.4010333120822906 -0.8372022509574890 -0.4902145564556122 -0.9466678500175476 0.5092493891716003 -1.3141111135482788 0.3438460528850555 1.1564273834228516 0.6768998503684998 -0.7620488405227661 0.4472840428352356 -0.1216577142477036 1.7069205045700073 -1.4133200645446777 0.6896868944168091 0.8669303059577942 -0.7140972614288330 1.9092200994491577 -0.7383819818496704 -0.3617180585861206 0.4926128089427948 1.6292078495025635
0.3143350183963776 -1.0204478502273560 -0.9302383661270142 -0.8732969760894775 -1.0323987007141113 0.0282618310302496 -0.2279614508152008 1.7536315917968750 -1.1262936592102051 -1.6199775934219360 -0.4501624405384064 -1.4759957790374756 -0.2999965250492096 0.4369695186614990 -2.5416963100433350 -0.3557983338832855 0.5764986872673035 -0.9209525585174561 1.1486831903457642 0.1030922085046768 0.5645698904991150 0.6973192095756531 -1.0364536046981812 1.2229381799697876 0.7886818051338196 -0.8590081334114075 0.5451369881629944 0.4448780119419098 -1.9531396627426147 2.1555943489074707 -0.1724960356950760 -0.7879112958908081 -0.7949246764183044 0.6909281611442566 -0.9980337619781494 0.8144718408584595 -0.3356586992740631 1.3086206912994385 -1.6406652927398682 -0.6407839059829712 0.6244838833808899 0.1438619047403336 2.9422655105590820 -1.3871275186538696 -0.4154077768325806 -0.3870864808559418 -0.0300322137773037 1.0122181177139282 0.3331884741783142 -0.1399513781070709 -1.2984175682067871 0.1509212404489517 -1.4585353136062622 1.0977202653884888 -0.2392488569021225 0.1633154898881912 -1.6629495620727539 -0.0704003423452377 0.6417772769927979 0.5935536026954651 -0.0349729433655739 1.6783339977264404 -0.5786119103431702 1.0998680591583252 -0.4316752851009369 0.4693880677223206 -0.8526139259338379 -1.1360577344894409 -0.9253836274147034 0.9007645249366760 -0.4110201299190521 2.3622906208038330 -0.5001495480537415 0.8067362308502197 0.0686010196805000 0.3578378558158875 -0.2411426454782486 -0.8668659329414368 0.2486006766557693 1.1491492986679077 -0.2121537625789642 -0.0769577920436859 -0.4386279881000519 0.7623349428176880 -0.9218558669090271 -0.4581336677074432 -1.9876794815063477 2.1645841598510742 1.2841659784317017 -0.8772147297859192 -0.1881582289934158 -1.7658723592758179 -1.3239151239395142 -2.1096489429473877 -0.4020027518272400 0.0901547670364380 0.2498904168605804 -0.0483402647078037 -0.8146095871925354 -0.3618250191211700 1.6423228979110718 -1.0778695344924927 -0.4242126345634460 -0.7385423183441162 -0.5191118121147156 1.6120446920394897 1.4521321058273315 0.1932393461465836 -0.0510533079504967 -0.2606565356254578 -0.8038159012794495 0.3940470516681671 0.0273815114051104 -0.1832121908664703 -0.2323270291090012 -0.6464135050773621 -0.8152680993080139 -0.2643040418624878 1.0803170204162598 0.9650405049324036 -0.0054307617247105 -0.9753009676933289 -0.2233906984329224 -1.2185646295547485 0.6924510598182678 1.8807634115219116 0.6714478135108948 0.6168810129165649
0.3121461570262909 -0.7578991055488586 1.3817697763442993 1.7087582349777222 -0.3155606389045715 0.4790368080139160 -0.5587806105613708 -1.7525973320007324 -0.9915273189544678 -1.4346551895141602 0.3493393063545227 -0.1382196694612503 -0.7781193852424622 1.6627292633056641 0.8504636287689209 1.0159583091735840 -0.6875529289245605 -0.2549318075180054 -0.8001976609230042 -1.2090967893600464 -1.6277832984924316 1.8948462009429932 0.8423106074333191 -1.3688764572143555 0.4017171561717987 0.0028712686616927 -0.3144516050815582 1.1496170759201050 1.6780011653900146 1.4199306964874268 -0.3850612640380859 -1.2218717336654663 -0.0153940049931407 0.6154798269271851 1.2961181402206421 -1.0274085998535156 -1.5782762765884399 0.1959456205368042 -0.4485133886337280 -0.8550986051559448 0.2460521161556244 0.4309737384319305 -0.8067958354949951 0.8333092927932739 -0.9442288279533386 -1.9239674806594849 1.9060233831405640 -1.0747252702713013 -0.0805343985557556 0.9606820940971375 -1.2821589708328247 0.9664191603660583 0.2684998214244843 0.6539413928985596 -0.3825473785400391 1.8682173490524292 -0.5893361568450928 -0.0934928581118584 0.2981788516044617 -1.6386787891387939 0.4067427814006805 -0.3152786791324615 0.3904835879802704 0.3654073476791382 -1.2542452812194824 -0.4659711420536041 0.2410542964935303 -0.4282886087894440 -0.7672519683837891 0.6177517175674438 -0.6499152779579163 1.1428653001785278 0.6572502255439758 -0.8867583274841309 -0.4402585923671722 -2.4082338809967041 0.0967268198728561 0.4674746096134186 -0.6338593363761902 0.9104435443878174 1.8819429874420166 -1.2704780101776123 -1.6618008613586426 1.2204325199127197 -0.3089798092842102 -0.2334749102592468 -0.1684067398309708 2.2521688938140869 -1.3683679103851318 0.0229486916214228 1.2335466146469116 0.6962229013442993 0.1612413823604584 -1.8834335803985596 -0.9723666310310364 -0.6263782382011414 0.5932397842407227 0.5492355823516846 -0.6295125484466553 0.4224080145359039 2.2702476978302002 0.5999012589454651 1.2940310239791870 1.5825346708297729 0.9210769534111023 -0.0563551150262356 -1.1131962537765503 -1.8138365745544434 0.1872728914022446 -0.0640630498528481 0.4671202003955841 1.6412392854690552 -1.3894954919815063 0.1616402864456177 -1.5836080312728882 -0.4703265726566315 -0.9437975287437439 -0.7817373871803284 0.8048484325408936 -2.6970024108886719 -1.1985361576080322 0.1281531751155853 0.9936107993125916 -0.0109383855015039 -1.3572660684585571 1.1107412576675415 0.6126580238342285 -0.5281639695167542
0.4739282727241516 0.1984906643629074 -1.0568574666976929 0.3977699875831604 -0.4766486883163452 1.1437603235244751 -0.2745989561080933 -0.8725176453590393 -2.4577076435089111 1.2394744157791138 1.6301957368850708 -0.6562528610229492 0.4313415884971619 0.5959232449531555 0.2464469373226166 1.3660957813262939 2.0382163524627686 0.4865690469741821 0.7018495202064514 0.1819099783897400 -0.0343449413776398 2.2546219825744629 1.7694141864776611 -0.7185405492782593 0.4782913625240326 -0.3656912446022034 1.4510577917098999 -0.9750496745109558 -0.1199084892868996 1.3349214792251587 0.8993414640426636 1.6428952217102051 -1.1075830459594727 -0.1750891357660294 -3.0733845233917236 -1.6636478900909424 1.8903063535690308 0.6046688556671143 0.1137564927339554 0.0950933545827866 2.2791917324066162 0.2106350809335709 -2.5149378776550293 -0.3685008287429810 1.8053017854690552 -0.8217839002609253 0.4213742017745972 0.9324756264686584 -1.0627753734588623 -0.3246521651744843 -0.0494805201888084 -0.8869332671165466 -1.0237790346145630 -0.0755887255072594 -2.5940403938293457 -0.1033675596117973 -0.7319611310958862 1.3253945112228394 -0.1362769603729248 0.8494392037391663 0.5915054678916931 0.7687138319015503 -0.6374495029449463 0.6202826499938965 0.2997149825096130 -1.1455533504486084 0.2834608554840088 0.7032198309898376 1.6216826438903809 0.2879484891891479 1.0299296379089355 -0.4197320640087128 -0.6290484070777893 0.0954753383994102 1.6025787591934204 0.9488505721092224 -0.7060781717300415 -1.6338745355606079 0.2357255816459656 -0.5205579400062561 1.5147662162780762 -0.0786030441522598 -1.7776240110397339 -0.2192460000514984 0.9781764745712280 -0.3684079051017761 -0.3402556478977203 -0.7242377400398254 2.2460298538208008 0.4961040019989014 -0.5162811279296875 0.0466676577925682 -0.1034512147307396 0.5758374333381653 -0.0092921154573560 0.2885153293609619 0.2470126450061798 0.8257418870925903 0.2371094226837158 -1.2488089799880981 0.5686319470405579 1.1867401599884033 0.5024870634078979 -1.0522841215133667 -0.6778860688209534 0.0512041635811329 1.1326462030410767 -0.0456286258995533 -0.0936080738902092 0.4950664043426514 0.2496382743120193 -0.2157105654478073 -0.3122831881046295 -0.7812308073043823 -0.0640754923224449 0.9409978985786438 0.4854055345058441 1.2498130798339844 -0.9377899169921875 -1.3008351325988770 -0.2513406574726105 0.5057415366172791 -0.4584110081195831 -1.0989397764205933 -0.5723305940628052 -1.7246714830398560 1.0452382564544678 0.9826191663742065
-0.7167967557907104 -0.3107397854328156 -0.2287328988313675 0.4337426126003265 0.2313960045576096 -1.1942360401153564 -0.5604602098464966 0.3668293654918671 0.7973343133926392 -1.3649512529373169 -0.3863607645034790 -0.7948265075683594 0.5284869074821472 0.1094225645065308 0.2255359739065170 0.2652036249637604 0.0762445107102394 0.1978284865617752 -0.3014265596866608 0.6094606518745422 -0.9860810041427612 -0.1179559081792831 0.0913241207599640 0.0688096582889557 -0.6781029105186462 -0.3321825265884399 0.6553189158439636 -1.6059268712997437 1.2870014905929565 -1.1268966197967529 0.4879279732704163 -1.7257308959960938 -0.2599741220474243 0.7100051641464233 0.2588337659835815 0.1935168057680130 0.2122246474027634 -1.2441951036453247 -0.9750503897666931 0.0966994315385818 -0.5960019826889038 0.9599743485450745 0.8549121022224426 -1.9475266933441162 1.7376425266265869 0.2863637804985046 -0.8859239220619202 0.5292385816574097 -1.1683734655380249 -0.3102231025695801 0.8234705924987793 -1.1844512224197388 -0.1682745069265366 -0.0656531825661659 -0.5565229058265686 0.2473883926868439 -0.3415551483631134 -0.2192887812852859 -0.2524600625038147 0.6841667294502258 0.6233098506927490 0.6753774285316467 0.3159731626510620 -1.2594234943389893 -0.5886969566345215 0.6442500948905945 0.3513256907463074 -0.4952717423439026 -1.2255548238754272 -0.3028692603111267 0.7529966831207275 -0.3481689095497131 -0.6537827849388123 0.8066055178642273 -0.7564889192581177 -1.2546539306640625 -1.2728109359741211 1.4495306015014648 0.6875270009040833 -0.7400504946708679 0.0705424547195435 -1.6305440664291382 -0.1133290082216263 0.5534470677375793 -0.0064955810084939 0.5990559458732605 0.2330095320940018 -1.0447728633880615 0.3650671243667603 -1.7165164947509766 -1.2119878530502319 -0.6005508899688721 -0.0022803631145507 -0.4047100543975830 0.9050139784812927 -0.0508108288049698 0.0150470174849033 1.9389996528625488 -1.1601699590682983 0.5846529603004456 -0.7219527959823608 0.2020357102155685 -0.4301338195800781 0.1008280217647552 -1.0126879215240479 -0.6812438368797302 0.4886555671691895 0.4041405022144318 -0.5656024217605591 0.2654309272766113 -2.2772951126098633 0.0698016509413719 0.5594723224639893 -1.2917138338088989 0.1602266579866409 -0.1826967597007751 -0.5223875641822815 -1.8022570610046387 0.5326024889945984 0.7818113565444946 -0.4528976380825043 1.1990687847137451 0.4043293595314026 -0.7244130373001099 0.5351555347442627 -1.1143248081207275 -0.1788007766008377 -0.0872687846422195
-0.8927025198936462 0.5866226553916931 0.4260855615139008 0.3946118354797363 -1.0059069395065308 0.4094066619873047 -1.3634071350097656 -1.1638484001159668 -1.2015514373779297 -0.2091774344444275 -0.4783659577369690 -0.8348670005798340 1.3453507423400879 -0.8955888748168945 0.0296126082539558 1.0969505310058594 0.3422531187534332 1.7464464902877808 -1.2388581037521362 -0.5383439660072327 1.0594717264175415 -0.3356660902500153 0.0698384717106819 0.1319755464792252 0.1783252507448196 0.5588868856430054 1.5639902353286743 -0.2038344144821167 2.0271124839782715 -1.2195688486099243 -0.8142327070236206 -0.1140328794717789 -1.8386418819427490 1.1558940410614014 0.0201710183173418 -1.9846880435943604 -0.7632232904434204 1.2028720378875732 -0.1371671557426453 -0.1119214221835136 1.1480436325073242 1.8181701898574829 -0.6655517220497131 -0.6031805872917175 0.5172924399375916 -0.1540697515010834 -0.2769872546195984 0.3980166614055634 0.8588312864303589 -1.8684151172637939 -0.3566055893898010 1.0921685695648193 -0.3922734260559082 -0.1376248002052307 0.2752726674079895 -0.8583209514617920 -0.2548874914646149 -0.9019026756286621 0.8669206500053406 1.5643029212951660 0.1263203173875809 -0.2098462730646133 -0.8946019411087036 0.8455432653427124 -0.4705860912799835 0.7352203726768494 -1.2098009586334229 1.5787446498870850 -1.4051371812820435 -0.7760645151138306 0.3852009773254395 0.9029631018638611 1.0681197643280029 3.1396510601043701 0.4631852209568024 -0.2765317857265472 -0.1128223687410355 2.3123245239257812 -0.4762355387210846 -0.3435288667678833 -0.5080859661102295 -0.9724514484405518 1.0979762077331543 1.5680596828460693 -0.4247633218765259 -0.9618027806282043 0.9809613227844238 0.6142256259918213 1.2800174951553345 -0.1987794041633606 -0.8414139151573181 1.2430531978607178 -0.7686199545860291 0.1330080628395081 1.3566731214523315 -0.6555445790290833 -1.4787691831588745 -0.7926220893859863 -0.7896514534950256 -0.4301574826240540 -0.6177085638046265 0.0479254089295864 -0.9892579913139343 1.2194160223007202 -0.0625907778739929 0.2256664484739304 0.0836525037884712 1.6361389160156250 0.9194830656051636 0.6381474733352661 -0.6138235330581665 0.1738586872816086 0.0598443076014519 0.7168928980827332 0.3481474220752716 -2.8242764472961426 0.5728415846824646 -0.8988831639289856 -0.7778715491294861 -1.8329977989196777 -0.9272677302360535 0.3211368024349213 -0.0143924467265606 -0.5423201322555542 0.5298489928245544 -0.2834442257881165 0.5577766299247742 -0.6229888200759888
1.6211802959442139 -1.2633635997772217 -0.7083500623703003 -0.1546746939420700 -0.4435258209705353 0.2696004807949066 0.2014538198709488 0.1860134750604630 -1.4792324304580688 0.2112879306077957 -1.4034612178802490 -0.9329613447189331 1.1390528678894043 -1.4869836568832397 -0.3162295818328857 1.0363118648529053 -0.7900252342224121 -0.6498007774353027 1.2716006040573120 0.9494649767875671 -0.0131845511496067 -0.2120937407016754 0.6186779737472534 0.0269065126776695 -1.4994682073593140 0.2955341637134552 0.2168837487697601 0.4723869860172272 -0.2713883519172668 0.6643862724304199 0.6179931163787842 -0.6944142580032349 -0.6909987330436707 1.0597363710403442 0.4162668287754059 -0.5948036909103394 -0.1287888139486313 2.0485589504241943 0.0674286410212517 0.0469657704234123 -0.9435511231422424 0.8312620520591736 2.5685050487518311 0.5451371669769287 -0.6435022354125977 -0.0158598944544792 -0.6425316929817200 -0.6786394119262695 0.7727695703506470 -0.5121946930885315 -1.8368916511535645 0.8093482255935669 3.1971907615661621 0.0924427434802055 -0.6398881673812866 1.0037877559661865 0.7105033397674561 -0.0898906588554382 -0.3033417463302612 -0.3091394007205963 -0.1896517872810364 -0.3402418792247772 0.4162886440753937 -0.1858684122562408 -1.5826241970062256 -0.8121272921562195 0.6536348462104797 -0.7819598317146301 0.1876842826604843 2.8300621509552002 -1.2720404863357544 -0.6596581339836121 -0.0963255614042282 1.3070541620254517 0.5521668195724487 -0.4200919568538666 0.3057832419872284 -0.0515340045094490 0.3034857809543610 -0.3426464796066284 -0.5303114652633667 0.6460191607475281 -0.1355108767747879 -0.6798980236053467 0.2182326018810272 -0.0077216774225235 1.3753341436386108 -0.3663743734359741 -1.2215534448623657 -0.4994216561317444 1.1778945922851562 -0.9896278977394104 0.8011338114738464 0.6445586681365967 -0.7988315820693970 1.3260565996170044 -0.3923844099044800 1.2100881338119507 0.1452563554048538 -0.5302704572677612 0.8848285675048828 -0.1300868839025497 0.7983342409133911 1.0225378274917603 1.0761955976486206 -0.0201004277914762 0.6595796346664429 -0.2295154780149460 -0.9696230292320251 0.1343625783920288 0.3621028065681458 1.3619134426116943 -0.7913998365402222 -0.5555911064147949 -0.3163252174854279 1.6432937383651733 -1.4291492700576782 -1.0523515939712524 -1.5889484882354736 -0.8391171693801880 -0.2798847258090973 1.0462220907211304 0.3710027039051056 -1.1504083871841431 1.0462323427200317 -0.5810126662254333 0.6817715764045715 0.3238670229911804
0.2812584340572357 -0.3668581247329712 -0.1279915720224380 0.3207732141017914 0.7932908535003662 -0.4437373876571655 -0.2253787815570831 0.7172240018844604 0.1649287939071655 -0.1338437199592590 0.9830341935157776 0.2499033212661743 0.7055162191390991 1.0208748579025269 0.4801586866378784 -0.8853635787963867 0.7553359270095825 -0.2302722781896591 -0.2224732190370560 0.9943816065788269 -0.8636550307273865 -0.0871533825993538 0.8290716409683228 1.0040322542190552 -0.6982541680335999 0.1574662029743195 -0.8861308097839355 -1.5961443185806274 -0.2719016373157501 0.0541342161595821 -0.2487606257200241 -1.3518838882446289 0.9017114639282227 -1.5029605627059937 0.4525861442089081 -2.8988883495330811 0.0113705024123192 0.3812061548233032 -0.8580086231231689 1.2867134809494019 -1.1504158973693848 0.7280110716819763 0.1395667940378189 -0.6994395852088928 -0.6407574415206909 0.0130514930933714 1.8133350610733032 -1.1398423910140991 -0.2604577243328094 0.2212171852588654 -0.3050787746906281 -0.4984573423862457 0.9239766001701355 0.6157854199409485 0.5972833633422852 1.3580138683319092 1.9979735612869263 -2.2672295570373535 1.5791506767272949 -1.0814212560653687 -0.5877897739410400 0.8518354892730713 -0.6420810818672180 -0.9592831730842590 0.6682511568069458 0.5066862106323242 -0.3430024683475494 0.6991186141967773 -0.0373923629522324 -0.0905139818787575 1.9498217105865479 -0.9119759798049927 0.5668967962265015 0.4758891463279724 0.1906002908945084 0.7990073561668396 1.2409427165985107 -1.6522384881973267 0.7687534689903259 1.2017918825149536 -0.9703124165534973 2.2227969169616699 0.4416809976100922 -1.7174823284149170 -1.0266118049621582 0.2064399421215057 0.3972303569316864 0.3889656066894531 0.1990850567817688 0.6059322953224182 -0.4237076044082642 -0.7889696955680847 -1.2812204360961914 0.3976750075817108 -0.9246452450752258 0.3671478331089020 -1.6074903011322021 0.7948450446128845 0.6154824495315552 1.7855173349380493 0.8136832714080811 1.6143801212310791 -0.5489434599876404 -0.6308716535568237 -0.1201932355761528 -2.0141592025756836 1.8116086721420288 -1.2437393665313721 -0.0981627777218819 -0.3274098634719849 2.1256153583526611 0.3317678570747375 0.6673480868339539 -0.0512283183634281 -0.3411383628845215 1.0995209217071533 0.4011224210262299 0.3331573009490967 0.6850513219833374 -1.2804883718490601 0.2206343859434128 1.3684717416763306 0.4514980316162109 -0.2542412281036377 -1.6203356981277466 1.2693825960159302 -0.0728020742535591 -0.0929699689149857
-0.1665798425674438 -0.6645684838294983 -0.3952008187770844 0.4991545081138611 -0.0108523163944483 -0.6967437267303467 1.5228724479675293 -0.0491690784692764 -1.8200491666793823 0.4401368200778961 0.9106368422508240 -0.3947034478187561 -0.4583273828029633 1.4742443561553955 1.6788152456283569 0.6484203338623047 -1.1914467811584473 0.6160472631454468 -1.7004382610321045 -1.2050322294235229 -0.7495307326316833 -1.6397747993469238 -0.2591974437236786 0.6600915789604187 -0.9183633327484131 -0.4542933106422424 -1.5667601823806763 1.5320641994476318 -1.1397023200988770 0.3064964115619659 -1.0615155696868896 -0.8210211992263794 0.1348218619823456 0.2078921645879745 0.7159175276756287 -0.5830107331275940 -0.8819816112518311 -1.1074640750885010 -1.5794838666915894 0.0877362638711929 0.8013263940811157 -0.5626989603042603 -1.4603422880172729 -0.8509403467178345 -0.6987828612327576 -0.3317486643791199 0.7620070576667786 -0.5236358046531677 0.1583526581525803 1.0988974571228027 1.2718988656997681 0.1729604899883270 -0.6993703842163086 0.0479274466633797 -0.7251911759376526 1.0461851358413696 -0.5252218246459961 -0.3136605024337769 0.3578167855739594 0.0317376032471657 0.7316250801086426 0.0191976036876440 -1.5589135885238647 1.1965557336807251 -2.0160977840423584 0.6088660359382629 1.2411475181579590 -0.1654676944017410 0.0096183409914374 1.4218027591705322 0.0831595063209534 -0.8463581204414368 1.3202297687530518 0.0595482811331749 0.7100440859794617 0.2120699137449265 -1.0817348957061768 -0.1474457681179047 0.2597173154354095 1.4460314512252808 -0.9751103520393372 -0.6633562445640564 1.3289759159088135 0.6673862338066101 -0.5527456402778625 0.4290217161178589 -0.7004424929618835 0.8388609886169434 -1.3237949609756470 -1.9884504079818726 0.9116630554199219 -0.4799621105194092 0.6687692403793335 -0.0375505238771439 0.5757962465286255 1.1832157373428345 -0.4267193377017975 0.4077710509300232 -0.0539990663528442 -0.7836505770683289 1.1067816019058228 1.0139242410659790 1.0108543634414673 -0.9570832848548889 -0.5537734031677246 0.2028577476739883 1.5226503610610962 -0.9476342201232910 1.5832716226577759 -0.6066305041313171 0.0584282055497169 0.2349866628646851 -1.3509517908096313 0.6168859601020813 0.1233022585511208 0.3777067959308624 -0.3493867218494415 -0.3595870733261108 1.4190801382064819 0.8150520324707031 0.4272816777229309 0.8030138015747070 -1.2093269824981689 -1.0950192213058472 -1.7440301179885864 0.6203694343566895 0.1699600517749786 2.0033118724822998
