-1.9210911989212036 1.7862881422042847 1.1505542993545532 0.3242369294166565 1.7361973524093628 0.5125132203102112 0.0103593925014138 0.1874728649854660 -0.3753728568553925 1.2385083436965942 -1.9861836433410645 0.9737305641174316 0.1554362773895264 1.1345983743667603 -0.0754290968179703 -1.3310178518295288 -0.2949174046516418 1.2187776565551758 -0.5126405358314514 1.0427926778793335 1.3955281972885132 -1.9682830572128296 0.5880230069160461 -0.2180065959692001 -0.7719024419784546 0.2602373361587524 0.3560593724250793 -0.4642322659492493 0.5735252499580383 3.1993627548217773 -0.3055577874183655 1.2128751277923584 0.1651291996240616 -0.5267403721809387 -1.1055444478988647 -0.3344704806804657 0.2813535034656525 -0.2449335008859634 -0.9549948573112488 0.3986643850803375 0.1282411515712738 0.2966270148754120 -0.9775688648223877 -0.2743930220603943 0.8843880891799927 0.7781459689140320 0.5178058147430420 0.8308019638061523 1.2172138690948486 1.5416499376296997 -0.6013690233230591 0.8135708570480347 1.1260470151901245 0.8819957971572876 1.7729188203811646 -0.1475004851818085 0.1112920343875885 0.7202560901641846 -1.5147956609725952 0.1803370416164398 -0.4509459733963013 -0.6524970531463623 -0.6772589087486267 -0.5553613305091858 -0.9232780933380127 -0.4302866756916046 -1.3295675516128540 0.3419970273971558 -0.2545050084590912 1.1506464481353760 -0.9775479435920715 -2.1365346908569336 -0.0049585457891226 -0.2094007581472397 0.3808847665786743 -0.7362217307090759 1.1564335823059082 -0.6178486347198486 1.1159739494323730 0.3067308664321899 1.0737469196319580 0.7314825057983398 -1.2362258434295654 -0.7980691790580750 0.1598950326442719 -1.3375506401062012 -0.1395262181758881 -0.0864813402295113 0.8240416049957275 -0.6570358276367188 0.5283817052841187 1.5818314552307129 -0.8808946609497070 -0.9331421852111816 -1.0897811651229858 0.0929000899195671 0.1676490902900696 -0.7534374594688416 0.0984739959239960 0.9239382743835449 -0.9309464097023010 0.8751526474952698 0.7605384588241577 0.0868579223752022 0.5024699568748474 -0.8062521219253540 -0.4417167305946350 1.8072459697723389 -0.1073295101523399 -0.6538113951683044 -0.1117202416062355 -0.1364132314920425 -1.0649995803833008 -0.5101125240325928 -0.8891834020614624 -0.2955264449119568 -0.7304007411003113 0.1692636609077454 -0.7523254156112671 -1.0437556505203247 0.1080738976597786 -1.2821254730224609 0.7706626653671265 -0.5438764691352844 0.3068686723709106 -0.7461785674095154 -0.9514038562774658 1.2223991155624390
-0.6198654770851135 0.8257286548614502 -0.7141388654708862 0.1536184847354889 1.9056341648101807 0.4648867845535278 -1.4892841577529907 -0.6457232236862183 0.6369471549987793 -0.8332332968711853 0.2234465777873993 0.4585466384887695 -0.1563996821641922 0.6527447104454041 0.0295974649488926 -0.5066502094268799 0.2277050316333771 1.7047265768051147 -1.6844263076782227 -0.9194359779357910 -0.0636912211775780 0.4450155794620514 -0.0564535483717918 -1.4726052284240723 -1.3923439979553223 -0.0298860184848309 -0.3401197791099548 -1.4215149879455566 -1.7680184841156006 0.6922088861465454 -0.7581821084022522 -0.3254872560501099 0.4487317800521851 -0.3225915729999542 -0.8303053379058838 -0.4213269650936127 0.3075104355812073 -0.4348511993885040 -0.6259736418724060 -0.7490563392639160 1.5156135559082031 -0.0297574624419212 0.3282624781131744 -0.3224703967571259 1.2863967418670654 -0.0500749386847019 0.0131042441353202 -1.7222745418548584 0.8410744667053223 0.5860205292701721 -1.3614083528518677 -2.4930117130279541 0.2005178630352020 -0.3718812763690948 1.1603975296020508 1.0568614006042480 -0.6560415029525757 -1.8279632329940796 0.9254982471466064 0.5481635332107544 0.1119806393980980 -0.2701294124126434 -0.4935517311096191 -1.8005455732345581 -0.0128029324114323 1.2240653038024902 -2.0558393001556396 2.2190744876861572 -0.4689337909221649 0.3239090442657471 -1.0475459098815918 3.4997458457946777 -0.3083475828170776 1.1464289426803589 -0.8278928399085999 -0.9899523258209229 0.1893865913152695 2.0311939716339111 -2.5352540016174316 -0.6754503846168518 2.1707863807678223 0.6974610090255737 -1.0337260961532593 0.0285120960325003 1.5206139087677002 0.0366929955780506 -2.0666987895965576 -0.0897368118166924 0.3236110210418701 1.3858975172042847 -0.4394008219242096 -2.3570983409881592 -1.8703904151916504 -0.3131999373435974 0.0797981545329094 0.2981365621089935 -0.1769306808710098 -0.3765926361083984 -1.6199084520339966 -1.2090255022048950 -2.3220307826995850 0.5512407422065735 -0.2797564566135406 0.0225513856858015 -0.5989067554473877 0.4142795205116272 -0.0280943792313337 -2.4723320007324219 0.5677047967910767 0.4215610921382904 1.2167389392852783 0.7736819386482239 0.2250906676054001 0.3792215585708618 -2.2323694229125977 -1.2838594913482666 -0.5572231411933899 0.8810259103775024 1.2220673561096191 0.0573150739073753 0.2920016646385193 0.2346392273902893 0.2435736060142517 -0.0870286077260971 1.1000155210494995 1.7577326297760010 1.4361625909805298 1.6533846855163574
0.8857835531234741 0.0389034673571587 0.4007301032543182 1.3567367792129517 -0.4958873093128204 -0.4321128427982330 1.3085174560546875 -0.2868308722972870 -1.4412300586700439 -0.2596404254436493 0.8114506602287292 -0.0934887304902077 -1.2039915323257446 -0.0597662366926670 -0.4882079660892487 -0.3937299549579620 -1.6420948505401611 1.0530810356140137 -0.7833403348922729 -0.0444596894085407 -0.1678900718688965 0.2887030541896820 0.2231689393520355 0.8281961679458618 -1.7225145101547241 0.2184372842311859 0.6632364392280579 -1.5696002244949341 0.1554863899946213 1.4936956167221069 -1.0086395740509033 1.5138994455337524 -0.2329344749450684 0.6598597764968872 -1.3005267381668091 -0.0713722035288811 0.9130523800849915 1.2043355703353882 0.4989602863788605 -1.1643780469894409 -0.0239385738968849 -0.9065172672271729 -1.3821991682052612 0.6827352046966553 0.3576250076293945 0.4602525830268860 -0.2185031473636627 -0.0412385985255241 0.7681300044059753 2.4124939441680908 -0.6895341277122498 -0.0603814423084259 -0.1242076680064201 -0.6359742879867554 -0.0538447462022305 0.6330929398536682 0.5443331003189087 1.2833386659622192 0.4623648822307587 -1.2735643386840820 -0.5496698021888733 0.2048942744731903 0.9627519845962524 -0.5424140691757202 2.4317684173583984 -0.6085686683654785 -0.7025031447410583 -0.0181038826704025 -1.1952316761016846 -0.5793470740318298 1.1797796487808228 -0.2566926479339600 0.3499228656291962 0.1326622515916824 -0.1839280873537064 0.4406759440898895 0.7390890121459961 1.0308804512023926 1.4314022064208984 0.6824010610580444 1.9682816267013550 0.3211120665073395 0.9611792564392090 -0.9194481968879700 0.6229062080383301 1.4528671503067017 0.9640929102897644 -0.7998960614204407 -2.9701385498046875 -0.5169069766998291 1.5659403800964355 -0.7249679565429688 -1.4407849311828613 0.2148053944110870 0.6330711841583252 -0.0555540844798088 0.5421338677406311 -0.3949372470378876 -0.8598127365112305 0.4689024686813354 0.2193792313337326 0.7330970168113708 1.1451486349105835 -0.3586689531803131 -0.1377207636833191 0.4071106910705566 1.8678276538848877 -1.1553347110748291 1.0276515483856201 -1.7417567968368530 -0.1744381487369537 -0.7640573978424072 1.3654525279998779 -2.1814129352569580 -0.9418457746505737 1.4243836402893066 1.0098633766174316 -0.9483858346939087 -1.7892971038818359 0.7378233671188354 -0.7086892724037170 -1.2110831737518311 -0.6784859895706177 -0.1762337535619736 2.1327786445617676 -0.3263219594955444 0.7004992365837097 -0.1339998841285706
0.5249078273773193 1.2185974121093750 0.0884138271212578 0.2425049543380737 0.2199529260396957 0.7495355606079102 2.2398676872253418 -0.1208672821521759 -0.2344734519720078 0.9962488412857056 -0.9118455648422241 3.0385427474975586 -0.2201381772756577 0.5339225530624390 1.7369781732559204 0.9417238235473633 1.5055242776870728 1.1866431236267090 -0.8395591974258423 0.4582505524158478 0.3329188227653503 0.7972702383995056 -1.0063024759292603 -0.8461651802062988 -0.9879636168479919 0.5540654659271240 -1.2077832221984863 -0.1785022914409637 -0.6232467889785767 1.4851645231246948 -0.1843563914299011 0.3670082688331604 0.5136073827743530 -1.3792436122894287 1.1700167655944824 0.9090261459350586 -0.6790148615837097 0.4820750057697296 -0.8193408846855164 1.1515002250671387 -1.9798473119735718 -0.2495655715465546 1.7426211833953857 0.6042104959487915 -1.8295326232910156 -0.9579989910125732 0.5286660790443420 0.5794784426689148 -0.0256339758634567 -1.1682193279266357 0.6382063031196594 1.3921501636505127 1.0584051609039307 -1.4266941547393799 -0.6553083062171936 -2.1179163455963135 -0.1801753491163254 0.2911157011985779 0.6919795870780945 0.0454667992889881 0.5415222048759460 -1.2204989194869995 2.9288437366485596 -0.3855067491531372 -1.2541793584823608 -0.7402063608169556 1.9207415580749512 -0.2945747077465057 0.9411885142326355 0.3074907362461090 0.1996929496526718 1.2168444395065308 1.7040442228317261 -0.2430331259965897 0.5960076451301575 0.1661833375692368 -2.6739070415496826 -0.7695343494415283 0.0910613462328911 -1.0959107875823975 -0.7630469202995300 -1.2618283033370972 -0.7807185053825378 0.1704772114753723 0.9561005830764771 1.8356750011444092 1.3184593915939331 -1.9600253105163574 0.9222884774208069 -0.5817615985870361 -0.3555257022380829 -1.8013471364974976 -1.0865948200225830 0.5813716053962708 -0.4485979080200195 0.5053999423980713 0.9290813207626343 -0.5597369670867920 0.2779110968112946 -0.8621029257774353 0.8529152274131775 -1.5553512573242188 -0.3337959051132202 0.1253437846899033 -0.1210816428065300 -0.2527502775192261 0.1033093333244324 2.0916223526000977 1.1035387516021729 -0.1540154814720154 -0.0258128475397825 1.9150723218917847 0.0401140861213207 -0.0322985015809536 0.5544309616088867 0.5211940407752991 -0.7936429977416992 0.7661158442497253 0.1522846072912216 -0.1386758983135223 0.4867422580718994 1.0222349166870117 0.2262480556964874 0.0940883383154869 1.1153818368911743 -1.8041775226593018 -1.0082436800003052 0.4808335900306702
0.2612917423248291 -0.3081718683242798 -0.2311271578073502 0.4847199916839600 1.0360183715820312 -0.0777663961052895 1.6014189720153809 -0.8252152204513550 -0.9013555049896240 1.5859013795852661 -0.6199041008949280 0.2299527525901794 0.2881692349910736 -1.4061061143875122 -0.9414924979209900 1.3366998434066772 -1.0706439018249512 0.5612694621086121 -1.7165452241897583 0.7721089720726013 0.1634587794542313 -0.2867935895919800 -2.6260685920715332 -0.0469027571380138 0.9979552626609802 -1.7953094244003296 -0.1405240893363953 0.0478177070617676 -1.7707949876785278 -0.1632368415594101 0.1488764584064484 -0.6060885787010193 -1.0006082057952881 -0.6039244532585144 -1.7235952615737915 0.4298280477523804 -0.9778710007667542 -1.3467926979064941 1.5469624996185303 0.4763475656509399 0.1894850283861160 0.3549153804779053 -1.5093852281570435 0.3361002802848816 0.4779937267303467 -0.0132986605167389 0.5120086073875427 -0.5939509868621826 0.6513974070549011 0.9676630496978760 0.1235167384147644 1.2822185754776001 0.0275195855647326 -1.2401667833328247 0.6853547096252441 1.3440599441528320 -0.6120265722274780 0.2973891198635101 2.3131606578826904 0.7512665987014771 0.4931163191795349 0.3269330263137817 0.4946335554122925 -0.5006077289581299 -0.2721316516399384 -1.0580710172653198 2.0541253089904785 0.6478602886199951 0.5165221691131592 0.9000670909881592 -2.8298985958099365 -0.9322519302368164 1.7088063955307007 -0.0519207455217838 1.2074393033981323 -0.2044653445482254 0.5818234682083130 0.4893490672111511 1.4050323963165283 -0.2999535501003265 0.2652189731597900 0.3121771216392517 -1.2187187671661377 0.4960399866104126 1.2971034049987793 -0.9094326496124268 0.4775562882423401 -1.4703679084777832 -1.5824000835418701 0.3441265523433685 1.8392128944396973 -0.0443930886685848 -0.6741902232170105 0.8584836125373840 0.0425045862793922 0.0375796146690845 1.1441050767898560 0.5100019574165344 0.0448903627693653 -0.0888365283608437 -0.0061451322399080 -0.3320662677288055 -0.6608865857124329 0.4006236791610718 -0.2714639306068420 0.2771822810173035 -0.6825043559074402 1.0400617122650146 0.3277909159660339 -1.8361730575561523 0.3351724743843079 -0.1161975711584091 0.0083874491974711 0.9666650295257568 0.8922499418258667 0.7762303352355957 1.1342748403549194 0.4625433683395386 1.5655853748321533 -1.4120571613311768 -1.4399287700653076 0.4921546280384064 0.2346596717834473 -0.2847455441951752 0.4168143272399902 0.9431416988372803 2.2042665481567383 -0.8310213685035706
-1.4895691871643066 -0.6838949322700500 -0.3136632442474365 0.8553407788276672 2.1092483997344971 0.6873105168342590 1.0904798507690430 0.6434835791587830 -0.3172536492347717 1.7292689085006714 0.3574243783950806 0.8654603362083435 -1.0860303640365601 0.1326372772455215 0.2502135634422302 0.3105422258377075 0.0359335318207741 2.2211387157440186 2.5098233222961426 0.8007021546363831 0.7097882628440857 -0.0659198984503746 -1.4532833099365234 1.6631895303726196 -0.8849440217018127 0.4183639287948608 -1.2320498228073120 1.5017547607421875 0.2311312109231949 -0.1416603177785873 -0.2766149640083313 0.7386158704757690 -0.2998503148555756 -1.0371052026748657 -0.2132269442081451 -0.3607131838798523 1.0101271867752075 0.5849720239639282 0.4146821200847626 0.9589762091636658 0.3683573901653290 1.1961976289749146 0.5146337747573853 -1.4115126132965088 0.6480449438095093 0.6518627405166626 1.1021075248718262 0.6920962929725647 1.2523823976516724 -1.6208106279373169 0.0900973230600357 -0.8449569940567017 -0.8436837792396545 -1.5843837261199951 0.6399129033088684 0.4806690514087677 -0.3658460080623627 0.6722576022148132 0.0440641231834888 0.4572935402393341 0.0400339104235172 -2.1498501300811768 -0.5469741225242615 -1.0395941734313965 -0.2460000365972519 0.0874439775943756 1.2846859693527222 -0.8485126495361328 0.4027886390686035 -0.0182671211659908 1.1822057962417603 -0.0491040013730526 -1.1062783002853394 1.5151619911193848 0.7418059706687927 -0.8398007750511169 -0.0339520275592804 -2.2463507652282715 0.4238571822643280 1.3623433113098145 -0.4302219748497009 0.8420817255973816 -0.2962995767593384 0.1901335269212723 0.2539342939853668 -1.8340628147125244 -0.7811174392700195 -3.1148362159729004 -0.5481148362159729 1.0044060945510864 -0.2014373838901520 -0.7241409420967102 0.4292248189449310 2.3027131557464600 0.5665265917778015 1.2605084180831909 -0.7557773590087891 0.6500080227851868 0.0011947563616559 -1.1484229564666748 -0.3733705282211304 -0.3099473118782043 -0.1954240351915359 0.6450541615486145 0.3556973040103912 2.0058345794677734 -0.0042944247834384 -0.2472314536571503 -0.2433379441499710 -0.1944023072719574 -0.6104331016540527 1.1583123207092285 -1.2661209106445312 -1.0376012325286865 -0.2110306471586227 -1.0320001840591431 -0.3131031692028046 1.2771700620651245 -1.2887612581253052 -0.0907300412654877 -0.4743138551712036 -0.5199824571609497 -0.4372071325778961 0.2414549589157104 -0.4889541566371918 -0.7737047076225281 0.2265803366899490 1.3477276563644409
0.0770963877439499 0.3765447139739990 -0.1405640393495560 -0.8407338857650757 0.4388524889945984 -1.3106657266616821 0.4593706130981445 -0.4441251158714294 -0.9080936312675476 -0.3933544158935547 -0.5792203545570374 -0.2028717100620270 1.0628073215484619 0.1981328427791595 -0.4298646748065948 -1.1698662042617798 -0.8613777756690979 0.7491839528083801 -1.7878774404525757 1.1423881053924561 0.1977534592151642 0.6035954356193542 -0.2773908674716949 0.3032987415790558 -1.3891057968139648 0.0329436808824539 -1.9947924613952637 1.1617918014526367 0.0832147449254990 -0.9093940854072571 0.2894658744335175 0.0486558936536312 -0.3499722778797150 -0.9525908231735229 -0.4120792448520660 -1.3824133872985840 -0.3300365507602692 0.4959611892700195 -0.0908448100090027 -0.2539480030536652 -0.1117842793464661 0.4560201764106750 -0.9560164213180542 -0.0524892695248127 0.3855321109294891 -0.4919003248214722 1.1645163297653198 -1.3517670631408691 -0.0385228469967842 -1.4540050029754639 -0.7642569541931152 -1.7381244897842407 -0.6131600141525269 -0.0012971777468920 -0.0946036204695702 -0.2331200242042542 1.6666266918182373 1.0703486204147339 1.3782637119293213 -1.3301225900650024 -0.4517111480236053 0.4378257691860199 0.8997125625610352 1.1429514884948730 -0.6335541605949402 -0.0320427231490612 -1.4646919965744019 -0.9443200826644897 1.2616968154907227 0.2903285324573517 0.5301762819290161 -0.7136856913566589 0.2540002465248108 0.9799750447273254 -0.1698686182498932 0.3142057061195374 2.5192263126373291 -0.2658174633979797 1.5251113176345825 -0.3157417476177216 0.3834206163883209 -0.6295374631881714 2.4936645030975342 0.6843408942222595 1.9965461492538452 1.0864021778106689 -0.1086164712905884 -2.4481174945831299 1.2176733016967773 0.3296502828598022 0.9322027564048767 1.4600481986999512 0.2613231837749481 -1.4147276878356934 -2.1383490562438965 -1.0060708522796631 -0.0068841543979943 0.0433955416083336 0.8756263256072998 -0.0400393493473530 1.2438302040100098 -1.7499549388885498 0.2293771207332611 -0.3368482887744904 -0.3921024501323700 -0.1642260253429413 0.9122327566146851 -1.5589574575424194 -1.3235994577407837 1.9402537345886230 0.8692977428436279 0.5343030095100403 0.7611129879951477 2.0524463653564453 -0.7336135506629944 0.0147538557648659 -0.9985019564628601 0.0399552136659622 -0.0995309278368950 1.4105342626571655 0.5878596305847168 1.7600238323211670 -0.6635149717330933 0.5721134543418884 0.7189307212829590 0.1370719820261002 -0.0203194953501225 1.1486898660659790
1.2868673801422119 -0.5774232149124146 -0.2733450829982758 -0.3531540632247925 1.3685312271118164 0.9338279962539673 0.5501672625541687 -0.1116780564188957 0.3885615468025208 -1.3773584365844727 -1.2803159952163696 0.3274318575859070 -1.6894054412841797 -0.6308262348175049 -0.9654014110565186 0.5600335001945496 -0.0559382773935795 -0.1768976300954819 -0.7586375474929810 -0.7833639383316040 0.1624642312526703 0.2421079874038696 0.2200077921152115 0.6063116192817688 -0.1728893071413040 1.2062596082687378 2.3749368190765381 0.3556255996227264 -0.4797011911869049 -0.0610063970088959 -0.2642374038696289 -1.1154643297195435 0.4659160375595093 -0.4805162549018860 0.2887676358222961 0.3470314741134644 0.1319915652275085 -0.0640264749526978 1.0290727615356445 -0.8928701877593994 -1.1384811401367188 -1.0610408782958984 0.6822324395179749 -1.3932948112487793 1.3295661211013794 -0.1077029109001160 -0.6384441852569580 -1.6069270372390747 -0.0465483814477921 -1.1665807962417603 0.1491646468639374 -0.2443037033081055 -1.4716453552246094 -1.1466916799545288 -0.2998146414756775 -1.3180142641067505 -0.2857411801815033 0.8939048647880554 0.2449738085269928 0.7666840553283691 -0.9529898762702942 -1.4545660018920898 0.8914623856544495 -0.1719444394111633 0.9748697876930237 -1.0700727701187134 -0.0944196954369545 -0.3867118656635284 0.6930556893348694 0.2806634604930878 0.6108598113059998 0.1517087817192078 -0.6481560468673706 1.0809080600738525 0.5501184463500977 0.7933017015457153 -1.9462237358093262 -0.2591713964939117 -2.5982179641723633 0.8825136423110962 -1.4654208421707153 0.0112705752253532 -0.6737637519836426 -0.6971909403800964 -1.5287529230117798 0.4252563416957855 -1.2591565847396851 0.2487851828336716 -0.9674909114837646 0.3739357292652130 -0.2922017574310303 0.6862372756004333 0.2664757072925568 -0.5827121138572693 1.2243289947509766 0.1867024153470993 -0.2756304144859314 2.0678942203521729 0.0678478404879570 1.7143875360488892 -0.1799476891756058 -0.3965184092521667 -0.3138532638549805 -0.4313313066959381 -0.6382960677146912 -0.5724137425422668 -1.1256769895553589 -0.4750249981880188 -0.3105738162994385 -1.3699524402618408 -1.1535828113555908 0.3756209015846252 -2.6841251850128174 0.8362663388252258 0.5262974500656128 0.8438425660133362 -0.4489181935787201 -1.2541657686233521 -0.6321411728858948 0.4737346768379211 0.3160149157047272 1.2304309606552124 -0.9553775191307068 0.6410689353942871 -0.1320934891700745 1.3200573921203613 -0.6797962188720703 -0.4051639139652252
-0.8979926109313965 -1.0486137866973877 1.6642326116561890 -0.0471807606518269 0.5917353034019470 0.4553205668926239 0.5818020105361938 1.9951738119125366 1.2872186899185181 -0.5513133406639099 1.1734308004379272 -0.3442628383636475 -0.0813004896044731 -0.0497343614697456 -0.2166792154312134 0.3279451429843903 -0.5960312485694885 0.3247703611850739 0.4537529349327087 -0.7398770451545715 0.4801318049430847 -0.6688235998153687 0.6339807510375977 -0.5099248886108398 -0.3555328547954559 0.6827642917633057 -0.3967324197292328 -1.3127219676971436 -1.3081691265106201 1.2900509834289551 -0.4851921796798706 0.2425193339586258 0.2037154436111450 1.1866121292114258 0.3553279936313629 0.1813595294952393 0.1684004813432693 0.7218058109283447 -0.6824777126312256 -0.8348983526229858 0.7337781786918640 -0.1492456793785095 0.9873819947242737 -1.0297975540161133 1.9514214992523193 -0.7460365891456604 -1.2316967248916626 0.4174619317054749 0.0005227414076217 0.0350587442517281 1.3935829401016235 -0.6911818385124207 0.6484807133674622 1.1993143558502197 0.9061126708984375 -0.3318394124507904 0.8196942806243896 1.2985072135925293 -0.3668451309204102 0.7908137440681458 0.4303267300128937 -2.1657011508941650 0.1303759366273880 -0.4570844173431396 -0.6911278963088989 -0.0321939215064049 -0.0438147336244583 1.6880812644958496 -0.3774433434009552 0.2429017424583435 0.4948509335517883 -0.9084828495979309 -1.1668454408645630 -0.4575213789939880 0.6204653382301331 -0.0955208018422127 0.6592808961868286 0.6861503124237061 -1.1349543333053589 0.7904350757598877 0.8566390275955200 0.9355202913284302 -1.0580011606216431 -0.0124218678101897 -0.3514888882637024 -0.1864219456911087 -0.0870455950498581 0.1155742108821869 -0.4153948724269867 1.2966829538345337 -1.4234614372253418 0.4336295723915100 -1.4614259004592896 0.0218599289655685 0.8480488657951355 -0.4456779062747955 -0.7872720956802368 1.0259844064712524 0.6066943407058716 -1.4949380159378052 0.9396125078201294 -0.5288119316101074 0.8573551177978516 1.7227288484573364 0.5305695533752441 -0.8792988061904907 -0.3314932286739349 0.5398482680320740 -1.4560105800628662 -0.0471150614321232 -0.5423034429550171 -1.6980801820755005 1.1196503639221191 -0.9903675317764282 0.0920947492122650 0.0279243178665638 -1.3271659612655640 -0.6898615956306458 -0.8059924840927124 0.8638294935226440 -0.6206458210945129 1.4511843919754028 -0.7783255577087402 0.1373836696147919 -0.2344817817211151 -1.0787572860717773 0.1610382944345474 -0.9482573270797729
-0.0649937763810158 -0.1833708435297012 0.5430259704589844 1.1796045303344727 -1.2179831266403198 -1.2301427125930786 -0.1352417171001434 1.5350903272628784 -1.4986259937286377 -0.3463265895843506 -2.0146532058715820 0.6116170883178711 0.0434141531586647 0.9843002557754517 -1.7764865159988403 -0.2414864599704742 -0.2074231356382370 0.2974888384342194 -0.7360205054283142 0.0833643376827240 0.0374566949903965 0.6834095120429993 -1.0275311470031738 0.0309482533484697 -1.4945176839828491 0.1854075044393539 -0.5052821040153503 1.3318003416061401 -2.1736326217651367 -1.4609749317169189 1.6405349969863892 0.4855794012546539 0.2424265295267105 -0.4444466829299927 -0.7800921201705933 0.3373077809810638 -2.1069095134735107 -0.0819907188415527 0.8324018120765686 1.7176936864852905 -0.7477285265922546 -1.4472547769546509 -0.3371757268905640 -1.2633002996444702 0.2646116018295288 1.6560884714126587 0.7977258563041687 1.9710025787353516 0.0384800173342228 -0.8073980212211609 -0.9934942126274109 0.4647654592990875 0.1411329507827759 -1.2158831357955933 0.2983260452747345 -1.3355513811111450 1.4123429059982300 -0.3271531760692596 -1.6516313552856445 -0.5927583575248718 0.1789934635162354 1.8545075654983521 -0.2293015420436859 0.4347656965255737 0.9308539628982544 -0.2585644125938416 -0.0284694191068411 0.0135062225162983 -1.1170605421066284 0.5608934164047241 -0.9162083268165588 0.7425873875617981 1.2085477113723755 -0.1577429920434952 0.0593746043741703 -0.5396989583969116 1.7208275794982910 -1.1407164335250854 -0.8633767366409302 -0.1783190369606018 0.7579514980316162 0.5358464121818542 -0.3018063604831696 0.1228418275713921 -0.0282780006527901 1.6157615184783936 -0.0436652302742004 0.4136607944965363 -0.6926303505897522 0.7215098142623901 -1.6160901784896851 -0.9975121021270752 -1.1166747808456421 -0.3731621801853180 -0.8327885270118713 -0.2730142176151276 -0.8649538159370422 1.0254076719284058 -0.3454262614250183 0.0484308116137981 -0.5850998759269714 0.6099165081977844 -0.0962197482585907 -0.0262671560049057 0.1765257269144058 0.0653993934392929 -0.1122861132025719 -0.6832501292228699 -0.1708925515413284 0.0722125396132469 0.2195340543985367 0.1854665428400040 -0.0893972143530846 -0.6802565455436707 0.1038637608289719 -0.2956579923629761 1.2176624536514282 -0.6543318033218384 0.6698946952819824 0.3087153434753418 0.1497213542461395 -0.7177230119705200 -1.7295284271240234 -0.8268303871154785 2.7194662094116211 -0.8589504957199097 0.4997379779815674 0.8573122620582581
0.5688886046409607 -0.7166604995727539 0.1273103058338165 -1.1198389530181885 -0.6396020650863647 0.0862526521086693 -0.3558358252048492 -0.6152365803718567 0.2800053358078003 0.6396673917770386 1.0196919441223145 0.6010131239891052 0.8792729973793030 1.6886540651321411 0.3787084519863129 0.1014512106776237 1.1275980472564697 -1.1202944517135620 1.8735984563827515 -0.5221349000930786 0.9925307035446167 1.6554980278015137 -0.1726601868867874 -0.3547668457031250 1.0484287738800049 0.6440111398696899 0.2200572341680527 0.4660409688949585 -0.7573760151863098 -1.8593716621398926 1.1939953565597534 1.3515268564224243 2.7346599102020264 -0.8755239844322205 1.8766189813613892 0.3356874585151672 -1.1086475849151611 -0.2081573605537415 -0.4326768815517426 0.2296783775091171 -0.7688513994216919 -1.0244287252426147 -1.5372186899185181 0.5405738949775696 1.2134855985641479 -1.0144109725952148 -0.3544086217880249 0.3619363009929657 -0.0078623509034514 -2.0141344070434570 -0.9521770477294922 -1.6285423040390015 1.2709681987762451 -1.9849509000778198 0.0063055627979338 -0.3856728374958038 0.5957694053649902 1.1934589147567749 0.7252429723739624 -0.9500693082809448 -0.7574247717857361 -1.8668968677520752 -0.7402512431144714 -0.3687982857227325 -0.4923990666866302 -0.1947530508041382 -0.6566045880317688 -0.9087597727775574 0.9500989317893982 -0.8286238908767700 -0.3764667212963104 1.5021033287048340 -0.8208917975425720 -0.8273248076438904 0.8298507332801819 -0.0530978813767433 0.1390821486711502 0.7583266496658325 2.0209734439849854 0.0554706528782845 0.3976355195045471 -0.3970590233802795 1.1352741718292236 0.8269951939582825 0.0172766987234354 -1.5893530845642090 -1.4851298332214355 0.1418372392654419 -0.0421267971396446 1.8089460134506226 -0.0010916216997430 0.5822138786315918 -1.5667765140533447 0.3342912197113037 1.1827492713928223 -1.0950651168823242 0.4839888811111450 0.0847943350672722 -0.4790073931217194 -1.6701124906539917 0.2023373991250992 -0.4753232002258301 1.2174781560897827 -1.6350705623626709 -0.6821115612983704 1.4883804321289062 -0.7660893797874451 -0.4952174425125122 -0.1650619804859161 1.2399849891662598 -1.7284013032913208 -0.7266599535942078 -0.6106134653091431 1.0960115194320679 -1.3164983987808228 -0.3307609558105469 0.2857535183429718 -1.4426203966140747 -0.2726659774780273 -0.7314728498458862 1.3886824846267700 -0.4851814806461334 0.0193114727735519 0.2656456530094147 -0.9845793247222900 -1.0266290903091431 -0.7609282135963440 0.2450504601001740
-1.4433630704879761 -0.3743205368518829 0.2536335885524750 -0.5357778668403625 -0.2843633592128754 1.2450972795486450 0.3352354168891907 0.2038907259702682 -2.1034126281738281 -0.4371270239353180 -1.4513752460479736 -0.7067560553550720 -0.3651789128780365 1.3314273357391357 -1.1312102079391479 -0.2367812991142273 -3.2081072330474854 -0.1787565350532532 -2.5484502315521240 -0.2015985399484634 -0.9376018047332764 -0.4543162286281586 -0.5734615325927734 -0.2371814697980881 -0.2620261609554291 -0.1597835719585419 -1.3972581624984741 -1.1212189197540283 -1.1778658628463745 0.7578516006469727 0.2730204164981842 0.4622201919555664 -1.2958946228027344 0.1717457771301270 -0.7677640914916992 -0.4485527873039246 -1.5683448314666748 -0.5973982214927673 0.1781349778175354 0.0720515102148056 -0.2947105169296265 0.2077526450157166 -0.8616673350334167 -0.6203177571296692 0.8622077107429504 -0.1186100691556931 -0.3692258894443512 -1.0926361083984375 -0.0164311099797487 1.8015717267990112 0.7536689043045044 -0.6813806891441345 -0.9814429879188538 0.6295039057731628 0.7203757762908936 -0.5990004539489746 1.6066287755966187 1.1929028034210205 0.4983636140823364 -0.5445602536201477 1.4381891489028931 0.3467471897602081 0.6610051989555359 0.1876940429210663 0.9605261087417603 1.0703107118606567 0.9304139018058777 0.2251983433961868 0.6721416115760803 -1.9214621782302856 1.7659045457839966 0.2466725409030914 -0.6607377529144287 1.2344975471496582 1.5536177158355713 -0.1655094325542450 -0.5065217018127441 0.8826296925544739 0.3420953750610352 0.4653871059417725 0.9705204963684082 -1.0566669702529907 -0.2818680703639984 0.6798627376556396 -0.5980732440948486 0.1397910267114639 -0.0677982643246651 1.6387654542922974 1.0194339752197266 -0.4498464465141296 1.3495115041732788 0.8495069146156311 -0.0328459888696671 2.2829222679138184 0.2032203674316406 0.5091416239738464 -0.0447227619588375 -1.9093693494796753 -0.2323855012655258 0.1472517848014832 1.0367585420608521 -0.3119412064552307 2.3859751224517822 0.6656171679496765 0.1452755182981491 -0.4348460137844086 -0.3659720420837402 0.9742193222045898 0.6064037680625916 0.6097455024719238 -1.0872968435287476 -0.1381795555353165 -0.8265651464462280 -0.2635039687156677 -0.2065827548503876 -2.0929732322692871 0.9067851901054382 -2.5038919448852539 1.4343786239624023 -0.2347321063280106 -0.0450185649096966 0.7387502193450928 -0.2906472086906433 -0.6260510087013245 0.0695746690034866 -1.9642832279205322 1.2062745094299316 0.3209134936332703
-0.6221563816070557 0.8147872686386108 1.0313251018524170 -0.8411055207252502 -0.8815957903862000 0.6483332514762878 -0.7609497308731079 -0.5792638659477234 1.7874205112457275 0.4372392594814301 0.1317760050296783 2.5411880016326904 0.8002889752388000 -1.5609033107757568 -0.1312759667634964 -1.2315579652786255 0.3066914081573486 -0.0724480822682381 -0.0089545426890254 1.0563654899597168 -0.4946418702602386 0.6911355257034302 -1.7553660869598389 -0.8383290171623230 -2.2653899192810059 -0.4706791639328003 -0.9476460218429565 0.3695712089538574 0.9666337370872498 1.3116945028305054 -0.6792214512825012 -0.3859871625900269 0.1866041421890259 0.3078963458538055 1.4266771078109741 -0.7610681056976318 -1.8994442224502563 -0.8660396933555603 1.8315339088439941 0.0131786614656448 0.2718893885612488 1.0378533601760864 -0.1451281160116196 0.8056978583335876 -1.3145186901092529 -0.0432815738022327 -1.0260616540908813 -1.9068115949630737 -0.0459406264126301 -1.4436851739883423 0.1134515106678009 -0.4691327214241028 -0.6021065711975098 -1.7802836894989014 0.3672728538513184 -0.6194331049919128 1.7121921777725220 0.9222235679626465 -0.3915126919746399 -1.1427845954895020 -0.3238580524921417 -1.5637726783752441 0.4332163631916046 0.0192237775772810 0.0259048063308001 0.4830010831356049 0.4426156580448151 1.0944353342056274 -0.9188304543495178 -0.6421113014221191 1.1561918258666992 1.1949876546859741 -1.3963831663131714 0.3772891759872437 -0.8355870842933655 -0.8516116738319397 0.8702274560928345 -1.9563777446746826 -1.5217602252960205 0.8386182785034180 -0.0924272835254669 -0.5705278515815735 0.2426011562347412 -1.4219323396682739 1.6297316551208496 0.5024286508560181 0.4229967892169952 -0.4744791388511658 1.3007103204727173 -1.2001346349716187 -1.3312457799911499 -0.4464125633239746 -0.5306504964828491 2.4350640773773193 0.8194496035575867 -0.2785881161689758 0.1271977871656418 2.0574691295623779 1.5250434875488281 -0.6761568188667297 0.4743556082248688 -0.1283802539110184 -1.2939535379409790 -1.9200370311737061 0.8338786959648132 0.3020387291908264 1.0351098775863647 -0.0881520435214043 -2.0369346141815186 0.2241663038730621 -0.9546560645103455 0.5529292225837708 -0.3424087762832642 1.4190425872802734 0.1147789210081100 0.9744053483009338 0.1454263329505920 -0.7657757401466370 -0.2135867774486542 -0.5468457341194153 -0.6324461102485657 1.2661839723587036 -0.7184773683547974 0.3484280109405518 0.5342198014259338 -0.1615906357765198 -0.4615918993949890 0.1901136189699173
1.6510914564132690 -0.0072043789550662 -0.6894076466560364 -0.4771338403224945 0.0430468581616879 1.4317638874053955 -0.0778719335794449 0.1576174050569534 0.3111466765403748 -0.3508402109146118 -0.0616606958210468 -1.5849188566207886 0.9132469892501831 -1.0876361131668091 -1.8019909858703613 -0.0615521930158138 1.0571776628494263 0.4425825476646423 0.8005542159080505 0.9292831420898438 -0.6414449214935303 0.6118564009666443 -1.2077565193176270 -0.2974291443824768 -0.7471792101860046 -0.1585080474615097 -1.3935549259185791 -1.1144847869873047 -0.8194122910499573 -0.9809548258781433 0.7756769061088562 -3.1933870315551758 -0.0480518825352192 -0.0268817301839590 0.8507612943649292 -0.2431309372186661 1.2057788372039795 -0.9948772192001343 -1.4085559844970703 1.8348375558853149 1.3543342351913452 -0.4064033329486847 -0.6324279904365540 -0.7321032881736755 0.1481294780969620 1.8229207992553711 -1.4172949790954590 -1.5364986658096313 -1.4385560750961304 2.3643171787261963 -0.8463193178176880 -0.9005349874496460 1.5348576307296753 -0.0377140976488590 0.9861130118370056 0.2858072221279144 -0.7418191432952881 0.2085256874561310 0.0577975772321224 -0.3146898150444031 0.1568367928266525 -0.3179719150066376 0.5005022883415222 -0.6307123303413391 -0.3158884942531586 -1.7327498197555542 1.5568021535873413 -1.2338584661483765 1.1237933635711670 0.0799996405839920 -0.1556704789400101 -0.2693878114223480 -1.1379163265228271 0.0242146737873554 -1.0228121280670166 0.2449036985635757 -1.8679150342941284 -0.3864664733409882 1.3103426694869995 0.8891216516494751 -0.4760021567344666 0.5032894611358643 0.8658838868141174 -0.9418541193008423 -1.4788918495178223 0.1340519636869431 -1.8621954917907715 0.2325453758239746 -0.6320163607597351 -0.5298061370849609 0.9410181045532227 0.1788722425699234 0.2416558563709259 1.0211058855056763 -0.7461713552474976 -1.4953186511993408 0.8317135572433472 0.8015315532684326 0.3849051594734192 -1.8208731412887573 0.1235582530498505 1.1953928470611572 -1.5273317098617554 0.8995810151100159 -0.5366961359977722 -0.2004823386669159 0.3240450620651245 0.5449364185333252 -0.5608606934547424 0.6511247158050537 1.1018124818801880 1.7161889076232910 0.2376268059015274 -0.8234443068504333 1.4883331060409546 0.3047392070293427 -0.5275816321372986 -0.3479600548744202 0.0051369452849030 0.5076867341995239 1.1076641082763672 1.0346486568450928 0.7446607351303101 0.5914361476898193 0.5835886001586914 -0.4296318590641022 -0.9072558283805847 -0.9829108715057373
-0.4847460091114044 -2.1422772407531738 -0.4538546800613403 0.6611587405204773 -0.8327068090438843 0.6502795815467834 0.0627772733569145 0.2983817458152771 0.7368432879447937 0.3817021846771240 0.9283942580223083 -0.9929512143135071 0.0553256757557392 1.2142097949981689 -0.1466716974973679 0.1359360218048096 1.6143591403961182 0.9109916687011719 2.6627144813537598 0.0428917817771435 -0.6621184945106506 1.0805355310440063 -0.1642183959484100 0.1455297768115997 0.2977573573589325 -0.8181053400039673 0.6581817269325256 0.8342069983482361 0.8428590297698975 1.3132504224777222 1.2162958383560181 1.4521461725234985 2.2411262989044189 0.9934039711952209 -0.8656082153320312 0.9229398965835571 1.4271986484527588 -1.1568427085876465 -0.7945954203605652 0.2507538199424744 0.9415276050567627 -0.9851166605949402 0.8742001056671143 0.5094771981239319 -0.3198496997356415 1.4526371955871582 1.2867074012756348 -3.3083882331848145 1.3100398778915405 0.6946788430213928 0.0453723967075348 -0.8591827750205994 -1.1836090087890625 0.5100363492965698 -0.5758487582206726 -0.1244566589593887 -1.4190907478332520 1.7028008699417114 -0.2724505066871643 -0.1567167192697525 0.3381809890270233 -1.0795464515686035 -0.0300951153039932 1.1623672246932983 1.6666536331176758 1.2005453109741211 0.3428857326507568 0.7395360469818115 0.3487552702426910 0.1903667747974396 -1.2307912111282349 -0.4723460674285889 -0.9911324381828308 -0.8890289664268494 0.0389440581202507 -0.5509511232376099 -0.3389933705329895 -1.9972852468490601 -1.0194197893142700 0.4372552335262299 0.0362299680709839 0.2928533256053925 0.6286916732788086 -1.1959198713302612 -1.2187942266464233 0.9870052933692932 0.0959011912345886 -1.5562781095504761 0.5549402236938477 0.5074993371963501 -0.5423634052276611 0.0884615853428841 -0.2952826023101807 0.0353327952325344 -0.0234943870455027 0.7443282604217529 -1.3598626852035522 1.0044015645980835 1.0358498096466064 0.5475541949272156 -1.3587747812271118 -0.5480697751045227 0.9976742267608643 -1.6498309373855591 -0.7944592833518982 -0.9238952994346619 0.1791146099567413 0.0493957810103893 -0.8730860948562622 0.0858129784464836 1.8879710435867310 1.9238964319229126 0.5593376159667969 -0.5590547919273376 0.0875012800097466 -0.3054633736610413 0.1560143530368805 1.7090398073196411 -1.7083423137664795 -0.5381971597671509 0.7454916238784790 0.0362250730395317 -1.4307606220245361 1.2129565477371216 0.9411223530769348 0.4064087569713593 -1.1283057928085327 -0.1567612737417221
0.4115146100521088 0.8272035121917725 -1.0641391277313232 1.0204788446426392 0.5392225980758667 -1.6221587657928467 -0.4648348391056061 0.1469731926918030 0.7474245429039001 0.7919325232505798 0.3214800357818604 1.5433633327484131 0.1373184770345688 0.5096037983894348 1.3269096612930298 1.3529249429702759 0.4372712969779968 1.9485324621200562 0.1780399084091187 0.9777720570564270 1.6062328815460205 -2.2238404750823975 -0.5446334481239319 1.8483659029006958 -0.1968377679586411 0.2646821141242981 0.4920780956745148 -1.6171137094497681 -0.1002217456698418 0.8060311079025269 0.8954346179962158 1.3540383577346802 0.5806058645248413 0.5890530347824097 -1.9069318771362305 -2.8451578617095947 0.7470945715904236 1.1341595649719238 0.2348686456680298 0.0212433654814959 0.5076994299888611 0.4439889788627625 -0.0000763115749578 -0.8527558445930481 1.7350041866302490 -1.2169771194458008 -0.3646359145641327 -1.3621568679809570 0.6676400303840637 -0.2862530350685120 -1.7270997762680054 0.8511074781417847 0.3593253493309021 -0.5319907069206238 -0.3817045092582703 -0.6688606142997742 -0.1917887628078461 0.1827494949102402 0.2450897246599197 -1.0055521726608276 -0.4309502840042114 -0.4603085815906525 -1.2713917493820190 1.3106034994125366 -0.5093821287155151 -0.4511948525905609 -0.6569420099258423 0.2908874452114105 -0.6067332625389099 -0.4810423552989960 -0.6439681053161621 0.1090935915708542 0.0635221302509308 0.1901794523000717 0.6763972043991089 0.1950593590736389 1.3137077093124390 0.2250597476959229 0.1171197220683098 -1.0342079401016235 0.0829931795597076 -1.5768489837646484 0.2489993274211884 0.5747557878494263 -0.3192038536071777 0.2338996827602386 -0.8250730633735657 0.9365862011909485 0.2288737595081329 0.0199001412838697 -0.1570377945899963 1.2461748123168945 0.7850371599197388 -1.1485315561294556 -0.7439407706260681 1.5673762559890747 0.1248808354139328 -0.7896445989608765 -0.0672594830393791 0.9096329212188721 0.4393258392810822 1.6450272798538208 -0.4077028334140778 -0.9888786673545837 0.1764599233865738 -0.3948217630386353 -0.1206688731908798 -1.2680785655975342 -2.4970567226409912 0.6894619464874268 1.8115856647491455 0.1140018403530121 -0.2179544866085052 -0.9869533777236938 1.5989054441452026 0.0629430711269379 0.8504646420478821 0.4264006912708282 0.7558856606483459 -1.5915876626968384 -1.4761904478073120 1.6522567272186279 0.0193167086690664 -1.1276710033416748 1.1005283594131470 -2.3443572521209717 0.1564206033945084 0.2713881433010101
-0.9918601512908936 0.3931538164615631 2.4816713333129883 0.0364196747541428 1.0732651948928833 -0.1044393256306648 -0.3377960026264191 1.2415872812271118 1.4325009584426880 -0.3091521561145782 1.9893510341644287 -0.7626656889915466 -0.1250246763229370 -0.8636240959167480 0.8555179834365845 -0.1029139682650566 -1.2522867918014526 1.1817114353179932 -0.5943098068237305 -0.3540533185005188 0.2063664942979813 -0.2460569739341736 0.6028483510017395 0.6675578951835632 -0.6138336062431335 -0.1759166121482849 0.6367757916450500 -1.0829609632492065 -0.0013723775045946 -0.9349790215492249 2.0672044754028320 -0.0787025019526482 0.1895807236433029 -0.6853937506675720 0.4206067025661469 1.0183852910995483 2.0313725471496582 -0.5409828424453735 -0.5722383856773376 -0.0680172145366669 0.3999596536159515 -0.4599636495113373 0.0079189473763108 -1.0828741788864136 -1.2190406322479248 0.9487592577934265 2.0546033382415771 0.2329460531473160 0.6433553695678711 0.7098461389541626 -0.0048531200736761 0.4907350242137909 1.1097813844680786 0.6700623631477356 1.2856510877609253 0.4691635668277740 -0.1950189322233200 0.4615603387355804 0.3026626408100128 -0.5265893340110779 0.9521191120147705 0.4109984338283539 -0.1673226505517960 1.1113244295120239 -1.9462004899978638 -0.4171501994132996 -0.0148868476971984 0.2555687427520752 0.4856796860694885 0.4905084371566772 -0.8124760389328003 0.1353769451379776 1.2485260963439941 0.4874051511287689 0.0479334555566311 -0.9538717865943909 -0.1709390580654144 1.2311259508132935 -1.0960085391998291 0.0966688245534897 -1.8050519227981567 0.9289582967758179 -0.7355308532714844 -0.3590645492076874 0.5679840445518494 -1.5756492614746094 0.9775724411010742 -0.9459987878799438 -0.1549472212791443 -0.1322759538888931 -0.6784083843231201 -0.2615046203136444 -1.3494414091110229 0.7300751209259033 -0.3255647420883179 0.4945927560329437 -1.1234748363494873 1.4121024608612061 0.4053455591201782 0.6338879466056824 0.2189467847347260 0.6896091699600220 -0.6391022205352783 -0.3370352983474731 -0.0726318135857582 -0.1882445514202118 -0.6853951215744019 -0.9110754728317261 0.2342729866504669 -1.0717632770538330 -0.4003846049308777 0.0555806234478951 -0.8404187560081482 -1.9288941621780396 2.9158127307891846 -0.0496999099850655 -0.8116865754127502 0.9949904680252075 0.1171520799398422 -1.6933039426803589 -0.3310076594352722 0.0911009982228279 -0.9502493143081665 -0.3456288278102875 0.2187727987766266 1.1835821866989136 -1.2466330528259277 -0.9329336285591125
-0.2665803432464600 -1.4814838171005249 0.6355422735214233 0.5473467707633972 -1.4157823324203491 -1.2655376195907593 -0.1176214963197708 -0.0384468175470829 0.2288173437118530 0.2273678034543991 0.4582043588161469 -2.1232721805572510 -0.4164618551731110 0.5130263566970825 -0.6414824128150940 0.4098931550979614 0.1049687862396240 2.8644068241119385 1.1492742300033569 1.2218950986862183 0.0875829830765724 0.9482021927833557 -0.1051508560776711 -0.3952940702438354 -0.4179698526859283 0.4900384247303009 0.0124293835833669 0.5218942761421204 -0.3826859593391418 0.3569460213184357 -0.6644573211669922 1.5683379173278809 -0.5610136389732361 1.2975060939788818 0.9223852157592773 -1.1546006202697754 0.4073556065559387 0.1668806672096252 -1.1797327995300293 0.1084897071123123 1.4955998659133911 -0.7797542214393616 0.4731632769107819 -0.3370831012725830 -1.6780992746353149 -0.8962780237197876 1.1483403444290161 0.3467167317867279 -0.2489209473133087 -0.7868216037750244 1.7841607332229614 1.7314100265502930 0.8709652423858643 -1.0992234945297241 0.0927265137434006 1.0238698720932007 -0.3372426927089691 1.9184271097183228 -0.9585888385772705 0.1989006251096725 0.2679999172687531 -0.1697449237108231 0.6084757447242737 -1.7842931747436523 -0.1371377408504486 -1.0482064485549927 0.5989950299263000 -0.2098179906606674 0.5318852663040161 0.8654958009719849 0.9340378642082214 0.0900731310248375 1.0470627546310425 0.9242743253707886 -2.3751711845397949 -2.0149254798889160 -0.9256917834281921 -1.4600828886032104 0.5724480748176575 0.8187078833580017 0.3416855931282043 -0.8068667650222778 1.2396440505981445 -0.5015007853507996 -0.7109645605087280 1.3516266345977783 -1.1851934194564819 0.1152501925826073 0.3904741406440735 -1.4933502674102783 1.2716504335403442 1.8153983354568481 -0.6145270466804504 0.2484118193387985 -0.2838436663150787 0.7978663444519043 0.8145255446434021 0.5865412950515747 0.1156958267092705 0.1451737433671951 0.6910849809646606 -2.0090627670288086 -1.7351567745208740 -0.0790745541453362 -0.8133563399314880 0.5251768827438354 1.0124906301498413 -0.1140950471162796 1.5096042156219482 0.6902548670768738 -1.0659282207489014 -0.0469441115856171 1.2093292474746704 -0.4757018387317657 -0.7029266357421875 1.7117842435836792 1.2723245620727539 -0.9687945246696472 -0.7238872051239014 -2.6143054962158203 -1.3952902555465698 2.3288714885711670 -1.4593263864517212 -2.0282974243164062 -2.4166772365570068 0.1168107613921165 0.4179110527038574 -2.0830898284912109
1.4315927028656006 -0.6816762089729309 1.1023325920104980 -0.4911774694919586 0.5799981355667114 1.6911983489990234 -0.2519537806510925 0.1089970618486404 -0.1563514769077301 1.7103496789932251 1.8061894178390503 0.3542031347751617 -0.2541654706001282 0.2605534195899963 1.0430331230163574 1.5337100028991699 0.6488645672798157 0.0867050588130951 -0.3534102141857147 -0.9523677229881287 0.2319450825452805 0.3837287127971649 -0.2575782835483551 0.5765972137451172 0.1466371119022369 0.7476682662963867 -0.5767868757247925 -0.4369444847106934 0.2775496244430542 0.4891524612903595 0.5309736728668213 -0.4698283076286316 0.6033912301063538 -0.1304008066654205 1.7706096172332764 0.4263361096382141 -1.2623281478881836 0.9264923334121704 -0.3127264380455017 -0.9624192118644714 -0.8960309624671936 1.1035381555557251 -1.3132332563400269 -0.5164229273796082 0.8499752879142761 1.3809596300125122 0.4281002879142761 -0.1904890090227127 0.7187461256980896 0.5739674568176270 -2.3545112609863281 -0.2225742340087891 0.5250570774078369 0.3547532260417938 2.9621345996856689 0.1451869159936905 -0.0247965976595879 -0.2458126246929169 -0.5039709210395813 0.9790176749229431 0.4491086900234222 -0.7428831458091736 -1.9278289079666138 -0.2962761819362640 0.5586562752723694 0.0936284959316254 1.6095690727233887 2.1001861095428467 -0.8299200534820557 0.2841329574584961 0.5713183283805847 0.0940711945295334 -0.2993015944957733 1.3973670005798340 -0.4792748391628265 0.5866799354553223 -1.6552205085754395 -0.8899972438812256 1.1005849838256836 1.0577493906021118 0.1321305334568024 0.6610870957374573 0.6347010731697083 -1.6500381231307983 2.6651344299316406 -1.2537353038787842 -1.0359488725662231 0.0679704472422600 0.4489672183990479 -0.5513628721237183 -1.1171399354934692 1.1403436660766602 2.1632559299468994 0.7812137007713318 -1.1653374433517456 -0.5413908362388611 -0.4063576757907867 0.0310660377144814 -0.5817303061485291 0.3558077812194824 -2.0229754447937012 0.4403644800186157 -0.5937873125076294 -0.0521050244569778 -0.4019402265548706 1.4834959506988525 -1.5488845109939575 1.8290671110153198 0.8908603787422180 1.2329936027526855 1.8793659210205078 -1.6245051622390747 2.0042579174041748 0.1256229281425476 0.5858507156372070 0.6459296941757202 -0.6379510760307312 1.0298444032669067 0.5568466782569885 -0.6749791502952576 0.4361394345760345 0.3078578114509583 -0.1847496926784515 -0.2574309408664703 0.6472365260124207 2.0459830760955811 -2.1094641685485840 0.2489372491836548
-0.7227478027343750 0.3766799569129944 -1.9621820449829102 -0.6357002854347229 -1.6314886808395386 0.7279093265533447 0.6538285613059998 -0.8893351554870605 -1.2227851152420044 0.0257290303707123 -0.6912969350814819 -0.2952776253223419 0.7347660064697266 0.3836429417133331 0.0070433425717056 -0.2706657350063324 -0.9276126623153687 -1.6051279306411743 -0.2551325857639313 -1.0806031227111816 -0.3985906243324280 0.0752939060330391 0.1864441186189651 0.6586310267448425 0.8592899441719055 1.3645991086959839 -0.3869898021221161 -0.1543712317943573 -0.3338344097137451 1.3341859579086304 -0.9901731610298157 -0.0254501011222601 -0.9193363785743713 -0.1523303389549255 0.7644273638725281 -0.1950877904891968 0.8638000488281250 0.6004254817962646 0.1923801004886627 0.8695816993713379 -0.7257617712020874 -0.0231727138161659 0.2887514531612396 0.5486740469932556 1.5660538673400879 -0.5409500598907471 0.7121573686599731 0.5786843299865723 -2.2959721088409424 -0.9168497323989868 0.7108397483825684 -0.5048375129699707 2.7295768260955811 -1.3429123163223267 -0.0871148109436035 1.2505085468292236 0.4680643677711487 0.5353697538375854 -0.0894271433353424 1.1133708953857422 1.3073767423629761 -1.0816278457641602 0.1378081142902374 -0.0773426443338394 -0.3624589443206787 -1.8087812662124634 -2.1198847293853760 0.0354911871254444 -0.1814717650413513 -1.7111182212829590 -0.0370463170111179 -0.9679795503616333 1.8641912937164307 -0.4616032838821411 0.4972586333751678 -0.6719405651092529 0.2392982542514801 -1.5852558612823486 -0.3183647394180298 1.0164978504180908 -2.1371204853057861 0.6865166425704956 0.1653812825679779 0.6695812940597534 -0.3007603287696838 0.6521154046058655 -0.2022069394588470 -0.9672049880027771 -0.4212212264537811 3.1574037075042725 -0.6972995400428772 0.0051976135000587 0.3298350870609283 -1.2700301408767700 -0.5311753749847412 1.5104157924652100 -1.0658049583435059 0.7716300487518311 -0.4800799787044525 0.6954123377799988 -0.6220645904541016 -0.5712634325027466 0.4826531708240509 -3.7306792736053467 0.0112564088776708 0.3508702218532562 -0.3477376401424408 0.5489402413368225 0.1184668689966202 -1.2263559103012085 -0.6338062882423401 -1.1589237451553345 0.8929675221443176 -0.7463409304618835 -0.1042887344956398 -1.6197944879531860 -0.9334895610809326 -0.7741250991821289 0.6167487502098083 -0.8059058189392090 -0.2752884328365326 -1.2820146083831787 0.5642830729484558 0.4248283505439758 -2.8339016437530518 -0.2965733110904694 0.5342784523963928 -0.9608760476112366
0.9233721494674683 -0.4708588123321533 0.0346467159688473 -0.1506612449884415 -0.2636741995811462 0.6333715915679932 -0.0065171355381608 0.9930917620658875 -0.7743101716041565 -0.0409696251153946 1.0189212560653687 1.1263424158096313 0.1024885848164558 -0.8025723695755005 0.1070516258478165 1.6151380538940430 0.1231551095843315 0.6797062158584595 0.7783901691436768 -0.1065834537148476 -0.5217356085777283 0.2298820763826370 1.3443477153778076 -2.8683393001556396 -0.0653526037931442 -0.0494542568922043 -0.4487957358360291 0.3284135460853577 0.8475398421287537 -0.5644626021385193 2.2980945110321045 0.9506220221519470 -0.1253920048475266 0.1144380643963814 -0.5830275416374207 -0.0753077566623688 0.3810873627662659 -1.9820473194122314 0.6882745623588562 0.5472397208213806 0.6027161478996277 1.3286651372909546 0.1204240024089813 -1.2230672836303711 -0.7760095000267029 0.1557580679655075 0.1849527209997177 -0.1525283455848694 1.0970873832702637 0.9045120477676392 1.3238580226898193 0.7185948491096497 -0.4343986511230469 -0.0229877457022667 0.1110791191458702 0.1770222932100296 -1.1792651414871216 1.6390417814254761 -1.2084741592407227 0.0182290337979794 0.5651752948760986 -1.8937456607818604 -1.0634362697601318 -0.5647889971733093 0.3473951518535614 -0.0218749027699232 0.2308888584375381 -0.5086921453475952 -1.6218035221099854 -1.7054109573364258 -0.8970623016357422 -1.0155456066131592 0.1656873077154160 0.2265356332063675 -0.2546634674072266 0.3123591542243958 1.9967054128646851 -0.1663948297500610 1.2146549224853516 -1.2078233957290649 0.1647068113088608 -0.7248648405075073 0.2238741368055344 0.1801863610744476 0.9107558727264404 0.5427464246749878 -0.3622122108936310 -0.9122917056083679 -0.8467208743095398 -0.3369991183280945 -1.1201614141464233 -1.3299537897109985 2.0614748001098633 0.2450456619262695 0.5759414434432983 0.0137056382372975 -1.7761349678039551 0.6999685168266296 -0.7495794892311096 0.9736076593399048 0.1407357603311539 0.9690037965774536 0.2880442142486572 0.1529025137424469 -0.2646185457706451 -2.5989472866058350 2.4973382949829102 2.6549627780914307 -0.1972956806421280 -0.9167990684509277 -1.1280038356781006 0.2226703315973282 1.1472220420837402 0.8878705501556396 1.4751567840576172 1.5837001800537109 -0.3119848370552063 0.7532609701156616 0.4036075472831726 -0.9856861233711243 0.1240458264946938 1.1413173675537109 1.7363653182983398 0.7472074031829834 0.2363908290863037 -0.7290440797805786 -0.7166276574134827 -0.1932093501091003
0.3589170575141907 0.3193440437316895 0.8722623586654663 0.1017062515020370 -1.0023859739303589 -0.6410164833068848 0.5807915329933167 0.2387834191322327 0.9605167508125305 -1.5894035100936890 2.3061573505401611 -1.7705789804458618 0.5844143629074097 -0.0538262501358986 0.0328206866979599 -0.4457260668277740 -1.2759511470794678 -0.0052002063021064 0.7171683907508850 -0.6728435158729553 -0.7771636247634888 0.0421515777707100 -0.1619935631752014 0.0796227380633354 0.3218026459217072 -0.4342783093452454 0.5574030280113220 1.8522051572799683 -0.7309272289276123 -1.9255108833312988 0.4933537840843201 -0.1042483299970627 0.2154340147972107 -1.6824320554733276 0.5941746830940247 1.1445457935333252 0.3152201771736145 -1.3454997539520264 1.3911596536636353 -0.5798943638801575 0.4300781190395355 1.2404876947402954 -1.6736757755279541 0.8603293299674988 -0.4062351286411285 -1.2703086137771606 -2.4249849319458008 0.8286299109458923 -1.8167822360992432 -0.9434417486190796 -0.2205136120319366 -0.0989527702331543 0.4227209687232971 -1.0369582176208496 -0.8199894428253174 -0.6049094200134277 -1.5882070064544678 -0.0260402467101812 -0.5904247164726257 -0.7549350857734680 -1.3824470043182373 0.3482523560523987 0.2936239242553711 -0.4835731387138367 -0.3214885592460632 1.2593927383422852 0.2585287690162659 1.0078939199447632 -0.8027258515357971 -0.0125184589996934 0.6891310214996338 0.0224757473915815 -2.0025813579559326 -0.7338920235633850 -1.1644065380096436 -2.1665587425231934 -0.0231477916240692 0.2553258240222931 -0.8360697031021118 1.0265518426895142 1.1045478582382202 1.0985666513442993 -0.7325776815414429 -1.6643252372741699 -0.7160078883171082 0.5849821567535400 -0.3953694105148315 -1.2272865772247314 0.0376504696905613 -0.1637196838855743 0.9093338251113892 0.7668659687042236 0.3843473792076111 -0.4988662302494049 0.3345868289470673 -0.1256355792284012 -1.1175088882446289 -0.0232070423662663 -0.8643851280212402 0.1420215368270874 0.9766744375228882 1.1449675559997559 -0.5902385115623474 1.4564962387084961 0.1960336118936539 2.8770186901092529 -0.8604432344436646 -0.8798778653144836 -1.1748230457305908 0.5903368592262268 0.8480201363563538 0.0016311689978465 1.4009518623352051 -0.3234691619873047 -1.4209084510803223 -1.8210390806198120 1.7033877372741699 0.3881692886352539 0.3197419047355652 -0.7044901847839355 -2.0388696193695068 0.0377563871443272 -1.2088769674301147 -0.3880299627780914 1.1218085289001465 0.7344396114349365 -0.2483540028333664 0.7001894712448120
-0.6036538481712341 1.5532317161560059 -0.7037942409515381 -0.6005172729492188 -1.9044479131698608 -0.2769213020801544 -0.2155900001525879 1.1360714435577393 -0.2038269490003586 0.0701671540737152 -0.7901658415794373 0.4996383190155029 1.3346915245056152 1.0256682634353638 -0.0270264353603125 0.2203548550605774 -0.2356086373329163 -0.0157685428857803 0.1063557267189026 -0.8341082930564880 -0.7385170459747314 -0.4537859857082367 -1.9191778898239136 1.2184607982635498 -0.8162758350372314 -1.0967268943786621 -0.3416658341884613 -1.6432598829269409 1.6212071180343628 0.0822608321905136 -1.2774269580841064 -1.8722126483917236 -0.2314542084932327 -0.9790155291557312 -0.8613821268081665 -0.0521652325987816 -0.8435115218162537 -0.2794340848922729 -0.4003379344940186 -0.2796654701232910 0.5895336270332336 0.9307587742805481 -1.1713383197784424 1.1096075773239136 1.9071091413497925 0.3115063309669495 -1.0178490877151489 1.7419962882995605 -0.2887517213821411 1.2829289436340332 -0.9078633189201355 0.0622569397091866 -1.2499545812606812 -1.0128226280212402 -0.5039174556732178 0.9543491601943970 0.1481515169143677 0.3895478248596191 1.5324153900146484 -2.1075041294097900 -0.9174348711967468 0.4623556733131409 0.7031522989273071 0.0615063011646271 2.2984395027160645 -1.3536331653594971 0.1883962154388428 1.6941828727722168 -1.2379052639007568 0.5602607131004333 -0.0510533452033997 0.1828658431768417 -1.8596220016479492 -1.0642377138137817 0.3977827131748199 -0.7516456246376038 -0.1690267175436020 -1.1464189291000366 -0.0538394786417484 0.6720938086509705 -0.3803914785385132 -0.5125291347503662 -0.1093734353780746 -0.8722521662712097 0.4462885856628418 1.6718736886978149 -0.7009122371673584 0.4427704811096191 -1.1548172235488892 -1.1365435123443604 -1.0034705400466919 -0.9199953675270081 -0.7173219919204712 -0.3625907301902771 -0.5574907660484314 1.4178113937377930 0.8421149849891663 -1.0479480028152466 -0.0544916242361069 -1.2656111717224121 -0.1135523170232773 2.0350019931793213 -1.1167603731155396 2.5567178726196289 0.3245340287685394 1.0067687034606934 0.2955948710441589 0.8278635740280151 0.2819198966026306 -1.0373136997222900 1.2028228044509888 -0.5573897957801819 -0.8042381405830383 -0.7238772511482239 -0.8383309841156006 0.3270605206489563 -2.6907529830932617 1.9407035112380981 0.0544038116931915 -0.3353365957736969 -0.1204277798533440 0.3196572363376617 0.0782179534435272 -0.3636379539966583 0.7886288762092590 0.5065552592277527 -0.1611200720071793 -1.1952867507934570
0.4520912170410156 -1.7064300775527954 -0.5770549178123474 -0.0986457392573357 -1.5439742803573608 0.3298652768135071 -1.4576547145843506 0.5720977187156677 -0.0765398293733597 1.5854450464248657 0.4560108780860901 1.0769274234771729 -2.2373244762420654 1.2968236207962036 1.2569363117218018 -0.3474361002445221 1.1832369565963745 -1.1676462888717651 0.0029460489749908 -1.4743965864181519 -0.3922277092933655 -0.0021846955642104 1.2540823221206665 0.4640499651432037 -0.4071077406406403 0.0837700217962265 0.8976558446884155 0.9739329814910889 0.0934631675481796 2.7999687194824219 -1.1276830434799194 0.5939103364944458 -1.5272480249404907 0.0333012975752354 -2.3708591461181641 2.5281078815460205 -0.6075017452239990 -0.4497327506542206 -1.1172425746917725 1.4654616117477417 0.8731360435485840 0.2355428040027618 0.1726317405700684 -0.1786033362150192 0.7126879096031189 0.1933236122131348 -0.1354787349700928 -1.7854037284851074 -0.9705412387847900 0.3171579241752625 -1.3891396522521973 0.5561324357986450 0.6107466816902161 0.0453541614115238 0.1317229419946671 1.2015051841735840 0.1752673089504242 -0.2777544856071472 0.8137314915657043 -0.6340762376785278 -1.2065716981887817 -0.9972851276397705 0.1230787038803101 -0.6367754936218262 -1.0740486383438110 -1.3761121034622192 0.4577571153640747 -0.1325647979974747 -3.1992373466491699 0.1056121438741684 1.3079046010971069 1.1191976070404053 -3.1140029430389404 -1.2662146091461182 0.5800645351409912 -0.4580211043357849 1.7036795616149902 0.0461168400943279 1.7684010267257690 1.2847341299057007 -0.9626442193984985 -0.2877871096134186 1.3122504949569702 -0.7153688073158264 0.5098305940628052 0.9707791805267334 1.0013605356216431 0.1653470247983932 -0.6531927585601807 -0.1011231020092964 0.0869665071368217 0.4226345717906952 -0.3986473083496094 -0.6747922301292419 -0.0598882324993610 0.6761679649353027 0.2354866862297058 -1.6479089260101318 0.1875474900007248 -0.8686499595642090 0.5458831191062927 1.1097501516342163 0.1762882769107819 0.4788171052932739 0.6430202126502991 -0.3960647284984589 -1.0559597015380859 1.9007612466812134 1.6862202882766724 -2.0759868621826172 1.2193752527236938 -0.6649891734123230 -1.2528947591781616 0.1708335131406784 -1.6266413927078247 -0.6299326419830322 -0.8586840033531189 -0.0811107456684113 -1.3285973072052002 -0.1422981768846512 0.6945183277130127 0.1169075965881348 0.8306441903114319 -0.7047717571258545 -0.1147647649049759 -0.7587345838546753 0.5781368017196655 -1.2837464809417725
1.1149518489837646 -1.2863557338714600 0.1466418653726578 0.2876091301441193 -0.5946869254112244 -1.5861914157867432 -0.6229891180992126 0.0814624279737473 -0.8724696040153503 -1.8501435518264771 -0.1470594257116318 0.3954426348209381 0.4390795528888702 0.8503008484840393 0.1396921426057816 -0.6234039664268494 1.0566401481628418 -0.8882315754890442 -0.8527895212173462 -0.2523075640201569 0.2900225520133972 -0.9383462071418762 -1.6856552362442017 -0.6386100053787231 -0.2362672388553619 1.5079451799392700 0.0145530952140689 0.0553113259375095 -0.2093161791563034 -0.8559111952781677 0.1014378666877747 0.2797326445579529 0.3424644768238068 -1.3264926671981812 -0.5506207346916199 0.2875894606113434 -0.6926563382148743 2.1882464885711670 -0.4851726293563843 0.6614843606948853 -0.3701785802841187 -0.4026233851909637 1.2698452472686768 -0.0761633217334747 -0.2168826907873154 -0.9292331933975220 0.4588430821895599 0.7450323104858398 -0.4086301028728485 -0.7354752421379089 1.9250185489654541 -0.7971008419990540 -0.3135721981525421 -0.4552130103111267 -0.3884626924991608 -0.5660935044288635 -1.1743439435958862 1.3742102384567261 -1.0953830480575562 -0.1801072210073471 -0.3737952709197998 0.6462622284889221 0.8913631439208984 0.9878960251808167 -0.6828004717826843 -1.1757739782333374 0.2419913262128830 0.6211118102073669 -1.7342866659164429 1.7320353984832764 0.2656042575836182 0.9751664400100708 -1.0031287670135498 -1.0493695735931396 0.9039798974990845 -0.5513004064559937 -2.4075646400451660 2.2313542366027832 -2.0244779586791992 1.5755134820938110 0.3687485158443451 1.0287026166915894 1.0320217609405518 1.2221770286560059 1.4221796989440918 -0.2750506103038788 -0.6612162590026855 -0.8150485157966614 -1.1803208589553833 1.4618778228759766 -1.2847363948822021 -1.0874845981597900 0.3731873631477356 -0.6285969018936157 -0.6988520622253418 -0.1563805043697357 -0.7945287227630615 -0.5626681447029114 -1.2550081014633179 2.4860708713531494 -0.0837878286838531 1.5403528213500977 -0.0769981071352959 0.8940837979316711 -0.7597628235816956 -0.2367948442697525 2.8188087940216064 0.3829785585403442 1.1357381343841553 0.4494625627994537 -0.7586282491683960 -1.2644374370574951 -0.9512128233909607 -0.1506011039018631 -0.8645958900451660 -1.2817273139953613 -0.7123849391937256 -0.1974990516901016 -1.5436530113220215 -1.3918960094451904 0.5487809181213379 -0.0564430281519890 0.1248456314206123 0.3686503767967224 -1.2980729341506958 -0.3677718639373779 0.7006970643997192 -0.2618757188320160
0.6925999522209167 -1.4649156332015991 0.0045290240086615 -0.3642252385616302 0.6325520277023315 -0.0871544629335403 -0.5659665465354919 0.3431862592697144 -0.4231520295143127 -1.8309689760208130 -0.5162904262542725 -0.0061320555396378 -0.1274440884590149 -1.0492749214172363 -0.8021168112754822 -0.4348123073577881 -2.6670086383819580 1.6560528278350830 0.9749183654785156 0.6832157373428345 1.2450066804885864 1.4191584587097168 -0.9638730883598328 0.5130646824836731 -1.3351421356201172 -1.2577825784683228 -0.1886750310659409 0.8235178589820862 0.1209031939506531 1.1239752769470215 0.5837823748588562 0.9396777749061584 -0.0313782840967178 -1.5197333097457886 -0.8398841619491577 0.0758948400616646 -1.7158223390579224 -0.7392697334289551 -0.7612032890319824 1.3367643356323242 0.5763277411460876 0.8775453567504883 0.8140538930892944 -1.2270618677139282 -0.4590565264225006 -0.5381399393081665 -0.5490919947624207 -0.4087021052837372 0.6294609904289246 -0.2232673615217209 -0.2339751869440079 -0.5210866332054138 0.2322504669427872 1.3882067203521729 1.9276474714279175 0.3201209008693695 -0.6788499951362610 -1.3853707313537598 1.1036976575851440 0.5632110238075256 0.9993799924850464 0.0268573164939880 -0.5644901394844055 0.6925472617149353 0.3988597691059113 -0.1898525357246399 -0.9863791465759277 1.0528377294540405 -1.0442297458648682 0.0127561921253800 -0.8663379549980164 1.3496106863021851 1.1534771919250488 0.7389902472496033 -0.9215571284294128 -0.3477217853069305 -0.5660485029220581 -0.3868840932846069 0.5274138450622559 -0.1368867903947830 -1.5860545635223389 0.8893874287605286 0.9668871164321899 -0.7416909337043762 1.7681850194931030 -0.9384902119636536 0.1839508414268494 0.0362128578126431 1.1849607229232788 -0.9136003255844116 -2.1489906311035156 -1.6661853790283203 0.1162399053573608 0.5293136835098267 0.2669568955898285 1.2913875579833984 0.4274399280548096 0.5112296342849731 0.4724662005901337 0.0854330956935883 -0.9154847264289856 1.3540185689926147 -2.1974232196807861 -0.3012059032917023 0.1021122708916664 0.3554981350898743 0.9952309131622314 0.0782467424869537 -0.7149974703788757 -0.5848862528800964 -0.0425142534077168 -0.2402403503656387 0.2762951552867889 0.3481491804122925 -0.1485381275415421 0.5338038206100464 -0.8110105395317078 -1.8716512918472290 -0.2525907158851624 -0.2764945328235626 1.4920440912246704 -0.5356547832489014 0.8605786561965942 1.4279505014419556 0.3954497873783112 -0.3122562170028687 0.5123276710510254 0.4998180866241455
-0.2693021595478058 0.2957918047904968 -0.8212058544158936 0.1649859547615051 0.0643253177404404 -1.4522320032119751 -2.3376765251159668 -0.3908387124538422 -0.5366054177284241 -0.9141901135444641 1.9727985858917236 1.4598509073257446 0.5479118824005127 0.2935192584991455 -1.2166668176651001 0.6358206868171692 -1.7222080230712891 0.5971529483795166 0.5144671201705933 1.8809525966644287 1.0047901868820190 0.1986701488494873 1.6820261478424072 -0.0057094134390354 0.4161035120487213 -0.5977100133895874 1.1231607198715210 0.8548473715782166 -0.6501240730285645 0.8239257931709290 0.0467286631464958 0.5490643978118896 -0.6195845603942871 0.8884570002555847 -0.0555621907114983 1.2696923017501831 0.7878085374832153 0.5920951962471008 -0.2691065967082977 -0.4224738478660583 1.2515186071395874 0.6512619256973267 -1.1185861825942993 1.7600034475326538 0.5217327475547791 -0.1611246168613434 0.2136823534965515 -1.1773754358291626 0.1943759918212891 0.5781685709953308 0.9346938133239746 0.5003382563591003 0.1515029966831207 -1.1349817514419556 1.1355254650115967 -2.6015126705169678 1.0448834896087646 0.3425378203392029 0.6493160724639893 -1.0590740442276001 0.3067953586578369 -0.3412809073925018 -0.1611517071723938 -0.3236087560653687 0.5643369555473328 -0.2445625662803650 -0.8036873936653137 1.4408303499221802 -0.7021274566650391 -1.7776440382003784 0.2590180635452271 -0.9404616951942444 -0.4459180235862732 0.3935895562171936 1.1332460641860962 -1.1737859249114990 3.1854834556579590 -0.3943215608596802 0.1741161346435547 1.0023051500320435 0.8638166785240173 -1.3702473640441895 -0.3046549558639526 0.1858743280172348 1.7112584114074707 -0.3992170095443726 -1.0472383499145508 0.5876563191413879 1.0064421892166138 2.4979937076568604 -0.1590064913034439 -0.0090071614831686 -1.5936479568481445 0.6747830510139465 -1.8476936817169189 -0.9016938805580139 -0.3980730473995209 0.5107119083404541 0.2068612724542618 1.8224744796752930 -1.0993174314498901 0.4294116497039795 -0.2242979556322098 -2.1792252063751221 0.4893241524696350 0.8601021170616150 -0.4328965544700623 -0.2625086009502411 0.4576405286788940 1.7659382820129395 0.2474371790885925 0.5842002630233765 -0.3596526086330414 0.3203954994678497 0.4843185842037201 0.2982671260833740 0.7091751694679260 0.1816232353448868 0.3002544939517975 -1.0917522907257080 0.5834597349166870 -1.4925180673599243 0.3867933750152588 -1.0527437925338745 0.9952085018157959 0.1958387047052383 0.0320089645683765 0.0485138110816479
0.0157772954553366 -1.0643886327743530 -0.8538089990615845 -0.0537259429693222 -0.0218346063047647 0.3610283732414246 -0.8746048808097839 -1.8186887502670288 -1.6437408924102783 2.1318306922912598 0.8261697292327881 -0.1716585457324982 -0.6659045219421387 0.9588328003883362 1.6423922777175903 -1.3071094751358032 1.9794156551361084 -0.7189815640449524 -0.4580523073673248 1.3707705736160278 -0.5295074582099915 -0.8852705359458923 -0.3273243904113770 0.3339312076568604 0.5050138235092163 0.0206527300179005 -0.6514058113098145 -0.5160472989082336 -0.7948549389839172 -0.3844338059425354 0.9618830680847168 0.2082819640636444 0.1793428063392639 -0.8461322188377380 1.1758934259414673 -0.7103157639503479 1.1580185890197754 -0.3504707217216492 -0.3616657555103302 -0.7355570793151855 -1.3429621458053589 0.6812424659729004 -1.7690516710281372 0.2101657539606094 -0.4852095842361450 1.0669094324111938 1.3033082485198975 -0.5267838835716248 -0.3434197306632996 -0.1362637579441071 -0.8193065524101257 2.3660049438476562 -2.3040068149566650 -0.9396570920944214 0.7319919466972351 0.7035072445869446 1.4815527200698853 0.1984426826238632 0.4654507637023926 2.8707847595214844 0.3644793033599854 1.7633918523788452 -0.9485760927200317 2.1154873371124268 0.7082219719886780 0.6155362129211426 -0.7253182530403137 0.7251710295677185 0.9437628984451294 -1.0909320116043091 -0.6741767525672913 1.0532929897308350 -0.4841265678405762 -0.9440947771072388 -1.9209711551666260 0.0230019669979811 0.1930819004774094 -1.3248083591461182 -1.3851544857025146 -0.9390224814414978 1.2583520412445068 -1.3800355195999146 1.3947041034698486 -0.7703844904899597 0.6582018733024597 1.7088111639022827 1.1809664964675903 -0.0736761167645454 0.1572736948728561 -0.3068110048770905 -0.7905113697052002 -0.2333589345216751 -0.5470440983772278 -0.0234491601586342 -0.1890313327312469 1.6643804311752319 0.8505071401596069 0.3944534361362457 -0.6402784585952759 1.4350473880767822 -1.1661989688873291 -0.4378134906291962 -1.0560878515243530 0.1669980734586716 -0.3590550422668457 1.9001420736312866 1.1083700656890869 -0.4241316914558411 -0.4610643684864044 2.5216836929321289 1.1895077228546143 -0.1032769009470940 -0.2384564131498337 -1.5347404479980469 -0.4602690935134888 1.7821184396743774 1.7274763584136963 1.3822143077850342 -0.7935685515403748 -0.5532289743423462 0.9377208352088928 1.7986176013946533 -0.3668453991413116 -1.6507539749145508 0.9139403104782104 -0.6736155152320862 1.3595130443572998 1.8663338422775269
-0.3157251775264740 -0.3851993978023529 1.2900662422180176 -0.2535938322544098 -0.5564336776733398 -0.1731244176626205 0.8908108472824097 1.1855632066726685 1.8435165882110596 1.2956300973892212 1.2738251686096191 0.7439886331558228 -0.6458031535148621 0.4950899183750153 2.0384283065795898 0.0042667686939240 -0.9368169903755188 -1.9453681707382202 0.2542801797389984 -0.0762596651911736 2.8845484256744385 -0.4664205610752106 -0.3456207215785980 -0.0637484118342400 0.2888816893100739 -0.2755871415138245 -2.0336253643035889 0.7288087606430054 -2.0265059471130371 1.0974955558776855 0.3161834180355072 -1.5567915439605713 -1.4299081563949585 -0.4237095415592194 -1.0726974010467529 0.0436650142073631 0.8785270452499390 -0.7332464456558228 -0.2589103579521179 0.1873058974742889 -0.7207165956497192 -0.5606108307838440 -0.8828080296516418 0.3474118709564209 0.5497733950614929 -0.3097563087940216 1.4299336671829224 0.2339827567338943 0.8819587826728821 1.3381947278976440 -0.8029890656471252 0.1156984716653824 0.3045915663242340 0.2468469291925430 0.1080351397395134 0.1416568458080292 1.4701445102691650 -0.8541150093078613 0.3871913850307465 -0.0762758329510689 0.6189059019088745 1.3889080286026001 -0.0761719942092896 -0.5132941603660583 0.7319123744964600 -0.0520759820938110 -0.4606602191925049 1.5706942081451416 0.0769208818674088 0.5075883269309998 1.2408460378646851 -0.4467884302139282 1.3660770654678345 -1.6665390729904175 0.6359979510307312 -0.3935368061065674 -1.5786972045898438 0.4772313833236694 -1.6073741912841797 1.7116466760635376 -1.4197120666503906 0.8878764510154724 -2.2009160518646240 -0.4358283281326294 -1.0300288200378418 2.3357214927673340 -0.8586353659629822 1.1656814813613892 0.0495975092053413 0.6683778762817383 0.4971816539764404 -1.2010487318038940 0.9689965248107910 1.8885991573333740 0.5777282118797302 0.2728681564331055 0.5937642455101013 0.4484196007251740 -2.0550606250762939 1.5641245841979980 0.3911460041999817 0.6674479246139526 1.0521297454833984 0.8240084648132324 -0.1454280763864517 2.1470832824707031 1.2169957160949707 0.6024431586265564 -0.1869501471519470 -0.3547825813293457 0.4390420615673065 -0.2653976976871490 0.2190978378057480 -0.4528713822364807 -1.0288209915161133 -0.9130479693412781 0.0297737345099449 -0.2176813781261444 -1.6087875366210938 0.0079666897654533 -1.2405446767807007 -0.2892224192619324 0.5102714300155640 -0.5189402699470520 1.0498524904251099 0.5275859236717224 0.6382069587707520 -0.0518473088741302
1.9906965494155884 -0.1743558347225189 0.0389516055583954 0.1506047248840332 1.7533593177795410 1.7880327701568604 0.7349269986152649 0.8506455421447754 -0.2075771838426590 -1.4544872045516968 0.3575863838195801 0.3906459510326385 -0.1972226649522781 -0.4579420387744904 -0.2419317662715912 1.1234511137008667 1.3109625577926636 1.2192329168319702 1.4018350839614868 -0.0141646945849061 -1.3397818803787231 -0.2172071337699890 0.9554993510246277 0.0278214085847139 -1.2094264030456543 0.3479475677013397 0.2923951148986816 1.3357074260711670 -0.2108445912599564 2.3014032840728760 0.5229954719543457 -0.7187830805778503 -0.8168820738792419 -0.9516460299491882 2.3283538818359375 -0.4176902472972870 1.5328301191329956 0.3732116818428040 0.3103145062923431 -0.5540676116943359 -1.1468241214752197 -0.8283826708793640 -0.6334235072135925 0.1623752564191818 -1.0197901725769043 1.1265263557434082 1.5262795686721802 0.3550350666046143 0.9991114139556885 -0.4244554638862610 2.2243003845214844 0.7197849154472351 -1.5037064552307129 -0.3765616118907928 -1.1521958112716675 -1.7910604476928711 -0.8478419184684753 -0.0676577389240265 1.1567298173904419 -1.6759507656097412 1.1421015262603760 1.7356147766113281 -0.0268382355570793 0.1941402554512024 -0.3892036974430084 1.4469268321990967 -1.0307688713073730 -1.2087086439132690 0.2391496747732162 -0.2636351287364960 1.5094153881072998 0.0311425793915987 -0.7433726191520691 -0.4454269707202911 -0.2829503417015076 1.3784393072128296 -0.5590474009513855 -0.4669336378574371 -0.6251971721649170 0.1555075943470001 1.8809038400650024 0.6398546099662781 -1.3795936107635498 0.8118494749069214 0.4236828386783600 0.4188722372055054 0.6744892597198486 -1.5168182849884033 -0.7956054806709290 -0.7708640694618225 -0.5217018127441406 0.6009359955787659 0.0092503363266587 -0.5846617817878723 -1.3360157012939453 -0.3956598937511444 0.4150259494781494 -0.3970407545566559 -0.2757195532321930 0.5892274379730225 0.4463621675968170 -1.3315726518630981 0.0647496730089188 0.5678214430809021 1.4075698852539062 -1.6152613162994385 -0.5396675467491150 -1.7616888284683228 0.8648330569267273 -1.3986802101135254 -0.4153984785079956 -1.6958060264587402 0.0496178269386292 -0.3460145592689514 0.9386559724807739 -0.5729531049728394 0.5324681997299194 0.3916365504264832 -1.0079187154769897 0.2504239976406097 -1.9307966232299805 0.1882198750972748 1.1188669204711914 -0.7280737161636353 -0.0829319357872009 -1.0966979265213013 0.4962393641471863 -0.8964909315109253
-1.0890195369720459 -0.3867982923984528 -1.1228009462356567 -1.4211791753768921 0.7518191933631897 -1.6246228218078613 1.4344629049301147 0.4984489083290100 0.5398942232131958 1.7735400199890137 -0.3311635255813599 -1.4987868070602417 2.1203615665435791 -1.2854052782058716 0.2289927005767822 -0.0321324244141579 -0.0525817647576332 -0.5416313409805298 -1.2707947492599487 -0.2452511638402939 1.7719508409500122 0.0823774114251137 -0.3067778348922729 -0.9072694182395935 -0.0592314526438713 -1.0050463676452637 -0.8049905300140381 0.1092450544238091 -0.1017555370926857 -0.4428741335868835 -1.0610190629959106 -1.7344672679901123 0.6747812628746033 -0.1875696182250977 -0.1957140415906906 -0.4699026048183441 -1.0079867839813232 0.1456718742847443 -0.5031613111495972 -0.7347031831741333 0.8103567957878113 -0.1493202894926071 1.3714532852172852 -0.6469971537590027 0.2419816553592682 -0.8091871738433838 0.6495197415351868 1.5474613904953003 1.3284412622451782 1.6744818687438965 1.8652130365371704 0.8577791452407837 1.6524027585983276 -0.9548614621162415 -1.6910949945449829 -0.3122496902942657 -0.2805908918380737 0.4119795560836792 0.5956209301948547 -0.9383018612861633 0.2987691164016724 1.1175198554992676 -0.9869282245635986 -0.1438942551612854 -0.1918859481811523 0.0479704476892948 -0.2228697091341019 0.7715458869934082 -1.5184334516525269 -1.1086457967758179 -0.8174422979354858 1.2360211610794067 -0.0505863316357136 -0.9271582365036011 -0.3767977952957153 2.0819468498229980 1.5122072696685791 0.1596920490264893 -1.1076699495315552 0.6918942928314209 -0.8878706693649292 -0.4244196414947510 0.5033533573150635 -0.2041399329900742 -2.1225941181182861 1.3454492092132568 -1.0817452669143677 -1.0966876745223999 0.2902278602123260 -2.5267348289489746 -0.1023169830441475 0.2454820573329926 0.2264346778392792 -0.0590985380113125 0.3455557823181152 -2.2306461334228516 -1.3155472278594971 -0.2154875546693802 0.9879477024078369 -1.8274461030960083 0.5710952877998352 0.9783587455749512 1.0379768610000610 -0.5450048446655273 0.8159161806106567 0.4146011769771576 1.6660844087600708 -2.2469680309295654 1.7893637418746948 1.0793836116790771 -0.1113700494170189 0.4572039544582367 -1.6975873708724976 -0.4176939725875854 0.6941349506378174 0.1126231700181961 1.1280434131622314 -1.2590444087982178 -0.9655689597129822 -0.6391000151634216 -1.2653758525848389 -0.9505712389945984 -1.2699698209762573 1.0487126111984253 0.3957734704017639 0.1113382503390312 -0.9925333857536316 0.9004601836204529
-1.7512159347534180 -1.5403523445129395 0.4446736872196198 0.7722063064575195 1.4650527238845825 -0.4475255906581879 -0.8386864066123962 -1.0509785413742065 2.1953260898590088 -1.2512583732604980 -1.7792043685913086 0.5262594223022461 -1.0456228256225586 -0.1914636641740799 -0.6276580691337585 1.0442658662796021 0.0197950620204210 -0.3265574872493744 -0.9406042098999023 1.2508504390716553 -2.3520987033843994 -0.3784234523773193 0.6733536720275879 0.8487506508827209 1.4994738101959229 -0.0294145606458187 -0.5592987537384033 -1.2976528406143188 -0.9709702134132385 -0.6877230405807495 0.5182363390922546 -0.4367927312850952 1.3038678169250488 1.3908557891845703 1.9645686149597168 0.6359405517578125 0.8062403798103333 0.4433503150939941 1.4780014753341675 0.0361471064388752 -0.4251039624214172 0.4065409004688263 1.1481714248657227 2.1606111526489258 -0.0547509379684925 1.9192695617675781 -1.5922958850860596 -1.0238111019134521 0.0007404529605992 0.1314270943403244 0.3861043453216553 -0.3900950849056244 -0.0138630969449878 -0.3445147871971130 -1.5646853446960449 -0.7079132795333862 0.0179422888904810 -0.5951075553894043 0.7810899615287781 0.1733800768852234 0.5445538759231567 0.5187963247299194 -1.2898005247116089 0.7067283987998962 -0.6104205846786499 3.3033618927001953 -0.6161226630210876 0.0350877493619919 1.1335884332656860 -0.3257601559162140 -0.0783702433109283 -0.4107122123241425 1.8418068885803223 -0.4724569320678711 0.1628248840570450 0.8413359522819519 -0.9684112668037415 0.4741723239421844 -0.7585858702659607 -0.6368815302848816 0.3948465585708618 -0.1979920119047165 0.8837904930114746 1.2084048986434937 -0.3868318200111389 0.8187180757522583 1.0177847146987915 -0.1753542274236679 -0.1317009180784225 -0.2137967348098755 -0.4447942674160004 -0.8086007833480835 -1.0954078435897827 0.5849574208259583 -0.8059159517288208 -0.8241868615150452 0.3381364941596985 -1.8417837619781494 0.3585971593856812 0.0224972553551197 -0.6679561138153076 1.7273515462875366 -0.3849312663078308 2.3343534469604492 -0.2409270852804184 1.0512280464172363 0.0435750894248486 -0.0849466025829315 0.3646979928016663 -2.4888420104980469 0.4256008863449097 0.4678677618503571 -0.5679243206977844 -0.0463173650205135 0.0475669056177139 0.2183564007282257 0.6539208889007568 -0.5342113375663757 -1.3550813198089600 -0.1053375676274300 0.6105139255523682 0.9638498425483704 0.2000522017478943 -0.4155585169792175 0.4973563551902771 -0.5620062947273254 0.4436169266700745 -0.5719031095504761
1.7000286579132080 0.8451687097549438 -0.8377262353897095 0.2735154330730438 -1.1867969036102295 1.1657693386077881 -1.2565737962722778 -1.1390229463577271 -0.9917517900466919 0.5975778698921204 0.5618072152137756 1.3514754772186279 -0.6008929014205933 0.4813706576824188 0.8102430105209351 0.2655790746212006 1.0621572732925415 1.8541104793548584 0.0246673971414566 -1.6279437541961670 -0.3864828348159790 0.5335740447044373 -1.5856255292892456 -0.8536652922630310 1.0106120109558105 -0.1209442913532257 1.1978180408477783 0.0593786686658859 0.7830291390419006 -0.1135236024856567 0.9361229538917542 0.2035886645317078 0.5307226181030273 -1.0524464845657349 -0.7948353886604309 1.6754280328750610 -0.7294498682022095 1.0351994037628174 -0.0106431078165770 0.3423620462417603 -0.3870176970958710 -0.5659416913986206 1.2976268529891968 -0.2976462841033936 -1.2141044139862061 0.5765884518623352 -1.0683231353759766 0.6397960186004639 -0.6983754038810730 0.0242351107299328 1.0108250379562378 -1.1683117151260376 -0.1961333900690079 2.1145455837249756 -0.5556787252426147 -1.3852170705795288 0.5327484011650085 1.0832841396331787 -1.1231495141983032 -0.8494338393211365 -0.0360188409686089 -0.6691231131553650 -0.8069967031478882 0.9862485527992249 1.3335276842117310 1.5082240104675293 1.2125600576400757 -0.1197383552789688 -0.1684428453445435 -0.4719727635383606 -0.3073371350765228 -1.0197911262512207 0.3976074457168579 0.0089231729507446 0.1036477982997894 1.9137952327728271 1.7949203252792358 1.1347632408142090 -0.3817405998706818 -0.5413917303085327 0.1907228380441666 0.3201057016849518 0.5433682799339294 2.1478903293609619 1.7263883352279663 -1.8991721868515015 -0.1642657071352005 1.2899847030639648 0.3384869694709778 1.2790621519088745 -1.3226445913314819 -0.7939449548721313 -0.8468298316001892 0.6514708995819092 0.3202533721923828 -0.4572289586067200 -0.4852882027626038 -1.1818728446960449 1.4442617893218994 -0.7039993405342102 -0.4593981802463531 0.6994172334671021 0.1879423707723618 0.3843464553356171 -0.0269045308232307 1.1344830989837646 0.2918826639652252 -2.0509796142578125 -0.0409414619207382 -0.3582555055618286 -1.0525865554809570 0.6664465665817261 -0.7202624082565308 -0.3680798709392548 0.3781429529190063 0.3369213342666626 -0.7196110486984253 -0.8585866689682007 0.2996812462806702 0.6136597990989685 -1.3495686054229736 0.7989794611930847 -0.3741590380668640 1.2704212665557861 0.2490763515233994 0.1851789653301239 -1.2731065750122070 0.3514724075794220
-0.3478678166866302 -1.3232884407043457 1.1079735755920410 0.4960756599903107 1.1356723308563232 0.0346711799502373 0.7171651721000671 -0.3760199546813965 -0.0733039528131485 0.7117579579353333 0.2922697961330414 -0.2988888919353485 0.9270352125167847 -0.7616186141967773 1.3304828405380249 1.3811863660812378 0.6548647284507751 -1.2115311622619629 0.2502716481685638 1.1307675838470459 0.6006052494049072 0.2474773228168488 -0.6199775338172913 -0.7163711786270142 -0.4700596928596497 0.0535713657736778 0.1631070375442505 1.4135330915451050 0.2302913367748260 -1.3844455480575562 -1.3594075441360474 -0.0355474613606930 -2.4045741558074951 -0.9197376370429993 0.6380110383033752 0.2002655714750290 -1.6633121967315674 -1.3762913942337036 -0.2062166631221771 -2.7643284797668457 0.7288337349891663 -0.4605410695075989 0.1042175516486168 0.9770092964172363 -0.5935401916503906 0.0520522408187389 -1.9144372940063477 -0.0494998060166836 -0.0102971903979778 1.5215089321136475 -0.1083166897296906 0.1718856990337372 1.5788253545761108 1.8231146335601807 -0.1387383490800858 0.2087888121604919 -0.8192946314811707 0.4953479170799255 0.5094884037971497 -0.3172018527984619 0.3961992263793945 -1.1224313974380493 1.1741136312484741 0.9733803272247314 -1.2129575014114380 0.5296255350112915 -1.0641582012176514 0.4296732842922211 -0.7825802564620972 0.4677043557167053 0.5366112589836121 0.4225331246852875 0.3810866773128510 0.3188642859458923 -0.6116897463798523 -0.7326309680938721 1.0754498243331909 -0.3770714402198792 0.1720194071531296 -1.1163433790206909 0.2288544923067093 -1.6700824499130249 -0.4918449521064758 0.1811137199401855 -0.3582109510898590 -0.2426217496395111 -1.4153949022293091 0.0022650021128356 -0.5382084846496582 -0.7158086299896240 -1.2785540819168091 1.0157012939453125 0.2920180559158325 -0.8536258935928345 -1.5617179870605469 0.9125125408172607 -0.9434590339660645 0.5645139217376709 -0.6669723391532898 1.6410105228424072 -0.2766903042793274 0.1699969917535782 0.5417663455009460 -1.4506698846817017 -0.0060805189423263 0.3693502545356750 0.8696951270103455 0.3779243528842926 -1.3831869363784790 1.2295395135879517 0.6215978860855103 -0.0686420947313309 0.6427943110466003 -0.9448189139366150 -0.8374742269515991 0.2656633257865906 -0.4606610536575317 1.8128460645675659 0.1166593506932259 0.6553708314895630 0.3329919576644897 -0.0138224670663476 -0.5999962687492371 -0.5314986705780029 -0.2565681040287018 -1.6687722206115723 0.7661085724830627 -1.0174047946929932
1.3949962854385376 0.4026193320751190 -1.1311031579971313 -0.3767239153385162 0.7811939120292664 -0.5277107954025269 0.5481487512588501 0.6219192147254944 -2.0648562908172607 0.4479975104331970 -0.3939022421836853 1.1480638980865479 0.2954645156860352 -0.3567900061607361 -0.9256510138511658 1.3142454624176025 0.2834557294845581 -0.8411965966224670 -1.5796239376068115 -0.1813736855983734 -0.8406395316123962 0.2773524224758148 1.2091823816299438 0.7507949471473694 0.1989463865756989 0.8445745706558228 1.2055876255035400 -1.6296018362045288 0.5256729125976562 1.5265808105468750 -0.5314722657203674 -0.7760431766510010 0.2266163676977158 0.0128449490293860 0.4927762746810913 0.3722982704639435 0.2102651745080948 -0.6154520511627197 -1.8748089075088501 0.4464887678623199 0.8494629859924316 0.2692655324935913 -0.4111881852149963 -0.6819429993629456 0.3223196566104889 -0.9732289910316467 -1.3307737112045288 -1.5505794286727905 0.5350291728973389 -0.0532723180949688 -0.1635456681251526 -0.1566263139247894 -0.2220948189496994 0.0574566349387169 1.2981834411621094 0.2199289649724960 -0.9884017705917358 0.9172539114952087 0.5162702798843384 1.4509202241897583 0.7936316728591919 -0.3885580301284790 -0.0402353964745998 -0.5131887197494507 -0.2398867309093475 -1.0658918619155884 0.9592272043228149 -0.4338434636592865 1.9773536920547485 0.5283132791519165 -0.3622475862503052 1.3897861242294312 1.4338079690933228 -1.2281616926193237 -1.1640696525573730 0.5952844023704529 0.9687844514846802 -1.9517732858657837 0.6171931028366089 1.9391362667083740 -1.0599280595779419 -0.0916154161095619 0.0556111894547939 -0.0652779266238213 0.4006614089012146 -1.0692001581192017 -0.7004840373992920 0.0060988632030785 -0.2673146426677704 0.7384735941886902 -2.1075806617736816 0.2430385947227478 0.1459622532129288 0.7819964289665222 -0.3288095295429230 0.2840390801429749 -2.2214391231536865 -1.0811166763305664 -0.7586905956268311 -0.8483653664588928 0.7831519246101379 -0.8038663268089294 1.1325827836990356 -0.0791467577219009 0.5945083498954773 0.2926564812660217 -2.1355803012847900 -0.5464140772819519 -0.9269686341285706 -1.6109431982040405 0.5368523001670837 -0.9911273717880249 -0.5000466704368591 -0.2209013104438782 -0.3013031780719757 -0.9937364459037781 0.0663501173257828 -0.9392324686050415 -0.2298546880483627 0.5300909876823425 0.1681422144174576 0.2769920229911804 -0.6112722754478455 0.8991279602050781 0.9278594255447388 -1.8121781349182129 0.3319785594940186 -1.2716933488845825
1.2207628488540649 0.5022356510162354 -1.6501870155334473 0.4493241608142853 -0.2542633116245270 -0.0480448156595230 0.4753839671611786 0.3927440643310547 -1.1929622888565063 -0.5556846857070923 1.4034047126770020 -0.3996991515159607 -0.2302450835704803 -1.0342637300491333 -0.2312951534986496 0.1634886115789413 1.6248556375503540 1.7201921939849854 -0.9849870204925537 -0.4057569801807404 -1.4800167083740234 0.0811394080519676 1.0130852460861206 -0.2571667134761810 0.2622791230678558 -0.7300037741661072 0.1345815062522888 1.0529270172119141 0.1016384437680244 0.4508830010890961 -0.5595357418060303 0.0959715470671654 -0.7903726696968079 -0.0357536263763905 0.7541483044624329 -2.1962959766387939 0.1004267781972885 -0.1800561100244522 0.3879227638244629 2.1139216423034668 -0.0814367383718491 -0.3154071271419525 0.2764076590538025 0.3388828933238983 -1.5172457695007324 -1.3693119287490845 1.0797575712203979 -0.5882135629653931 0.1579649150371552 1.3333055973052979 -0.5623837709426880 0.3743816912174225 -0.6963511109352112 0.2069612294435501 0.3672157227993011 -1.0661103725433350 1.6104201078414917 0.3313390910625458 -0.7343754172325134 -1.3312705755233765 0.5522474050521851 1.0121742486953735 0.6864711046218872 -1.9761084318161011 0.7089702486991882 0.2687551081180573 0.7698132395744324 -0.5672636628150940 -0.7128303050994873 0.1069044321775436 0.9340810775756836 -0.3508298397064209 0.2872074246406555 0.1046931669116020 -1.5930913686752319 -0.8949306011199951 0.8540710806846619 -0.3027758896350861 0.1328935325145721 -0.7599065899848938 0.4506096243858337 0.6401692032814026 2.4452385902404785 -0.8986356258392334 -0.6258962154388428 -0.9783453941345215 -0.9369428157806396 0.2892642915248871 1.3729130029678345 0.8237805962562561 -0.6028261780738831 0.3637253642082214 1.1264333724975586 -0.3256907463073730 -1.6534496545791626 -1.2692904472351074 2.1871123313903809 0.0371959358453751 -1.1638736724853516 -0.4492436051368713 -0.6590295433998108 -0.7561740875244141 -0.0412860922515392 0.2454934269189835 0.6189155578613281 2.4187369346618652 -0.1094652488827705 -1.5900396108627319 0.3926978409290314 -0.0363935641944408 -0.3354442715644836 1.2680827379226685 -0.0210236236453056 -1.8606282472610474 1.3163064718246460 -2.0811371803283691 0.6515467762947083 0.3645745217800140 -2.1298725605010986 1.0912886857986450 0.6313620209693909 1.5364736318588257 0.9997484087944031 -0.3939198851585388 1.2275053262710571 -0.5819424986839294 0.1859278827905655 0.0571724399924278
-0.0182058140635490 3.1044487953186035 0.7760595679283142 -1.8253858089447021 0.0161863323301077 0.0861449316143990 -0.4044511020183563 -1.2185783386230469 0.0989417210221291 -0.1516623198986053 0.5220376253128052 -0.6947279572486877 -1.2360569238662720 -0.3713922798633575 -1.4069056510925293 1.3126738071441650 -1.5292716026306152 1.0959665775299072 0.3790872097015381 0.0178304184228182 1.0092290639877319 -0.4364544749259949 -1.0326672792434692 -0.8296340703964233 -0.3672651350498199 2.0366048812866211 -1.0040714740753174 -0.0258558839559555 0.1978484541177750 1.0612958669662476 -1.0951783657073975 -0.8526493906974792 -0.5934487581253052 -1.1000494956970215 2.3434233665466309 1.8378669023513794 -0.4916940331459045 1.9626849889755249 0.1577332615852356 0.9731835722923279 0.0875567346811295 -0.1828102469444275 0.3944008350372314 -0.9459276199340820 -1.4861693382263184 0.1037781611084938 0.0924837067723274 -0.1388759762048721 -1.5514570474624634 0.4571838676929474 1.2652195692062378 1.0015285015106201 -0.2711689770221710 0.7190334796905518 -0.6409879922866821 -0.4409269392490387 -0.0015798895619810 -1.6401957273483276 2.1517820358276367 1.0461024045944214 -0.0953469648957253 -1.8034040927886963 -1.8179259300231934 0.8330023884773254 0.9917148351669312 -0.3108613491058350 0.1430364847183228 -3.2726852893829346 -0.3612779676914215 -0.2018428444862366 0.0800975039601326 1.4720705747604370 -1.9172384738922119 0.0022503645159304 -0.5181542634963989 1.2297475337982178 -0.6275308728218079 -0.6008811593055725 0.8519929051399231 0.8400304913520813 0.7400866150856018 -0.6249919533729553 -0.4702347815036774 0.1459501534700394 0.7467156052589417 2.0136306285858154 -2.2714538574218750 -0.1875763237476349 0.3712801039218903 -0.9274581670761108 -1.4031301736831665 0.5234901309013367 -0.8105694651603699 0.4267304539680481 1.2047379016876221 1.3807909488677979 -0.3253226280212402 -0.7614236474037170 -0.7828893661499023 0.3605948388576508 -0.5629045963287354 -0.7326046228408813 -1.3909580707550049 -0.4114841222763062 -0.0486167185008526 -1.4623042345046997 -0.9414725303649902 1.9301319122314453 0.5345823764801025 -0.4155989587306976 0.4434927701950073 1.1747062206268311 1.2815966606140137 -0.0218809340149164 0.7490954399108887 -0.3993999361991882 -0.0261116009205580 -1.9800722599029541 0.5303701162338257 1.2523572444915771 0.5654861330986023 -0.5571073889732361 -0.7083550095558167 -0.4713712036609650 0.8063135147094727 -0.3713572919368744 -0.8514195084571838 0.5205201506614685
1.7968574762344360 -0.5512474179267883 1.5816881656646729 0.6611372232437134 -0.0757702961564064 -1.0515061616897583 0.0699702799320221 0.3367643058300018 -0.2582494318485260 2.3840124607086182 0.7978330254554749 1.0097295045852661 1.9764159917831421 -0.4971557557582855 -1.0352102518081665 1.9187858104705811 1.2167780399322510 1.0169101953506470 -1.7545576095581055 0.6648470163345337 0.3864865303039551 -2.3875186443328857 -0.3490367233753204 0.1584614217281342 -1.0667438507080078 -2.0456216335296631 -0.6291632652282715 0.9924464821815491 -1.3104265928268433 0.8110325932502747 -0.1693481206893921 -0.5896499752998352 -0.0882883891463280 1.3927811384201050 1.6826595067977905 0.3395073711872101 -0.9713791012763977 -0.9510656595230103 0.3885450959205627 -0.4978768825531006 -1.6331396102905273 1.1928296089172363 -0.9316414594650269 -0.3821232020854950 1.8037573099136353 0.1863807588815689 0.5703785419464111 -1.1309262514114380 1.2346265316009521 -1.3217455148696899 -0.7497008442878723 1.0300850868225098 0.6259434819221497 1.8865691423416138 0.9635359048843384 -1.7776308059692383 -1.5619909763336182 0.1082314848899841 0.6174110174179077 0.4225379526615143 -0.8042712211608887 -1.0802122354507446 0.5519732832908630 -0.9763853549957275 -0.0035663088783622 -0.1772014498710632 -1.1346064805984497 0.8119357228279114 1.1800808906555176 -0.7643883824348450 -0.3675646185874939 -0.5132974386215210 -0.7031669020652771 -0.1146261617541313 -0.4291708469390869 -1.7018545866012573 -0.8900744915008545 0.0085936123505235 -1.8805377483367920 -0.2771039903163910 -0.8834385275840759 0.3205936849117279 0.0124551216140389 0.0421761050820351 -0.1123173907399178 -0.8306884169578552 0.0066590500064194 -1.2491676807403564 0.0612514093518257 -0.5162118077278137 0.5962508916854858 0.9654973149299622 -0.5642278790473938 -1.3844845294952393 0.3403024375438690 0.0403757654130459 -0.7264142036437988 0.5542974472045898 1.4973168373107910 -0.8928202986717224 0.0320098698139191 0.8496192693710327 -0.2873661816120148 -0.1234679445624352 -0.0890912190079689 0.4781753122806549 0.0329484008252621 -0.8181442618370056 0.4419062137603760 2.1795852184295654 0.6740032434463501 0.4686399400234222 -1.1084587574005127 1.5330241918563843 -1.2591875791549683 -0.7731971740722656 -1.2993847131729126 -1.4093707799911499 -1.1125959157943726 -1.1807667016983032 -0.6736800670623779 -1.0718460083007812 -0.4292857944965363 0.5437443256378174 -0.1486654430627823 -0.5478961467742920 -0.6657651066780090 -0.6898993253707886
-0.2493560612201691 -0.2779773771762848 0.1131912991404533 0.9963183403015137 -0.8503867387771606 3.0878510475158691 -1.0100908279418945 -0.2184782624244690 0.6541364192962646 -1.3983145952224731 0.5010598301887512 -1.1883960962295532 -2.4354982376098633 -0.2020700275897980 0.1212935373187065 0.5753873586654663 -1.5359058380126953 -0.1852648854255676 1.0105830430984497 0.2540782392024994 -1.4097300767898560 0.2995909750461578 -0.8491380214691162 -0.3705816566944122 -0.3041628599166870 -0.8122803568840027 0.1307868212461472 0.0950127765536308 -2.9048674106597900 -0.4297766983509064 -0.2509067058563232 -1.3390632867813110 0.3798006772994995 0.0342327468097210 0.8533979058265686 1.3539884090423584 -1.6329199075698853 -1.0510832071304321 -0.6312958598136902 1.0492764711380005 1.9605665206909180 -0.3495830595493317 -0.3367887735366821 -0.2108302414417267 -1.3016014099121094 0.4680289030075073 0.4344786703586578 -0.3506058454513550 -0.6751543283462524 1.2677216529846191 0.9986522197723389 -0.3403117358684540 0.5023670792579651 -1.6764605045318604 2.3719241619110107 0.8800953626632690 -0.2694102823734283 -0.9806947708129883 0.0304072499275208 -2.3338317871093750 0.0561042875051498 1.1220070123672485 0.3816626071929932 -0.3364305198192596 1.1559482812881470 -0.4981529414653778 -1.1943247318267822 -0.9866123199462891 -1.4573469161987305 0.0031099645420909 1.8893949985504150 -1.3978000879287720 -1.1637129783630371 0.4719208478927612 0.6828344464302063 2.4457869529724121 -0.2134162485599518 -0.1179952993988991 -0.7131765484809875 -0.9044795632362366 -0.0777941420674324 -0.7246294021606445 -0.8440240621566772 0.8625476360321045 0.1541901975870132 -0.4777707755565643 -0.7884758114814758 -1.2960802316665649 1.4671193361282349 -2.1442732810974121 -0.3653571009635925 1.0558406114578247 -2.1504137516021729 -0.9672861695289612 -1.0567027330398560 -1.8587740659713745 -2.5075907707214355 0.8350439071655273 -0.9506042599678040 -0.1428501904010773 -0.1093811467289925 -2.3011736869812012 1.1716706752777100 3.2427091598510742 -1.3776539564132690 0.1382181793451309 1.6135022640228271 -1.4959843158721924 -0.0841452777385712 -0.3169873952865601 1.0688766241073608 -1.1697727441787720 -0.5976721048355103 -2.1002643108367920 -0.5349954962730408 -1.1965954303741455 -1.3073847293853760 0.1284603625535965 -0.7836695313453674 1.0265865325927734 0.7131677865982056 0.4739795625209808 1.2203075885772705 1.5628855228424072 -0.5981994867324829 -0.6284983754158020 -0.7460723519325256 0.4602168798446655
0.6519147753715515 -1.6834398508071899 -0.1252724081277847 -1.1740440130233765 0.1746598333120346 -0.4266376495361328 0.3172741532325745 0.0318704210221767 1.3695793151855469 0.8235991001129150 1.6051189899444580 0.9494557380676270 -2.1294572353363037 0.1258710175752640 -0.4051958024501801 2.2237892150878906 1.1421012878417969 0.6685839891433716 -0.1449531763792038 -0.5988903045654297 1.0223565101623535 -1.0794713497161865 -0.4031286537647247 -0.3404133617877960 1.9168155193328857 0.6624575853347778 -1.2179558277130127 -0.2986688613891602 -0.1475352793931961 -0.9460567235946655 -0.6582917571067810 0.1326669156551361 1.5565447807312012 -1.6792641878128052 0.6028088927268982 -1.1831977367401123 -0.0246829185634851 -1.4186360836029053 0.0191279444843531 -0.4494822919368744 -0.7657964825630188 -0.2888690233230591 0.3342154920101166 -0.1044205501675606 -0.0881558284163475 1.2490050792694092 -0.4015164971351624 0.8261656165122986 0.6662096381187439 -0.8402293324470520 -1.0806928873062134 -0.6327232122421265 1.3671276569366455 -1.8132609128952026 0.0687776207923889 -0.9271501898765564 -0.4028744995594025 -0.4018285572528839 -0.4148139655590057 -0.3682550489902496 -0.5055692195892334 1.3194193840026855 0.9925845265388489 -0.3438603281974792 0.5726035237312317 0.2254478484392166 -0.4763153493404388 0.4846214950084686 -0.5174819827079773 -0.3469842970371246 0.8750779032707214 0.3693284094333649 0.7923557162284851 2.3089332580566406 0.9695128798484802 0.4474233388900757 1.6038924455642700 -1.2416805028915405 0.2771950066089630 0.9399707913398743 0.9267739653587341 -0.6882474422454834 1.2193225622177124 1.0890991687774658 1.5928773880004883 0.3975405991077423 0.9757429361343384 1.0210036039352417 -0.3103577196598053 -1.0127358436584473 -0.8155199885368347 -0.4383609592914581 -0.0348192937672138 -0.4752844870090485 -0.0313428454101086 0.0995786488056183 -0.1322103142738342 1.4720379114151001 1.1956176757812500 -0.2062156051397324 0.2841213345527649 0.8413552641868591 -0.5240594148635864 1.0756188631057739 0.0674539059400558 -1.0473544597625732 -1.0082322359085083 -0.7281025648117065 -1.5697754621505737 0.9074033498764038 0.3075571954250336 -1.6545392274856567 -0.3011150360107422 -0.5844725370407104 -0.1635162234306335 -1.9020315408706665 -1.0678174495697021 -0.8163110017776489 -0.1102794781327248 -0.5207092761993408 0.0639844238758087 -1.1021310091018677 -0.4473582506179810 -0.4499386847019196 1.2222354412078857 1.0539990663528442 2.1669938564300537 0.4350722432136536
