0.8605331182479858
0.5664391517639160
0.9342817664146423
-0.5371887683868408
-0.8275191783905029
0.9694030284881592
1.1655139923095703
-0.6413620114326477
-1.2452473640441895
0.3856151700019836
-2.2135643959045410
-0.9724591970443726
0.2010754942893982
-0.5310223102569580
-0.6367669105529785
-0.7473695278167725
0.2735264599323273
0.2601463794708252
-1.1009269952774048
-0.0112526891753078
-0.4645842909812927
-0.8812586665153503
0.7585976123809814
-1.4037765264511108
0.0859383344650269
0.7287957668304443
0.6221601366996765
0.9939850568771362
0.4931016564369202
-1.1043233871459961
-1.0814067125320435
1.1208745241165161
2.2809455394744873
1.6313771009445190
-0.9352170825004578
-0.3533150255680084
-0.5107726454734802
-0.0188510417938232
2.2973303794860840
1.3520861864089966
1.4015398025512695
-0.1421451270580292
-0.2127181738615036
1.6785204410552979
1.6988754272460938
-0.4183019697666168
1.8857688903808594
-0.4090872704982758
-1.5207850933074951
1.0922617912292480
1.5425593852996826
3.3560905456542969
-1.7157199382781982
0.8173844814300537
-0.7516822814941406
-0.7219443321228027
0.3119458854198456
0.5104352235794067
1.3691616058349609
-1.9837949275970459
0.0003246528212912
-0.4774979352951050
-0.6825088262557983
2.0157608985900879
-0.0738337188959122
0.5226192474365234
0.3579634428024292
1.7485228776931763
0.1246394217014313
1.0221748352050781
-1.6712901592254639
0.3707824647426605
-0.5869051218032837
-1.3797848224639893
1.1489366292953491
1.1602071523666382
-0.0147064821794629
-0.0825193375349045
0.5773668289184570
0.2585057914257050
0.0384982563555241
1.0295425653457642
-1.9952363967895508
0.9238526821136475
1.9659934043884277
-1.0660406351089478
1.0577020645141602
-0.0026054771151394
1.0190746784210205
-0.9582784175872803
0.7200797200202942
-0.0709959492087364
-0.3393840491771698
-0.8463336229324341
-0.4911070764064789
0.7068492770195007
-1.0710130929946899
1.9755885601043701
-0.8123956322669983
0.4630908966064453
0.0374506898224354
-1.0884045362472534
2.4175052642822266
0.0556115768849850
0.1842982918024063
0.3848619461059570
-0.4321198761463165
1.4362609386444092
-0.1495957225561142
-0.2652130424976349
-1.4929836988449097
0.3414434194564819
0.1064189225435257
0.0496021546423435
-0.4396122097969055
-0.8229158520698547
0.2310809046030045
0.6023854017257690
1.0052918195724487
-0.9503463506698608
1.1938925981521606
-0.9007207751274109
-1.0215365886688232
-1.4912308454513550
-1.7222578525543213
-0.1702042520046234
-0.3145723044872284
2.5383679866790771
