-0.2426913082599640
-0.4059249460697174
3.5258736610412598
0.3792233169078827
1.1663241386413574
-0.6249186396598816
0.9893063902854919
-0.4936339855194092
-1.6416915655136108
-0.0518038980662823
0.4006311893463135
-1.1745489835739136
0.1259806752204895
0.7715162038803101
0.0150355920195580
0.4043905735015869
-0.1945657879114151
-0.9979123473167419
-1.1544054746627808
1.9264134168624878
0.8418333530426025
-0.2709459960460663
0.7510132193565369
0.9631894826889038
-0.6062589287757874
-1.3108065128326416
-0.4852290451526642
-0.0986069068312645
0.4520396590232849
-0.5474755764007568
2.1284744739532471
-0.1160164400935173
-0.8768475651741028
1.5090934038162231
-0.7520411014556885
1.2458040714263916
-1.6556799411773682
0.2285487055778503
3.4830126762390137
-0.7114605307579041
-0.0233044456690550
2.1047682762145996
-0.1065493226051331
0.1439126133918762
0.0291146803647280
0.2347111105918884
1.0071489810943604
0.8115819096565247
-0.6358689069747925
-1.1150910854339600
-1.7084473371505737
1.7001999616622925
0.4740493893623352
0.1797271966934204
-0.0387516953051090
2.4232954978942871
-0.3192544877529144
-1.2195173501968384
-0.5939677357673645
-2.5006546974182129
0.1547262221574783
0.2038619518280029
0.2177049815654755
-1.6315531730651855
0.7718130350112915
-0.2015412598848343
1.5463482141494751
2.5514972209930420
-0.0834412500262260
-0.6330621242523193
0.2813410162925720
1.1780471801757812
0.1957302689552307
1.3773717880249023
0.2289966195821762
-2.5509920120239258
0.2883069217205048
-1.3924820423126221
0.3461171388626099
0.3650555610656738
0.4092762172222137
-0.1878324300050735
0.1095656827092171
-0.2813710868358612
-1.0240021944046021
-0.2434937357902527
-0.3139794468879700
0.6671106219291687
-1.6336100101470947
0.3442667424678802
-1.9481551647186279
-0.1809986084699631
0.4316504299640656
0.5998408794403076
-0.5009847879409790
0.3319066464900970
1.0571721792221069
0.7832061052322388
0.0202455818653107
0.2841433882713318
1.1008350849151611
-0.3060121238231659
0.6783333420753479
-0.9393966794013977
-0.9125860333442688
0.0288454461842775
-0.4490326344966888
-0.2263393849134445
-0.1078352034091949
-0.0425760447978973
0.0674268156290054
-1.4751191139221191
-0.7761620879173279
1.7300978899002075
0.3650561571121216
0.1664782911539078
-0.0526311211287975
-0.3985550105571747
-0.4024043977260590
-0.1470605731010437
-2.3237042427062988
-1.0565680265426636
0.9593350291252136
-1.3024168014526367
0.9483966827392578
-0.2710872590541840
-0.6735624074935913
1.9153412580490112
