-1.3926635980606079
-0.4653028249740601
-0.6946178078651428
0.3466851413249969
0.8831441998481750
-0.2310663610696793
0.1714533269405365
-0.1646341234445572
-1.4352113008499146
-0.1644789576530457
-0.6520012021064758
-0.7021555900573730
0.0315556116402149
0.0400019958615303
0.5291717648506165
0.2410288453102112
-0.8013593554496765
-0.0784507915377617
0.0381609722971916
0.8728495836257935
0.4650437235832214
0.5782086253166199
0.4490526318550110
-0.8956469893455505
0.3092639148235321
0.9604852199554443
0.1798319220542908
0.7876904010772705
-0.1940791755914688
-0.5050008893013000
-0.4008427560329437
0.1526247262954712
0.5250252485275269
0.3501996099948883
0.5206056237220764
-0.8142194151878357
0.4734877049922943
1.1063339710235596
0.1928262859582901
0.8869847655296326
0.5381982922554016
0.4323190748691559
0.2278264015913010
-0.3622108697891235
0.6513155102729797
0.6447171568870544
0.4249239563941956
-1.3232352733612061
0.0662529096007347
0.6375923752784729
-0.6399866938591003
1.0250318050384521
-0.2478980869054794
0.6316537857055664
0.4423943459987640
-0.0571897216141224
-0.6666985750198364
-0.7235096096992493
-0.4611097872257233
-0.7831986546516418
-0.0436503440141678
0.9702648520469666
0.0021420919802040
-0.2523337602615356
0.2314811199903488
0.5377859473228455
0.8415031433105469
0.6845206022262573
0.1887206733226776
0.5304674506187439
-0.3323379158973694
-0.4467598497867584
0.5215557813644409
0.1159312278032303
-0.1680404692888260
0.5935000777244568
-0.3594715893268585
0.5687360167503357
-0.0893622860312462
0.2830809950828552
0.5391049981117249
0.8430244326591492
-0.2184578329324722
-0.7371443510055542
0.0542452298104763
0.7970368266105652
0.3170850276947021
-0.5011129975318909
0.7347891926765442
0.2237802594900131
0.7055327892303467
0.6422885060310364
1.0785473585128784
0.1158652380108833
-0.3477061092853546
-0.5793004631996155
-0.2872792780399323
0.2317417263984680
1.0428621768951416
0.2141245156526566
0.4547722935676575
1.1573972702026367
0.6031790971755981
-0.2824386954307556
-0.1726485490798950
0.2982946038246155
-0.6415291428565979
-0.1485079228878021
0.1173933446407318
-0.5784059762954712
-0.1121681556105614
0.5545573234558105
0.8957310318946838
0.7606602311134338
0.8885473608970642
0.7052020430564880
0.7053588628768921
-0.1587996780872345
-0.4593281149864197
-0.6822431087493896
-1.6533051729202271
-0.4237464070320129
0.5308313965797424
0.0443399734795094
0.2809427380561829
0.3863092958927155
0.6427130103111267
-0.7291931509971619
-1.2366905212402344
-1.5646448135375977
-1.5747066736221313
-2.1949946880340576
-1.8084868192672729
-2.0862121582031250
-1.4382258653640747
-2.7969887256622314
-2.9267342090606689
-1.4080287218093872
-1.5042996406555176
-5.0794196128845215
-2.8444275856018066
-4.7112903594970703
-3.3390543460845947
-2.4042420387268066
