-0.1167384833097458 -0.4463464617729187 -0.3947356939315796 -0.3493183255195618 -0.1091888546943665 -0.2349821776151657 -0.0750915408134460 -0.3349579870700836 0.0471725240349770 -0.1040658727288246 -0.3308095633983612 -0.8407965898513794 -0.0944979861378670 0.1432577818632126 -0.0034666205756366 -0.0404271893203259 -0.0285444390028715 -0.2795867025852203 -0.2376394569873810 -0.0503102764487267 -0.1526499688625336 -0.1062223762273788 -0.3208196163177490 -0.0779283642768860 0.1604454964399338 0.0798944234848022 -0.0978283286094666 0.0090777445584536 -0.0642766803503036 -0.0367975607514381 -0.2437204122543335 -0.0992629602551460 -0.1770014762878418 -0.1836190670728683 -0.5221035480499268 -0.3401021659374237 -0.2521315217018127 -0.1144103854894638 -0.1058013141155243 -0.1209466010332108 -0.0795787423849106 -0.3246269822120667 -0.1608656644821167 -0.0056573380716145 -0.0458636432886124 -0.1631142199039459 -0.2448145896196365 -0.0598159991204739 -0.3025282323360443 -0.2304648905992508 -0.1260392814874649 -0.1752063482999802 -0.3014175295829773 -0.1203581243753433 -0.0714471489191055 -0.0243445336818695 -0.1258737891912460 -0.0834995731711388 -0.3449263274669647 -0.3545938432216644 -0.2706161737442017 -0.0337477177381516 0.0225846562534571 -0.1298017352819443 -0.1624107211828232 -0.1508743315935135 0.0118044475093484 -0.0221926365047693 0.0188116710633039 -0.0920753255486488 0.0482308492064476 -0.2755447328090668 0.0012027270859107 0.0403124913573265 0.0829226300120354 -0.2154963314533234 -0.1694203466176987 -0.2257766723632812 -0.1571295559406281 -0.0345515310764313 -0.1333801001310349 -0.0036961480509490 -0.4075899422168732 -0.2745247781276703 0.0408907979726791 0.0545833259820938 -0.0822384357452393 -0.0444568507373333 -0.1572532504796982 -0.1213247254490852 0.1365929692983627 0.0380948111414909 0.1384405344724655 -0.0902828350663185 -0.1297929883003235 -0.1371765285730362 -0.1088768541812897 -0.0934829041361809 -0.0547081306576729 -0.1198286414146423 -0.2034944146871567 -0.0022279759868979 -0.0725246518850327 0.2770316004753113 0.0827266573905945 0.1697744429111481 -0.2465954273939133 -0.2287743985652924 -0.1682536453008652 0.0224704556167126 -0.1632042527198792 -0.1044333279132843 -0.2101497501134872 -0.0885392203927040 -0.0273228753358126 0.1012655869126320 0.2951554358005524 0.0377706922590733 -0.0033711737487465 0.0152250379323959 -0.3733025491237640 -0.1300323456525803 -0.0000583298169659 -0.1102293506264687 -0.1096411272883415 -0.0119948005303741 -0.0572873204946518 0.2639793157577515 0.0453326776623726 0.5227148532867432 0.0527351871132851 -0.3656039237976074 -0.2622438967227936 0.1481122076511383 -0.2127256393432617 0.2820517718791962 -0.0966584756970406 0.0602554306387901 -0.5908022522926331 -0.3786461949348450 -0.2115437686443329 -0.3051772713661194 0.0901474952697754 0.0640081465244293
0.2226241827011108 0.2724943757057190 0.1978740841150284 0.0554671436548233 0.0296913217753172 -0.2314683943986893 0.0998360291123390 0.0321075804531574 -0.1463122963905334 -0.1528857052326202 -0.5356587171554565 -0.0879497379064560 0.0871881395578384 0.1690867990255356 0.1666436791419983 0.0906847119331360 0.0720867887139320 -0.0513453073799610 0.2968083620071411 0.0198273919522762 -0.0940107330679893 -0.3113915324211121 -0.0986784696578979 -0.2217241376638412 -0.1370909065008163 -0.0465889722108841 0.0112144462764263 -0.0795519277453423 -0.0866986215114594 0.0248715076595545 0.2439455538988113 0.1205517724156380 -0.0228477567434311 -0.0470205210149288 -0.3217574656009674 -0.1573202013969421 -0.0326373465359211 -0.2515581846237183 0.0848067179322243 -0.0276081878691912 0.0634841471910477 -0.0512156300246716 0.0742485299706459 -0.0842863395810127 -0.1080790162086487 -0.1817868202924728 -0.0363313369452953 -0.3578591644763947 -0.1305074840784073 -0.1400786489248276 0.0546739175915718 0.0667362436652184 -0.0122846085578203 0.1385896801948547 0.1194386184215546 0.0190394837409258 0.0144381942227483 0.0569772608578205 -0.0946820452809334 -0.2057988345623016 0.0686390697956085 -0.2070218026638031 0.1316155195236206 -0.0867388918995857 -0.0157571379095316 -0.0375602990388870 -0.0986587330698967 -0.0160715859383345 -0.2215115129947662 -0.1922066956758499 -0.2436583489179611 -0.2657575905323029 0.1521692425012589 0.0653176009654999 -0.0415208004415035 -0.0082304533571005 -0.0894834995269775 -0.0264854524284601 0.2133520394563675 0.1418939679861069 -0.0727346241474152 0.0451176278293133 -0.1518789380788803 -0.1266503036022186 0.1849147081375122 -0.1842174679040909 -0.1479020267724991 -0.0967276170849800 -0.1191361099481583 -0.0521551631391048 -0.0810947418212891 -0.0846631526947021 -0.0075397621840239 -0.1713895201683044 0.0078336009755731 -0.2734174430370331 0.2568240165710449 0.1417884975671768 -0.0666437000036240 0.0437977835536003 0.0683678612112999 0.0806357041001320 0.1703749746084213 0.0467602200806141 -0.0499365217983723 -0.0422814264893532 -0.3495135903358459 0.0766821950674057 0.1114417165517807 -0.1452923864126205 -0.1216924935579300 0.1331788897514343 0.0082287415862083 -0.0435723811388016 -0.0283145606517792 0.0427824743092060 -0.0820020213723183 -0.2373637855052948 0.0325656756758690 -0.1190993115305901 -0.0612397268414497 -0.2696212530136108 -0.1592395305633545 -0.1353829205036163 0.0046716826036572 0.2236544936895370 0.0150507017970085 -0.0390989556908607 0.0867154002189636 -0.1329299360513687 -0.3361768722534180 -0.2065253257751465 0.2445447593927383 -0.7220434546470642 -0.0608488880097866 0.5772981643676758 0.3198618888854980 -0.1470386385917664 0.3687514066696167 0.4884482324123383 -0.0555971935391426 -0.6560357809066772 -1.2040387392044067 -0.2992831766605377
-0.4835368990898132 -0.0918216854333878 -0.2058901041746140 0.0938388109207153 -0.2353350818157196 -0.1203416138887405 -0.1112815439701080 -0.4321355819702148 -0.0244353525340557 -0.3356613814830780 -0.0278303921222687 0.1245152652263641 -0.2119113355875015 -0.1402827352285385 0.0384879708290100 -0.1846537888050079 0.1016067042946815 -0.2333390116691589 -0.3423986434936523 -0.0677664354443550 -0.4631257653236389 -0.1864815503358841 -0.1453321725130081 0.0478319264948368 -0.2148489803075790 -0.2286300808191299 -0.3390976488590240 -0.0296389311552048 -0.1525321155786514 0.1429391205310822 -0.0768465027213097 -0.2106769084930420 -0.0095078330487013 -0.1415593028068542 0.0744208320975304 0.0335381031036377 -0.2785619199275970 -0.2222887128591537 -0.2616627216339111 -0.2695820927619934 -0.0549824088811874 -0.1640606075525284 0.0280529670417309 -0.0676020756363869 -0.2021149694919586 -0.1908144354820251 0.1374071985483170 -0.0289073921740055 -0.1297682523727417 -0.1392610818147659 -0.3372084498405457 -0.1724059730768204 -0.2851678133010864 -0.0361131168901920 -0.0760616809129715 -0.3274654448032379 -0.0649382993578911 -0.1764444708824158 0.0423032119870186 -0.1702892929315567 -0.1029997989535332 -0.1859176456928253 -0.1806525290012360 -0.2850721776485443 -0.1242761835455894 -0.3788113296031952 -0.2667175829410553 -0.0379812382161617 -0.1389106214046478 -0.1108064800500870 -0.0362700931727886 -0.1208631172776222 -0.2332521080970764 -0.0354600772261620 -0.3228248655796051 -0.0971783548593521 -0.3217838406562805 -0.3157315254211426 -0.2930457293987274 -0.1771873235702515 -0.1539611667394638 -0.1900016665458679 -0.2177025675773621 -0.4081580042839050 -0.2135394215583801 -0.1110127717256546 -0.1648917049169540 -0.1505416482686996 -0.2011690884828568 -0.3867828249931335 -0.2722177505493164 -0.1762273311614990 -0.2561939954757690 -0.3101997971534729 -0.2276004850864410 -0.3064959049224854 -0.2971816956996918 -0.2076206505298615 -0.0351467318832874 -0.2301066070795059 -0.0765391811728477 -0.3467885553836823 -0.0190669614821672 -0.1705859601497650 -0.2623621821403503 -0.3318995237350464 -0.3433440029621124 -0.2947672307491302 -0.0518712475895882 0.0384188555181026 -0.2627825140953064 0.0289518348872662 -0.0706125050783157 0.0065660923719406 -0.1305625587701797 -0.0415570177137852 -0.0680146887898445 -0.2308273017406464 -0.2224543243646622 -0.1289156973361969 -0.1026757657527924 0.0582011044025421 -0.0210738983005285 -0.1926435828208923 -0.0192940291017294 -0.3301450014114380 -0.2135874927043915 -0.1830494403839111 -0.2116268277168274 -0.1484658122062683 -0.3465305268764496 -0.3335204422473907 0.2556158304214478 0.0680854320526123 0.1825112700462341 0.1056791692972183 -0.0386435538530350 -0.2441995292901993 0.2076527923345566 -0.5644398927688599 -0.0034841629676521 0.1904112249612808 0.3138772547245026 -0.3987417817115784
-0.3405102789402008 0.0725878924131393 -0.0239566545933485 0.1176182627677917 -0.0199618469923735 0.1126106008887291 0.0540646351873875 -0.0094407461583614 -0.0120839234441519 0.1021035611629486 0.0629989206790924 -0.6047220230102539 0.1401799023151398 -0.2146923989057541 0.0393697880208492 -0.0339755639433861 -0.1830074638128281 0.1640062034130096 -0.0686838626861572 0.2405228614807129 0.1115040257573128 0.0957492515444756 0.0509832128882408 0.2345678955316544 -0.1812950968742371 0.1580471843481064 -0.0302963126450777 0.0690531730651855 0.0589631423354149 -0.0531307272613049 0.1211829185485840 -0.2323893606662750 0.0219025164842606 -0.0331010334193707 0.0426237881183624 -0.1743629574775696 -0.1006831750273705 0.1183880493044853 -0.0055347918532789 0.0038130721077323 -0.0350357256829739 0.1482501029968262 -0.1359888613224030 -0.0428845360875130 -0.1081500947475433 -0.1454362869262695 -0.1445170640945435 0.2364541739225388 0.0644624605774879 -0.1183037161827087 -0.2069184333086014 -0.0683218315243721 0.0665550529956818 -0.0534542202949524 -0.1814872920513153 0.0363212935626507 -0.2877460122108459 -0.2402153462171555 -0.1245280802249908 0.1660623252391815 -0.1952198594808578 0.1976061314344406 -0.0427524484694004 0.0677699893712997 0.1870198696851730 0.0281489994376898 0.2929117381572723 -0.0194665044546127 0.1995282471179962 -0.1343970000743866 -0.1181292608380318 0.2341444492340088 0.0763090476393700 -0.0734709873795509 0.1055540740489960 -0.2233956307172775 -0.1062349975109100 -0.1610874086618423 -0.2233602553606033 0.2280743271112442 -0.0896145626902580 0.0842782407999039 0.0231025554239750 0.1955221742391586 -0.2234764695167542 -0.0482835285365582 -0.1558739095926285 0.0215982925146818 -0.2419435828924179 -0.1200600564479828 0.0595819205045700 -0.1237882152199745 0.1943832933902740 -0.0707208812236786 0.3644104897975922 0.1855848431587219 -0.3121286332607269 -0.1802762448787689 -0.0306144412606955 -0.1001560464501381 0.0958841145038605 -0.2041716426610947 -0.0882528498768806 0.0106338122859597 -0.0079592540860176 0.0544207543134689 0.0308822877705097 0.0959849357604980 0.0316155515611172 -0.2595681250095367 -0.2367053925991058 -0.1289388984441757 -0.2468718886375427 -0.0565121956169605 -0.0865689590573311 0.1704100519418716 -0.0519777387380600 -0.0700859725475311 0.0594212785363197 -0.2968955338001251 0.0110315391793847 -0.0972136631608009 -0.0698905512690544 -0.1408158391714096 -0.0674698352813721 -0.1077173128724098 0.1115166693925858 -0.0839889794588089 0.0102268159389496 -0.0774138420820236 0.2382367104291916 -0.0909688547253609 0.2750643491744995 0.0127916177734733 -0.2991019785404205 -0.3775407671928406 -0.4126913249492645 0.0182426720857620 -0.2464203536510468 -0.4609943628311157 -0.0946925058960915 -0.3483200669288635 0.2021773904561996 0.1041783094406128
0.0298887286335230 -0.1835500448942184 -0.1612860560417175 -0.1188259869813919 0.0285303555428982 -0.1244616657495499 0.0786325410008430 -0.2079595178365707 0.1079174503684044 0.0120003251358867 -0.1223856359720230 -0.0454474724829197 0.1775501817464828 -0.0515067316591740 0.0672882497310638 -0.1872970014810562 0.0375846028327942 -0.1184814050793648 -0.1819529831409454 0.0465334951877594 -0.0177181549370289 0.1921331882476807 0.1496081948280334 -0.4161862432956696 0.1437796652317047 0.1495294123888016 0.0436474643647671 0.1320794075727463 0.1679932773113251 0.1241818591952324 0.0975466296076775 -0.0522520430386066 0.0496798418462276 0.0000582200009376 0.2144592851400375 -0.0497631281614304 0.3340321183204651 -0.0748372524976730 0.1767384856939316 0.1550482213497162 0.2351234555244446 0.0370012037456036 0.1565380692481995 0.1590890735387802 0.0212385430932045 0.1251720786094666 -0.0469441413879395 -0.2045322358608246 0.0989617705345154 0.1390936523675919 0.0498017519712448 0.1575059145689011 0.0239683873951435 0.0649596005678177 0.0650563016533852 -0.0561599656939507 0.1249676123261452 0.0515818484127522 -0.0329703800380230 -0.0221377257257700 0.0029864849057049 -0.0526767894625664 -0.0868889167904854 0.1281659603118896 0.0974758341908455 0.1152848750352859 -0.0001958895300049 -0.0550862215459347 0.1792115718126297 0.0981336981058121 0.1068634614348412 0.1884968280792236 0.0662899613380432 -0.1856153607368469 0.1220920756459236 0.1392990201711655 0.1876842528581619 0.3148458600044250 -0.0893965736031532 0.0025357466656715 -0.0336830019950867 0.0602607578039169 0.0156448557972908 0.1610461473464966 -0.0336977168917656 -0.0699782371520996 -0.1114566773176193 0.0387381166219711 0.1998322010040283 0.1514697223901749 -0.0002643067564350 -0.0253601446747780 -0.0459423772990704 -0.1097192913293839 0.3026566207408905 0.1024501025676727 -0.0453287996351719 -0.1565201133489609 0.0284839849919081 -0.2158520370721817 -0.0898927375674248 -0.0753568187355995 0.0832176581025124 -0.2572126686573029 0.0532536134123802 0.1501899659633636 0.0991261973977089 0.1998444348573685 0.0731084123253822 0.1373715251684189 0.0276366863399744 -0.0458005256950855 -0.1106615290045738 -0.0057184924371541 -0.0833128020167351 0.0255540851503611 0.0590865947306156 0.0977284014225006 0.3583517372608185 -0.1099260672926903 -0.1127702519297600 -0.0699328705668449 -0.0325491540133953 -0.1536578088998795 -0.0745769441127777 0.0109899891540408 0.0481550171971321 -0.1251446306705475 0.3218858242034912 -0.3094345629215240 -0.0521324835717678 0.2794653177261353 -0.0726080089807510 0.4192390739917755 0.1450948715209961 0.0030847254674882 0.0170372538268566 -0.1995696425437927 0.5920920968055725 0.8258410096168518 -0.0067634517326951 -0.2200931459665298 -0.2659586369991302 -0.3733487129211426
-0.2001777142286301 0.1493828147649765 -0.1819898933172226 -0.2318956255912781 -0.2300065308809280 -0.1701389104127884 -0.1081725135445595 -0.0297896228730679 0.1483491510152817 0.0852495506405830 -0.0740460306406021 0.1606525629758835 0.1915285438299179 -0.1537416279315948 0.2013645619153976 -0.2162258774042130 -0.1196128949522972 0.0310126990079880 -0.1605756282806396 -0.0358078479766846 -0.1416929662227631 -0.0089827124029398 -0.2615910768508911 -0.0182354003190994 -0.2714948654174805 -0.0718525648117065 -0.1560972332954407 -0.0096439579501748 -0.0914546176791191 -0.1825031936168671 0.1992103010416031 -0.1469858735799789 0.0772624462842941 0.0464441031217575 -0.0735721886157990 0.2102221697568893 0.1416872143745422 -0.2789538800716400 0.2877548336982727 -0.1129448860883713 0.0559429414570332 0.0622210018336773 -0.0460474602878094 0.0874515995383263 0.0791917890310287 -0.0068976837210357 0.2023969739675522 -0.0267266109585762 -0.2618234753608704 -0.0836706161499023 -0.1823352724313736 0.0857272520661354 -0.1142243146896362 -0.0934601426124573 0.1755596250295639 0.0741247609257698 0.1671345680952072 0.1265608221292496 0.1720486134290695 0.2546496987342834 0.2465670108795166 -0.1553626507520676 0.2165273725986481 0.0554542765021324 0.0336026288568974 -0.0425131469964981 0.0291781034320593 -0.0278787184506655 -0.1157171428203583 -0.0604510456323624 -0.2833010256290436 -0.0016440260224044 0.1340129971504211 0.0466912239789963 -0.0688074752688408 -0.0170163121074438 -0.0500520057976246 -0.0059591187164187 -0.1082043349742889 -0.0300286579877138 -0.1383801251649857 -0.1651475578546524 -0.1418095976114273 0.0096270106732845 0.2037591189146042 0.2443433701992035 0.0229558534920216 -0.0387567430734634 0.1134387254714966 -0.0990816205739975 0.1245610341429710 -0.0455440804362297 0.0710377544164658 -0.1597711294889450 -0.2363730520009995 0.1170620992779732 0.0281943641602993 -0.1651641428470612 -0.0036983087193221 -0.0510212555527687 -0.0062077939510345 0.2422470748424530 -0.0808181762695312 0.2676507830619812 0.2081025838851929 0.0261177774518728 0.0260757599025965 0.1010714098811150 -0.3795070648193359 -0.0708108544349670 -0.3005660176277161 -0.0520388334989548 0.0070602912455797 -0.0952185392379761 0.0023693102411926 0.1758322119712830 0.1900476962327957 0.0546935237944126 -0.0278001651167870 -0.0195353310555220 -0.1555786728858948 -0.0573318898677826 -0.1266429722309113 -0.0932611078023911 0.2374810874462128 0.0336877144873142 -0.0603849515318871 0.0384132973849773 0.3019741177558899 0.1485379189252853 0.0472211763262749 -0.1505701243877411 -0.4890699982643127 -0.3614961504936218 -0.4862142205238342 0.1729355007410049 -0.2359941154718399 0.1649003028869629 -0.3216235935688019 -0.7102804780006409 0.0579485595226288 -0.4102849364280701 0.1183189675211906 -0.2228736877441406
0.0336900800466537 0.1379262208938599 -0.0839840173721313 0.1879255771636963 0.0374321117997169 0.0475071929395199 -0.0746950358152390 -0.1742015630006790 -0.3254917562007904 -0.1847996264696121 -0.1181239113211632 0.3295373320579529 0.0814359337091446 0.0742372572422028 -0.0744517892599106 0.0159089770168066 -0.0978020504117012 -0.0508203469216824 -0.1180782690644264 0.0039260750636458 -0.1652658879756927 0.0157508477568626 0.1354760229587555 0.0449357889592648 -0.0319396294653416 0.0302201882004738 -0.1096104383468628 0.1035939157009125 0.1285971701145172 0.0615887269377708 -0.0685461461544037 -0.1209867894649506 -0.2649606168270111 -0.1953499913215637 -0.2763155698776245 -0.0117125865072012 -0.1388262659311295 0.3342927098274231 -0.0837990567088127 0.1559443622827530 0.0608067996799946 0.1836710125207901 -0.0229883566498756 -0.0085658095777035 0.0620709583163261 -0.0373850390315056 -0.1485861092805862 -0.0524436123669147 -0.0997850820422173 0.1452157944440842 0.0460594296455383 -0.0675401762127876 0.1912424564361572 -0.0969941467046738 0.1599286496639252 -0.0118878055363894 -0.0681555047631264 -0.3678249418735504 0.1021944954991341 -0.0581032820045948 -0.1200186684727669 0.1432932466268539 -0.0568513609468937 -0.0778629630804062 -0.1752297878265381 0.1786544471979141 0.0950301215052605 0.2631411254405975 -0.0257877018302679 0.1034463793039322 -0.2014641761779785 0.1690430343151093 -0.1880584806203842 0.2083702534437180 -0.1422924548387527 0.1279633939266205 0.0531503446400166 -0.0557094067335129 0.0528928264975548 0.1025549098849297 0.1256493180990219 -0.0470377057790756 0.0622842833399773 -0.0872796550393105 -0.0271654948592186 -0.0796566680073738 0.0714366585016251 -0.2772270441055298 0.0443043261766434 0.0984918773174286 0.3141902685165405 0.0218542665243149 0.2374580800533295 -0.1308857649564743 -0.0733962133526802 0.1170584931969643 0.0057461992837489 0.1745203137397766 0.2071286141872406 0.2723461389541626 0.1319894343614578 0.2402880489826202 -0.1175136491656303 0.2086535841226578 0.1506066918373108 -0.0405997112393379 -0.0923289060592651 -0.0248183812946081 -0.2218002974987030 0.0678833201527596 0.1262229532003403 0.0572515018284321 -0.1617460697889328 -0.0688523277640343 -0.0858534052968025 0.2267191112041473 -0.1362688541412354 0.1057297661900520 -0.2633684873580933 0.0876017957925797 -0.1086312308907509 -0.1965121626853943 0.2883951663970947 0.0418105684220791 0.0315221473574638 -0.0072447150014341 0.1802869439125061 -0.0618688389658928 0.2555581927299500 -0.2207719832658768 0.0712965875864029 -0.1159512251615524 -0.6473793387413025 -0.0309343710541725 0.0174009371548891 0.3342608809471130 -0.2637668251991272 -0.0672020763158798 -0.5894513130187988 -0.0644731670618057 -0.5142788290977478 1.6132895946502686 -0.8912453651428223 0.3292568922042847
0.1886498332023621 0.1533890217542648 0.2370515316724777 -0.0078329034149647 0.0800237804651260 -0.2710593044757843 -0.0173262655735016 -0.1599567532539368 -0.0333344899117947 0.0231525152921677 0.0670121088624001 0.7080212235450745 -0.0656372234225273 -0.0040756040252745 -0.1379002332687378 -0.2398627549409866 0.2392974644899368 -0.0800314620137215 -0.0785524323582649 0.0467780083417892 -0.0493142418563366 -0.2076520919799805 -0.0175396390259266 -0.3487554192543030 -0.2636761069297791 -0.2239585071802139 -0.1894200295209885 -0.2908639013767242 -0.2614148855209351 -0.3614767789840698 -0.0959338173270226 0.1795693635940552 0.0660874918103218 0.0811781212687492 -0.0461716130375862 0.1121150106191635 -0.1145164892077446 -0.0749547928571701 -0.0826037749648094 -0.0815932378172874 0.1074888259172440 -0.0358443148434162 0.0345187187194824 0.2238787412643433 0.3230891525745392 0.0781430527567863 -0.0760595053434372 -0.1649513244628906 0.0336531326174736 -0.1124546378850937 0.0389535985887051 0.0271678287535906 0.0384358428418636 0.0514191202819347 -0.0755170285701752 0.1595750749111176 0.0671566054224968 0.1239447966217995 0.0036571826785803 -0.1000363454222679 -0.0162954404950142 0.0185298267751932 -0.1412072330713272 -0.2173625677824020 -0.0812208727002144 0.1630168706178665 -0.1680201888084412 0.0251593366265297 0.0086282324045897 0.0886424332857132 -0.0316150486469269 -0.4619904458522797 0.2659521400928497 -0.1181353405117989 0.0489271208643913 -0.0780920237302780 0.1823779940605164 0.1930057257413864 0.1510693579912186 -0.1620601713657379 -0.0518408268690109 -0.0288685262203217 -0.2292191833257675 -0.2399169355630875 -0.0022103236988187 0.2048686295747757 -0.1427508592605591 0.1938359141349792 0.0775830596685410 0.2455994188785553 -0.1618155986070633 0.0725651681423187 0.0533146746456623 0.1072435006499290 -0.1734948009252548 -0.2708370685577393 0.3167970180511475 0.0027656336314976 0.1421285867691040 -0.0965529829263687 0.0591352023184299 -0.2317036539316177 0.0821868702769279 -0.1318541914224625 0.0975276976823807 0.1383877098560333 -0.1114108636975288 -0.2340491563081741 0.0480553619563580 -0.2531966567039490 -0.0964322090148926 0.0172790698707104 -0.0343859791755676 0.0601204074919224 -0.1908503621816635 0.0241906903684139 -0.0084352409467101 -0.0222076307982206 -0.2659488618373871 0.0439414680004120 0.0411243140697479 -0.3862797319889069 -0.3443388640880585 -0.1684982329607010 0.0206046383827925 0.0349434129893780 0.1989996135234833 0.0812374204397202 0.4804561138153076 0.1467443406581879 -0.1266699135303497 -0.0882714018225670 0.0680540353059769 -0.2961273789405823 0.0750999674201012 0.1056762933731079 0.3447249531745911 0.0634870976209641 0.4027763903141022 1.4456495046615601 0.1928929239511490 -0.0861668959259987 0.4237161278724670 0.3980859518051147
0.2226875871419907 0.0199513658881187 0.2071594595909119 0.1290048062801361 0.1577061116695404 0.0644369497895241 0.1692226827144623 0.2452774345874786 0.1349278837442398 0.1203149482607841 0.0286384578794241 0.7596914172172546 -0.0524689815938473 0.1113372370600700 -0.1546497344970703 0.0186453573405743 -0.1453165113925934 -0.1832197308540344 0.3543728590011597 0.1938814222812653 0.3243355453014374 -0.0879342406988144 -0.0328334532678127 -0.5125269889831543 0.0915822759270668 0.0302228312939405 0.0184201374650002 -0.2379618734121323 -0.0246061626821756 0.1177284792065620 -0.1958878487348557 0.1176684200763702 -0.1824173033237457 0.0415645912289619 0.0661590844392776 -0.1244370862841606 0.1921166181564331 0.1431541144847870 -0.0746520981192589 -0.1022515892982483 -0.0132917966693640 -0.1697299331426620 0.0847807079553604 -0.2374391704797745 -0.0414881259202957 -0.1136451661586761 -0.2563775479793549 -0.1629580557346344 0.1041026338934898 0.0961366370320320 -0.1785029768943787 -0.0775336325168610 -0.1379996091127396 0.1070706024765968 -0.0645395442843437 -0.0060941255651414 -0.3306035399436951 0.0174358543008566 -0.1510655134916306 -0.2556423842906952 0.1297820061445236 -0.0305940192192793 -0.1748829931020737 0.0227701272815466 -0.0637481883168221 -0.0593982934951782 0.1794793605804443 -0.0052712820470333 -0.0818874686956406 -0.0969752892851830 -0.1506340652704239 -0.0838314741849899 0.0815272778272629 -0.0687405243515968 0.1076996847987175 0.0291261877864599 0.1488382369279861 0.1104581579566002 0.1172399669885635 -0.0139261251315475 0.0425274074077606 0.0062759192660451 -0.1163781881332397 -0.0621486939489841 -0.0582784861326218 -0.0804205089807510 -0.2090659141540527 0.3245854675769806 -0.0123893255367875 0.0716078728437424 0.0443389080464840 0.1085992380976677 -0.1237609982490540 0.0865401923656464 -0.0004421735939104 -0.2026399523019791 -0.0484752357006073 -0.1905983984470367 0.0375941321253777 0.0555564947426319 0.0964871123433113 0.0184495672583580 0.0068674813956022 -0.2006351351737976 0.0548447854816914 0.0248130615800619 -0.0336017943918705 0.0073070498183370 0.1119992211461067 -0.0915711596608162 -0.0533907338976860 0.0635212510824203 0.1043024137616158 -0.1140253394842148 0.1019010245800018 0.1903929561376572 -0.1813263893127441 0.1273434758186340 -0.0039798640646040 -0.2458946555852890 0.0958633646368980 -0.0700574591755867 0.2295698076486588 -0.0291721299290657 -0.0437723472714424 -0.0555545389652252 0.0020417389459908 -0.2439585477113724 0.1151347532868385 -0.3718142509460449 0.3096258640289307 0.0569564588367939 -0.0204910468310118 -0.0472913458943367 0.0851921886205673 0.3130891919136047 0.5497236847877502 -0.3209431171417236 0.1896448284387589 -0.1334462910890579 -0.5351161956787109 0.2293900102376938 0.7726496458053589 0.7036765813827515
0.3379550576210022 -0.1096511110663414 0.0352613702416420 -0.1231184825301170 -0.1728106439113617 -0.0333873592317104 -0.0146324168890715 -0.0064212540164590 -0.0044381855987012 0.1311466693878174 -0.0852427035570145 -0.6880085468292236 0.1314080953598022 0.0735430791974068 -0.1747692227363586 0.0207688286900520 0.2106421887874603 -0.0641364157199860 0.0149934785440564 -0.1330029368400574 0.1056361049413681 -0.2133204936981201 0.1307874172925949 -0.1189615949988365 -0.1313559412956238 0.0028133979067206 -0.0657448023557663 -0.0641514286398888 -0.1050450354814529 -0.0453766994178295 0.0212515704333782 0.0005266058142297 0.0112264771014452 0.1980990171432495 0.0946324393153191 -0.2766080796718597 0.0251807142049074 -0.1280909329652786 -0.1369337439537048 -0.0122333625331521 -0.0132338367402554 0.0192733220756054 -0.0724590718746185 0.2434366047382355 0.0557354055345058 0.0569215528666973 -0.1323654800653458 -0.1229032427072525 -0.1333910524845123 -0.0118046430870891 -0.1556662321090698 -0.0959917530417442 -0.0132212452590466 -0.1815300285816193 0.1697024405002594 -0.0298481099307537 0.1243898645043373 -0.1858519017696381 0.2446373850107193 -0.2517794072628021 -0.1312764734029770 -0.1024861857295036 -0.1246787980198860 -0.0312162730842829 -0.0524877421557903 -0.2160728871822357 -0.0784275829792023 0.0998544320464134 -0.0240699630230665 -0.1208983734250069 0.0003755979705602 -0.1424325704574585 0.0204695668071508 -0.0411739423871040 0.0629796981811523 -0.0084530776366591 0.0268614534288645 0.0176920574158430 -0.2943486571311951 -0.1420130133628845 -0.0343073979020119 -0.0499567352235317 -0.0263777356594801 -0.1368037909269333 0.1365022659301758 -0.0545434057712555 -0.1668256372213364 0.0645545497536659 -0.0953351035714149 -0.0908233746886253 -0.1806633025407791 -0.0543406270444393 -0.1549559682607651 -0.0162837971001863 -0.1559215784072876 -0.1752603501081467 0.0192667003720999 -0.0326844081282616 -0.0218951925635338 0.0496630147099495 0.2160979509353638 -0.0287145003676414 -0.0663332343101501 -0.2925530374050140 -0.2061754912137985 -0.0084675960242748 -0.2081106156110764 -0.0343984514474869 0.0273853633552790 -0.2744687795639038 -0.1216680407524109 0.2910001873970032 0.0349688008427620 0.0414820015430450 -0.0597722195088863 -0.1684371829032898 -0.2156549245119095 -0.2096838653087616 0.0161846149712801 -0.2969303131103516 -0.1643840968608856 -0.0086786057800055 0.2050206810235977 0.0513635389506817 0.1688605248928070 -0.1654790639877319 -0.2318591177463531 -0.0797587260603905 -0.2998846471309662 -0.3826554715633392 -0.2107431292533875 -0.1068122833967209 -0.0609182976186275 -0.0917521566152573 -0.0859526395797729 0.8835285305976868 -0.2019686400890350 -0.1165045648813248 -0.2659718394279480 0.3147474229335785 -0.7942611575126648 0.5752967596054077 -0.4202808737754822 0.0060598663985729
-0.0950792357325554 -0.3104640245437622 -0.0431137308478355 -0.3043441772460938 -0.0554930642247200 -0.1625887602567673 -0.2352086156606674 -0.2111179828643799 -0.1692866235971451 -0.2009358257055283 0.2238557785749435 -0.2073229104280472 -0.3198644220829010 -0.2391306906938553 -0.3263459205627441 -0.1602624505758286 -0.3634085059165955 -0.1971429139375687 -0.0916615426540375 -0.2405211627483368 -0.0239682793617249 -0.2543236017227173 0.0334636569023132 -0.1405079960823059 -0.2296661585569382 -0.0943642109632492 -0.2176505327224731 -0.3054145276546478 -0.2200716882944107 -0.2793656885623932 -0.2676236033439636 -0.0946768820285797 -0.1572690159082413 0.0617601424455643 0.1113380268216133 -0.1488087773323059 -0.2326867729425430 -0.1596343070268631 -0.2448897361755371 -0.3118525743484497 -0.2998785078525543 -0.2937763333320618 -0.2359483987092972 -0.2431726902723312 -0.1400478482246399 -0.4785142540931702 -0.1879988312721252 -0.0085397670045495 -0.3038816750049591 -0.0100154411047697 -0.1491602659225464 -0.2227656394243240 -0.1021731942892075 -0.2103350460529327 -0.2799797058105469 0.0136850606650114 -0.2612815201282501 -0.2174516320228577 -0.3170557916164398 0.1842716783285141 -0.2378900945186615 -0.0929542854428291 0.0620396547019482 0.0017874524928629 -0.2260702550411224 -0.0858594104647636 -0.0798092335462570 -0.1512273699045181 -0.0674738362431526 -0.1976404041051865 -0.1996028721332550 0.1283734887838364 -0.1495911180973053 -0.0336811505258083 -0.1484279334545135 -0.1916839182376862 -0.4210999011993408 -0.1992519199848175 -0.2190424352884293 -0.0074479277245700 -0.1319297254085541 -0.0944900810718536 0.0288138557225466 -0.1542265862226486 -0.2001898437738419 -0.1172209307551384 -0.0645342916250229 -0.3785678148269653 -0.3230345845222473 -0.1318905353546143 -0.0128259705379605 -0.1053936183452606 -0.2332561165094376 -0.2319758832454681 -0.1724192649126053 0.1314698755741119 -0.0969327613711357 -0.3300522863864899 -0.1241654232144356 -0.2718132734298706 -0.3439534902572632 -0.1674038320779800 -0.1118463203310966 -0.1891360580921173 -0.3539766073226929 -0.1572367250919342 0.0763930380344391 -0.1336796432733536 -0.0898272022604942 -0.2922630012035370 -0.2409855872392654 -0.1133469119668007 -0.1329461187124252 0.0242252126336098 -0.0469756685197353 -0.0685089752078056 -0.2957387566566467 -0.5063528418540955 -0.1042428538203239 -0.0276405122131109 0.0662197843194008 -0.0936521068215370 -0.1098468229174614 -0.2234844565391541 -0.0167568270117044 -0.2996833622455597 -0.0924397408962250 -0.2721416950225830 -0.4708544909954071 -0.3734245598316193 -0.3261380791664124 -0.4400713145732880 0.2860209643840790 -0.0859318524599075 -0.0093080578371882 0.0917047038674355 -0.4429394006729126 0.4331969618797302 -0.0239880848675966 1.1096714735031128 -0.6754614114761353 0.7381974458694458 -0.3585710227489471 -0.2236080467700958
0.0828751027584076 -0.0076996344141662 -0.1044980287551880 -0.0040436475537717 -0.1449137479066849 0.0518693141639233 -0.1046852916479111 -0.0477297231554985 0.1360183656215668 0.0121628269553185 -0.1969957649707794 0.1191280782222748 -0.2079012989997864 -0.0158559661358595 -0.1502201557159424 -0.2301571071147919 -0.1284469962120056 -0.2426820397377014 -0.0102268941700459 -0.1008725538849831 0.0608854405581951 0.2145053595304489 -0.1250366121530533 0.1297180056571960 -0.0400479026138783 -0.1001044139266014 -0.0439913384616375 -0.1152211576700211 -0.0892544835805893 -0.2113656848669052 -0.3205262422561646 -0.2555849850177765 -0.0162788238376379 0.0821501314640045 -0.0360699221491814 -0.0913943946361542 -0.3096045851707458 -0.1878679394721985 -0.0744057297706604 -0.3315487504005432 -0.2958657443523407 -0.2677161991596222 -0.3875273168087006 -0.1186165809631348 -0.1678911596536636 0.0790255889296532 -0.1028015539050102 0.0731610432267189 -0.3679803311824799 -0.2096605449914932 -0.3109975457191467 -0.1754000335931778 -0.0608238801360130 -0.2628419399261475 -0.0920966193079948 -0.2563221156597137 0.2124510109424591 -0.1081497594714165 -0.0407652966678143 -0.1881840229034424 -0.2188513576984406 -0.3358088135719299 0.0617383606731892 -0.1950905323028564 -0.1229260712862015 0.0355541110038757 -0.0249104816466570 0.1254877299070358 -0.0308574065566063 -0.0435465984046459 -0.1272534430027008 -0.0415273606777191 -0.1810601651668549 -0.0310468468815088 -0.1361764967441559 -0.0280612260103226 -0.2280825972557068 -0.1388572901487350 0.0000074786221376 -0.1557830721139908 -0.2421563416719437 -0.2531442642211914 -0.2088198959827423 -0.2227147519588470 -0.1084570810198784 -0.0410253368318081 0.0937649756669998 -0.0121590606868267 0.1292933225631714 -0.1465617418289185 -0.1311807334423065 -0.1396828144788742 -0.1279992908239365 -0.1651090383529663 -0.2568929791450500 -0.1446369141340256 0.0539904311299324 -0.0632892772555351 0.1121426820755005 0.2827555537223816 0.0957771390676498 -0.0785336196422577 -0.1583754122257233 0.0141182020306587 -0.1819257736206055 -0.3504266142845154 -0.0014271078398451 -0.2454335540533066 0.2381140738725662 -0.0869991555809975 -0.1657241582870483 -0.0242243222892284 0.0236687175929546 0.0109891686588526 -0.2184923589229584 0.0670262947678566 -0.1335065215826035 0.0554156601428986 -0.2707691192626953 0.0109233651310205 0.1287409812211990 -0.2201085537672043 -0.0934130623936653 0.0675272047519684 0.0104820281267166 0.0063521862030029 -0.1589211076498032 -0.0294047743082047 -0.0322186760604382 -0.0728442072868347 -0.2473090440034866 0.0167725626379251 0.1633791625499725 0.1109601110219955 -0.2593214213848114 0.3692876994609833 0.2319590151309967 0.1720556318759918 -0.5458883047103882 0.0765045508742332 0.1386274844408035 0.1848676949739456 0.3619014322757721 -0.3414150178432465
0.0361123383045197 0.1599506735801697 0.2090923786163330 0.3563888072967529 -0.0002611317904666 0.1290992945432663 0.1281864792108536 0.1850708276033401 0.1582619994878769 -0.1619070917367935 -0.2070440500974655 -0.3320299088954926 0.1925118118524551 -0.0632759332656860 0.3615433871746063 0.0637219175696373 0.3327960968017578 -0.0418139733374119 -0.0013830615207553 0.0657385140657425 -0.0117693692445755 -0.0626109167933464 -0.1143230050802231 0.3251677155494690 0.0757020935416222 0.0892059057950974 -0.0384078659117222 0.1699545979499817 0.1149067878723145 0.0596532188355923 0.0861782059073448 0.3536584079265594 0.0632108375430107 0.0671489164233208 0.1129304915666580 -0.0154654989019036 0.0976966023445129 -0.0596886537969112 0.0950280427932739 0.1079794391989708 0.2282692492008209 -0.0150476647540927 0.0848817750811577 0.0033482045400888 0.1231797039508820 0.0470827445387840 0.1142658889293671 0.2656998932361603 0.1458391845226288 -0.0237409081310034 0.1778778284788132 0.2578362524509430 0.0729904547333717 0.3780812025070190 -0.0075524309650064 0.0974106341600418 -0.0005561738507822 0.1072440221905708 0.3154765665531158 0.0258235894143581 0.0465222112834454 0.1485542804002762 0.0593681596219540 0.1982011944055557 0.2589261531829834 0.0699910372495651 0.2645814716815948 -0.1082599088549614 0.1078630983829498 0.0359421409666538 0.1498865634202957 -0.0286631528288126 0.0640421733260155 0.2926740944385529 0.2045315206050873 0.2200487703084946 0.0072264736518264 0.2513832747936249 0.1066429018974304 0.1675903052091599 -0.1308585405349731 0.0055616465397179 0.0077043436467648 0.1763239204883575 0.2304340749979019 0.1508462578058243 0.1306197196245193 0.2538116574287415 0.0938339531421661 0.0644201412796974 0.1467349976301193 -0.1409973055124283 -0.0593806467950344 -0.1093498915433884 0.0650399550795555 0.0192924458533525 -0.0520066432654858 0.1933311969041824 0.2245853692293167 0.1501568406820297 0.0595407672226429 0.0547273531556129 0.1125549301505089 -0.0010655671358109 -0.1304615288972855 0.0877563208341599 0.2095271050930023 0.2391827851533890 0.0745946392416954 0.2937557399272919 0.1303208470344543 0.2180657088756561 -0.1196506172418594 -0.1151245534420013 0.1548121124505997 0.0098625989630818 0.2305636405944824 0.2029150724411011 0.2529655694961548 0.5156694054603577 0.2232279628515244 -0.0422064550220966 0.2164960801601410 -0.1949554085731506 0.0079112071543932 -0.0040309280157089 0.0387745015323162 0.1870816498994827 0.1003675609827042 0.0169715639203787 -0.1727612167596817 -0.0146635947749019 -0.0778326839208603 -0.0812302082777023 0.2485749423503876 0.4426305890083313 -0.2650735974311829 -0.0428995378315449 -0.2051561474800110 -0.7696315646171570 0.2549629807472229 -0.0162175986915827 -0.1720717996358871 -0.0383096151053905
-0.0471769012510777 0.1183044314384460 -0.1432054638862610 -0.0342023111879826 -0.1754876524209976 -0.0861587077379227 -0.2985625565052032 -0.2719736099243164 -0.3262331187725067 -0.3312562406063080 -0.1173268258571625 0.3757604956626892 0.0096635716035962 -0.0598773099482059 -0.1478967070579529 -0.1137235164642334 0.0086267106235027 -0.3174136281013489 -0.3398252129554749 -0.0967577546834946 -0.2824291884899139 -0.1358643323183060 -0.0845327451825142 -0.2722508013248444 -0.2038466185331345 -0.0705262422561646 -0.0341072976589203 -0.2105721682310104 0.0044660223647952 -0.2016846984624863 -0.2318059355020523 -0.3325687646865845 -0.1501243859529495 -0.1132402271032333 -0.2101851850748062 -0.0384881421923637 -0.2032635957002640 -0.1545124351978302 -0.2824572622776031 -0.1282255798578262 -0.0370733700692654 -0.0736077651381493 -0.3107082247734070 -0.2745858728885651 -0.3187181353569031 -0.4228373467922211 -0.2091581225395203 -0.2713736593723297 -0.2200713753700256 -0.1939981579780579 -0.1002778634428978 -0.2595914900302887 -0.2707577645778656 -0.2736040353775024 -0.0468590706586838 -0.2302765697240829 -0.3273093998432159 -0.2305442839860916 -0.4373021423816681 -0.0362706705927849 -0.2196591943502426 -0.0754156336188316 -0.1514453887939453 -0.2698794305324554 -0.3889371752738953 -0.3259224295616150 -0.3709916770458221 -0.1883013397455215 -0.1293874382972717 -0.3754469454288483 0.1321851015090942 -0.3621417880058289 0.0050662946887314 -0.2677406072616577 -0.1681826263666153 -0.1045600995421410 -0.3246437907218933 -0.2368761450052261 -0.2323326021432877 -0.2078280895948410 -0.1743875443935394 -0.0928026661276817 -0.2105328142642975 0.0601227544248104 -0.2023259997367859 -0.0792042240500450 -0.1117322146892548 -0.2568520903587341 -0.1666454225778580 -0.2984013855457306 -0.2511297762393951 -0.1996111869812012 -0.2575036287307739 -0.1589602679014206 -0.0003099170571659 -0.1670985817909241 0.0958453938364983 -0.0003658591886051 -0.0423961579799652 0.1135903894901276 -0.1021810546517372 -0.1772812455892563 -0.0398036837577820 -0.1521359980106354 -0.2861375808715820 -0.1702564805746078 -0.0274814143776894 0.1449779421091080 0.4372650086879730 -0.2678961753845215 0.3021105527877808 -0.0478882864117622 -0.0143888555467129 -0.1253179907798767 -0.3261007964611053 -0.2010217458009720 -0.1862739622592926 -0.2441796809434891 0.0874305367469788 -0.0671440884470940 0.3858869373798370 0.2910937964916229 -0.1295108646154404 0.1631055325269699 -0.1437589973211288 -0.1563566625118256 -0.1948244720697403 -0.1092198044061661 -0.3813070952892303 0.0423033200204372 -0.0896344333887100 -0.1736016422510147 0.5569960474967957 -0.3694449961185455 0.7048847079277039 0.4436396658420563 -0.1436216384172440 -0.2298365235328674 0.0031916666775942 0.6018475294113159 -0.0772044956684113 0.6033812761306763 0.5309345126152039 -0.2336106002330780
-0.0174289289861917 -0.1084088832139969 -0.0376434773206711 0.0299031455069780 -0.1643108725547791 0.0215258449316025 -0.0329322144389153 0.0273254960775375 0.2037507891654968 -0.0450359992682934 -0.0376997515559196 0.1934277117252350 -0.1758135408163071 -0.1424308717250824 -0.1141589209437370 -0.1329661309719086 -0.1567406207323074 0.2344223409891129 0.0032952185720205 0.0410873554646969 -0.0627062842249870 -0.0073960786685348 -0.1292642205953598 0.0676884055137634 -0.2600698471069336 -0.0870133787393570 -0.2683719396591187 -0.1433503031730652 -0.2228004783391953 0.0991370007395744 0.0805771872401237 -0.0051326216198504 0.0483010858297348 -0.1608661860227585 -0.0545949451625347 0.1073167324066162 -0.0631379187107086 -0.0948105081915855 0.0185225270688534 -0.1964489072561264 0.0754208937287331 0.0945531800389290 0.1773583590984344 0.1208733692765236 0.1280566751956940 0.0471756048500538 -0.0348891019821167 0.0528223477303982 -0.0259602311998606 -0.0282116271555424 -0.0625260472297668 0.0253976192325354 0.1399783194065094 0.1213024482131004 0.0965457111597061 -0.0962357595562935 0.0641068071126938 0.1629728525876999 -0.0682823210954666 0.0760560035705566 0.0920640453696251 -0.1267611086368561 -0.0780431851744652 -0.0329152606427670 -0.0041862200014293 0.2755561470985413 -0.0967089086771011 0.2638134956359863 -0.1526053100824356 0.0952389687299728 0.0641937553882599 -0.1244581490755081 -0.2025124579668045 -0.1348529309034348 -0.0178795550018549 -0.1330175995826721 0.1342663019895554 0.1503388881683350 0.0087796943262219 -0.3683793842792511 -0.0859575197100639 -0.1391438692808151 -0.2019515931606293 0.0874105691909790 -0.0713659599423409 -0.1318440586328506 -0.0757396593689919 -0.1359822154045105 0.1095305606722832 -0.0372304692864418 -0.1197097226977348 -0.2489921152591705 -0.2815188765525818 -0.2874125838279724 -0.0150109995156527 -0.0898609310388565 0.0609889030456543 -0.0756264328956604 -0.1582675278186798 0.0264973454177380 -0.1821928173303604 0.0112712122499943 -0.1335639953613281 -0.3894299864768982 -0.5008568167686462 -0.2239060103893280 -0.1273644566535950 -0.2811186313629150 -0.0703909471631050 0.0416884906589985 0.0128392353653908 -0.0641195476055145 -0.0139643028378487 -0.0255405642092228 -0.0721592828631401 -0.1450117379426956 -0.2003982216119766 -0.2712564468383789 -0.1110678911209106 0.2219332158565521 0.2227435559034348 -0.1108345836400986 0.0423396080732346 -0.1664064675569534 0.0070229680277407 -0.1827060878276825 0.2087190598249435 -0.1919342875480652 0.0593395568430424 -0.3155843913555145 0.1887986958026886 -0.2569697797298431 -0.0921910554170609 -0.3903286159038544 0.0250768493860960 0.2047944068908691 -0.5736212730407715 0.0116788940504193 0.3636426925659180 -0.5233004689216614 0.4688941836357117 0.1323101222515106 -0.0163588188588619 0.4174879491329193
-0.0211068484932184 0.0406006313860416 -0.1135052442550659 0.0384533926844597 0.0372986048460007 0.1386295855045319 0.0513649880886078 -0.1156498119235039 0.3686474561691284 0.0910848677158356 0.0297993272542953 -0.1469717025756836 -0.0254094395786524 0.2249530553817749 -0.0123951779678464 0.1634920537471771 0.2306078374385834 -0.0229225661605597 0.0628860816359520 0.0591832995414734 -0.2626224756240845 0.0979449525475502 -0.3276631236076355 -0.4069113731384277 -0.1157198250293732 -0.0392577387392521 0.0637955367565155 -0.1544733345508575 0.0288086831569672 -0.1776956170797348 0.0753144025802612 0.0079497909173369 0.1426707804203033 0.1184739172458649 0.0703543648123741 -0.0962971150875092 -0.1367586255073547 0.0310530010610819 -0.1705480962991714 -0.0883378759026527 -0.2481205463409424 -0.2801167666912079 -0.2405978441238403 0.0414336919784546 0.0779934898018837 0.0453505888581276 0.0089236544445157 -0.1587921828031540 -0.1313911974430084 -0.2850003838539124 0.0750770866870880 -0.1233995482325554 -0.0275304168462753 -0.2295561432838440 -0.2497120499610901 -0.1343210637569427 -0.0062234136275947 0.1431301236152649 0.1556573063135147 -0.1860547661781311 -0.2011829018592834 -0.0000630279828329 -0.0116915917024016 0.0518160909414291 -0.1254988014698029 -0.1899789571762085 -0.3690508306026459 0.0200127735733986 -0.1907289624214172 -0.0296016708016396 0.1139265149831772 -0.1147708371281624 -0.1009711772203445 -0.1315489262342453 0.0309245139360428 0.1113107278943062 -0.1059490889310837 -0.1445972323417664 -0.0737797170877457 -0.1373682469129562 -0.0198987182229757 -0.0093879289925098 -0.0315115451812744 -0.1598109602928162 0.0301670860499144 -0.1147681251168251 0.1137444078922272 0.0457836277782917 -0.0038922748062760 -0.1453036814928055 -0.1401388198137283 0.0518387705087662 -0.0485240221023560 0.0463296622037888 -0.0995806455612183 0.0840991586446762 -0.1183343827724457 -0.0879954993724823 -0.0025095511227846 0.0947938933968544 -0.1789868474006653 0.0551820956170559 -0.0598844252526760 0.0048580989241600 -0.1223065927624702 0.1312110424041748 -0.0346267037093639 0.1412124633789062 0.0958816185593605 0.0521845705807209 -0.1593115031719208 0.1027661710977554 -0.0285461265593767 0.0464991740882397 0.0377230979502201 0.0464378781616688 -0.0140397092327476 -0.1047688871622086 0.2253672033548355 -0.0497688502073288 -0.0951967462897301 -0.0019925227388740 -0.1022472158074379 0.0008649326628074 0.0559242367744446 0.2628172934055328 0.0780905857682228 0.1085922569036484 -0.0655246526002884 0.0654087662696838 0.1025796085596085 0.3654916286468506 0.0107631096616387 0.3933500349521637 0.1469422131776810 0.0468626134097576 0.3199200332164764 0.2453942298889160 -0.2248162776231766 0.7617422342300415 0.2286245673894882 0.2045493423938751 0.1291321367025375 0.2863682210445404
-0.5735122561454773 -0.0841429084539413 -0.3484259247779846 -0.2348684817552567 -0.1795201301574707 -0.1804579496383667 -0.1639193147420883 0.0096850842237473 -0.1945847421884537 0.1185140684247017 -0.0175479855388403 -0.0805028080940247 -0.0105613302439451 -0.0902627035975456 -0.0401384197175503 -0.0695330202579498 -0.2588741481304169 -0.1499233096837997 0.1085755974054337 -0.3444730937480927 0.0967884212732315 -0.1820014119148254 -0.2034906148910522 0.1650352925062180 -0.1774288564920425 -0.1122359260916710 -0.1899003833532333 -0.0857073515653610 0.1893795430660248 -0.0706307440996170 -0.1103977411985397 0.0804636627435684 -0.1518131792545319 -0.0679822117090225 -0.2375056445598602 -0.1333869993686676 -0.0434906780719757 -0.2854100167751312 -0.1348209232091904 0.0415321812033653 -0.0288333147764206 -0.0447375029325485 0.0636365264654160 -0.1774113774299622 0.1072235852479935 0.0062006269581616 0.0564535669982433 -0.1671300083398819 -0.0697329267859459 -0.0509667508304119 -0.2312908321619034 -0.1899101883172989 0.0418466329574585 -0.1868142038583755 -0.0913674160838127 -0.0576083287596703 -0.1338076889514923 -0.0550479292869568 0.1045670807361603 -0.3078010678291321 0.1098354905843735 0.0721560865640640 -0.1764033883810043 0.0183891989290714 -0.1454015076160431 0.1442381143569946 -0.0630768984556198 -0.1181746125221252 -0.1376199871301651 -0.1089050322771072 -0.1505250185728073 -0.2123281806707382 0.0466472916305065 0.0083990991115570 -0.0057029481977224 0.0037825440522283 0.1111969724297523 -0.1024742573499680 -0.0292743202298880 -0.2465811073780060 -0.1849445849657059 -0.2604597508907318 -0.0429414249956608 -0.1140613332390785 0.1063368543982506 -0.0310190469026566 -0.0811713039875031 0.0805867314338684 0.0001923046947923 -0.0233467333018780 -0.1049461811780930 -0.1118850037455559 -0.1171097904443741 -0.0543930791318417 -0.1335209161043167 -0.0752670690417290 -0.1465775370597839 -0.0862097442150116 -0.1838021278381348 0.0263668615370989 -0.0724235326051712 -0.0861459523439407 -0.0519593320786953 -0.1366652846336365 -0.0396523065865040 -0.0768496394157410 0.1331631839275360 -0.1966878920793533 -0.0994129404425621 -0.0736950859427452 0.0496596097946167 -0.0665728822350502 -0.2771015465259552 -0.1352684944868088 -0.1028714776039124 0.0663871690630913 -0.1975431889295578 0.1121522784233093 0.0011223292676732 0.0708684027194977 -0.4235025942325592 0.0569829903542995 -0.1056906878948212 -0.1071031019091606 -0.0774740353226662 -0.2422625720500946 -0.1292475312948227 -0.2382886111736298 -0.0744133666157722 -0.3654272556304932 0.3935509324073792 -0.0899412408471107 -0.3634538948535919 -0.0224018301814795 0.2839444577693939 -0.2288898825645447 -0.2305734604597092 -0.1799881756305695 -0.6164234280586243 -0.1541752219200134 -0.0169831570237875 -0.6480764746665955 -0.2326391935348511 0.1046150997281075
-0.0123868463560939 0.0891919955611229 -0.0510302074253559 0.0448982305824757 -0.1035218089818954 0.0791494399309158 -0.2414886057376862 -0.0716150701045990 -0.3784341812133789 -0.1150419414043427 -0.3700277507305145 0.0636860504746437 -0.0893572494387627 -0.0212421864271164 0.0219036620110273 -0.2638684511184692 0.1589687466621399 0.0274677183479071 0.0221906565129757 -0.1340021193027496 -0.1793897897005081 -0.1491395533084869 -0.1673908382654190 -0.1167533099651337 0.1288429349660873 0.1246061250567436 0.0797972902655602 0.0648914575576782 -0.1503080874681473 0.1026316136121750 -0.0624262206256390 0.1150377243757248 0.0690511837601662 -0.0439028181135654 -0.2281622290611267 -0.0120351919904351 -0.0194471068680286 -0.0541825406253338 0.2008430212736130 0.0177784450352192 -0.0889724716544151 -0.0981273576617241 -0.0760512650012970 0.0201852526515722 -0.0892682969570160 -0.1291931867599487 -0.0956981033086777 0.2285486757755280 0.1275487095117569 0.0948831588029861 0.0573162063956261 0.0474951714277267 -0.0733541175723076 -0.0178472325205803 -0.0934370532631874 0.0184565577656031 -0.0803678035736084 0.0104435551911592 -0.2129238247871399 -0.0504877045750618 0.0449137613177299 -0.1272106170654297 -0.0852302312850952 -0.3154709041118622 -0.1141390278935432 -0.2244124263525009 -0.1209907010197639 -0.0818313807249069 -0.0196794643998146 -0.0487238205969334 0.0582897774875164 -0.0263805855065584 -0.1027676239609718 -0.1794958263635635 0.0559416599571705 -0.2010660916566849 -0.1175135150551796 0.0244148019701242 -0.1792600601911545 0.0699554979801178 -0.0939984172582626 0.0773949772119522 -0.2015115767717361 -0.0905970856547356 -0.0524772703647614 -0.0631934106349945 -0.0947483777999878 -0.0587991401553154 -0.0098553141579032 -0.1717888265848160 -0.0419709980487823 -0.1633504480123520 0.1264044940471649 -0.0783813670277596 0.1306615471839905 -0.3826313018798828 -0.0911395624279976 -0.2624088823795319 -0.0087884636595845 -0.2547564804553986 -0.1735016852617264 0.1197836101055145 -0.0829566791653633 0.0184780377894640 -0.1164960339665413 0.0664900541305542 -0.1620793193578720 -0.5832491517066956 -0.3018769025802612 -0.2096001505851746 -0.1279513984918594 -0.2119483053684235 0.0757331550121307 0.0777856186032295 -0.0180016197264194 -0.0308279711753130 0.0494003333151340 -0.0139050809666514 -0.0229014605283737 -0.5293238759040833 -0.0455079227685928 -0.1360027492046356 -0.2063616663217545 -0.2367623746395111 0.0254583247005939 -0.1129846125841141 0.1605782508850098 -0.1135835498571396 0.0601913407444954 0.0002143611200154 -0.4875851869583130 -0.2095464766025543 -0.2232371717691422 -0.2197295576334000 -0.3331661820411682 0.1567214578390121 0.1766807734966278 0.0711607187986374 0.1604915410280228 0.7230675816535950 0.0856995955109596 -0.0320975109934807 0.4718216657638550 -0.4057643115520477
-0.2974651455879211 -0.0936713814735413 -0.1185278967022896 -0.2127447873353958 -0.1286019235849380 0.0934268832206726 0.0479000695049763 0.0690622106194496 0.2765826880931854 -0.0264906063675880 0.1112226098775864 -0.5346095561981201 0.0069436756893992 -0.1856539696455002 -0.1334510147571564 -0.2488180100917816 -0.0275051631033421 0.1829589456319809 0.1062040999531746 0.0517122447490692 -0.0578732937574387 0.0151333948597312 -0.0992829501628876 -0.0861480757594109 -0.0923502594232559 0.0099894441664219 -0.0367999561131001 -0.1171782910823822 -0.1469350010156631 0.0261639356613159 0.0419539883732796 0.0292722322046757 0.0094139063730836 0.0734605044126511 0.0206995364278555 -0.2572254538536072 0.2309869080781937 -0.0474108234047890 0.1097615510225296 -0.0471996031701565 -0.1522448211908340 0.0461811535060406 0.0637917593121529 0.0205759555101395 0.1123550757765770 0.2680166363716125 0.0603472478687763 -0.1595067977905273 0.0494414158165455 0.1070116832852364 0.0144387036561966 0.0105480179190636 -0.1077728569507599 0.0436481572687626 -0.1189589202404022 0.0819854512810707 0.3547604978084564 0.1804549098014832 0.4019693434238434 -0.0999949797987938 0.2011252939701080 -0.0864444673061371 0.2122827768325806 -0.0413542054593563 0.0761789306998253 -0.1907901316881180 0.0981111824512482 -0.2203081548213959 0.1074558421969414 0.0077577782794833 0.0643802881240845 0.0318060740828514 -0.1040260940790176 -0.0206244494765997 -0.0151542583480477 0.0770286396145821 0.1691259890794754 0.1941584199666977 -0.0341435335576534 -0.1784066706895828 -0.1820762306451797 0.1348188519477844 -0.0819801613688469 0.1772899031639099 -0.0565488152205944 -0.1132215335965157 -0.0268252156674862 0.0626541674137115 -0.0419533737003803 0.1059318035840988 -0.0712235644459724 -0.1422253400087357 0.0338822789490223 -0.2122923284769058 0.2193985432386398 -0.0805111303925514 -0.2118051499128342 -0.0511527508497238 -0.0839837193489075 -0.2328599393367767 0.0921003818511963 0.0454869493842125 -0.1123547777533531 -0.0976088941097260 -0.0859656482934952 0.1243420839309692 0.1077361851930618 0.1763227432966232 -0.1518785059452057 0.0331071428954601 0.1642731577157974 0.1197721436619759 -0.0596635863184929 0.0709470435976982 0.0468675605952740 -0.0859186649322510 -0.1138762161135674 0.0361229963600636 0.0091995801776648 0.2951890528202057 -0.0350118055939674 0.1047265902161598 0.0908739864826202 -0.0442118346691132 0.1228564232587814 0.0611382722854614 -0.0130095621570945 0.1349421739578247 0.0713056176900864 -0.2805649936199188 -0.0540910623967648 0.1322535276412964 -0.1476685255765915 0.0681815072894096 0.2219296544790268 0.3440361618995667 0.0723782703280449 0.0542806051671505 -0.0599648840725422 -0.2372369766235352 0.5283849239349365 0.4608045518398285 -0.3023487627506256 0.3021006286144257
-0.0361445955932140 0.0481604784727097 -0.1338549703359604 -0.1442392319440842 -0.1466977894306183 -0.2227702736854553 -0.1695862114429474 0.0337069220840931 -0.1948983222246170 -0.0064661176875234 -0.3331397771835327 -0.6469731926918030 0.1655238121747971 -0.1226211860775948 -0.0967482402920723 -0.1701338887214661 -0.4193155169487000 -0.0914966985583305 -0.2035552710294724 -0.1237606257200241 -0.1111863628029823 -0.1021719872951508 0.0378748700022697 0.2385879307985306 0.2030417472124100 -0.1498328447341919 0.0898844599723816 -0.1704566627740860 0.1470707356929779 -0.1118717417120934 -0.1391344517469406 -0.1405519694089890 -0.2328223139047623 -0.1681688576936722 -0.2073423415422440 -0.0535483174026012 -0.0812630057334900 0.1076351553201675 -0.1913556754589081 0.1970955580472946 0.0891981422901154 0.0060653043910861 -0.0691509842872620 -0.1098576933145523 -0.1914570629596710 -0.2088664025068283 0.0775860920548439 -0.0876459628343582 0.1560094356536865 -0.2241852283477783 0.3297365009784698 0.1464988589286804 0.1072912812232971 -0.0452775247395039 0.0068403831683099 -0.1330762654542923 -0.1083355024456978 0.0425202995538712 -0.2299810945987701 0.1285510510206223 -0.2325796186923981 0.2128688246011734 -0.2714477777481079 0.0177429560571909 -0.0806972905993462 -0.1487697660923004 -0.2208877503871918 -0.0945891812443733 -0.1150186881422997 -0.1021253019571304 -0.0119618698954582 -0.1168295890092850 -0.0376204177737236 -0.1938896328210831 -0.0706539973616600 -0.0972408950328827 -0.1230429559946060 -0.1842108219861984 -0.0739826038479805 -0.1575531363487244 -0.1791179627180099 -0.0801699683070183 -0.1918268799781799 0.0163308866322041 -0.2805365324020386 0.0474955439567566 -0.0670531168580055 0.1073312759399414 -0.0555794164538383 -0.0680957511067390 -0.2281115353107452 -0.1617848724126816 -0.1636976748704910 -0.1355662643909454 -0.0287328455597162 -0.3694268763065338 -0.0484474971890450 -0.1864256709814072 0.0897022932767868 -0.0240005403757095 0.1655484884977341 -0.1074359938502312 0.0028894727583975 -0.1794217526912689 -0.1530458778142929 -0.0476276539266109 -0.2387039512395859 -0.1297081261873245 -0.1933971047401428 0.1227541789412498 -0.1664690673351288 0.1738028228282928 0.0522452071309090 0.0716491565108299 0.1255330443382263 0.0001021243078867 -0.1100514829158783 0.0534067898988724 -0.0821268111467361 -0.3682890236377716 0.0014932202175260 -0.0888053476810455 0.2105504423379898 -0.0673880353569984 0.0704754367470741 0.0080089336261153 0.0114870630204678 -0.0903773009777069 -0.0665615499019623 -0.1940624564886093 -0.4635106325149536 0.0207625851035118 -0.3020425140857697 0.1617179363965988 -0.2932957708835602 0.4161055684089661 0.0232779849320650 -0.2252635657787323 0.6787766218185425 -0.4283126890659332 -0.6187258362770081 0.5374200940132141 -0.1980630159378052 -0.2000169456005096
0.1147720888257027 0.1691473126411438 0.0971056595444679 0.2169616222381592 0.1150488331913948 0.2440618723630905 -0.1778523623943329 0.2170598208904266 -0.1062199622392654 0.2519714236259460 -0.2531368434429169 -0.0124905733391643 0.1512373536825180 -0.1593952775001526 -0.1471194475889206 -0.0390625149011612 -0.0638656914234161 -0.1082041487097740 0.2170996218919754 -0.1874760538339615 0.3974966704845428 0.0578313767910004 0.3635899126529694 -0.4350106716156006 -0.0781071037054062 0.1279654055833817 -0.0419518053531647 -0.1190718561410904 0.1535661369562149 0.0761697143316269 -0.1162794455885887 -0.0522196926176548 -0.0299459341913462 0.1803995072841644 -0.0761965662240982 -0.0654825270175934 -0.1717113703489304 0.1735005676746368 -0.0469332374632359 0.0903939977288246 -0.1213262602686882 -0.0758158192038536 0.0032516345381737 -0.0494599416851997 0.1933164149522781 0.0577858388423920 -0.0612838454544544 0.0398176126182079 -0.0133591853082180 0.0829608589410782 0.0598490461707115 -0.1809960156679153 0.1218135282397270 0.0337629206478596 -0.0658684894442558 0.2809228897094727 -0.0428617969155312 0.2393465936183929 -0.2328493893146515 -0.2406063526868820 -0.1670813411474228 0.1244251206517220 0.0633275285363197 -0.0580332241952419 -0.0434608682990074 0.0600519366562366 0.1041883677244186 0.0453312732279301 0.1611850559711456 -0.0810672715306282 -0.0995717048645020 -0.1108693927526474 -0.0774789899587631 0.0124742975458503 -0.1522593796253204 -0.0717718526721001 -0.3318685591220856 0.0955766737461090 0.0385766252875328 0.3286195397377014 -0.0730931907892227 -0.0736183896660805 -0.2392404675483704 -0.0161974877119064 0.0307589862495661 0.0256039928644896 -0.0115471938624978 -0.1563764959573746 0.1186840161681175 -0.0393404625356197 0.3033403754234314 0.0441633947193623 0.0585008151829243 -0.0304530542343855 -0.1339797228574753 0.0001937938504852 0.0550064295530319 -0.0800417512655258 -0.0177025608718395 -0.0564047656953335 -0.0848763287067413 0.0244332067668438 -0.0308009032160044 0.1689330637454987 -0.0855853036046028 -0.1941327005624771 -0.1913034021854401 -0.3124939203262329 0.1621359735727310 -0.2522800564765930 -0.0926583781838417 0.0410127602517605 -0.0643940940499306 0.0355909094214439 0.0549270473420620 -0.1459378749132156 -0.0001674152154010 -0.1242846250534058 -0.2904411256313324 0.0270550046116114 -0.0513237044215202 -0.1015330478549004 -0.1067598462104797 0.0175697393715382 -0.0097575131803751 0.1137458458542824 0.0935253351926804 0.3976562917232513 0.0099979508668184 0.0979791507124901 0.0003666257834993 -0.2693751454353333 -0.0813460275530815 -0.0537730902433395 -0.1757771968841553 0.0201844237744808 -0.7324503660202026 0.0975794941186905 0.5938145518302917 -0.3579845428466797 0.4437664449214935 -0.4509516954421997 -0.0172973778098822 -0.0459554903209209
0.2881129980087280 0.1791183054447174 0.1135052964091301 0.0485181361436844 0.1104169115424156 0.0314562991261482 -0.0458071418106556 0.1096985414624214 0.1536037176847458 0.2972505688667297 0.1119154319167137 0.2142756283283234 0.1950258016586304 0.1933143883943558 -0.0078803170472383 0.0494048930704594 0.2309631556272507 0.1914048939943314 0.3128625452518463 0.1057852134108543 0.1858707219362259 -0.0250577647238970 0.1739382296800613 -0.2204907238483429 0.2458140403032303 0.0790990963578224 0.0195596162229776 -0.0872319042682648 0.0741411074995995 0.1146173179149628 0.1004144325852394 0.2098238617181778 0.0128097962588072 0.3478964865207672 0.1456217020750046 -0.1441683471202850 0.2249083667993546 0.3050951361656189 0.0243959557265043 0.1862756311893463 -0.0803154185414314 0.1035960838198662 0.0602520555257797 0.0023644526954740 0.1040270477533340 -0.0713338926434517 0.1227345466613770 -0.1403053104877472 0.4041667878627777 0.1209004819393158 0.4013488292694092 0.0504328273236752 0.2087236046791077 -0.0395887978374958 -0.0624150633811951 0.0375290401279926 0.0821072086691856 0.2913630902767181 0.1846767216920853 -0.1423313021659851 0.0934784188866615 0.0136735402047634 -0.0530363172292709 0.3329949676990509 0.0065243286080658 0.0740670338273048 -0.0186235383152962 0.0480598993599415 0.0720989257097244 0.0099594248458743 0.1503107696771622 0.1941708326339722 -0.0759418010711670 -0.1418637186288834 0.0106735080480576 0.0456492193043232 0.3078752756118774 0.1131380125880241 -0.0462315306067467 0.1123606339097023 -0.1381150633096695 0.2093517631292343 0.2216355800628662 0.1901888400316238 0.0642199069261551 -0.1219617277383804 0.0886844173073769 0.0729379579424858 0.1045422479510307 0.2210265994071960 0.0936486423015594 -0.1158628538250923 0.2430836856365204 -0.1333560645580292 0.1164476573467255 0.3257575929164886 -0.0895074382424355 -0.0665520057082176 -0.0726544931530952 0.1874489486217499 0.0999872237443924 0.0005952487699687 -0.0040145204402506 0.1043453663587570 -0.1880119442939758 0.1398226916790009 0.4154937267303467 0.1588199287652969 0.3420267999172211 -0.1910907924175262 0.1929226517677307 0.0251698158681393 0.2541531324386597 0.1267238408327103 0.1709708273410797 -0.0010746117914096 0.0923541858792305 0.0095503060147166 -0.0232230629771948 0.3635528385639191 -0.2227047979831696 0.3502668738365173 0.1596507579088211 0.4043558239936829 0.1284483075141907 0.2789986133575439 0.2788974642753601 0.0940368175506592 0.0297548305243254 0.0606828480958939 0.1037803739309311 0.3039132356643677 0.6078670024871826 -0.1442792266607285 0.4306682050228119 0.7799367308616638 0.5512645244598389 0.0564091242849827 0.2059668749570847 0.2248884886503220 0.2686797976493835 0.0124916238710284 0.7715349793434143 0.6951403021812439
0.2544457316398621 0.0168870501220226 0.1730148643255234 -0.0133574977517128 0.1828651428222656 -0.0069909808225930 0.1720333397388458 -0.1848914176225662 0.4077779352664948 0.1597719490528107 0.1165407747030258 0.4878369867801666 0.0990335419774055 0.0909529924392700 0.0512013845145702 0.1743175983428955 0.2155111432075500 -0.0900129824876785 -0.1237189844250679 0.0265199393033981 0.2193738371133804 0.0127869118005037 0.2286589890718460 0.2893312573432922 0.0987287834286690 -0.2248679250478745 0.1638218760490417 -0.0015672746812925 0.2018095254898071 0.0677921175956726 -0.0992659851908684 -0.0608280524611473 -0.0469665452837944 0.1086825057864189 -0.0578005276620388 0.1914426088333130 0.0241164602339268 -0.0784119740128517 0.0757149234414101 0.1834684163331985 0.1163626313209534 0.1090828850865364 0.0796988904476166 0.0874211266636848 0.1358638405799866 0.0348360575735569 -0.0015676318434998 0.2616575062274933 0.2090107500553131 -0.0394949130713940 0.0757942497730255 -0.0463319607079029 0.1426967084407806 0.1003899648785591 0.1405656933784485 0.1069112643599510 0.0307357907295227 0.0371323861181736 0.1660158783197403 -0.0484516955912113 0.1060894057154655 0.0863584801554680 -0.0124755445867777 0.1675670444965363 0.0895601361989975 -0.0398402363061905 0.1023379042744637 0.0011934416834265 0.0448252744972706 -0.0301270652562380 0.0985209345817566 0.1127655580639839 0.1689200699329376 0.0865943133831024 0.1424543261528015 -0.1388819217681885 0.1463582515716553 0.1393926441669464 0.2083142548799515 0.0668814852833748 -0.1727258861064911 -0.0145335784181952 -0.2208972275257111 -0.1762832850217819 0.3366152048110962 0.1359799653291702 -0.0500116571784019 0.0543377585709095 0.2230048179626465 0.2059870511293411 0.0706533566117287 0.0616347417235374 0.1073910519480705 -0.2211786061525345 0.1833551377058029 -0.1074513494968414 -0.0093539692461491 0.2016230076551437 -0.1706766486167908 -0.1181368976831436 0.1441705226898193 0.0880241170525551 0.1234949752688408 -0.1685978770256042 0.0793516933917999 -0.0928111448884010 -0.1632900238037109 -0.0682561919093132 0.3829063177108765 0.0144172050058842 0.0363243594765663 -0.1200601011514664 0.0515959672629833 -0.0683821886777878 -0.1337846666574478 -0.0751197561621666 -0.0968096926808357 0.0585202611982822 -0.1019100770354271 -0.0023743519559503 0.2818154990673065 0.0532337725162506 0.0368675775825977 -0.1191273480653763 -0.0436293818056583 -0.0443259403109550 0.0226045306771994 0.0990329086780548 0.1105502396821976 -0.1916115134954453 0.2136831283569336 -0.4062669277191162 0.2172972410917282 0.1803415417671204 -0.0179547164589167 -0.1179240867495537 0.0276658274233341 -0.1447840631008148 0.1304295808076859 0.8858754634857178 0.2735266387462616 0.7306131124496460 0.1305297911167145 -0.0344499535858631
-0.5826447010040283 -0.2575536370277405 -0.3027365505695343 -0.2671700716018677 -0.5814120173454285 -0.1618891209363937 -0.3139711618423462 -0.0797051414847374 -0.1563796252012253 0.1789970993995667 0.2299745529890060 -0.4345952272415161 0.0400509908795357 -0.1847381144762039 -0.0404091291129589 -0.2318081110715866 0.0651940628886223 -0.4301175177097321 0.0746877565979958 -0.1262361258268356 0.3470637500286102 0.0517135187983513 -0.2441444247961044 -0.3670249879360199 -0.0962442830204964 -0.1815585345029831 -0.1203362941741943 -0.3607561588287354 -0.1255387663841248 -0.2124906480312347 -0.2398602366447449 -0.1100900694727898 -0.3497318029403687 0.0400620587170124 -0.2082249224185944 -0.2298585176467896 -0.0182187054306269 -0.0329280868172646 -0.1530138552188873 -0.1324943453073502 -0.1673296093940735 -0.2113001197576523 -0.3581897914409637 -0.4004915058612823 -0.1244859248399734 -0.3621103167533875 -0.2903167903423309 -0.3247766196727753 -0.0833106413483620 -0.2210871130228043 -0.0315061770379543 -0.1304488927125931 -0.0204506833106279 -0.1453544944524765 -0.1493390500545502 -0.4480000138282776 -0.0645732954144478 0.0243324693292379 -0.1234569624066353 -0.0774622857570648 0.0769007056951523 -0.1066689938306808 -0.0266829654574394 0.0512955039739609 0.0238437820225954 -0.0143712880089879 -0.2625025510787964 -0.1883534193038940 -0.2198381721973419 -0.0567491091787815 -0.0808901637792587 -0.1804577410221100 -0.1327557116746902 -0.0668526217341423 -0.1979527473449707 0.0470400787889957 0.0306888911873102 0.0929189175367355 -0.0705847740173340 -0.2966391146183014 -0.1808478236198425 -0.1424475312232971 -0.0048337634652853 0.0439147986471653 0.0613509528338909 -0.2556068301200867 -0.0366734787821770 -0.0686917752027512 0.1557732075452805 0.1106075868010521 0.1079414561390877 -0.0330479629337788 0.0905852094292641 -0.1012101396918297 0.1317571997642517 0.0403177179396152 -0.3771000802516937 -0.0267075505107641 -0.3456362485885620 -0.0245354007929564 -0.0603569485247135 -0.0334214493632317 -0.1089186593890190 0.1469653844833374 -0.1313493549823761 0.1557293832302094 -0.0151380300521851 -0.0145913194864988 -0.0322124250233173 -0.3374359011650085 0.1568270325660706 -0.2719889283180237 -0.1080888211727142 -0.1297040134668350 -0.0486323386430740 -0.0324264541268349 0.1484677046537399 -0.1716222167015076 0.0901509150862694 -0.0242780763655901 -0.3590474426746368 -0.1466313749551773 0.0985463261604309 0.0239746514707804 -0.1259346455335617 -0.0100312959402800 -0.0474016889929771 0.0391567237675190 0.0139138251543045 0.0231786575168371 0.0519170612096786 -0.0381704643368721 -0.1037404164671898 -0.0549596995115280 -0.0053119538351893 0.1360186934471130 0.0542699471116066 0.1655284911394119 -0.3470804095268250 -0.3465996980667114 -0.3637226223945618 0.0525657795369625 -0.1489610373973846 0.1050462946295738
-0.3428458869457245 0.1268522739410400 0.0945192351937294 0.1050770133733749 0.1700589060783386 0.1699561178684235 0.0476577654480934 0.0698792561888695 -0.2158943563699722 -0.2312477231025696 -0.0642087310552597 -1.1178822517395020 0.1906756460666656 -0.0379881709814072 0.0764103755354881 0.2407156080007553 -0.2114741653203964 0.2171343863010406 0.1370595991611481 0.1999362856149673 0.0092683620750904 0.0789526998996735 -0.1532972157001495 -0.5116393566131592 -0.0559737198054790 0.1511432528495789 0.3386915624141693 0.1121004819869995 0.0829135701060295 0.1045988053083420 0.2271233201026917 -0.1350397318601608 0.0884244441986084 -0.3668914437294006 0.0549566932022572 -0.4680204093456268 0.0663402676582336 -0.0109607800841331 0.1187308728694916 0.1378996074199677 0.0546826831996441 0.0043025468476117 -0.0279471129179001 0.1172747313976288 -0.1111040115356445 0.0851680859923363 -0.0556750483810902 -0.0476703904569149 -0.2561098039150238 -0.0244477838277817 0.0134804863482714 0.1234467923641205 -0.1437271386384964 -0.0537944063544273 0.0955091863870621 -0.1617798954248428 0.0329638756811619 0.0292924828827381 -0.0889004766941071 -0.3455285131931305 -0.0560588724911213 -0.0779546871781349 0.1988997310400009 -0.1735100895166397 -0.0304362773895264 -0.1252529621124268 -0.0893847346305847 -0.1935460120439529 -0.0954387038946152 0.0173857361078262 -0.0811900869011879 -0.0263471566140652 -0.0679276287555695 0.3404392004013062 -0.0562816560268402 0.0259253140538931 -0.2460023462772369 0.0442488044500351 -0.1108616143465042 -0.1301453262567520 -0.1221318691968918 0.0512834824621677 -0.2284146249294281 -0.3198896050453186 0.2921384572982788 0.0113489050418139 0.2390964329242706 0.0893167778849602 -0.1490533202886581 0.0011975126108155 -0.1276987046003342 -0.0452305115759373 -0.0757784768939018 0.0796812325716019 -0.4090507626533508 -0.3017905652523041 -0.1446218043565750 0.2642014920711517 -0.0427462868392467 0.0168215073645115 0.0310638882219791 -0.0303113590925932 0.1479157060384750 -0.1217563822865486 0.1243951171636581 0.0716844573616982 -0.3201842904090881 -0.4075621962547302 -0.0206531975418329 -0.1597072482109070 0.3220344781875610 0.0633051693439484 -0.0041537317447364 0.1072885245084763 -0.0230186432600021 0.0485520958900452 0.1254011094570160 0.1105595901608467 -0.0375686027109623 -0.1208133995532990 -0.2660920917987823 -0.1088480651378632 -0.0621371679008007 -0.0890346542000771 -0.0738881751894951 0.0160870682448149 0.0823359638452530 -0.0566308014094830 0.2372579425573349 0.2636835873126984 -0.3086597919464111 -0.1545601040124893 -0.1060091704130173 -0.0962724834680557 0.0267297495156527 -0.1028332561254501 0.0425287149846554 0.0051937690004706 -0.0323022603988647 -0.1381825953722000 -0.2185715287923813 0.1488976180553436 -0.0781141072511673 0.0285746622830629
0.0898526310920715 -0.2466882169246674 -0.1645417213439941 0.1676323860883713 -0.0060472893528640 0.3237119913101196 0.0173081289976835 0.0012179096229374 0.2898120284080505 0.1052860170602798 0.1242720261216164 0.2705920338630676 -0.0431456081569195 -0.0310729201883078 -0.4201420843601227 0.0638572722673416 0.1893345862627029 -0.0263170972466469 0.0495731383562088 0.0368827097117901 0.0268254876136780 0.1345960199832916 -0.1304652392864227 0.3292670547962189 0.1143935024738312 -0.0154278716072440 -0.1138087809085846 0.2231479883193970 0.3129985928535461 0.2663306891918182 0.0353820137679577 0.1195956915616989 0.0305410008877516 -0.0181562080979347 -0.3363276124000549 -0.1064636781811714 0.1706335842609406 -0.0133582307025790 0.0293164514005184 0.1171161457896233 0.2427123188972473 0.0392771400511265 0.0849959328770638 -0.0756498351693153 0.0242803227156401 -0.0105858091264963 -0.0190979149192572 0.0060444409027696 0.1389094740152359 0.1885135173797607 -0.0855819806456566 0.2303247749805450 0.0700262561440468 0.0162781327962875 -0.1023004949092865 -0.0691588670015335 0.1795852184295654 -0.0287735462188721 -0.0586061999201775 0.0745222866535187 0.2885162234306335 0.0871931463479996 0.0316078402101994 0.1422865539789200 0.0730764716863632 0.1036019399762154 -0.0542058460414410 0.0927546471357346 -0.0247598700225353 0.1848449110984802 0.1671670973300934 0.1090436652302742 -0.0681908205151558 0.2431073784828186 -0.0029099590610713 0.1484298408031464 0.0522897988557816 0.0706929042935371 -0.0909945517778397 -0.0540981218218803 0.2658757865428925 -0.0166285540908575 0.2342757135629654 0.2513421475887299 0.2306370288133621 -0.0312908999621868 0.1537977606058121 0.1343041807413101 0.1022532209753990 -0.0459493473172188 -0.0748165771365166 0.0750047340989113 0.0186497829854488 0.3055842816829681 0.0752302110195160 0.2218279540538788 -0.0875926390290260 0.1889607906341553 -0.0064929742366076 -0.1444103717803955 -0.0258932542055845 -0.0677924752235413 -0.0634644478559494 -0.1904841512441635 0.3214428126811981 0.1478073000907898 0.2455171793699265 0.0362387485802174 0.0481828227639198 -0.2241135686635971 -0.1276132613420486 -0.1899432688951492 -0.0118363751098514 0.0633077323436737 -0.1212481483817101 0.0788554772734642 -0.0176240261644125 0.1890281289815903 0.0251326076686382 -0.1311574876308441 -0.0713122785091400 0.2734432220458984 -0.0475843511521816 0.0191620253026485 -0.1495294570922852 0.1953759491443634 -0.0426040589809418 -0.2766172885894775 -0.0489913523197174 0.0633747875690460 0.1355808973312378 0.0555329099297523 -0.1138285696506500 0.1892001628875732 0.0286012832075357 -0.3332809209823608 0.8679493665695190 -0.1695817708969116 -0.1034568771719933 0.1329175233840942 -0.4784392118453979 -0.3946660161018372 0.5737330913543701 -0.0748935714364052
-0.1626686900854111 -0.0176053848117590 -0.1024067625403404 -0.1459049880504608 0.0621020086109638 -0.0290974583476782 -0.1841925978660583 -0.2766796052455902 -0.5833099484443665 -0.2767579555511475 -0.1482574343681335 -0.7546117901802063 -0.0483482927083969 -0.2968342602252960 -0.0269361454993486 -0.0324768684804440 -0.1040258184075356 -0.1587474644184113 -0.1637555956840515 -0.0300238989293575 -0.0783289372920990 -0.0006289609009400 -0.0194239430129528 -0.5386136770248413 -0.0676487386226654 0.0085129216313362 -0.1221437379717827 0.0756954774260521 0.2656672000885010 0.0759958922863007 0.1474125683307648 0.2299513369798660 0.1093214899301529 -0.0894250422716141 -0.0570887625217438 -0.4070492684841156 -0.2110383808612823 -0.0677866488695145 0.0059605771675706 -0.1746741235256195 -0.0808865353465080 -0.1195855662226677 -0.0633814707398415 -0.1456543803215027 -0.0810835137963295 -0.0602776445448399 -0.3081526756286621 -0.0273806229233742 -0.1534275412559509 -0.0762261226773262 -0.0885699093341827 -0.0863046273589134 -0.2222682684659958 -0.1341374814510345 0.0069401897490025 0.0786189660429955 -0.0882545262575150 -0.0147535912692547 0.0673977881669998 -0.2688888907432556 -0.3377869427204132 -0.0097808185964823 0.0396631248295307 0.0252141132950783 -0.0713765844702721 0.1152896285057068 0.0407180078327656 -0.0308012831956148 0.1389236897230148 0.0770593062043190 -0.0925901308655739 -0.0382515639066696 -0.1854081749916077 -0.0676806420087814 0.1664581596851349 0.2085610181093216 0.0012261659139767 0.0135064143687487 -0.1370387673377991 -0.0699310228228569 0.0434449277818203 0.1416183859109879 0.0248093791306019 -0.1604548096656799 -0.2706430852413177 -0.0814440920948982 -0.1011465415358543 -0.0721673667430878 -0.1334694772958755 -0.1733172833919525 -0.1610492765903473 0.0041474006138742 -0.0359356626868248 -0.0957187563180923 -0.0076905102469027 -0.2598331868648529 -0.0533664971590042 -0.0654036253690720 0.1055965572595596 0.0119038391858339 -0.1684993058443069 -0.0063688475638628 0.0488042086362839 0.0510462522506714 -0.0247419420629740 0.1583397388458252 -0.1194448322057724 -0.1698565930128098 -0.2790399491786957 0.2111487537622452 0.2908826768398285 0.0425832755863667 -0.2424857020378113 -0.0085656158626080 -0.1143763735890388 0.0295122452080250 0.1233074590563774 -0.0281062070280313 0.1406034529209137 -0.0138040287420154 -0.0195550471544266 -0.1784268766641617 0.2283265590667725 -0.2368974536657333 -0.1518387943506241 -0.0372708067297935 -0.0444765612483025 -0.0362372733652592 -0.2439379394054413 -0.0787822380661964 -0.0947002246975899 0.0860740616917610 -0.0361417643725872 0.0334717631340027 0.0289960559457541 0.0625584498047829 -0.4278330802917480 -0.2376559376716614 0.3541736900806427 0.2242948859930038 -0.3208405971527100 0.1777568906545639 -0.3548455238342285 0.4025050401687622
-0.0668316259980202 -0.1282186061143875 0.1621390432119370 -0.1225291192531586 -0.2205884903669357 0.0358344651758671 -0.0342163592576981 0.2173974215984344 -0.0375953949987888 0.0908628702163696 0.1483146250247955 -0.9054045081138611 -0.0373867712914944 -0.0566030554473400 0.0886763259768486 0.0674731060862541 0.4082485139369965 -0.2425353378057480 0.0585804954171181 -0.1765275299549103 -0.1950443983078003 -0.0916147679090500 -0.1254263073205948 -0.4294825494289398 0.0217441562563181 0.0959523916244507 0.0912131890654564 0.2596066594123840 -0.0578155219554901 -0.0235354937613010 -0.0471284836530685 0.0422800593078136 -0.3157148361206055 -0.1845721155405045 -0.2761376798152924 -0.1691783070564270 0.0161786973476410 0.0457795932888985 0.2408256232738495 0.0232702456414700 0.0555605553090572 0.0975686386227608 0.1941737830638885 -0.1814478784799576 -0.0498236678540707 -0.3461432456970215 -0.2637340724468231 -0.0839426144957542 0.0295122396200895 -0.1942999213933945 0.1850879937410355 -0.0160091072320938 -0.1762294024229050 0.1862280815839767 0.2396836876869202 0.0788596197962761 0.1052225455641747 0.1780029982328415 -0.2526610493659973 0.0499749928712845 -0.1793359071016312 0.1325873583555222 -0.0236889887601137 0.0431853830814362 -0.1747093200683594 0.0334154628217220 0.0163988713175058 -0.0443283133208752 0.1872398406267166 0.1909863501787186 -0.0763522833585739 -0.0691424235701561 0.1144963204860687 -0.0404863804578781 0.0999733582139015 0.0697769075632095 0.0729989632964134 0.2037253230810165 -0.0113363545387983 0.0319484062492847 0.0893499031662941 0.2373442202806473 -0.0209194831550121 -0.0190972201526165 -0.0298946872353554 -0.0467256568372250 0.0043021459132433 -0.1625220030546188 -0.0696355625987053 0.1283952593803406 -0.0190377384424210 0.0285539720207453 0.2207005769014359 0.1062790974974632 0.1677774190902710 -0.1805092096328735 0.0237175337970257 -0.0738708600401878 -0.0644161775708199 -0.1511555612087250 -0.3191285133361816 0.1012452617287636 -0.0274516176432371 0.1449534147977829 0.0648058950901031 0.2287692874670029 -0.0131198940798640 -0.1481584012508392 -0.1833004206418991 0.0799501240253448 0.1293891668319702 -0.2777497172355652 0.0927197262644768 -0.0965183377265930 -0.2644568681716919 -0.0876644179224968 -0.0140667269006371 0.0420322380959988 0.0381867811083794 -0.1437694877386093 0.1901446282863617 -0.0427987053990364 -0.1721880882978439 0.0048010488972068 -0.0964675247669220 0.1585262119770050 -0.1065646335482597 -0.3536040186882019 -0.3285369277000427 -0.1476078033447266 0.0663124546408653 0.0713983476161957 -0.2228636741638184 -0.5466868281364441 0.1880741268396378 -0.4157338440418243 0.6256451010704041 -0.1837215423583984 -0.0304272230714560 -0.7424339652061462 -0.8542937636375427 -0.4275997877120972 0.2573366761207581 -0.1397648155689240
0.0643791183829308 0.0998396277427673 -0.0373269580304623 0.0473100282251835 0.0588880777359009 -0.0731372386217117 -0.0584641620516777 0.1254562884569168 -0.1908727437257767 0.0835958123207092 -0.0052874293178320 0.0577301569283009 0.1192680969834328 0.0151244793087244 0.0027828977908939 0.0711334720253944 0.2078475058078766 -0.0759933516383171 -0.0105234207585454 0.0175423230975866 -0.0221473872661591 0.1222135797142982 -0.1923992782831192 0.2471733838319778 0.2841585576534271 0.0588748119771481 0.1615948528051376 -0.0559952966868877 0.0929873511195183 -0.0579504817724228 -0.1524406373500824 0.1164732575416565 0.1524716615676880 0.2168982177972794 -0.0232416354119778 0.0215682070702314 0.3142322599887848 0.1994769871234894 -0.0256747212260962 0.1708430796861649 0.0209172703325748 -0.1307613402605057 -0.0074461707845330 0.0092056384310126 0.0273149423301220 0.1131675764918327 -0.0535412691533566 0.1643380522727966 0.3697985410690308 0.3340406119823456 0.0020804973319173 -0.0765181630849838 -0.0332089774310589 -0.0492699518799782 -0.0109839383512735 -0.1091702952980995 -0.0040396619588137 0.0361557304859161 -0.0680630281567574 -0.1357549875974655 0.4173429310321808 0.0527953580021858 0.1086644157767296 0.0012333202175796 -0.0321579463779926 0.0874774530529976 0.0354439616203308 0.1937074065208435 -0.0400567725300789 -0.0789860039949417 -0.0823338106274605 -0.0308610089123249 0.0690309554338455 0.0792525038123131 -0.2394536286592484 -0.0292364358901978 -0.1435371637344360 -0.0187996886670589 0.1102251559495926 -0.0350393839180470 -0.0645222291350365 0.0554396100342274 -0.2893454730510712 -0.1358906626701355 0.0372259691357613 0.1663329303264618 -0.0116582950577140 0.1513174325227737 -0.0213685464113951 0.0134431123733521 -0.0361931137740612 0.0707849338650703 0.0571900457143784 -0.1028342843055725 -0.0396096184849739 -0.0562731251120567 0.1719740778207779 -0.1896084547042847 0.0465518459677696 -0.0239207874983549 -0.0828663259744644 0.0009399984846823 0.1753567606210709 0.0588255450129509 -0.2067682296037674 0.1866172999143600 -0.1945914179086685 0.0186774991452694 -0.1297344863414764 0.0523451641201973 -0.1881389468908310 -0.1125137731432915 -0.2255314588546753 -0.0485465191304684 0.1448010057210922 -0.1184750795364380 0.1123196482658386 -0.1510873734951019 0.1713238358497620 0.1476885676383972 -0.3064798116683960 -0.3839550018310547 -0.0853635072708130 -0.1170778647065163 -0.1824321597814560 -0.0723718255758286 -0.0401054918766022 0.0094682872295380 -0.1181010454893112 0.1252378970384598 0.6147132515907288 0.1305273920297623 -0.4355598688125610 0.1317958980798721 -0.0951753854751587 0.1694150120019913 0.1197085604071617 0.0045382273383439 0.3206220865249634 0.0524764321744442 -0.0190935079008341 -0.3681882619857788 0.2679798007011414 0.3416688144207001
0.3892118930816650 0.1177998706698418 -0.0351383462548256 0.4182558655738831 0.0116994716227055 0.3469163179397583 -0.2084901779890060 0.0501622036099434 -0.2693804204463959 0.2440114021301270 -0.0469857156276703 0.4146082103252411 0.1526175290346146 0.1442105621099472 0.1026905924081802 0.0000325661530951 0.2052399069070816 0.2831588983535767 -0.1701220571994781 -0.0667411312460899 0.2588673830032349 0.0305184870958328 0.5152311921119690 0.4740082621574402 0.1903383880853653 0.2717837691307068 -0.0243422277271748 0.0371078997850418 -0.0734949260950089 0.0732148215174675 0.0362346842885017 -0.0209479872137308 -0.1170545741915703 0.1318984776735306 0.2356620579957962 0.4326249957084656 0.2198173403739929 0.1412254571914673 -0.0257934220135212 0.2111258655786514 -0.1625900715589523 0.3419349789619446 -0.0098230643197894 -0.0954185500741005 0.0919393897056580 -0.0784651264548302 0.1598545312881470 0.0980681180953979 0.2154988199472427 0.2539342939853668 0.0951727032661438 0.1755746454000473 0.1864509284496307 0.1953890472650528 0.0800778567790985 0.0190419927239418 0.1208878159523010 0.0241648815572262 0.0405428148806095 0.4449282884597778 -0.0921643227338791 0.1716129183769226 -0.0362340733408928 0.1977761834859848 0.1854410022497177 0.2754906713962555 0.0623863376677036 0.1478976607322693 0.1730844676494598 0.1501630842685699 -0.0687002539634705 0.0077603310346603 -0.0224431715905666 0.0925131216645241 0.1363609284162521 -0.0130052156746387 0.1832793653011322 0.1822437494993210 0.0962418839335442 0.1701857596635818 0.1797495782375336 0.0802681893110275 0.0712958723306656 0.2295955866575241 -0.0595701113343239 0.2399417459964752 0.0573211908340454 0.0874128490686417 0.0096755195409060 0.1901504248380661 0.3571212291717529 0.1482302993535995 0.0947801321744919 0.1185284182429314 -0.0390422381460667 -0.1265783160924911 0.0548012182116508 0.0030075716786087 0.3684568703174591 -0.0215955562889576 -0.0123960739001632 -0.0853917598724365 0.1307094693183899 -0.0006050638621673 -0.0340416692197323 0.0596044398844242 0.0047694481909275 0.2800606489181519 -0.0477151498198509 0.1676166653633118 0.0604037232697010 -0.0032603912986815 0.1009889021515846 0.0042145433835685 0.1505459547042847 -0.0550948828458786 -0.0010363073088229 0.0680340677499771 -0.1282771229743958 0.1403317302465439 -0.1106634438037872 0.0605734586715698 0.2067894041538239 0.0560261234641075 -0.2376896589994431 0.0944862589240074 0.0695033818483353 0.1663918197154999 0.2110691219568253 0.2734213471412659 0.0358772911131382 0.3618927597999573 -0.3917796611785889 0.3460881412029266 0.2443465590476990 0.1650989949703217 -0.3087849318981171 0.2837691009044647 0.4624661803245544 0.1960618495941162 0.0287177003920078 1.0088061094284058 -0.2231268733739853 0.0168396178632975
-0.0788362771272659 -0.0923994407057762 0.1382474005222321 0.1070723086595535 0.1701565384864807 0.4111884534358978 0.2816194295883179 0.2346187978982925 0.3461930155754089 0.2876097559928894 -0.2350972443819046 -0.2393339276313782 -0.1567952930927277 0.2095565497875214 -0.0279285889118910 0.2950379848480225 0.2886441648006439 0.1210674196481705 0.1394943892955780 0.0901108458638191 -0.0432056859135628 -0.1429982930421829 -0.1301096379756927 -0.0454255267977715 -0.0205821525305510 -0.2158344537019730 -0.0667972639203072 -0.1019513532519341 0.0369662642478943 0.0087973512709141 0.1462108343839645 0.0550441332161427 0.3071538507938385 0.2355827093124390 -0.1595549434423447 0.2117312103509903 -0.0856601670384407 -0.2613953351974487 -0.3149158358573914 -0.0807691961526871 -0.2484424710273743 -0.0192038007080555 -0.0166857726871967 0.1731375604867935 0.2499412447214127 0.1358219981193542 0.0553108006715775 0.1065502390265465 0.0539790168404579 -0.0984236821532249 -0.0799560323357582 -0.0785902962088585 -0.2682532072067261 -0.1000633537769318 -0.0983519926667213 0.0947057455778122 0.0657302886247635 -0.0331943966448307 0.0269134920090437 0.3166725635528564 -0.1077229082584381 -0.1469772309064865 -0.2080216556787491 -0.0820038169622421 -0.0299018602818251 -0.2210052162408829 -0.0202749967575073 -0.0379613339900970 -0.0776887387037277 -0.0860505178570747 0.0677771717309952 0.0089430520310998 0.2000596970319748 0.0494646430015564 0.1794419139623642 -0.0251044109463692 0.0286043565720320 -0.0651128068566322 0.0088744284585118 -0.1076817587018013 -0.0703283920884132 -0.1478024423122406 -0.1614601463079453 -0.0143479248508811 -0.2188656926155090 0.2741709947586060 0.2471506744623184 0.2563639879226685 0.1002941429615021 0.0125482231378555 -0.0992789119482040 -0.0311236325651407 -0.0403421558439732 -0.1095938161015511 -0.2270223200321198 -0.4005564153194427 -0.2815774977207184 0.0101319616660476 0.0632655620574951 0.0617996826767921 0.2143455892801285 -0.0704102888703346 -0.1705661565065384 -0.1744645386934280 -0.0216116756200790 -0.0580734387040138 -0.3821767270565033 0.0137700298801064 -0.4056800901889801 0.1730608642101288 -0.2368818223476410 -0.0145044028759003 -0.0004642833373509 0.2016011327505112 -0.1562462300062180 0.0215539894998074 0.0257157180458307 -0.0151577899232507 -0.0530159696936607 0.2124008387327194 0.0170076489448547 -0.3288989067077637 0.0149525227025151 -0.4704663455486298 -0.0451796762645245 -0.0837041512131691 -0.2816844284534454 -0.1103518232703209 0.0402909144759178 0.1643991172313690 0.3000676333904266 0.0158772300928831 0.0907131209969521 0.6416602134704590 -0.2334184795618057 -0.2556764781475067 0.3578293919563293 -0.1087968423962593 -0.3610207438468933 1.0726056098937988 -0.4321553111076355 1.0406016111373901 -0.0952887088060379 0.0027942610904574
0.3701409399509430 0.0166454538702965 0.0426847748458385 -0.0559912286698818 0.1234854683279991 -0.2275187820196152 -0.2370523065328598 -0.0475139543414116 -0.3724539577960968 -0.0977638140320778 -0.1117897853255272 -0.1370483487844467 0.0573979578912258 0.2057147622108459 -0.1970039010047913 0.1436338573694229 -0.0299028698354959 -0.1813230961561203 -0.0687060430645943 -0.2948638796806335 -0.1159551739692688 -0.0499399378895760 -0.0169753823429346 0.0302367098629475 -0.1522818356752396 -0.2438641041517258 -0.0340716801583767 0.0013309968635440 -0.1250100135803223 0.0053247087635100 0.0089876549318433 0.0346681140363216 0.1028527095913887 0.1193088591098785 -0.1522707492113113 -0.0379392467439175 -0.2585726678371429 -0.1320805400609970 -0.1020564213395119 0.0210116934031248 0.2897005677223206 -0.0220769662410021 0.2510482966899872 0.0609888583421707 0.2371257096529007 -0.0180932134389877 -0.1614466309547424 0.1599524915218353 -0.2298892140388489 -0.2695350050926208 0.0467722602188587 0.2086281925439835 0.2069884389638901 0.3059831261634827 0.2219701409339905 0.4278462827205658 0.1227176189422607 -0.1728047430515289 0.1001837700605392 0.0004104141262360 -0.1232323721051216 0.0085636004805565 0.0753545537590981 -0.0479636862874031 0.0847285315394402 0.0047466070391238 0.0664786547422409 -0.0740476176142693 -0.0942528024315834 -0.2024378329515457 -0.1560103893280029 -0.0924132391810417 -0.0782416462898254 0.1090603321790695 0.0097650010138750 -0.1421398371458054 -0.0468263700604439 0.0225278548896313 -0.1461836695671082 0.0843594372272491 -0.3030235171318054 -0.2762635946273804 -0.1766437143087387 -0.3138069808483124 0.1093838140368462 0.1517792195081711 -0.1896618604660034 -0.0796287655830383 -0.1905593425035477 -0.0137762548401952 0.0672409310936928 -0.1301982402801514 -0.1569272577762604 -0.3232056796550751 -0.3625868558883667 -0.3777405321598053 -0.1266008466482162 0.1081333979964256 0.0885319039225578 -0.2053329050540924 -0.1735841929912567 -0.1477766633033752 -0.1070472151041031 0.0168247073888779 -0.0736616626381874 -0.2357915788888931 -0.2312433570623398 -0.4052561223506927 -0.1090765222907066 -0.1845631748437881 -0.2357116937637329 -0.2310066074132919 -0.2802895903587341 -0.2962632179260254 -0.2395305335521698 -0.1841731518507004 -0.1480486690998077 -0.4196307361125946 -0.2250296473503113 -0.4359050989151001 -0.0872483476996422 -0.2565296292304993 -0.1196787878870964 -0.0733762085437775 -0.0407889410853386 0.0334092825651169 0.0516081675887108 0.1549175679683685 -0.0585339590907097 0.1888382732868195 -0.4355368316173553 -0.5131963491439819 -0.0112582119181752 -0.1944660544395447 -0.2625660300254822 -0.2760561108589172 0.3269873261451721 -0.0975841730833054 -0.6392792463302612 0.0065089003182948 0.1164779737591743 -0.1890979707241058 -0.1512622833251953 -0.7250898480415344
0.1598306149244308 0.1251745820045471 0.1137555316090584 -0.0067700804211199 0.1004259735345840 0.0033642575144768 0.1079858466982841 0.0166174769401550 -0.0347728170454502 -0.1332099586725235 0.0308703035116196 -0.7154425382614136 -0.1940183490514755 0.0588054098188877 -0.0486780144274235 0.0178798623383045 -0.1524165719747543 -0.0152893476188183 -0.0264988318085670 0.1760593205690384 -0.2532757818698883 -0.0862787440419197 -0.1932927072048187 -0.2222580462694168 -0.0243455823510885 -0.0352111458778381 0.0875312238931656 -0.0626793131232262 -0.1048199385404587 -0.1221091523766518 -0.1424234956502914 -0.0884721130132675 -0.2034096270799637 -0.4373047947883606 -0.2657373249530792 -0.1928682178258896 -0.1672657132148743 -0.1544399857521057 -0.0372572392225266 -0.0545028671622276 0.0836742669343948 -0.0269675776362419 0.0767991840839386 -0.1821745336055756 -0.2099940925836563 -0.1243675947189331 -0.1751493811607361 -0.2231924086809158 -0.1159678474068642 -0.1527759432792664 0.0175326578319073 0.0660050064325333 0.0248212404549122 0.1286281645298004 -0.1243432164192200 0.1863767653703690 -0.4236334860324860 0.1470221281051636 -0.0820883214473724 -0.1359644383192062 -0.0066578397527337 -0.0014335842570290 0.1442838907241821 -0.1383003443479538 0.0810129866003990 -0.0471782982349396 0.1725797802209854 -0.1649951934814453 0.0596652403473854 -0.0857874825596809 0.1931225061416626 0.0451644435524940 -0.0287753008306026 0.2215218991041183 -0.0053276703692973 0.1351205557584763 -0.0404870286583900 0.1860795319080353 -0.0950255766510963 -0.0613104067742825 -0.0175368897616863 0.0874398276209831 0.1882681101560593 0.2758669853210449 0.1076715290546417 0.0442264527082443 0.2097783684730530 0.2842675447463989 0.2675624191761017 0.0414938665926456 0.1067904978990555 0.0554998479783535 0.1554713994264603 0.0950714871287346 0.3274239301681519 0.2955395579338074 0.0513200610876083 0.0412844978272915 -0.0010948310373351 0.0944153219461441 0.1385683566331863 0.0905166193842888 0.0612013749778271 -0.0006119257304817 0.1101845875382423 0.3319996297359467 0.1635729968547821 0.1627038270235062 -0.1232389360666275 -0.1021355465054512 0.0246815979480743 -0.0740114897489548 0.0503028072416782 0.0706456899642944 -0.1294200420379639 0.0911256447434425 0.0482745803892612 0.2998732626438141 0.1052699685096741 0.3703759014606476 -0.0083245737478137 0.1141523197293282 -0.1769642680883408 0.1170316115021706 0.0505673848092556 -0.0327433943748474 -0.1005409732460976 -0.2472316771745682 0.0756828337907791 -0.1405174434185028 0.0133736813440919 0.0830688923597336 -0.2019234299659729 0.2760769724845886 -0.2358333170413971 -0.1599880456924438 0.1170853599905968 -0.4207701086997986 -0.2721437811851501 -0.0830852612853050 -0.1838195472955704 -0.7471992373466492 -0.7302995324134827 0.0980872511863708
0.0203201174736023 -0.0173621270805597 0.0395532734692097 -0.1729046702384949 -0.3176393806934357 -0.4600578546524048 -0.2542020976543427 -0.0402814298868179 -0.0376952961087227 -0.1015263423323631 0.1124230474233627 0.6301765441894531 0.2024191617965698 0.0175386052578688 0.0950705781579018 -0.0788489580154419 -0.0755917131900787 -0.1893821209669113 -0.0965714901685715 -0.0275183264166117 -0.0283238030970097 -0.0176411140710115 -0.1746570616960526 0.2935353517532349 0.0208461135625839 0.1513649672269821 0.2279752790927887 -0.0153860785067081 -0.1864185035228729 -0.1806072145700455 -0.1464994549751282 -0.1965621113777161 -0.0521165691316128 -0.1327331215143204 0.1231545433402061 0.3310139477252960 -0.0805674642324448 0.2505637705326080 0.2567020654678345 0.0165797788649797 0.0389571599662304 -0.2363149821758270 -0.0739718750119209 -0.0931168198585510 -0.0580411963164806 0.0539850182831287 -0.4037187993526459 -0.1099803000688553 -0.0210157670080662 -0.2264396548271179 0.0399418883025646 -0.2084354907274246 0.0509589202702045 -0.1146035641431808 -0.1067463308572769 -0.0991903916001320 -0.0240943897515535 -0.0972925946116447 0.1070416867733002 -0.0741000398993492 -0.0729927346110344 -0.0878714844584465 -0.0883511081337929 -0.2290492951869965 0.0638508945703506 -0.0711647048592567 -0.1183972656726837 -0.1134078577160835 -0.1710849553346634 0.0850311964750290 -0.4216872751712799 -0.1324387490749359 -0.0015661228680983 0.0095897288993001 -0.1553955525159836 -0.1429516673088074 -0.1582515388727188 0.0690424516797066 -0.0962389037013054 -0.1296225786209106 -0.0187118556350470 -0.1395259350538254 -0.0379723794758320 -0.1631818413734436 -0.0338307283818722 0.0707101598381996 0.0569134056568146 -0.2057181894779205 0.1589734256267548 0.1260333508253098 0.0704019591212273 -0.0627925693988800 0.0557077527046204 -0.0183228161185980 -0.0106768505647779 -0.0324823111295700 0.1416044235229492 -0.0702113509178162 -0.0104436678811908 -0.2481308728456497 -0.1950061321258545 -0.1672155559062958 -0.1185702010989189 -0.2810820043087006 -0.2036696970462799 -0.0483012832701206 -0.1394068449735641 -0.2245694398880005 -0.2070373594760895 -0.0175755005329847 -0.2161325067281723 -0.2408359050750732 -0.1975244432687759 -0.2103047668933868 -0.1620041728019714 -0.3291190564632416 -0.1464323252439499 -0.2724607884883881 -0.2584119141101837 -0.0217564925551414 -0.1165746748447418 -0.0305736698210239 -0.0879728794097900 -0.2757440507411957 -0.0368496254086494 -0.1017107889056206 -0.2098689675331116 -0.0346009284257889 -0.1701239943504333 0.0901872515678406 0.1786714941263199 -0.1563640385866165 -0.4088895618915558 -0.1794930547475815 -0.3355290591716766 -0.3463495075702667 -0.3087203502655029 -0.5005123019218445 -0.0374127067625523 -0.4870800375938416 0.1882037669420242 -1.5373494625091553 -1.0702806711196899 0.2478010207414627
-0.1046866104006767 -0.1712637245655060 0.0240672659128904 -0.1245023608207703 0.0273746941238642 0.0032466189004481 -0.1251468956470490 0.0987240970134735 0.0423129573464394 -0.2545530498027802 -0.2222124189138412 0.5886130332946777 0.2815082967281342 -0.0051412386819720 0.1360252499580383 0.0931718721985817 0.2999575138092041 -0.0670850723981857 0.1177633777260780 -0.0964196845889091 0.1438383609056473 0.0403403528034687 -0.0085728755220771 -0.1197657287120819 0.0948100462555885 0.2167763411998749 0.0054836720228195 0.1202272027730942 -0.1579364240169525 0.2682142555713654 -0.0207639671862125 0.2266269475221634 0.1646759957075119 0.2160592526197433 0.0981170386075974 0.0947432294487953 0.1286175847053528 -0.1259691715240479 -0.0217365045100451 0.0241460707038641 -0.0164332240819931 -0.0957855507731438 -0.0686560645699501 0.0793407037854195 0.0267123114317656 0.0058224438689649 0.0346869565546513 -0.1735983192920685 0.1412070095539093 0.0118252066895366 0.0534458421170712 -0.0184856187552214 0.1414197087287903 0.1426036059856415 -0.0005212645046413 -0.1403118371963501 -0.1205735504627228 -0.0950809568166733 -0.1625128388404846 -0.0971852988004684 0.0564396008849144 0.0280094146728516 0.0749117136001587 0.1164391636848450 0.2096379995346069 0.1521203517913818 0.1303390264511108 0.1791161298751831 0.0065922099165618 0.0389329642057419 0.0256840884685516 -0.3609650135040283 0.0486147068440914 -0.0004897649050690 0.0559546314179897 0.0360758639872074 0.0349494144320488 0.0660569742321968 0.1974364966154099 0.1479250341653824 0.0155189419165254 0.0234739724546671 0.0328668989241123 -0.0324821844696999 -0.1649390310049057 -0.0072934962809086 -0.0232966691255569 -0.2793968617916107 0.0361376814544201 0.0192882418632507 0.0534662306308746 0.0959462448954582 0.0024618068709970 -0.0059596602804959 0.0804479867219925 -0.0602370910346508 -0.0602986291050911 -0.0010658503742889 -0.0203895997256041 -0.0955202803015709 -0.2638811767101288 -0.1084301397204399 0.1896696835756302 -0.0765159577131271 0.1344056576490402 -0.0557789802551270 0.2340396791696548 0.0815867185592651 -0.0627747029066086 0.1208839714527130 0.1340860277414322 -0.0764267891645432 -0.1144152581691742 0.0175645481795073 -0.1081147640943527 0.0829966291785240 -0.0329275615513325 0.0760808661580086 0.1144114285707474 0.1637664139270782 0.2269994765520096 -0.0986455157399178 0.0336700454354286 -0.1554816812276840 -0.1655746102333069 -0.3244832158088684 0.1166631430387497 -0.0385377593338490 0.2536019086837769 -0.0305197183042765 0.1651344299316406 0.1400681585073471 0.0963143035769463 -0.0058890646323562 0.1422521322965622 -0.0495583340525627 -0.2339995354413986 -0.1690338253974915 0.2531585395336151 -0.1278548091650009 0.1290419548749924 -0.6168259978294373 -0.2672672867774963 -0.0211280304938555
