1.0025552511215210 1.1272736787796021 0.3055823743343353 -0.9214571714401245 -0.3510780036449432 1.4861923456192017 1.0176410675048828 0.1840085089206696 -0.6160695552825928 0.8454558253288269 -0.2097086459398270 -0.1114119440317154 -1.8338006734848022 0.0927160009741783 -1.3418840169906616 0.1822883933782578 -1.4418095350265503 0.5140774250030518 1.1562149524688721 -0.9863652586936951 0.4955831468105316 0.5380817055702209 -0.8945577740669250 0.1474727243185043 0.9661410450935364 -0.2557573318481445 -0.7379729151725769 0.3233517110347748 0.4066309332847595 -1.0496890544891357 -0.2559468150138855 -0.5356653928756714 1.1890954971313477 -1.5926846265792847 -0.7845618724822998 0.0023538370151073 -0.0738493874669075 -0.6731809377670288 1.9676381349563599 0.9963080286979675 0.1608780324459076 0.0525545552372932 1.2324454784393311 -1.2509806156158447 2.0855727195739746 -0.7673542499542236 0.9265570640563965 0.7421343922615051 -0.3796358108520508 -1.1703370809555054 0.5212626457214355 -0.6911056637763977 -0.5314574837684631 1.2657111883163452 -0.1863970458507538 -0.8039529323577881 0.2819030582904816 -0.2200660407543182 -2.0311646461486816 0.0566856190562248 -0.3384292721748352 -0.2764932811260223 0.5692604184150696 0.7207635641098022 -0.5219851732254028 -1.2573751211166382 -0.8521677255630493 -0.2219395637512207 -0.0969767123460770 -2.0705909729003906 1.3286640644073486 -0.7585222721099854 0.0187073871493340 1.4573976993560791 0.9012593030929565 2.2596652507781982 -0.3069133758544922 -0.4140118062496185 0.2367329448461533 -0.1640689522027969 0.4512447714805603 -0.8150490522384644 -0.6679053902626038 1.1585679054260254 -1.2053680419921875 -0.0179548300802708 0.9924430251121521 -0.9377620816230774 1.2868427038192749 -1.6605283021926880 0.1262402832508087 -0.7495471835136414 -1.4161450862884521 -0.2900622189044952 -0.6650142669677734 -0.5969790220260620 0.1606556028127670 0.0594245977699757 -0.1831199228763580 -0.8826054334640503 -0.8332827687263489 1.4649151563644409 -1.0968101024627686 -0.5971353650093079 0.1117226928472519 0.2984682619571686 0.6394854187965393 -0.4122227132320404 2.5241622924804688 0.1111762672662735 -0.2945669293403625 0.0566309355199337 0.6361774802207947 -0.7636093497276306 1.0919920206069946 -0.4749276936054230 -0.1857097297906876 -0.4078364968299866 0.3259021937847137 -0.9584762454032898 1.1784825325012207 1.1613178253173828 -0.4472301304340363 -0.1419038474559784 -0.2056481540203094 0.8258762359619141 0.9749338030815125 0.6425248980522156
0.9015811681747437 0.0078052249737084 -0.7972302436828613 -0.1375526934862137 -0.2349307686090469 0.0500913783907890 -1.8399130105972290 0.4936901628971100 -0.6759028434753418 0.0534876808524132 0.0243259277194738 -2.5669131278991699 -0.8737884759902954 0.0589846819639206 -0.5609036684036255 0.3826118111610413 -0.6994668841362000 -0.7725239396095276 -0.2415055781602859 -0.0632607266306877 1.2642940282821655 1.0673923492431641 -1.6672382354736328 1.9220423698425293 -0.4707588255405426 1.3726636171340942 -1.7783035039901733 1.1241703033447266 1.1432318687438965 0.5784667730331421 -0.2960228323936462 0.6403360962867737 -0.3591246902942657 0.0747477114200592 0.8140802383422852 -0.8759762644767761 -0.6066944599151611 -0.9633340835571289 -1.4349664449691772 -1.9643729925155640 -0.1434617936611176 0.6932963132858276 -0.3706101775169373 -1.3417375087738037 0.0145791107788682 -2.2358613014221191 1.5055068731307983 1.0167053937911987 1.6250360012054443 0.8490735888481140 -0.0910791456699371 0.8065436482429504 1.2155346870422363 -1.8833584785461426 -0.0739195123314857 1.5562341213226318 -0.6012920737266541 -1.1703398227691650 0.3377234339714050 0.1391248553991318 0.1615163981914520 -0.9901595115661621 1.4070917367935181 0.2572879195213318 0.0754745081067085 0.2707680463790894 -0.5693445205688477 0.9230414032936096 -0.3909017145633698 -2.5229053497314453 0.4078241884708405 -1.3365480899810791 -1.4685927629470825 -0.4011498391628265 0.1480100005865097 -0.7332555055618286 0.9419466853141785 -0.4332349896430969 -1.7219778299331665 -2.3544046878814697 -1.0536335706710815 0.6745056509971619 0.1500210762023926 0.7529306411743164 -0.8535084724426270 0.0848745703697205 -1.0689191818237305 0.0136562036350369 -0.6334586739540100 1.6752526760101318 -1.1745127439498901 -1.0753339529037476 0.1708305180072784 0.3279179036617279 -0.2523323595523834 0.0365600250661373 -0.0568131804466248 0.3846957087516785 -1.5740100145339966 -1.8899563550949097 -0.9093320965766907 -0.3535114228725433 -0.4342863857746124 -0.8463259935379028 -1.5081241130828857 -1.7241384983062744 1.2136104106903076 -1.5854741334915161 -0.5016787052154541 0.7644827365875244 -0.4834119677543640 -0.3270338177680969 -1.1355159282684326 1.4502656459808350 0.9791153073310852 0.3410639762878418 -2.5580339431762695 -1.3330552577972412 1.0175771713256836 -0.5378619432449341 -1.2905614376068115 -1.0345255136489868 -1.0860556364059448 -1.1565150022506714 -0.3237605094909668 0.5853546857833862 -0.7479144334793091 0.4660462141036987
-2.7582771778106689 -0.5732623934745789 -1.0750075578689575 -0.9167963266372681 -0.0991766005754471 1.5377275943756104 -0.7646325230598450 -0.0554214380681515 0.1011832877993584 1.9503844976425171 -0.0903415456414223 -0.8843339085578918 -0.2212704569101334 0.2719736993312836 1.8712377548217773 -0.3554022610187531 0.9680697321891785 -1.3519454002380371 1.8900154829025269 -0.1173624396324158 0.6802014708518982 -1.3542445898056030 1.6177800893783569 0.3368352055549622 1.4402238130569458 -0.1142936944961548 1.9780746698379517 0.9495816230773926 2.0785601139068604 0.1038429215550423 -1.5843508243560791 0.2607212066650391 0.6340827345848083 0.0189259517937899 0.1255698204040527 -0.6906341314315796 0.0296711623668671 2.0152695178985596 -1.6737066507339478 0.9192135334014893 -1.6912187337875366 -0.9953449368476868 -1.2259510755538940 0.3753444850444794 1.4948762655258179 -0.0994337797164917 -0.3570055961608887 0.1824562549591064 -0.1010714918375015 -0.3640960752964020 -0.3308773934841156 2.1351602077484131 -0.6444207429885864 1.0104091167449951 0.8969373106956482 1.2230870723724365 2.2016398906707764 -0.1040171533823013 -0.3450070917606354 0.0786136239767075 -1.0834705829620361 -0.7476650476455688 0.4776532351970673 -0.3353580236434937 -1.8258094787597656 -0.0870046019554138 -0.8108962774276733 0.7112553119659424 -0.4483601152896881 -1.1785141229629517 1.3477325439453125 -0.6885745525360107 0.9228422045707703 0.7790185213088989 -0.4658677875995636 0.9208865165710449 -0.1911035180091858 -1.5329811573028564 -0.4693729281425476 -0.5601705908775330 0.3429798185825348 0.2827374935150146 0.2772343754768372 -0.8929671645164490 -0.0784617289900780 -0.5332198739051819 -1.4316323995590210 -0.7472815513610840 -0.6643408536911011 0.4835721254348755 -0.7085835337638855 0.0289034470915794 1.7107921838760376 0.7466566562652588 -0.2766931056976318 0.7598990201950073 -0.2089746147394180 0.7493422627449036 0.2951238155364990 0.4249549210071564 -0.0973606333136559 0.1248492375016212 -1.9984111785888672 -0.5444722175598145 -1.3302410840988159 0.8400854468345642 -0.2072566300630569 -1.9712456464767456 -1.5920517444610596 0.4707879424095154 0.3152780830860138 0.6631615757942200 0.4982517659664154 -0.8118350505828857 -0.0970643833279610 -0.2177255749702454 0.4309263825416565 0.5662342905998230 0.9293538928031921 0.1959326565265656 -0.4096995294094086 0.5148367881774902 0.2811680436134338 -0.7089084386825562 0.4417321979999542 0.8192865848541260 -0.7274056077003479 -0.6060395240783691
-0.0795015990734100 -1.3156810998916626 2.0396692752838135 -0.4591772258281708 -0.4988909065723419 -0.1182195767760277 -0.1914700418710709 0.4824853539466858 -1.0169165134429932 -0.5047668814659119 -1.5599437952041626 0.9582359194755554 0.0715783163905144 0.2359974235296249 -0.1040271073579788 0.5483207702636719 -0.1774411797523499 0.3997855186462402 -0.0130377905443311 1.3812292814254761 -0.7998794913291931 -0.8636351823806763 1.4860329627990723 0.3764788806438446 -0.7803113460540771 1.7422701120376587 -1.5566825866699219 -0.4652298092842102 1.0158109664916992 0.6698880195617676 0.3160098493099213 0.3753255307674408 2.2743613719940186 1.1471003293991089 -0.4539293646812439 -0.3499833047389984 0.7204491496086121 -0.4310723245143890 -0.4901455640792847 -0.4122591912746429 1.3914027214050293 -1.6285821199417114 0.4099501967430115 -0.1773297488689423 0.9579365253448486 0.6324622035026550 -0.2774059176445007 -0.8294929862022400 -0.1866647303104401 1.3435040712356567 1.7439953088760376 1.2594054937362671 -0.6050721406936646 0.1824273467063904 0.8106266856193542 0.1799956262111664 -1.0648567676544189 1.1500051021575928 1.8183604478836060 -0.4289682805538177 -0.1244450137019157 -0.8394773006439209 -0.0536975823342800 2.2918038368225098 -0.5363295674324036 -1.5709421634674072 0.4103326201438904 -1.3461117744445801 0.2092030048370361 -0.9120180606842041 0.1808786541223526 -1.8993757963180542 -1.1081575155258179 -1.1407263278961182 0.4366875588893890 0.5561739802360535 0.6830632686614990 0.1869246363639832 0.8083544373512268 -0.3834888041019440 -0.8499755263328552 1.7491515874862671 0.0819346457719803 0.6979156136512756 0.1981770098209381 -0.4113197922706604 0.2860989570617676 -0.5222948789596558 -0.5126601457595825 -0.3323580324649811 3.0574715137481689 -1.5984629392623901 -1.2276266813278198 0.2717079818248749 -0.7923321127891541 -1.1983165740966797 -0.2041686177253723 1.6325614452362061 -0.4926041364669800 -1.5157209634780884 -0.7855299711227417 -1.6602902412414551 0.2788000702857971 1.0730638504028320 -2.3980193138122559 0.4812235236167908 0.4172539710998535 -0.7518577575683594 -0.5192276239395142 -1.1680997610092163 -0.0015501698944718 0.6942816972732544 -0.6094766259193420 -0.5365128517150879 -0.7139260768890381 -1.6815233230590820 -1.0265125036239624 0.9042928218841553 -0.9325921535491943 -0.4097933769226074 0.0444636419415474 0.7692114114761353 -0.8852858543395996 0.0907293409109116 -0.1548601984977722 0.1304763704538345 -0.3010910451412201 2.0329527854919434
0.7509769797325134 -1.3896644115447998 -0.5388900041580200 0.0325980223715305 0.9118402004241943 1.3947283029556274 0.2114722728729248 -2.0950324535369873 1.5989171266555786 0.6146464943885803 0.6454333066940308 0.0559196695685387 0.6249111294746399 0.0301990546286106 0.0207412242889404 -0.1138873547315598 -0.7057514190673828 -1.1623638868331909 1.0376585721969604 -0.7292956113815308 0.2840302884578705 -0.8072313666343689 1.6358528137207031 0.4443435668945312 -0.9247142076492310 -0.8112099170684814 -2.9418609142303467 0.1707316190004349 1.4620051383972168 0.0050252922810614 -0.6643152236938477 0.2237207442522049 1.0622460842132568 -0.8146983981132507 0.8846027851104736 -0.1398845613002777 1.4097087383270264 0.8189299106597900 -1.0907845497131348 0.2684325873851776 -0.1607542037963867 0.4835912287235260 0.2761763930320740 0.2948341369628906 0.3924215435981750 0.6954304575920105 -1.1000500917434692 0.5247704982757568 -0.2865383028984070 1.2502884864807129 -1.5634182691574097 0.8415969014167786 -0.0081605659797788 -0.7461617588996887 0.6455302238464355 1.6091612577438354 -0.0055183274671435 1.2508474588394165 1.2338784933090210 0.1187464743852615 1.0098060369491577 -0.0521558523178101 0.3334695100784302 0.8558554053306580 0.3752127289772034 -1.9444010257720947 -0.6346785426139832 -0.6927208304405212 -0.1496515572071075 0.5491410493850708 0.6820228695869446 0.1582081019878387 1.8114980459213257 0.7683228254318237 1.0918892621994019 1.3914592266082764 1.8457617759704590 -1.6788520812988281 -0.5806954503059387 0.5962570905685425 -1.0555055141448975 -0.4091045856475830 -0.6435793638229370 0.6577692627906799 1.5026506185531616 1.7197461128234863 -1.1365138292312622 -0.1252869516611099 -0.3252974748611450 1.3617594242095947 -0.3429856300354004 0.3042472898960114 1.4747391939163208 -0.9212353825569153 -0.3565708398818970 -0.9741790294647217 -3.0324928760528564 1.2403424978256226 -0.2375109642744064 -0.2200974524021149 -0.5526421666145325 -0.1887487322092056 0.8323130607604980 -0.3854629099369049 1.2772939205169678 -0.9417716860771179 0.4355354905128479 0.2149264663457870 1.3441514968872070 0.4976121187210083 1.5080770254135132 1.4108717441558838 -1.4382561445236206 -1.3438338041305542 1.9355171918869019 -0.0127698443830013 -2.8634157180786133 -1.2568187713623047 1.1315156221389771 -1.4195421934127808 -0.1292884200811386 -0.5305660963058472 0.8640174269676208 -0.6374727487564087 0.7908838987350464 1.5395731925964355 0.3494062125682831 0.6977068781852722
-1.7250910997390747 1.8044881820678711 -0.2055614441633224 0.2580111026763916 0.8515793681144714 -1.7982388734817505 -0.7154569029808044 -0.0082559445872903 -1.1161206960678101 -0.8323218226432800 -0.5049312710762024 0.0148388082161546 -1.5088669061660767 0.8347478508949280 -1.1025996208190918 -0.4193813204765320 0.2942801415920258 0.6022788286209106 0.3988374173641205 -0.2602911293506622 -0.1330009698867798 -0.6609718799591064 0.4943011701107025 0.8751779198646545 -0.2287080287933350 0.9064903259277344 0.8100677728652954 -0.6198713183403015 0.6431809663772583 0.6604896187782288 0.2380913197994232 0.4953294992446899 0.9310889244079590 0.4011614024639130 1.4138653278350830 -1.8245921134948730 0.4874530136585236 1.6180363893508911 -0.5598484873771667 -0.7940852046012878 -0.3689588904380798 -0.6484718918800354 -1.0086543560028076 -0.4258964657783508 2.1062066555023193 0.3177806735038757 -0.4449159801006317 -1.5086181163787842 -1.5812094211578369 0.8865217566490173 0.3737698197364807 -0.7441073060035706 -1.4438427686691284 1.1945680379867554 0.7839142680168152 -0.9448464512825012 -0.9215266704559326 -1.4018045663833618 -0.3713517189025879 0.7960007190704346 -1.5739557743072510 1.0464595556259155 0.5225374102592468 -2.2457876205444336 -0.7651146650314331 0.3621775805950165 -1.5783917903900146 0.7647244930267334 -1.0172086954116821 -0.5695304870605469 -1.0123807191848755 -1.0531920194625854 0.8972296714782715 0.5808140635490417 0.1958175301551819 0.9893782138824463 0.4622151255607605 1.4940973520278931 -0.3712014555931091 -0.9322005510330200 0.0404797755181789 -0.0339831709861755 -0.4935802221298218 0.4784851968288422 -0.9589941501617432 0.7491532564163208 -0.3817711174488068 -0.9811902046203613 -0.8607881069183350 -2.2078382968902588 0.5610629916191101 -0.3485762476921082 -0.3982120454311371 -0.0219428800046444 1.9982676506042480 -2.1541230678558350 -0.7075682878494263 -0.4816042482852936 -0.8609544634819031 -1.5934793949127197 0.2381835132837296 1.6389502286911011 2.2305066585540771 -1.2577638626098633 0.4610961675643921 0.8586653470993042 -0.2797508835792542 1.4456014633178711 -1.0808460712432861 -1.3819748163223267 -0.1879357546567917 -1.2153968811035156 -0.2524847984313965 -0.9863786101341248 0.5893340110778809 -0.6294272541999817 0.5425783395767212 -0.0526343882083893 0.2527808248996735 -0.4401602447032928 -1.3132554292678833 0.5370501875877380 -1.0738292932510376 0.4003310799598694 -0.6824017763137817 0.6890396475791931 0.4836918711662292 0.7332288026809692
0.5127896070480347 1.3128399848937988 -1.6776200532913208 -1.3956111669540405 -0.2878366112709045 -0.9924165010452271 -0.4483884871006012 -0.2422509938478470 -1.6816658973693848 0.3744753599166870 -0.3658904135227203 -0.3421351015567780 0.8088818192481995 -0.3766397535800934 -1.9644184112548828 -0.3480528295040131 1.3216985464096069 -0.5934705138206482 0.6467599868774414 -0.9303466081619263 0.7405025959014893 -0.0962214022874832 -0.3736547529697418 -0.2084890455007553 1.3002480268478394 0.3242844045162201 -0.9757202863693237 -0.5052694678306580 0.3039892017841339 -0.1304433792829514 0.1666074395179749 0.2005212604999542 0.8036551475524902 -0.4510167837142944 -0.3343504965305328 0.0397754199802876 -1.0438165664672852 2.4612445831298828 1.6973472833633423 -0.5032011866569519 -0.3044210970401764 1.1324208974838257 2.2537963390350342 -0.5302289724349976 0.8650522232055664 2.0182750225067139 0.1480375826358795 -1.2324539422988892 -2.3180696964263916 0.5411624312400818 -0.7200853824615479 0.7192751765251160 0.9179269671440125 2.1338162422180176 1.1052541732788086 0.1977835297584534 0.3504557609558105 0.0189081188291311 -0.8244631886482239 -0.8769277334213257 -0.3509672582149506 1.9151781797409058 -0.2638245224952698 0.1894384324550629 -0.2029544711112976 -0.3952634334564209 -0.9784904122352600 0.6946480870246887 -1.2211295366287231 1.5392222404479980 0.2522328794002533 0.4035020470619202 1.3871023654937744 0.0828614756464958 -1.2742736339569092 1.8699852228164673 1.4377789497375488 -2.0590484142303467 -0.6862753629684448 2.0869839191436768 -2.0093245506286621 1.6418499946594238 -0.7992709875106812 -1.8879319429397583 -0.7999932169914246 -0.5131310224533081 -0.0594689622521400 -1.5489252805709839 0.9563140273094177 -1.2056778669357300 0.2999382615089417 1.2535732984542847 -0.4673942923545837 0.5293661355972290 0.7370679974555969 -2.7517824172973633 1.7085753679275513 -0.5913850069046021 -0.8370772004127502 -0.9341320395469666 0.1438099443912506 1.7529368400573730 -0.2230755090713501 -1.5034409761428833 -0.1335261464118958 0.0277128461748362 -0.5188003778457642 0.9523822665214539 0.3389219343662262 -0.3373351097106934 -0.2104783952236176 1.8322412967681885 0.1911020278930664 0.4913044869899750 1.5073649883270264 -0.0721098333597183 -1.1200464963912964 -2.2626075744628906 0.7553057074546814 -0.8446890711784363 -1.5084509849548340 0.8731985092163086 1.0642510652542114 -0.9813617467880249 -0.1946705281734467 -0.3610862195491791 1.6221441030502319 -0.2549467682838440
0.2199074476957321 -0.6217214465141296 0.4668207168579102 -0.4760772585868835 0.4915443360805511 0.7089566588401794 -1.5706439018249512 -0.6821432709693909 -0.9186418652534485 0.8223382234573364 -0.1446899324655533 -1.0011724233627319 0.2831142246723175 1.2285487651824951 -0.9241855740547180 0.6482356786727905 -0.7603911757469177 1.2808607816696167 1.2732013463973999 -1.3035793304443359 -0.6542680859565735 -0.9492848515510559 -2.6739761829376221 -0.1352729052305222 0.3494000732898712 0.7927479147911072 0.6119456887245178 -0.1285280436277390 1.8435409069061279 0.1602213829755783 -0.2143626958131790 0.1640236824750900 -0.0258637350052595 0.9921926856040955 0.2194919884204865 -0.7179930806159973 -0.7848579287528992 -1.5402756929397583 0.7826613187789917 2.0541317462921143 0.8544493913650513 0.1293318867683411 -1.1493905782699585 -1.2681232690811157 -1.6960066556930542 -0.5493086576461792 0.0294444449245930 0.2532840371131897 -0.6266947984695435 0.2645012438297272 1.1646193265914917 -1.0548120737075806 0.0295198876410723 0.0387571416795254 0.2539492249488831 -0.8460945487022400 0.2637044489383698 -0.0227153245359659 0.1089122146368027 1.2853027582168579 1.1898334026336670 0.7127042412757874 -0.3483839035034180 -0.8828364610671997 -1.5329110622406006 -2.4126522541046143 0.6091305017471313 -0.7017598152160645 -1.0659168958663940 0.1232720986008644 0.5358874201774597 -0.0857183858752251 1.1142524480819702 -0.8350043296813965 1.7308149337768555 0.7250524163246155 -3.9241042137145996 -1.4216767549514771 0.8744631409645081 -0.2802332341670990 -0.6880326271057129 -0.7620289921760559 -0.7652536034584045 0.0498682148754597 -0.8541694879531860 -0.3966608345508575 -0.7676224112510681 -0.3518339991569519 -1.3020359277725220 0.8627378940582275 -0.5896909236907959 0.3133237659931183 0.4767270684242249 -1.7119461297988892 1.0850232839584351 -1.8351579904556274 -0.4456716477870941 -0.1012704670429230 0.4563029110431671 0.0538335293531418 -1.3949239253997803 0.5875005125999451 -0.3081788718700409 0.0439150482416153 1.7454085350036621 1.2557954788208008 -0.5038840174674988 -0.4309560954570770 0.0421513281762600 2.4591932296752930 -0.9548569917678833 0.3479932248592377 -0.2278114408254623 1.6105899810791016 -0.6215217709541321 -0.8871144652366638 0.2881076633930206 -0.6486108303070068 -0.0012620419729501 1.3432531356811523 -0.3513395190238953 -0.6973080635070801 0.5537024736404419 -1.4171593189239502 0.2409125119447708 1.2974978685379028 0.2677961289882660 0.7140464186668396
-0.9600710272789001 -0.2878797054290771 -1.4777611494064331 -1.7941175699234009 -1.0838758945465088 -1.1996753215789795 -0.1471764892339706 0.0881085395812988 1.6898958683013916 0.1939894407987595 1.0647363662719727 0.0155591806396842 1.1476979255676270 1.2842516899108887 -0.2358304858207703 -0.2242208421230316 1.5946013927459717 -1.2290409803390503 -1.7074993848800659 -1.4621694087982178 -0.5909928679466248 -1.1466228961944580 -0.5272132158279419 1.1455345153808594 0.9452654123306274 -0.3133022189140320 -2.0705816745758057 0.1119380071759224 1.2261154651641846 -0.9470494389533997 0.8015509843826294 -2.3518126010894775 0.0500547848641872 1.0292861461639404 -1.5330755710601807 0.0157207641750574 0.3776621222496033 -0.2276953160762787 0.6007310748100281 0.3284033834934235 0.7757066488265991 -0.3208118677139282 1.7221922874450684 -1.1391205787658691 0.8717842698097229 0.2754809260368347 0.0932656005024910 0.5698974132537842 -0.8808922767639160 0.7717545628547668 -1.3199499845504761 1.4514958858489990 0.7686712145805359 0.2520999908447266 0.8243234753608704 1.1599885225296021 -2.0562293529510498 -1.4929114580154419 -0.3954542577266693 -1.1086382865905762 0.5257959365844727 -1.4092308282852173 -0.3603732585906982 -1.1399892568588257 0.1352407187223434 0.6038879752159119 0.0743046477437019 0.9308714270591736 -1.7700304985046387 -0.2353951781988144 0.4223530590534210 -2.9663400650024414 1.3038897514343262 -0.5032126903533936 0.2986719012260437 0.0213167145848274 -0.1775595694780350 0.8732776641845703 -0.1407849490642548 0.0907846242189407 1.4705182313919067 -0.4423295259475708 1.1693625450134277 -0.4795520305633545 1.2157127857208252 -0.8659574389457703 0.7247890233993530 -0.5330394506454468 0.7301051616668701 -0.4805017709732056 -0.4221739172935486 0.1977449655532837 -0.6411193609237671 -0.5899491906166077 0.3595680296421051 -0.2544245421886444 0.7926380634307861 1.3402976989746094 -1.2861975431442261 -0.0264923721551895 1.1113677024841309 1.1311936378479004 0.1875633895397186 0.9838154911994934 -0.7393007874488831 -0.0072682718746364 -0.6576926112174988 0.0304127875715494 0.1938690692186356 1.1516875028610229 -0.8909941315650940 -0.9380049109458923 1.0067243576049805 -0.3218025863170624 0.4865287542343140 2.4498162269592285 0.2896122336387634 0.6331657767295837 0.1022430509328842 0.7292185425758362 0.6831168532371521 0.4264527261257172 0.4193466603755951 -0.9140499234199524 0.2939068377017975 1.7156907320022583 -0.6561626195907593 0.3577157855033875
1.0204765796661377 -1.2991021871566772 -0.7697980999946594 -0.7239305377006531 0.5841341614723206 0.2679937779903412 -0.6589905023574829 -0.0889000967144966 0.5391871929168701 -0.3340500295162201 -1.3204363584518433 -0.1639408320188522 -0.1335542947053909 0.3187058866024017 -0.6573900580406189 -0.2190255224704742 1.5480698347091675 -0.9511839747428894 -1.1106864213943481 0.5586803555488586 -0.1649700850248337 0.0496261566877365 0.8753800988197327 0.2987071275711060 0.2875446081161499 -0.3195758759975433 -0.7529843449592590 1.7037451267242432 0.3849702179431915 -0.9395241737365723 -1.1183843612670898 -0.3331293761730194 -1.0774940252304077 -0.4639593064785004 -0.3407947421073914 1.2089285850524902 1.8616664409637451 0.6346901655197144 -1.6559789180755615 -0.1716464459896088 -0.1203641891479492 -0.4406322836875916 1.1820372343063354 -2.2432973384857178 -0.5186874866485596 0.1193692609667778 -0.4942557215690613 1.4848041534423828 0.0472528822720051 1.1537810564041138 0.6329181790351868 -0.3943661153316498 1.4211037158966064 0.4620570540428162 0.2903931140899658 0.1880299597978592 -0.0306430142372847 0.2856320738792419 -0.3407687246799469 -0.5817059278488159 -0.4491237998008728 -0.7059274315834045 0.6066716313362122 0.5825532078742981 0.3885980844497681 1.8500167131423950 1.2329586744308472 0.1937958747148514 -1.5969640016555786 -0.3127329349517822 -1.7034460306167603 -0.8779159784317017 0.7452885508537292 0.8398411273956299 1.0560123920440674 1.0273784399032593 1.4626650810241699 -0.2512688338756561 -0.1299666762351990 0.1539591848850250 1.1722756624221802 0.4777050018310547 -0.9742744565010071 0.5723012089729309 0.2160293310880661 -1.5125775337219238 0.4138000905513763 0.8959819674491882 -0.9937248826026917 -0.8645032048225403 1.1088742017745972 -1.9835985898971558 -0.2158702313899994 -0.0257108286023140 -0.7826435565948486 1.8707162141799927 0.4688787162303925 -0.3584593534469604 -0.1558769941329956 -0.6598403453826904 0.5890868306159973 0.4989757239818573 1.0521496534347534 -0.4856041967868805 -0.5558009743690491 0.3689155280590057 0.1362662315368652 -0.4834278821945190 -1.1666738986968994 1.6916366815567017 0.3928002715110779 0.4827342033386230 0.9542142748832703 0.4107539951801300 0.3718815743923187 1.0314224958419800 0.2044448554515839 0.4037822186946869 1.1862059831619263 -1.1399619579315186 -0.9969460368156433 0.2052107900381088 -0.9774590134620667 -0.5631237030029297 -0.4181818068027496 1.8230861425399780 -0.4260508418083191 -0.0894205719232559
1.2212014198303223 0.8624384403228760 1.0419518947601318 0.8463587760925293 -0.9923744201660156 -0.2912300825119019 0.1786564737558365 -1.0070612430572510 0.8119027614593506 -0.3617393970489502 -2.7503216266632080 -1.0598958730697632 -0.4587897360324860 0.7655015587806702 -0.9842535853385925 -1.0271825790405273 0.2787397205829620 0.3870568275451660 0.2745844721794128 -0.1031578332185745 0.4762496650218964 0.6690842509269714 -1.1449136734008789 -0.2956935465335846 -1.9526058435440063 0.1489218175411224 0.7073701620101929 -0.6804329752922058 -0.0831725075840950 0.2266774475574493 0.5195174217224121 1.2528544664382935 0.4029718041419983 -1.8714206218719482 -0.0967491790652275 0.9336673021316528 -0.0707275196909904 0.7645059227943420 0.0059492350555956 -0.0114381397143006 2.0504469871520996 0.6018421053886414 -1.7874001264572144 0.2820450663566589 0.7957493066787720 0.4902218580245972 1.3985149860382080 0.3216406404972076 0.8009788990020752 1.1862306594848633 -0.6438555121421814 1.1720464229583740 1.6700491905212402 -0.5371577143669128 0.9079656004905701 -0.8565085530281067 0.8812857270240784 1.7087177038192749 2.9215817451477051 0.1646763235330582 1.1650084257125854 -1.2412799596786499 0.2289129793643951 -0.4675476253032684 0.8111006617546082 0.4991597235202789 -0.0046788579784334 0.0130042880773544 -2.0188727378845215 0.9185694456100464 -0.3262587189674377 -0.9806093573570251 0.9967156052589417 1.2144117355346680 -1.4927880764007568 -0.3309567868709564 -0.8389653563499451 0.5647032856941223 1.2524046897888184 0.1265644133090973 -0.3501665890216827 0.1137223318219185 0.2395238280296326 0.5494306087493896 -1.2730343341827393 -0.6478586196899414 0.8827830553054810 -0.7425528168678284 -0.1513038873672485 -0.7811616659164429 0.1128817051649094 -2.3893706798553467 -0.1575200408697128 -1.5940998792648315 0.0060058929957449 1.4227125644683838 -0.6182028055191040 0.0326855219900608 0.3853528797626495 1.0430259704589844 0.2788836061954498 0.6888096332550049 0.2243255227804184 -1.0912132263183594 0.5295075178146362 0.8203216791152954 -1.2021565437316895 0.8742388486862183 -0.2747244536876678 -1.0071268081665039 -0.1841602772474289 -1.8145651817321777 -1.4686665534973145 0.0819175764918327 0.1387543082237244 -1.7098206281661987 0.5734252929687500 -0.1376781016588211 -1.1602349281311035 -0.2129361927509308 0.5976452231407166 -0.3684320449829102 -0.1963880807161331 0.7180673480033875 0.9296520352363586 0.5189841985702515 0.2085688263177872 1.5761133432388306
-1.2981463670730591 0.3012785017490387 0.4353155493736267 0.6540427803993225 0.9671726822853088 -0.7991698384284973 0.1831201761960983 0.3724301457405090 1.8482313156127930 -0.6972616910934448 2.3486359119415283 -0.7666583061218262 0.7608121037483215 -0.1959546059370041 0.0173268355429173 -0.7267962694168091 0.2485640496015549 0.9854317903518677 0.9673204421997070 -1.1295608282089233 -0.8335291147232056 0.8503327369689941 -0.0549331344664097 -1.3640486001968384 0.2346501797437668 0.3841612637042999 0.0863572880625725 -1.1821318864822388 -0.6767522692680359 -0.2198978960514069 0.3958478868007660 1.2886632680892944 -0.1694177091121674 -1.2259526252746582 0.7433497309684753 -0.5943906903266907 0.2393149882555008 0.7630901336669922 -1.4107817411422729 1.4782871007919312 -0.6453872919082642 0.5589123964309692 0.0358880050480366 0.3517151772975922 1.4184894561767578 -0.3262439072132111 -1.2906196117401123 -1.8138288259506226 0.6650342941284180 -0.8441579341888428 -2.1557719707489014 1.1571342945098877 0.4438737034797668 -0.2848789989948273 0.1675916463136673 0.3244724571704865 -1.2719953060150146 -0.8266572952270508 1.2587109804153442 0.6466373205184937 0.0716101899743080 -1.0527327060699463 -0.0652156248688698 -0.5509173274040222 0.6520676016807556 0.7203098535537720 0.6218802332878113 -0.7264783978462219 -0.6248243451118469 2.0036869049072266 -0.1016925796866417 0.0000460416194983 0.6799640655517578 -0.1653957217931747 1.2370790243148804 3.0243868827819824 -0.6676963567733765 -0.0804062485694885 1.0715520381927490 0.3868621289730072 1.8137481212615967 1.6259739398956299 -0.7696678042411804 -0.3586089015007019 -0.3138246834278107 0.0354471243917942 -0.7244163751602173 0.5345047116279602 -0.9705970883369446 -1.0372558832168579 2.7986845970153809 -0.2906058430671692 -0.2087167352437973 1.7083051204681396 0.5425025820732117 0.2764824032783508 0.4607029557228088 0.7409616112709045 1.3114439249038696 -1.2236909866333008 -1.0862784385681152 -0.4661582410335541 -0.6766728162765503 1.2753776311874390 0.1895134747028351 0.5161944031715393 0.9903625845909119 -0.3846586346626282 0.2199700176715851 3.0277442932128906 -0.4802855253219604 -0.8003914356231689 1.3331701755523682 -0.8099727034568787 -1.6000497341156006 0.4216827154159546 -1.1116440296173096 -2.1571950912475586 0.1116868779063225 -0.3288298547267914 -0.2349668741226196 1.3481587171554565 0.7814491987228394 -1.9973108768463135 -0.8748467564582825 0.0383231751620770 -0.4739221930503845 -0.9350939393043518
-2.6641178131103516 0.6413858532905579 0.3925180733203888 -0.1897953748703003 -0.9048017263412476 2.0706167221069336 -0.1404396444559097 0.0741112828254700 -1.8214793205261230 0.2093177884817123 -0.0767468959093094 0.2136169373989105 0.2816362679004669 0.2260906696319580 0.5857873558998108 -0.3009879291057587 0.4475289583206177 1.8115053176879883 -1.2717852592468262 -0.5840937495231628 -0.4617848396301270 0.3656150996685028 -0.2163444608449936 0.3563406169414520 -0.1782365739345551 -0.6379657387733459 0.3447740375995636 0.8811550736427307 0.2940256595611572 -0.4506280124187469 -0.5140688419342041 0.3214229345321655 2.1792163848876953 0.5299313068389893 0.4231345057487488 0.8222314715385437 0.4124746322631836 0.8178596496582031 1.0250121355056763 0.3137495815753937 1.5126987695693970 0.2199240177869797 -0.2608368098735809 2.2064592838287354 1.6550575494766235 0.3843733072280884 -1.3624744415283203 2.2472348213195801 0.6120569705963135 -1.1481064558029175 0.5300459861755371 -0.8426219820976257 -1.0230271816253662 2.4937422275543213 -0.3023217320442200 0.9845000505447388 0.3494231998920441 -0.7649844884872437 0.2919146418571472 -1.0579131841659546 -0.7979444265365601 0.5382238030433655 1.2088114023208618 -0.5655839443206787 1.0888311862945557 -1.1796106100082397 -1.1559089422225952 -0.6199213266372681 -1.0033121109008789 0.7557214498519897 1.6684538125991821 0.1055887117981911 1.1464887857437134 0.5087853670120239 1.6251462697982788 -0.0574747659265995 2.3835711479187012 -0.2904339134693146 1.0352164506912231 0.3209289014339447 1.9198745489120483 -0.7565153837203979 0.3468438088893890 -1.0206696987152100 1.1561853885650635 0.5536107420921326 0.2438015490770340 -0.1049663797020912 0.1328607797622681 0.2358569502830505 0.6523594260215759 -3.3478322029113770 1.6225042343139648 -0.6500549912452698 0.7855637073516846 0.1813022941350937 1.5609251260757446 1.0466459989547729 -0.2329493463039398 1.4871629476547241 -0.8467574715614319 1.6974545717239380 0.6641117930412292 1.4147143363952637 -0.2263979613780975 1.0334737300872803 1.5399408340454102 0.1194106638431549 -0.4090214669704437 -1.0584913492202759 -0.8645995259284973 0.3881103992462158 -0.1384954005479813 1.2659380435943604 -1.7405357360839844 -0.2964476943016052 2.8755347728729248 -0.9890558719635010 -0.9845379590988159 -0.1782275289297104 -0.4821930527687073 3.4895806312561035 0.2404045015573502 2.0781006813049316 1.4000265598297119 -2.0185749530792236 -2.6057484149932861 -1.8262934684753418
-1.1854174137115479 -1.2577462196350098 -0.3552107810974121 0.1462816745042801 1.2852463722229004 1.9208040237426758 0.0449727177619934 1.4103499650955200 -1.1260848045349121 1.0728361606597900 -1.1743813753128052 1.7238804101943970 -0.5341382026672363 -0.1595111340284348 -1.1753592491149902 2.7651019096374512 0.0586972609162331 0.9865896701812744 0.7336596846580505 0.0947016850113869 0.6408181786537170 0.6280203461647034 -0.7651798725128174 0.9899250864982605 1.1810089349746704 -0.2048958241939545 1.0545794963836670 0.4610264003276825 0.2605519890785217 -0.4003595709800720 -0.5490148067474365 -1.1053744554519653 0.7078908085823059 -1.3170883655548096 -0.7788237333297729 -1.6362168788909912 1.4000858068466187 -1.6201665401458740 0.1046597808599472 -1.3652316331863403 2.1318528652191162 1.9225012063980103 -0.4986571371555328 1.7920244932174683 0.9156708717346191 0.9657359719276428 -1.0666846036911011 -1.0310555696487427 -0.1895128041505814 1.5848422050476074 0.8101614713668823 -0.0053653493523598 -0.2179355174303055 -1.2777217626571655 -0.3150804340839386 -1.3358765840530396 -0.3251320123672485 0.2510865330696106 0.4279504716396332 1.2571012973785400 0.8882603049278259 -0.2544511854648590 2.4281563758850098 -0.9970094561576843 -2.6363823413848877 -0.8623718023300171 0.6367594003677368 -1.5162109136581421 -0.9573771953582764 -2.4203410148620605 1.0655857324600220 0.1966350525617599 0.2634143531322479 -0.7443228363990784 -0.0490522570908070 -1.0988407135009766 0.0018893266096711 0.9540468454360962 -0.3502790033817291 0.4004580080509186 -1.0531466007232666 0.6241162419319153 1.5385975837707520 0.9685574173927307 0.7920870780944824 -0.3732389211654663 -1.4741805791854858 0.3256132006645203 -0.5299752354621887 0.9291995763778687 -1.2389334440231323 2.8882572650909424 1.3671035766601562 0.1143429800868034 2.2091708183288574 2.3208098411560059 1.0902912616729736 0.3684626221656799 1.2636635303497314 1.9556883573532104 -1.4263496398925781 0.1923432946205139 -0.5125353932380676 0.9483079910278320 -0.3987549841403961 1.2311102151870728 0.4905153214931488 -0.1010573282837868 0.6715088486671448 0.9177747964859009 -1.1044839620590210 -0.7181986570358276 0.8465805053710938 1.0345791578292847 0.1533799767494202 0.8889416456222534 -2.0207109451293945 -0.5208755731582642 0.8626157045364380 0.5180794596672058 0.4758481681346893 0.8667840361595154 0.5762013792991638 -2.1160070896148682 -0.9498917460441589 1.7648432254791260 0.5990383625030518 -0.2478193640708923
1.5485996007919312 -0.9506372213363647 1.5109856128692627 0.9566432237625122 1.5689282417297363 -0.5655045509338379 -1.1794236898422241 1.0694218873977661 -0.7986454367637634 0.9086776971817017 -0.9483243227005005 0.1167014688253403 0.3102809190750122 1.0661339759826660 0.1645062267780304 0.7321072220802307 -1.6439502239227295 -0.1238113343715668 1.2596045732498169 0.7539222836494446 -0.3355024158954620 1.3985248804092407 0.2645224332809448 -0.1684222072362900 0.3770931959152222 -0.0028111473657191 0.5028226971626282 1.4093980789184570 -0.2380678057670593 0.6767950654029846 1.1617045402526855 2.1172077655792236 -0.0159213673323393 -0.0356296300888062 -1.9425776004791260 -0.1830682754516602 0.0156818535178900 0.2975307106971741 1.0015695095062256 1.6868609189987183 -2.9213442802429199 0.4670943915843964 -0.5816777944564819 1.8670524358749390 -0.9513372778892517 0.4627484977245331 -1.5695526599884033 -0.4874714314937592 -1.5689291954040527 0.8673414587974548 0.3045965731143951 0.7194247245788574 1.0521481037139893 -0.9473574161529541 1.9927440881729126 -0.5956437587738037 -0.9393861889839172 0.2458936721086502 0.0407729595899582 1.3603765964508057 1.1585813760757446 -0.9605923295021057 -0.0444891192018986 -0.8991233110427856 0.4556265175342560 1.4348893165588379 0.0745765864849091 -0.7351397871971130 -0.5606390833854675 0.5411527752876282 0.9484075903892517 0.5771417617797852 -1.6479752063751221 -0.7957889437675476 -1.7101482152938843 -0.0598769374191761 -0.2278769612312317 -2.5016300678253174 0.1407143771648407 -1.1000590324401855 -0.2625537216663361 1.1619447469711304 -2.2132287025451660 0.6332486271858215 0.5376583337783813 -0.0831343010067940 0.6993360519409180 1.0902704000473022 -0.5453616380691528 1.4585156440734863 -0.3041582703590393 -1.1561164855957031 -0.0487402789294720 0.2013216167688370 1.4493888616561890 2.1908905506134033 -0.6702972650527954 1.5011302232742310 -0.9601361751556396 -0.3386144042015076 -0.2128849774599075 1.2791736125946045 -0.0074018398299813 0.1456742286682129 -0.7548832893371582 0.4404400587081909 -1.1596138477325439 1.1013290882110596 -0.4049497544765472 -1.4591473340988159 -1.1469553709030151 -0.3969153761863708 -0.7884349822998047 -0.8453732728958130 0.1059731319546700 -0.5226029753684998 0.2649475932121277 0.0445102825760841 -0.4809401035308838 -0.1315722167491913 -1.7703865766525269 1.5493353605270386 -0.2624930739402771 -1.6072022914886475 -0.0678917393088341 -2.3282606601715088 -0.2545750439167023 0.1138360425829887
0.8136888742446899 -1.2104818820953369 -0.7693402767181396 1.2923970222473145 -0.6629043221473694 -0.2660838663578033 1.3463963270187378 0.0033457481767982 -1.1467590332031250 0.5261247754096985 -0.9667054414749146 0.5978161096572876 0.3964039683341980 1.4667242765426636 -1.9265840053558350 0.5700408816337585 -0.1862309426069260 0.8028472661972046 1.0934847593307495 0.8958286643028259 -0.9627466797828674 -1.5192934274673462 -0.6532278656959534 0.0130290351808071 -1.0588629245758057 -0.2134761363267899 0.3453925848007202 -1.2130784988403320 -0.3177192211151123 0.3928001224994659 0.6725751757621765 0.5116153359413147 -1.0045343637466431 -0.5456919670104980 0.0604986250400543 0.9713208079338074 0.6522963643074036 1.6689101457595825 -0.9325032830238342 0.8328353762626648 0.6467182040214539 0.5730717182159424 -0.7912091612815857 -0.3572669625282288 -0.8128633499145508 -0.3778747618198395 -0.7500015497207642 1.5778867006301880 0.4242986738681793 0.1967214792966843 0.1567185819149017 0.3497363924980164 -0.3144066929817200 -1.1264058351516724 -0.7338009476661682 -0.8845069408416748 -0.8346234560012817 0.1415784209966660 0.3345837295055389 0.7898797988891602 -0.6756981015205383 -1.0458698272705078 0.0928644984960556 -1.5619659423828125 1.0991597175598145 1.9059184789657593 -0.1806780844926834 0.3771469891071320 0.4501416385173798 0.1732457578182220 -0.3639870882034302 -0.1692150235176086 -2.3781454563140869 0.6023215055465698 1.6870419979095459 0.5555574893951416 0.5253617763519287 0.0826413705945015 -0.2241216450929642 0.2970863282680511 -0.2410420030355453 -1.2568609714508057 1.2739769220352173 0.1115108728408813 1.3887894153594971 0.7113547325134277 0.3123804330825806 -2.6363131999969482 0.5966038107872009 -1.2306220531463623 2.4490811824798584 0.3186263442039490 -1.3654900789260864 -1.7221580743789673 1.0698826313018799 2.7273061275482178 -0.6163285970687866 -0.3317586779594421 0.7716900110244751 -0.2380913197994232 0.8275116682052612 0.5188475251197815 -0.5596497654914856 -0.1747334152460098 0.6277723312377930 0.7887187004089355 -0.9620314240455627 1.7552632093429565 -1.2234309911727905 -1.1174470186233521 1.0091207027435303 -0.2175046205520630 0.2009713053703308 -1.0895388126373291 -0.6621980667114258 0.0024825958535075 -1.1645531654357910 -1.2293683290481567 1.4298818111419678 -0.5802630782127380 1.4098186492919922 1.2228972911834717 -0.9719002246856689 1.7090669870376587 1.0292847156524658 1.0367449522018433 1.0662083625793457 0.9331538081169128
-0.2234639823436737 -0.0602270178496838 -1.2379406690597534 -0.4521134495735168 -0.5065521001815796 1.6511220932006836 0.6117213368415833 0.3223260045051575 -0.3561407625675201 0.9569487571716309 0.2003405839204788 0.0386462770402431 0.4842266142368317 1.9384280443191528 0.7963896989822388 0.0701567903161049 -0.7789077162742615 1.5708184242248535 -1.3411574363708496 -0.1411781758069992 0.3508451879024506 0.3015594184398651 1.3149919509887695 -0.5326792001724243 0.2179440110921860 1.8550169467926025 0.1981022953987122 0.1546663343906403 0.1576029807329178 -0.0022477991878986 0.8630914092063904 0.8503971695899963 -0.1206601187586784 0.6033273339271545 1.0279560089111328 -0.5112583637237549 -1.5332301855087280 2.6258330345153809 -0.0779380500316620 -0.9010483026504517 -0.6388430595397949 1.3938932418823242 -0.9456782937049866 -0.5219203233718872 -0.8593898415565491 -1.0322911739349365 0.1862491220235825 -0.0738228037953377 0.5249533057212830 -0.9634214639663696 0.5007839202880859 1.1655544042587280 1.2668812274932861 -0.4219463765621185 -0.0134734278544784 -0.3624995052814484 2.3796172142028809 1.1178877353668213 -0.6833706498146057 0.0577409565448761 0.8157445192337036 1.0328637361526489 1.0304739475250244 -0.4509721398353577 -1.9143428802490234 1.7069267034530640 -0.0756514146924019 -0.5109068155288696 -0.5258320569992065 0.0726968720555305 -0.1677159368991852 0.1481470316648483 0.1752529591321945 0.4860663414001465 0.2718693017959595 0.1603997945785522 -0.6954878568649292 -0.7023515105247498 -0.6408719420433044 -1.2244464159011841 0.6534539461135864 1.4051718711853027 -0.7584691643714905 1.0235332250595093 1.3692319393157959 -0.0206235758960247 -0.4407639205455780 -0.8161119222640991 1.3631410598754883 0.7226894497871399 0.4575404822826385 0.4263751506805420 -0.2713504433631897 -1.6719981431961060 -1.6652159690856934 -0.2205093055963516 0.4913604557514191 -0.5867514610290527 0.8541990518569946 0.6174389123916626 -0.2147322893142700 0.0568208992481232 0.9617642760276794 1.8827425241470337 -0.3570839464664459 -1.0487992763519287 -0.4153100550174713 -1.2377094030380249 -0.3178687989711761 -0.0600980855524540 -1.5403695106506348 1.3111350536346436 -1.9275523424148560 2.5001714229583740 1.1928944587707520 1.7829118967056274 -0.4681970775127411 -0.8985351324081421 0.3297641575336456 1.0467183589935303 -1.4874124526977539 1.1020441055297852 0.3961564004421234 -0.0344910658895969 1.2921805381774902 -0.4097137749195099 0.4531835019588470 0.1904834806919098
0.3316588401794434 2.3077201843261719 0.6663465499877930 -1.1852539777755737 0.4157037436962128 -0.6324066519737244 0.1532851010560989 0.9557349085807800 0.9097940921783447 0.1273176521062851 -0.1354989260435104 1.2244890928268433 0.7273318767547607 1.1175887584686279 -2.4247937202453613 0.7982059717178345 0.7879248261451721 0.3260520398616791 0.8688202500343323 0.9606809616088867 -0.1884401291608810 -0.9147982597351074 1.9792464971542358 -0.7182070016860962 0.9230782985687256 -1.0226693153381348 -0.0576451607048512 -0.4405827522277832 -0.0933300629258156 -1.0848489999771118 1.0325524806976318 -0.9053689837455750 0.3864856958389282 -0.0916314050555229 -0.5960231423377991 0.1733074933290482 0.8730303049087524 -0.5665345191955566 0.9408826828002930 1.2923877239227295 1.3917343616485596 -1.8340055942535400 -0.4347139596939087 -0.0619847737252712 0.1624138206243515 1.1598854064941406 2.4986181259155273 -0.0676929652690887 -0.4154081344604492 0.3067110776901245 1.1547613143920898 1.6452805995941162 -1.1627609729766846 -1.1672114133834839 0.7902977466583252 0.1401106715202332 0.3462354540824890 -0.3312192559242249 -1.6519161462783813 -0.9378494024276733 1.1445503234863281 -0.5153968334197998 0.7743724584579468 -1.0574826002120972 0.9407343864440918 -0.3083201646804810 0.3348716497421265 -0.5054002404212952 -0.8548647761344910 2.1855127811431885 -0.7670273184776306 -0.5731457471847534 1.0066893100738525 2.0104594230651855 0.7292274832725525 -0.3887429237365723 -0.9754642248153687 -0.7576101422309875 0.6057277917861938 0.2299208492040634 -0.8844782710075378 -1.1610710620880127 -0.5654821395874023 -0.4649986028671265 -2.6481397151947021 -0.8210195302963257 0.0603236034512520 -0.0743630453944206 1.6038309335708618 0.3637892901897430 0.4563308954238892 1.0926188230514526 -0.5676969289779663 1.1624401807785034 -0.9916594028472900 -0.8310801982879639 0.2253722548484802 0.1849493086338043 -0.4201188087463379 -0.1278057396411896 0.1076308861374855 0.3455151021480560 -0.2844313979148865 -0.0944681838154793 0.7588043808937073 0.1989261656999588 0.5583651065826416 -0.7020593881607056 0.4600167274475098 -0.1814583539962769 1.8015856742858887 0.4100446999073029 -1.5048867464065552 1.0316034555435181 -0.2161523252725601 0.6662108898162842 1.2624099254608154 0.2829355597496033 -0.3710897862911224 -1.1625607013702393 0.2234455198049545 1.0726982355117798 -0.2735384702682495 0.3610830903053284 0.2818699777126312 -0.4967759549617767 0.2006964236497879 -0.3446400761604309
-1.3987684249877930 0.5825685858726501 -0.1928639411926270 -0.3790606558322906 -0.4371649920940399 0.5240754485130310 2.7264618873596191 -0.6261491179466248 -1.5122386217117310 -0.9574539065361023 0.1327844411134720 -0.9296276569366455 -0.6249521374702454 0.5218239426612854 -1.4944908618927002 -0.4949389100074768 1.1322576999664307 0.0766231715679169 -0.6482698917388916 1.1794551610946655 0.6803335547447205 0.4650207459926605 0.2681364417076111 0.3503304421901703 1.7941955327987671 -1.2657021284103394 -1.4735898971557617 -2.2311205863952637 0.4367975294589996 0.6134421825408936 -0.3140032589435577 1.1400913000106812 0.3991407752037048 -2.0707752704620361 0.4225766658782959 0.6824533343315125 1.3624452352523804 0.0036328996066004 0.1232664510607719 -0.7084020376205444 0.2545779347419739 0.6911130547523499 -0.3448783159255981 0.8148519396781921 -0.9657127857208252 1.1724283695220947 0.3896060883998871 1.2478559017181396 -0.5304944515228271 0.5151485800743103 -1.3748636245727539 -0.0869128406047821 0.1387908607721329 0.5999249815940857 0.7571910023689270 -0.3784518539905548 -1.4793612957000732 -0.0635168850421906 -1.0790441036224365 -0.8597258329391479 0.6697655320167542 0.5964674353599548 -0.3216372728347778 -3.2820768356323242 -1.8518863916397095 -0.2283100783824921 1.1720681190490723 0.4934854507446289 1.8302351236343384 -1.2320871353149414 -0.5762346982955933 0.3872513175010681 -0.3057931959629059 -0.5571123957633972 -0.5914045572280884 0.4189157783985138 1.1560363769531250 0.5322612524032593 0.4546277225017548 -0.6396834254264832 -1.3983885049819946 0.5878648161888123 -1.0036807060241699 0.6638470888137817 0.0545406118035316 -0.8317995071411133 0.9399222135543823 0.1150737255811691 -0.6069406867027283 -0.4593389630317688 -0.6789371967315674 -0.9732934236526489 -0.7145876288414001 -0.5161283612251282 0.5215639472007751 -0.4220745861530304 0.6859033703804016 -0.6919310092926025 0.2126646488904953 -0.7459270954132080 -0.1284740716218948 -1.1111683845520020 -0.4476954042911530 -0.7717996239662170 -0.4082199335098267 0.1534895300865173 -2.4973886013031006 -1.0147593021392822 1.5285675525665283 0.0278735570609570 -1.7136102914810181 0.6451305747032166 -1.1806410551071167 0.8196253776550293 0.8389261364936829 0.0628901422023773 2.8594958782196045 -0.3960734903812408 0.0113331992179155 -0.0730895102024078 1.3959543704986572 0.6003322005271912 0.6389850378036499 1.0162035226821899 0.5496803522109985 -1.0314692258834839 -0.0543014183640480 -0.1288533210754395
0.5231086015701294 0.8992931842803955 0.7679949402809143 1.2626988887786865 1.3926334381103516 -1.4217692613601685 -0.0267328489571810 -0.4171781837940216 -1.5837936401367188 0.7993193864822388 1.2800433635711670 2.3351318836212158 -0.9614999294281006 -0.2437207251787186 1.1917843818664551 -2.0162730216979980 1.2080442905426025 -0.2567278444766998 0.4654259681701660 -0.7012600898742676 0.1485601216554642 -0.2532776594161987 2.0923247337341309 -0.6519147157669067 -1.2506817579269409 -0.2200368046760559 0.9305129647254944 -1.2458478212356567 0.3086803555488586 0.6901989579200745 -2.9832153320312500 -0.7987160682678223 -0.2291100174188614 -0.7893600463867188 -0.0579576231539249 0.3234887123107910 1.0359294414520264 -0.0116318892687559 0.3304692208766937 1.3078165054321289 1.5883363485336304 -0.1704344600439072 -0.3335076868534088 -0.7571251988410950 0.3536521494388580 0.2558538913726807 0.4686910808086395 0.4442324638366699 1.1111224889755249 0.6968981623649597 -1.8595694303512573 -0.4033998548984528 1.0803196430206299 -4.2710027694702148 -0.0267696902155876 0.6334288120269775 0.4724879264831543 -0.4715341925621033 -0.0369661822915077 0.7644047141075134 0.0807677060365677 -0.3764847815036774 -2.0386538505554199 0.2155999392271042 0.4874168336391449 0.1870501190423965 -0.6300217509269714 -0.7662039995193481 0.1175666525959969 -0.9806066751480103 2.0676364898681641 -0.5736789107322693 0.6817279458045959 -1.7595671415328979 -0.5062905550003052 0.8508980274200439 -1.2615159749984741 -0.7031878232955933 0.8053660392761230 -0.2201998233795166 -0.4556121826171875 -1.2099620103836060 -1.5766587257385254 -0.5534687042236328 0.8536423444747925 -0.1192173361778259 0.7018696069717407 -2.3593313694000244 0.1270359605550766 1.5471827983856201 0.9281627535820007 1.8566508293151855 -0.9068100452423096 -0.4136652946472168 -1.0366551876068115 -0.7507881522178650 -0.5003625154495239 -0.7747088074684143 0.5847098827362061 0.3653371334075928 0.0021567335352302 2.1002583503723145 -0.1498554795980453 0.5491740107536316 1.0971553325653076 1.0007283687591553 -0.5089710950851440 -1.3655761480331421 -1.5493619441986084 -0.1186557933688164 0.3144565820693970 -0.4196782112121582 -0.5906751155853271 -0.0222971197217703 0.6400727033615112 -0.1644118279218674 0.0185303092002869 -0.4475865960121155 0.0643856003880501 0.7200015783309937 -0.2882102131843567 -1.5203685760498047 0.2265451103448868 -0.2207585871219635 0.6030860543251038 -0.3478675186634064 -0.2086810916662216 0.6964800357818604
-0.0544141530990601 1.1689641475677490 0.4320997297763824 -0.3020417094230652 0.1065077111124992 0.9140011668205261 1.2668176889419556 -0.4602916240692139 -0.9247148036956787 0.4115696847438812 0.7264546155929565 0.0292742568999529 -0.1268845647573471 0.9025736451148987 0.5641430616378784 -0.3957101702690125 -0.1666816473007202 1.1029829978942871 -0.3754343390464783 -0.2379065454006195 0.3819262385368347 0.4280615448951721 -1.5151962041854858 1.0314414501190186 -0.9932085871696472 -0.6563847064971924 1.0901552438735962 0.5395237803459167 0.5236376523971558 -1.4093227386474609 0.8553392887115479 0.9924666881561279 -2.0727608203887939 0.4187149405479431 0.8718251585960388 -1.2105644941329956 1.5661388635635376 0.6208460927009583 -0.9327999353408813 -1.2194966077804565 -0.4777970910072327 0.2350029498338699 0.7161049842834473 0.0625699907541275 -1.4364452362060547 -0.2395729273557663 -0.1759451180696487 1.0720872879028320 -0.7386233806610107 -0.8950912952423096 -0.2748979330062866 -1.9547357559204102 1.3942261934280396 1.4871513843536377 -1.5487158298492432 -0.5092953443527222 -0.4081791937351227 0.0479735285043716 -0.5662396550178528 -0.5626306533813477 0.2825655341148376 -0.1527637541294098 -0.9056357741355896 -0.6080039143562317 0.6654403805732727 -0.3973441421985626 -2.5525956153869629 0.8428099155426025 0.0058898730203509 -0.5540148019790649 0.6775034666061401 0.8715207576751709 0.9689998030662537 -0.3110526204109192 0.8670357465744019 -0.6281116008758545 0.5663967728614807 0.2790621817111969 0.3622041940689087 2.1448156833648682 -0.9444344043731689 0.0065978821367025 -0.8002508878707886 0.0720391795039177 -0.9111423492431641 -0.0452528186142445 -1.0143167972564697 1.6098618507385254 0.6545777320861816 1.7479597330093384 0.2411837428808212 0.6464129686355591 -0.0766990035772324 -0.4945842027664185 1.5390999317169189 -0.1427798718214035 -0.9162402153015137 1.1776125431060791 -0.2832497954368591 1.2143342494964600 1.2035422325134277 0.3161586523056030 -0.2710284292697906 -0.6347121596336365 -0.2683592438697815 -1.0769722461700439 0.1180170476436615 0.4716486334800720 1.1899476051330566 -0.0315471328794956 -0.8370383381843567 0.2517540454864502 0.8638757467269897 -0.3485903143882751 0.7593712806701660 -0.5691405534744263 -0.1983614563941956 -1.1772397756576538 -2.6623396873474121 -0.5705348849296570 1.0681340694427490 -0.3708254396915436 0.7723537683486938 0.2632414400577545 -0.7385178804397583 -0.0164325144141912 -0.0504326820373535 0.6476180553436279
-0.9691714644432068 0.0740005671977997 -1.2553188800811768 0.9200882911682129 0.6995882987976074 0.1968213319778442 0.1624764800071716 -0.4704907238483429 1.3931056261062622 0.5273380279541016 -0.0171393323689699 -1.0444729328155518 -0.4371553659439087 -2.1445376873016357 1.1029636859893799 -0.8174352049827576 -0.8427948951721191 0.7723008394241333 -1.0885400772094727 -0.4762141704559326 1.1458963155746460 0.6214114427566528 0.2962206006050110 1.4412569999694824 0.3352190852165222 -0.6384290456771851 1.4430496692657471 -0.2115241438150406 0.4780080914497375 -1.3734568357467651 -1.9624607563018799 -0.6258311867713928 0.0317967124283314 -0.6299159526824951 1.1560671329498291 0.7689275741577148 -0.7981048822402954 0.3531979322433472 -1.3000711202621460 0.2146406620740891 2.4125347137451172 -0.1525877118110657 -1.6136357784271240 -0.1806141436100006 -0.5999010205268860 -1.6661653518676758 1.8985139131546021 0.5185478925704956 -1.1707946062088013 -0.9275655746459961 1.1690021753311157 -0.1642065793275833 0.9955061674118042 -0.8190851211547852 0.4473570883274078 -0.7179054617881775 -1.4693266153335571 0.4197150170803070 1.4251589775085449 -1.6047824621200562 -0.7066463828086853 -0.2647854685783386 0.4061670601367950 1.0042397975921631 1.1908371448516846 -2.7538790702819824 0.9184748530387878 -0.7656054496765137 -0.0237726252526045 -0.1264925599098206 0.0602994859218597 0.4725200235843658 -0.3471405208110809 -1.0763838291168213 -0.0833967626094818 -1.0510163307189941 0.9074760675430298 -0.7195939421653748 0.1764058768749237 0.1725159138441086 -0.1834584772586823 0.5593767762184143 0.0874868333339691 -1.8024703264236450 -0.8984311223030090 2.5530438423156738 0.5764310359954834 -0.0152707677334547 0.0985683277249336 -0.7009748220443726 -0.8489934206008911 1.4656488895416260 2.4125721454620361 -0.7192996144294739 1.0318796634674072 -0.0893120169639587 0.6489900946617126 0.2101925015449524 -0.6425601840019226 0.2652683556079865 -0.7253245711326599 0.2342620939016342 -1.8193744421005249 0.7807383537292480 1.6316270828247070 2.5958418846130371 -0.2560740113258362 -0.0203337632119656 -1.1719478368759155 -0.4040478765964508 1.4820525646209717 -0.4473435282707214 1.2512493133544922 -0.1824347376823425 1.3858042955398560 0.8697682023048401 -0.2406794428825378 0.0303122401237488 -0.3728061616420746 -1.2258076667785645 0.7742817401885986 0.0624770410358906 -0.8784930706024170 -1.4584500789642334 0.0226582102477551 0.2800909280776978 0.4239368140697479 -0.3426918983459473
0.3130268454551697 1.1892783641815186 0.8111894726753235 0.9997450113296509 1.0182292461395264 -1.5579547882080078 0.5402613282203674 -0.3995656371116638 -0.8701499104499817 -1.4659330844879150 0.5454453825950623 2.1236469745635986 -0.4709250032901764 3.0472595691680908 0.9951204657554626 -0.5039169788360596 -2.1221022605895996 1.0760852098464966 -0.1256373673677444 -0.6899517774581909 0.1896788030862808 -0.6717315316200256 -0.6911538839340210 0.1495448052883148 0.0180313326418400 -0.8232383728027344 -0.0843297243118286 -0.6650987267494202 1.2561895847320557 -1.0090528726577759 -0.5111352205276489 1.7308896780014038 -0.4176501631736755 -0.9967305064201355 -0.4716381728649139 -0.4719302058219910 -0.3803384900093079 -1.1224668025970459 -0.5403712987899780 -0.3272650241851807 1.1340286731719971 0.7159874439239502 0.3709079325199127 0.3566739857196808 -0.1436065733432770 1.3261831998825073 -1.2501419782638550 1.2430503368377686 0.1190239489078522 -0.5609919428825378 -0.0059804948978126 0.7195707559585571 0.8722233772277832 -0.7608788609504700 0.3654609918594360 0.1143356189131737 0.3092129528522491 -0.9213642477989197 -0.5259701609611511 0.5412225127220154 0.9816088080406189 -1.8403902053833008 1.6624490022659302 -0.0314933583140373 -1.3660119771957397 -0.7571525573730469 0.2776579260826111 -1.6637774705886841 0.9165346622467041 1.8076174259185791 0.2891136109828949 -1.4142674207687378 0.2633785009384155 -0.6856162548065186 -1.6474184989929199 0.4961502552032471 0.3479122817516327 -0.2053230255842209 0.0041027767583728 1.4113811254501343 0.3399736881256104 1.1989809274673462 0.1839395910501480 -0.5997537970542908 0.2292853295803070 -0.5552883744239807 0.5052919387817383 1.1266279220581055 -0.2061810791492462 1.3017928600311279 0.5175208449363708 -0.8044970035552979 -0.7262075543403625 -2.2741925716400146 -0.3158332407474518 -1.0802392959594727 0.3250782489776611 2.4664216041564941 -0.2029595226049423 1.0164779424667358 -0.3199403882026672 -0.1531693190336227 -0.4842848181724548 -0.6279735565185547 0.6769356131553650 1.6676709651947021 -0.3812657296657562 0.8525279760360718 0.5658336281776428 -0.1161011382937431 2.4545283317565918 -0.6425977945327759 1.3144290447235107 -0.9060981273651123 0.4620119929313660 1.0350883007049561 0.0663128271698952 0.4784092307090759 1.2199770212173462 0.7781400084495544 -0.5471849441528320 1.8142435550689697 -0.5388056635856628 -1.0118634700775146 -0.1720103025436401 0.2750928997993469 0.7998449802398682 0.7045328617095947
0.1762142926454544 0.3778923153877258 -0.7509476542472839 -1.7038700580596924 -0.5018870830535889 -0.2213425487279892 -0.2328966856002808 1.1301141977310181 0.2094371318817139 1.0111203193664551 -0.6087371706962585 -0.4776967167854309 0.4656741619110107 0.7809048891067505 0.2477248311042786 -1.3414527177810669 1.4083234071731567 -0.6080722212791443 -0.9843132495880127 -0.3295094966888428 0.8695816397666931 -2.7644348144531250 0.6065327525138855 -1.2751748561859131 -0.1188892275094986 -1.1828265190124512 -1.5785303115844727 -0.3305267989635468 1.6226941347122192 0.1708789169788361 0.4077349901199341 0.1930935382843018 0.2986387908458710 1.6603056192398071 -1.0937297344207764 -2.1780173778533936 0.5517746806144714 1.3948746919631958 -0.0799697041511536 0.3223294019699097 2.2250685691833496 1.5845504999160767 0.0841425955295563 0.6869767308235168 -0.8027882575988770 0.3677660226821899 -0.0786600112915039 0.6724300980567932 0.4925017654895782 0.3818546235561371 1.4111574888229370 -0.5910430550575256 -0.9616712927818298 -0.0740639567375183 -1.5006513595581055 -0.1128859743475914 1.0433053970336914 0.3955834805965424 0.3255482614040375 0.3947580158710480 -1.0134345293045044 -0.3366979062557220 -1.1447812318801880 1.2894490957260132 1.2276595830917358 1.1507604122161865 1.7168099880218506 -0.0948529765009880 0.9810397624969482 0.7859150171279907 0.1237680241465569 -0.3773110806941986 2.4594080448150635 -1.1907813549041748 1.1673120260238647 0.1092210784554482 0.5343015193939209 -0.8413944244384766 1.2517403364181519 -0.2566536366939545 -0.3768480420112610 1.3549287319183350 0.8527533411979675 0.5970850586891174 0.1005748957395554 -1.0604095458984375 0.6324176192283630 -0.2138436734676361 -0.1511574387550354 1.9469119310379028 0.5803358554840088 0.3461746871471405 -1.0096373558044434 -1.0016256570816040 -0.8136430978775024 1.3375157117843628 0.3193267881870270 0.0519312024116516 -0.0760867595672607 -0.3311444222927094 0.2391865402460098 -0.9206867218017578 -0.3493161201477051 -0.1324461400508881 -0.7148754596710205 0.8145595192909241 -2.7441830635070801 -0.1788730919361115 0.1933961063623428 -0.4249999821186066 1.5652670860290527 -0.1842711418867111 -1.5272732973098755 -0.9794175028800964 -2.2910490036010742 0.2695800960063934 -0.7957716584205627 -1.2155784368515015 -0.2067224979400635 -1.0158764123916626 -0.4816956222057343 0.4594320356845856 0.2974405586719513 -0.3090407848358154 0.8025882840156555 -0.5647318959236145 -0.6441243290901184 0.5820826292037964
-0.5507746934890747 -1.0972834825515747 1.9868308305740356 1.2060811519622803 0.0524537190794945 -0.9682136178016663 -0.1311090439558029 1.6925574541091919 2.0788002014160156 -0.4557142555713654 -0.6566122770309448 1.1098695993423462 -0.2302505522966385 -0.1625909060239792 2.6642932891845703 1.8864005804061890 -1.7522155046463013 0.4642883837223053 -0.0269996486604214 1.2679193019866943 2.0701913833618164 -0.9035376310348511 -1.1534689664840698 2.0872211456298828 -1.6142410039901733 -1.4732038974761963 1.8623212575912476 -1.7051743268966675 1.5812511444091797 -2.3504550457000732 0.1419108211994171 0.8172506093978882 -0.1169119924306870 -0.0654025748372078 -0.4197410941123962 0.8322526216506958 -0.5099760293960571 0.6318199038505554 0.4805773198604584 0.1854018718004227 1.7915395498275757 1.1392164230346680 0.8394657373428345 -1.1215685606002808 0.1458064019680023 -1.2152628898620605 0.8760594129562378 0.3319902122020721 1.3721336126327515 0.2963788509368896 1.9288809299468994 -0.0453884564340115 1.2073615789413452 0.2968634665012360 -0.4571152329444885 -0.1012416705489159 0.0553260371088982 -1.4330844879150391 -0.9312252402305603 -1.7464864253997803 -1.0901620388031006 0.9861997365951538 0.5381383895874023 -2.0171976089477539 -1.7865598201751709 -0.4211685359477997 -0.4398584961891174 0.7604979276657104 0.8916603326797485 0.5562579631805420 0.3862785398960114 -1.0653090476989746 -1.1355205774307251 0.6986202597618103 -1.6007844209671021 -0.1591532230377197 1.3835930824279785 0.5740904808044434 -0.9130942821502686 0.2439547926187515 1.7699301242828369 0.3307788074016571 -1.1921210289001465 -0.3221378028392792 0.2477609813213348 -0.0016896338202059 0.6496042013168335 -1.2084444761276245 -0.1275997310876846 -1.0792728662490845 -1.0662713050842285 1.7574377059936523 -0.3109603524208069 -1.9606999158859253 -0.0352967306971550 -1.3695516586303711 0.0538484938442707 -0.4715360701084137 0.6492814421653748 0.9385451674461365 0.5207546353340149 0.9018101096153259 0.1151417568325996 1.8518260717391968 -0.2771307826042175 0.5779832005500793 -2.0341916084289551 0.7414755821228027 -0.0153833702206612 -0.9009950757026672 0.1492286622524261 -1.7962173223495483 -1.0171062946319580 0.5825718045234680 -2.1645710468292236 -0.3528801798820496 0.6038258671760559 0.2694858908653259 -2.0902345180511475 1.0269701480865479 2.5659728050231934 0.1493147164583206 -1.1928873062133789 0.8055887818336487 -0.4985551536083221 0.5798369646072388 1.8780825138092041 0.8846349120140076
0.6412452459335327 -0.3817713856697083 0.3208486437797546 -0.6684561967849731 0.2808054983615875 -0.3652557134628296 0.9323826432228088 -0.0577660873532295 1.2837536334991455 -0.3843729496002197 -0.0219486113637686 -0.0894548445940018 -0.8574606776237488 -0.3361806869506836 0.0567318648099899 0.7210577726364136 0.5606626868247986 -1.0647175312042236 0.5567147135734558 2.3658049106597900 -0.2819329500198364 0.4659869968891144 0.6607058048248291 0.8476037979125977 -0.5703830718994141 2.0439765453338623 0.8382297754287720 -0.0839971899986267 -0.6758095622062683 0.1522284597158432 -2.3470773696899414 2.5629179477691650 -0.2038178741931915 -0.0221312269568443 -0.0626778379082680 -1.4392658472061157 0.8212620615959167 -0.6581827998161316 -0.0918536782264709 -0.1856150478124619 -0.3562238216400146 0.6741081476211548 -0.0505506470799446 -0.5166507363319397 0.5703039169311523 0.5526701211929321 2.2151389122009277 -0.0790845155715942 0.2527221143245697 1.2220599651336670 -0.1346153318881989 -0.8250354528427124 -0.7078427076339722 -0.3078727722167969 0.3571377992630005 -0.1139677315950394 0.3065827488899231 1.0603904724121094 0.0369203239679337 0.3057197332382202 -0.8017017245292664 1.0319021940231323 1.5775247812271118 -0.1943280547857285 1.9688459634780884 0.2207079976797104 0.0641025900840759 0.4337976276874542 -0.1753879785537720 0.3187730312347412 -1.5067802667617798 0.0900715067982674 0.6803663969039917 0.3214403092861176 -1.1958701610565186 0.7697921395301819 -0.7707293033599854 -0.4484825432300568 0.4923061430454254 0.0082394219934940 0.0068248244933784 -0.7921102643013000 -0.7574969530105591 1.5611217021942139 -0.8453228473663330 1.4641448259353638 -1.0999969244003296 0.0814076885581017 -0.1989621222019196 -0.0940112099051476 0.4144510924816132 -1.1122012138366699 0.2088501751422882 -0.8968131542205811 0.6724689602851868 0.3230076730251312 -1.4116071462631226 -1.0706021785736084 -0.6239149570465088 -0.2779065072536469 0.5627748370170593 -0.9079498052597046 -0.6040701866149902 -0.4854480624198914 0.7281002998352051 -1.1906696557998657 -1.3238041400909424 0.6912595033645630 -0.6482408642768860 -0.6068228483200073 0.2729881107807159 -1.1288532018661499 -1.9645749330520630 0.2941609621047974 -0.9787822961807251 1.5476869344711304 0.8568149805068970 -0.3481728136539459 -0.2153009027242661 -1.2264422178268433 1.2830828428268433 -0.2657209634780884 0.3499792516231537 0.6405974626541138 0.0319802388548851 -0.5088491439819336 -0.3978440463542938 -0.9919582605361938
0.1477484852075577 -1.7992644309997559 0.3346101641654968 0.0655034631490707 0.2901211082935333 -0.5568206310272217 -0.7838903665542603 0.3422017097473145 0.1868616491556168 -0.5132147669792175 -0.2194169610738754 0.4196705520153046 0.0242781993001699 -0.6513032913208008 0.3539735078811646 0.3874549269676208 -0.3114363253116608 0.7686007618904114 2.0525801181793213 -0.0213766470551491 -0.1574160903692245 0.3766672015190125 -1.4132484197616577 0.9029894471168518 2.3594009876251221 -0.2540321052074432 0.0804962217807770 -1.4787287712097168 -1.3043838739395142 0.7186596393585205 -0.7747833728790283 -0.7253774404525757 0.1848711669445038 0.2011925727128983 0.7850376963615417 -0.1098280027508736 -0.4213790297508240 0.8749960660934448 -0.0562870688736439 0.0162639580667019 0.6991860270500183 0.3459713757038116 -1.0551789999008179 -0.4563993215560913 0.4387768208980560 0.3513307273387909 1.2995487451553345 -0.5597471594810486 -0.4796373248100281 -0.0844145789742470 -1.8638672828674316 -1.0889437198638916 0.6539244055747986 1.0400811433792114 0.4877754747867584 0.9531615376472473 0.8970795869827271 -0.8551148772239685 -0.6755672693252563 1.9779214859008789 0.5443743467330933 -0.2539722621440887 -1.3838669061660767 1.3236597776412964 0.0134563157334924 0.1374659091234207 -1.1395699977874756 -1.1892038583755493 1.5895305871963501 -0.4108511507511139 0.7507838010787964 2.8362946510314941 -1.3635542392730713 -1.1208035945892334 -1.4825384616851807 -0.1232949271798134 0.4669044613838196 -0.9726936221122742 0.4563353359699249 0.5042698383331299 -0.3348915278911591 -1.0382319688796997 0.8115367293357849 0.2633337378501892 0.7594976425170898 0.0576292350888252 -0.3273695409297943 0.1813930124044418 -2.1643683910369873 0.1573421657085419 0.6822164058685303 -0.6515840291976929 0.7285431623458862 -0.7052605748176575 1.6433571577072144 1.2477370500564575 -0.1258020102977753 -0.2176373600959778 0.9601748585700989 -0.6629106402397156 -1.1059259176254272 0.1635017096996307 -0.6485033035278320 -0.5973595380783081 -1.1835716962814331 1.0498216152191162 0.4770650565624237 -0.4300753176212311 0.4247083961963654 1.1432477235794067 -0.0848712697625160 0.3794442415237427 0.2482551187276840 -1.0988557338714600 -0.0085304323583841 -1.2828803062438965 -0.2244219481945038 0.8474425077438354 -0.6784995198249817 1.2246367931365967 -0.1598554104566574 -0.5889390110969543 0.5241373777389526 0.1619678139686584 0.4835284054279327 2.1157772541046143 -0.0262468475848436 -0.1830624490976334
-0.9094096422195435 0.1497459113597870 -0.9011301398277283 -0.0268222521990538 0.0493095144629478 -0.1744010448455811 -1.1536736488342285 0.0634986460208893 -0.7680314183235168 0.3483732044696808 0.1818674653768539 0.0351037830114365 0.1830492913722992 0.3636642694473267 0.6359173655509949 -1.5798120498657227 0.5840605497360229 -0.0720558762550354 -0.9937520027160645 0.2703047692775726 -1.0713950395584106 -0.0720761716365814 1.6482837200164795 0.7689108848571777 -0.6135906577110291 -0.4084095954895020 -0.0187449697405100 -0.3577682673931122 0.0508340895175934 -1.1625376939773560 1.1773824691772461 -0.4885748028755188 -1.6098264455795288 0.1981012970209122 0.4672212898731232 1.0807155370712280 1.5417599678039551 -0.6151338815689087 0.7178399562835693 0.4880875349044800 -2.4473395347595215 -0.6354482769966125 -0.5660741329193115 0.1558097451925278 0.5911304950714111 -0.7447828650474548 -0.3357729613780975 0.0791736617684364 -0.4724467694759369 0.2732842266559601 -0.8449699878692627 -1.2632397413253784 1.8277503252029419 0.2660837173461914 -1.0826052427291870 -2.0278656482696533 -1.0428180694580078 -0.6984990239143372 0.7145363688468933 -1.8437898159027100 0.2816402018070221 -1.8693628311157227 -0.4490337371826172 1.5428278446197510 -1.5574183464050293 -0.6080168485641479 0.3429686129093170 -0.2482206225395203 -0.8697693943977356 -1.1486119031906128 -0.7285422086715698 -0.6243905425071716 -2.5204052925109863 0.0627606436610222 0.6982517838478088 -0.5537207126617432 -0.3738504052162170 -1.2540677785873413 -1.1230404376983643 0.6809062361717224 1.1269174814224243 -0.2126851528882980 -0.6514698266983032 0.7566254734992981 1.7161674499511719 0.9147914052009583 1.9642125368118286 -1.6365319490432739 0.4778369367122650 0.6523420810699463 0.6573073267936707 1.4379748106002808 -1.4494668245315552 -0.6371048688888550 -0.3377744257450104 0.4836457073688507 1.8237148523330688 0.2224577367305756 1.8317074775695801 0.7944666743278503 1.2255655527114868 1.4918992519378662 -0.2406460344791412 0.6828896999359131 1.5233565568923950 0.4839915335178375 0.3252950310707092 1.5229233503341675 0.3579265773296356 -0.2167682349681854 -0.9746679067611694 -1.1522355079650879 -1.5541362762451172 -0.2914433777332306 0.8733352422714233 1.0509548187255859 -1.0698530673980713 -1.0220561027526855 2.3436825275421143 -0.7691944241523743 1.1383932828903198 1.4611726999282837 1.2768163681030273 -1.3701897859573364 -1.6622551679611206 -1.0628297328948975 -0.1411001980304718 -0.4004155099391937
0.7790454030036926 -0.0340177863836288 -1.0889145135879517 1.2445333003997803 -0.6874090433120728 -0.6898514628410339 0.9992502927780151 0.0195403490215540 0.0931492298841476 0.4778895974159241 0.0906993970274925 0.1432068198919296 0.4925861060619354 -0.4126642346382141 0.9490758776664734 0.8183149099349976 1.0302420854568481 -0.9983735680580139 -0.7482132315635681 -0.1295724511146545 -0.3567869961261749 -0.1185234263539314 0.8240512609481812 0.6131601333618164 -0.2659305334091187 1.1622272729873657 1.6249369382858276 -0.9920831322669983 0.0715548619627953 0.9442239403724670 1.9043412208557129 0.6243394017219543 -1.2231644392013550 0.2765575945377350 -0.1430704593658447 -0.0432146638631821 2.0203084945678711 2.0979895591735840 0.7626461982727051 0.6683596968650818 0.4169571399688721 0.0416535399854183 0.0814383402466774 -2.0905549526214600 1.3137334585189819 -0.6113552451133728 -1.5898305177688599 -1.1240454912185669 -0.2327791005373001 0.5120454430580139 2.2446203231811523 1.0698975324630737 -0.1780240237712860 -0.3260352313518524 -2.0636303424835205 0.7231390476226807 0.2031016796827316 0.7883020639419556 -0.9094350337982178 -0.8060657978057861 1.1016674041748047 -0.7984956502914429 0.6844539046287537 1.1879929304122925 -1.1569312810897827 3.2387831211090088 -0.2916686236858368 -0.3385886251926422 -0.1626136749982834 -0.4353999197483063 -1.6771981716156006 0.3737798333168030 -1.3765910863876343 0.4653677642345428 2.9944338798522949 -0.7881832122802734 0.5470495820045471 1.4580883979797363 0.0469070710241795 -1.4651172161102295 -0.7109368443489075 0.5347447991371155 0.2690133452415466 -0.0719661340117455 -0.0360226482152939 0.0110795311629772 0.3137252032756805 -1.0511180162429810 -0.0840110033750534 -0.1927522420883179 -0.3090509176254272 -0.1188701540231705 1.1661112308502197 0.1328057646751404 -0.4808173775672913 0.0540302917361259 1.6839951276779175 -2.0675270557403564 -0.9584936499595642 0.5676120519638062 -0.3020782768726349 -1.1628863811492920 -0.1536454558372498 0.4480566084384918 1.4442834854125977 -0.5777403116226196 0.7515769600868225 2.4797370433807373 1.0186955928802490 1.4572820663452148 0.9305162429809570 1.2755429744720459 0.8544559478759766 0.1823654174804688 1.3571908473968506 1.7270014286041260 -1.2870675325393677 0.9232056140899658 1.5312449932098389 -0.5035794377326965 2.0618541240692139 -1.4217211008071899 -1.6005622148513794 -1.3470923900604248 -0.6071987748146057 -1.6810041666030884 -0.7265709042549133 -1.6909905672073364
-2.2451877593994141 0.5539845228195190 -2.0274775028228760 1.3943881988525391 0.2979481220245361 -0.1978936940431595 0.5249725580215454 -0.1838363409042358 0.0771311372518539 -0.4962119758129120 -0.2853308022022247 -1.0302790403366089 1.4145579338073730 -0.1379141956567764 0.3542725443840027 0.5005938410758972 -2.8647580146789551 -1.4680228233337402 0.5488816499710083 0.0963638350367546 0.5842751264572144 -0.8510815501213074 -1.4048513174057007 -0.5499827265739441 -0.0453412309288979 -0.9736876487731934 -0.9660685062408447 0.6345149278640747 1.1289261579513550 0.4236603975296021 1.0326809883117676 -0.1431021690368652 0.0113285575062037 -0.5070019364356995 -0.2580083310604095 0.4464637637138367 0.6986037492752075 -0.6899479627609253 -0.6908995509147644 -0.0407598726451397 1.0229928493499756 -1.0495301485061646 -1.6205483675003052 -0.6995790004730225 1.7036012411117554 1.0367255210876465 -1.1952985525131226 -0.1505573689937592 0.7779663205146790 -0.5226056575775146 -0.7186530828475952 0.9837072491645813 0.2562198340892792 2.3252658843994141 1.9763158559799194 -2.0995831489562988 -0.6209626793861389 -0.0201620794832706 1.6106867790222168 -1.6500735282897949 0.5415376424789429 0.2863931953907013 1.2038481235504150 -0.6604602336883545 -0.9270735383033752 0.7541951537132263 -1.7880721092224121 1.6008381843566895 0.5221221446990967 -0.1325487643480301 -1.1803127527236938 1.4326975345611572 0.0418343506753445 0.2846091389656067 -0.6271452307701111 0.9633587598800659 -1.5784680843353271 -1.8521889448165894 -0.1639854311943054 -0.2136610150337219 0.1365790814161301 -1.1328767538070679 -2.7501153945922852 1.0510517358779907 -1.7900396585464478 0.5000654458999634 1.1821768283843994 0.5722109079360962 0.4307026863098145 -0.3531655371189117 -1.6390898227691650 0.5028376579284668 -0.1393504440784454 1.8127559423446655 -0.1635797023773193 -0.1524817496538162 1.3034944534301758 1.0158473253250122 0.5794930458068848 -0.9064200520515442 0.7514825463294983 0.2120245844125748 0.0254953987896442 -1.2995514869689941 0.0948248058557510 -0.4554762542247772 0.5122185349464417 -1.6722130775451660 -0.4805601537227631 -1.0247980356216431 0.1883453726768494 -0.6427521705627441 1.1323003768920898 0.8562970757484436 0.5646142959594727 0.4064478278160095 0.7129279971122742 1.4924913644790649 -0.1353473663330078 0.2388368248939514 -1.5213681459426880 -0.6531195044517517 -0.4100686013698578 1.1748652458190918 -0.3644404411315918 -1.4846920967102051 0.6864931583404541 0.0521299168467522
-0.5893242955207825 -1.2356423139572144 1.1410270929336548 1.1593117713928223 0.7394756078720093 -0.3130177557468414 0.4604086875915527 0.0589483417570591 0.7462590336799622 1.3126456737518311 1.0059061050415039 0.5778371691703796 -1.3820059299468994 -0.7862898707389832 1.3076633214950562 1.5481458902359009 0.1907666176557541 -0.6190053224563599 -0.6293668746948242 0.4135075211524963 0.8706839084625244 -0.8089161515235901 1.9566303491592407 -0.4931547939777374 -1.6470878124237061 -0.7705342173576355 0.7097635865211487 -0.7520450949668884 -0.0831998065114021 0.0480281226336956 0.6892794966697693 0.3916619420051575 -0.9943111538887024 -1.9194469451904297 0.4097008407115936 1.5611499547958374 -0.2136575132608414 0.3128903210163116 1.3624149560928345 0.6304357051849365 -1.3693099021911621 0.1306274086236954 0.6288804411888123 -0.3169822394847870 -0.8102285861968994 0.8407561182975769 1.5280337333679199 -0.8532222509384155 -0.6045281887054443 -1.7515294551849365 2.5361974239349365 1.0342423915863037 -0.2030546963214874 -0.4004203975200653 -0.6081200242042542 2.2535657882690430 0.3656527996063232 0.8845965266227722 -0.6184581518173218 1.7381916046142578 -0.0498053282499313 -0.4123769104480743 0.3785747885704041 0.3189967274665833 -1.0943524837493896 0.0656923726201057 -1.5555788278579712 -0.1148212030529976 -0.1739604771137238 0.2548187673091888 -0.5863974094390869 -0.6112387776374817 2.7851142883300781 1.3286075592041016 -1.4845649003982544 -0.2585170269012451 0.7904904484748840 -0.5594448447227478 0.3968748748302460 1.3192561864852905 -1.0961138010025024 1.6924711465835571 1.0841401815414429 1.2675927877426147 0.8087040185928345 0.6491438746452332 0.4265622198581696 -0.0901473909616470 0.2949227094650269 -0.9067922830581665 1.3380455970764160 -0.3324138224124908 -0.2426469027996063 0.8413888812065125 0.7393285632133484 -0.2442610114812851 1.8510394096374512 -0.3795414865016937 -0.7512835860252380 -0.3072510957717896 2.2215669155120850 2.2238824367523193 1.1466464996337891 0.3799149096012115 -0.6469523906707764 0.7544007301330566 1.6700676679611206 1.4311618804931641 -1.7546083927154541 -1.5879966020584106 0.7349156141281128 1.7348417043685913 1.0301877260208130 -0.7859241366386414 0.3527317047119141 0.6887076497077942 0.2549280822277069 -0.1167815774679184 -0.8188481330871582 -0.5766695141792297 0.4369552135467529 0.3238013088703156 -1.5748473405838013 -0.7180290818214417 1.8964021205902100 0.6870157718658447 -0.7001983523368835 0.8135237693786621
-0.7685668468475342 0.2614650130271912 1.0107918977737427 2.6110110282897949 1.6540291309356689 -0.4636750817298889 2.0164077281951904 -1.1387434005737305 1.3547605276107788 -0.9741665720939636 -0.5237971544265747 -1.8049027919769287 1.7217547893524170 2.0256481170654297 0.1805701404809952 -0.6048827171325684 -0.5776839852333069 -1.8382885456085205 0.8399749994277954 0.2438352704048157 0.4062657058238983 0.4772651493549347 1.3215683698654175 -1.9246656894683838 3.3684070110321045 -0.1472618430852890 1.8016628026962280 0.4587741494178772 2.5028679370880127 0.7914555668830872 2.9634764194488525 0.4761686325073242 -1.1456209421157837 -0.1860700696706772 0.0365377962589264 0.5745652914047241 -1.5248754024505615 0.5209902524948120 -0.0899742692708969 -0.4778428673744202 -0.4490200281143188 0.0480071753263474 -0.1359859257936478 -0.3844431638717651 -0.4465563297271729 -0.2640656828880310 1.5827481746673584 -0.6998112797737122 -0.5800220370292664 -0.8648818135261536 -2.0670223236083984 1.4061872959136963 0.9194558262825012 -1.3033666610717773 -0.8692441582679749 1.3774205446243286 -0.6972489953041077 -1.9200760126113892 1.3391237258911133 -0.6287901401519775 0.2969794571399689 1.0509274005889893 0.0404825359582901 0.3969946205615997 -0.7820557355880737 0.2722757458686829 -1.9479281902313232 0.7609789371490479 2.1579561233520508 -0.2574013769626617 2.6738648414611816 0.1359313428401947 -0.5317627787590027 0.0768044888973236 0.9692237973213196 0.2819909751415253 0.0904714390635490 -0.1756986677646637 1.4578450918197632 1.6054441928863525 -0.2860268354415894 0.6488253474235535 1.1915978193283081 -0.2673452496528625 2.2411484718322754 -0.9620063304901123 0.2404946535825729 -0.1104724258184433 0.8187015056610107 1.3392423391342163 -0.1887087821960449 -0.5768977403640747 -0.2364219725131989 0.6117484569549561 0.5513544678688049 0.6260663866996765 -2.0958929061889648 0.7463218569755554 0.4498984515666962 -2.0424075126647949 0.3773161768913269 -0.9442985057830811 0.6511299014091492 0.6048895716667175 0.7979322671890259 -0.0679271295666695 0.9046610593795776 -1.4401613473892212 -0.2902474403381348 -0.3047842681407928 0.6627275347709656 0.9807977676391602 0.8943271040916443 0.8963373899459839 -1.7145937681198120 1.4017641544342041 0.6079314947128296 -0.9311940670013428 -0.6413087844848633 1.1882991790771484 1.0273040533065796 0.9351479411125183 0.5412718057632446 -1.6091486215591431 2.2397165298461914 0.5321515202522278 -0.5159761309623718 -1.0000560283660889
-0.0739530548453331 -1.0827813148498535 0.8947156667709351 -0.5465947985649109 2.2770195007324219 -0.1672777682542801 -0.9325029850006104 0.1358237415552139 0.8277426958084106 0.8065297007560730 -1.5928684473037720 -1.7410044670104980 -0.0841257199645042 0.5207241773605347 -0.2845575213432312 -1.0349164009094238 0.2424895465373993 -0.8194122314453125 1.3473588228225708 -1.5953745841979980 0.4937780499458313 0.1639244556427002 -0.7009004354476929 0.9394855499267578 1.8294425010681152 1.2825682163238525 0.0201274342834949 -0.9655522108078003 -0.2812827527523041 0.3720264434814453 0.5238676667213440 -0.6631730198860168 -0.6200830936431885 0.0943433567881584 0.0415231473743916 -0.0796770602464676 0.9502814412117004 -0.4334551393985748 0.0045335176400840 2.1588532924652100 0.0704171210527420 0.5691610574722290 0.8475712537765503 -1.0026854276657104 -0.4830563366413116 0.0787201970815659 2.6294288635253906 -0.0588416159152985 0.6228803992271423 1.1087943315505981 -1.1048269271850586 0.3424225747585297 0.6306484341621399 -1.2333416938781738 -0.0942424610257149 -0.0686208531260490 0.3144896328449249 0.6966494321823120 0.2586058378219604 0.0271289553493261 1.0540833473205566 -0.1862191855907440 0.6099804639816284 -0.4096372425556183 -0.0979230403900146 0.0537929870188236 0.4131384193897247 0.5655647516250610 0.5503261089324951 -1.1714915037155151 0.8698845505714417 -1.1753283739089966 2.2837345600128174 2.0143079757690430 -2.2032203674316406 -0.6130112409591675 -0.5783846378326416 0.9757271409034729 -1.1328984498977661 -0.9767815470695496 -0.3383809030056000 1.1284798383712769 0.1363964974880219 -0.4532653987407684 -0.4665214717388153 -0.1080864146351814 2.1019008159637451 0.9365087747573853 0.6380619406700134 2.8920121192932129 0.1156845614314079 0.3089931905269623 0.1312025040388107 0.3737335205078125 0.0678365826606750 0.7721814513206482 0.8542574048042297 -1.2904653549194336 0.0262310095131397 1.4654738903045654 -0.7499593496322632 0.1710122376680374 0.7783075571060181 -2.1404926776885986 0.2391377538442612 0.2268835604190826 -0.6088016033172607 -1.1210150718688965 -1.0628547668457031 -0.1849341839551926 0.2902693152427673 -0.5896027088165283 1.0620963573455811 -0.0538807585835457 0.0249856784939766 1.7643615007400513 0.7351539731025696 -0.1668110191822052 -0.9955774545669556 -0.0509163551032543 -0.8168092966079712 0.3360095024108887 0.0111738387495279 -1.0814125537872314 -1.4790886640548706 -1.1692895889282227 0.3289200067520142 -0.4470846354961395
-0.9626443982124329 -1.0772886276245117 -0.4202823042869568 0.8873564004898071 -0.3480393886566162 -0.8722683787345886 -2.0532827377319336 -0.7914347648620605 -0.2966797947883606 1.9242048263549805 1.5406976938247681 -0.8284635543823242 1.3934186697006226 -0.9656648635864258 0.8283004164695740 0.4592846930027008 0.1162000596523285 0.1297953873872757 0.3686777353286743 0.5157746076583862 -1.5938487052917480 -1.1560915708541870 -1.5568004846572876 0.2814774215221405 0.1331423074007034 1.8755983114242554 -0.5172184109687805 1.2824953794479370 -0.1492343097925186 2.0445127487182617 1.4648109674453735 1.8493607044219971 -0.7760608792304993 -0.3596363067626953 -0.5148732066154480 0.2092823386192322 -2.0310542583465576 -1.3080149888992310 0.2730017900466919 -2.2125532627105713 2.5197081565856934 -0.1333491355180740 0.0126845166087151 0.8034570813179016 0.1346050202846527 -0.0997405052185059 -0.1737294942140579 0.2005822807550430 -0.1873745322227478 -0.4470776319503784 0.7899600267410278 -0.3685213327407837 0.7277904748916626 0.1555013954639435 -1.3050943613052368 0.3143471479415894 0.1677082777023315 0.8752095103263855 -1.2759149074554443 2.0377054214477539 0.7339427471160889 0.2536631822586060 1.2741584777832031 0.2454384118318558 0.6775978207588196 0.7449687123298645 0.1544478684663773 -1.4627391099929810 0.3694089353084564 1.0502007007598877 1.3867427110671997 -0.2043354511260986 0.6049934029579163 0.2446095496416092 1.6644229888916016 0.8360908031463623 -1.6844763755798340 0.5890769958496094 0.9628350734710693 0.2116459310054779 -0.0422185510396957 0.8675774931907654 -0.2665784955024719 0.3976827263832092 -1.7985765933990479 -0.5245903134346008 1.6134638786315918 0.0402073711156845 1.4315423965454102 -0.1353503018617630 -1.8651418685913086 -0.7025707364082336 -0.1465577334165573 -1.8748489618301392 0.0505687110126019 -0.5146919488906860 -0.1880501061677933 -0.1114753559231758 -1.5056049823760986 0.7457808852195740 0.3768628537654877 0.1102674454450607 -0.0995919853448868 -0.7390570640563965 0.4068881869316101 1.8004449605941772 0.8896086812019348 0.4017544984817505 0.4998713135719299 -0.3571310043334961 -0.6949905157089233 0.9126032590866089 1.6077232360839844 0.6306053400039673 -1.4701892137527466 0.3089335858821869 -1.4675391912460327 -1.6082684993743896 -0.3504277765750885 1.5673996210098267 0.3306504189968109 0.5763518214225769 1.2206619977951050 1.0284839868545532 0.5702314376831055 -1.5580130815505981 -1.0542124509811401 0.7840761542320251
-0.1262101233005524 -0.4650937318801880 0.0397151969373226 -1.8401799201965332 0.2163404822349548 0.5621619224548340 -1.3037118911743164 -1.4803802967071533 1.3780587911605835 1.0380191802978516 -1.0920407772064209 0.0293882470577955 1.3407039642333984 0.0489342063665390 0.9400713443756104 -1.4561986923217773 0.7261238098144531 1.1379737854003906 -0.4163452386856079 0.1187644600868225 -0.7013334035873413 0.4769319891929626 0.9182085394859314 0.5170434117317200 -0.0483026653528214 0.2736660838127136 0.3766810595989227 0.5092051625251770 0.4469288587570190 -0.9501661062240601 0.5685992836952209 1.2284058332443237 -2.0140056610107422 -0.3773050606250763 -0.3724844753742218 1.1877049207687378 -0.0893458127975464 0.4656257927417755 0.5012210011482239 0.6368870735168457 -0.6848338842391968 -0.7201195359230042 0.1325254440307617 -0.4870167374610901 0.4122548997402191 -0.5922390222549438 -0.1713453084230423 1.0887075662612915 0.5951912999153137 -0.5901849865913391 -1.9193352460861206 -1.6024788618087769 -0.1106432974338531 -2.3663218021392822 -0.0284533053636551 0.7794191837310791 0.1687000989913940 -0.1236835196614265 -1.5808601379394531 0.7186691761016846 -1.4510394334793091 -1.6603145599365234 1.9505164623260498 1.2446618080139160 0.5503754019737244 -1.2865538597106934 0.8340674042701721 0.9090877771377563 -0.4800603687763214 0.0135078961029649 -0.2370637506246567 0.6859937310218811 0.2961179614067078 2.1052823066711426 -0.1344047188758850 -0.7626577615737915 -1.7008130550384521 -0.4556663036346436 -1.9134702682495117 -0.9006590247154236 -1.6036337614059448 0.3988229036331177 -0.1367787569761276 -0.2930210530757904 -0.9717975854873657 0.2243818938732147 0.7206317782402039 0.0284135341644287 0.6087594032287598 -1.0010367631912231 0.0766056254506111 -1.4401043653488159 0.4335705041885376 0.9096301794052124 -0.5962392687797546 1.0824950933456421 -0.2180983275175095 -1.3834006786346436 1.6827175617218018 -0.3336094319820404 1.6243925094604492 -1.0469229221343994 0.6681901216506958 2.4436488151550293 -1.5892657041549683 0.6921085715293884 -0.2008138447999954 0.4557631313800812 -0.4428907036781311 0.6703408956527710 -0.2437365800142288 2.1244225502014160 0.6828950643539429 -1.1456955671310425 -0.1470084339380264 1.0980476140975952 -0.6337797045707703 -0.9532728195190430 0.4939319193363190 0.4053801596164703 0.2736960053443909 -0.9894981980323792 -0.6410953402519226 0.3255505263805389 0.2032000422477722 -2.0407927036285400 0.6990632414817810 0.2995067834854126
-0.7246169447898865 0.8782424926757812 0.5284538269042969 -0.6895191073417664 0.3355226516723633 -0.2001683712005615 -0.8734014630317688 1.0027408599853516 1.0531793832778931 -0.5682912468910217 -1.4485993385314941 0.1423803567886353 0.6767055392265320 -0.0125788422301412 1.1112368106842041 -0.5111178159713745 -2.9838459491729736 -1.0419412851333618 0.8123981952667236 0.1695444881916046 -0.4973945617675781 0.3613096177577972 -1.7407945394515991 0.1984705626964569 -0.1327442228794098 -0.3178116977214813 0.2129280269145966 -1.0863286256790161 0.6254093050956726 1.3383016586303711 1.7445971965789795 -0.5213993191719055 0.2641126215457916 -1.4407758712768555 1.5401057004928589 -1.4738041162490845 0.6717237830162048 -0.4782803356647491 -0.3961668014526367 -1.5673592090606689 0.4667165577411652 -0.0310670062899590 0.1473159193992615 0.3162834346294403 -0.5845692753791809 -0.1797286421060562 -0.0312741957604885 0.9262291789054871 -1.1464809179306030 -0.2256761789321899 -1.1901316642761230 -1.5717749595642090 0.5043006539344788 1.7576957941055298 2.2144463062286377 -1.2452008724212646 1.5842716693878174 -0.2288321405649185 -0.3434925973415375 -0.5647245049476624 1.3411478996276855 -1.4727171659469604 0.8163348436355591 -0.1904699206352234 0.6648361682891846 -0.5090872645378113 1.0470957756042480 1.3106412887573242 2.1141116619110107 0.4118224084377289 -1.7465299367904663 0.6350957751274109 1.1090366840362549 -0.5816505551338196 -0.1746218651533127 -0.1702329367399216 0.4291771650314331 0.4040711522102356 -0.9662934541702271 1.0254970788955688 1.2548274993896484 0.3487732112407684 0.7104136943817139 0.1242368295788765 0.9213975071907043 0.0786979123950005 2.1273233890533447 0.3068030774593353 -0.5956870317459106 -0.7897635698318481 0.0346421301364899 0.0160286091268063 -1.2099903821945190 0.3056100010871887 -1.2509415149688721 -0.1256389319896698 -0.3675759136676788 -0.0119999106973410 0.7124860286712646 0.1025208756327629 -1.3240888118743896 -1.0070410966873169 -0.2957748472690582 1.5415050983428955 0.0392093248665333 0.3636622130870819 -0.1135460212826729 1.3353433609008789 0.3252772092819214 0.7213597297668457 -0.7032389044761658 1.1610350608825684 -0.4974209964275360 -0.2348322868347168 -1.1654992103576660 0.9544249176979065 0.3806217014789581 -1.0781272649765015 -0.5272331833839417 -0.1861240416765213 -0.4287424981594086 0.4253387153148651 1.0436571836471558 -2.7655422687530518 0.0275389309972525 -0.6331932544708252 -2.0848338603973389 0.3550987541675568
-1.0622218847274780 0.7575787305831909 0.3881608843803406 0.1438299268484116 0.9973468780517578 -1.6994802951812744 0.8962122797966003 0.4524542987346649 1.2916245460510254 -0.7853479385375977 1.7471883296966553 0.0191140715032816 0.2362277358770370 -1.0264776945114136 -0.6749572753906250 0.4004229009151459 -0.0309528578072786 -1.5993396043777466 0.3958019614219666 0.3556135594844818 -1.1124365329742432 3.5115756988525391 0.6867165565490723 -0.8481523990631104 -0.3559969365596771 1.0087927579879761 0.1498952805995941 1.3696074485778809 2.6699442863464355 0.6387262344360352 0.5875608325004578 0.0481834076344967 0.5232688188552856 -0.3377726376056671 0.8863775730133057 -1.0654612779617310 -0.1683072000741959 -0.3835882246494293 -0.9888419508934021 1.3544241189956665 1.3516958951950073 -0.7442801594734192 -0.6845328211784363 -0.7588475942611694 0.0106059955433011 -0.2998983860015869 -0.3489614129066467 -0.1465555131435394 1.3318537473678589 -1.6326050758361816 -0.9908461570739746 0.0668606013059616 1.4520708322525024 0.9410185813903809 -0.4339683651924133 0.6375466585159302 0.0897105336189270 0.8298196792602539 -0.5932291150093079 0.6972956657409668 1.2552433013916016 0.9677653908729553 -0.5945152044296265 -0.7888596653938293 -0.2602854967117310 -2.3465328216552734 0.4059059619903564 2.0825252532958984 -0.5779513716697693 -0.2015697658061981 -0.4661164879798889 0.1589328944683075 0.6441375017166138 -1.4918273687362671 -1.2822129726409912 1.3748997449874878 1.1392720937728882 -0.0184461437165737 -0.5260623097419739 -0.7444685697555542 -0.6597511172294617 0.7652401924133301 0.3409386277198792 1.0898258686065674 0.3175576925277710 -0.2678179442882538 -0.7657579183578491 -0.2744060158729553 0.8085173964500427 -1.3250131607055664 -0.7056511640548706 -1.3996973037719727 -1.1252712011337280 -0.8079317808151245 -0.1184628754854202 -0.0002019725652644 1.0581331253051758 -0.2953842282295227 -0.5561693310737610 0.9313566088676453 -0.1209169030189514 1.2830848693847656 0.6515483856201172 -2.1877787113189697 -0.0618404373526573 0.0401945449411869 -0.0475275404751301 -0.2080173194408417 0.5596441030502319 1.0786002874374390 -0.9323261976242065 0.0005716703599319 0.2788447439670563 -0.5881304144859314 -0.7827298045158386 1.9089056253433228 -0.2047025263309479 -0.2070980668067932 0.1370226740837097 -0.2770012617111206 0.4466117322444916 -0.5876943469047546 0.2056672871112823 -1.1098845005035400 0.2258555293083191 0.6765314936637878 -0.1825138926506042 -0.5710713863372803
0.0688667669892311 -0.3083407580852509 0.3302045762538910 1.3761254549026489 -0.2965499758720398 -0.2792652845382690 2.2308418750762939 0.2823439240455627 1.5941895246505737 1.2934666872024536 1.1463785171508789 -1.6266179084777832 1.5979495048522949 -0.2715391814708710 0.3036926686763763 0.0553227290511131 0.3005504012107849 -0.1823026835918427 0.5205782651901245 -0.0783777981996536 -0.0067239771597087 1.5499062538146973 -0.7322899103164673 -0.5173864364624023 -0.3617635071277618 0.9631327390670776 -1.0581233501434326 -2.4693627357482910 -0.5044194459915161 -3.0952458381652832 -0.1359071433544159 0.8400287032127380 1.3383775949478149 0.0504202321171761 -0.0533041320741177 1.1665118932723999 0.3300491869449615 -0.9267678260803223 -0.2602811753749847 -0.7984659671783447 -1.2182188034057617 0.4511432349681854 0.2054555565118790 -0.5198270082473755 -1.6150463819503784 0.4478161931037903 1.5016541481018066 -1.5242882966995239 0.9886750578880310 0.2506579458713531 -2.2746925354003906 -2.3126673698425293 1.4524468183517456 0.4803062379360199 -0.7765492200851440 2.3234000205993652 0.1603174358606339 2.0547468662261963 -0.7634575963020325 1.8579766750335693 0.9498985409736633 0.4610231816768646 1.0236232280731201 0.3782300949096680 2.4106347560882568 0.6639283299446106 -0.2588380277156830 -0.9817123413085938 0.6827818751335144 -0.5434544086456299 0.7017288804054260 0.3473010659217834 -1.0315128564834595 0.7507770061492920 0.5997863411903381 -0.8323028683662415 -1.2976468801498413 -0.2590580582618713 0.7239197492599487 2.0937223434448242 -1.5358555316925049 -0.0895691439509392 -0.8044947385787964 1.2715854644775391 0.2022339701652527 -0.7213904261589050 1.6486636400222778 -0.7738371491432190 0.3429943919181824 -0.7172260880470276 1.0799181461334229 -0.5538229346275330 -0.1785652041435242 -2.2270774841308594 -0.2176176309585571 -1.2627762556076050 -1.0951917171478271 0.8400017619132996 0.4474612474441528 0.4234497547149658 0.0349457934498787 -1.7927415370941162 0.5660868883132935 0.0542855784296989 -0.3679801821708679 -1.4110492467880249 0.0793955996632576 0.3262982070446014 -0.4478395581245422 0.3124541342258453 -2.0150139331817627 -0.2430771589279175 -1.6104775667190552 -0.5191776156425476 0.5246295332908630 -0.0947235375642776 -0.0567323081195354 -0.7020492553710938 -1.1629452705383301 0.0678333863615990 0.4230026602745056 -0.3740231394767761 -0.0622540861368179 -0.2502629458904266 0.9227851629257202 2.0691938400268555 0.2002193927764893 0.4458575546741486
-2.2804117202758789 -2.3558390140533447 0.5239879488945007 -1.0199469327926636 -1.4848911762237549 0.3799979388713837 -0.0885748714208603 0.5679578781127930 -1.4093354940414429 -0.1146298125386238 0.4518238902091980 -0.3306461274623871 -0.1077201887965202 1.0188947916030884 1.6956483125686646 -1.5794345140457153 0.9681818485260010 -0.7397065162658691 -0.3130934834480286 -1.3981488943099976 0.7578159570693970 -0.4886896312236786 0.2286738157272339 -0.9697660803794861 -0.7207362055778503 -0.2747924923896790 0.5234889388084412 0.3638457059860229 0.3033415973186493 -0.4724832773208618 -1.6845327615737915 0.5888958573341370 1.2479863166809082 -1.2901766300201416 0.4717824161052704 0.4351783692836761 0.2062360942363739 0.4942742288112640 -1.3369849920272827 -0.6735031008720398 0.2103351950645447 0.9348276853561401 0.6554792523384094 -0.1500096619129181 2.5907590389251709 0.9528207778930664 -0.3705612421035767 0.6496561765670776 -0.5330958366394043 -1.1099114418029785 0.7830709218978882 0.9509623646736145 -1.0111862421035767 1.6100032329559326 -0.4135731458663940 1.2043213844299316 -1.4650087356567383 1.5276356935501099 0.2904795110225677 0.5563294291496277 1.4357969760894775 1.2392851114273071 1.5604586601257324 0.4932138919830322 0.6615480184555054 0.3083040714263916 0.2458670288324356 -0.9027153849601746 -1.0501797199249268 -1.9744819402694702 -0.2893637120723724 0.9070758819580078 -1.2391693592071533 0.8339123725891113 -0.2543292045593262 -0.1685247570276260 -0.1780356913805008 -1.1255428791046143 -2.6727640628814697 0.0286100544035435 0.4400996863842010 -1.2100135087966919 -0.7372245192527771 2.2618372440338135 -1.0652098655700684 1.3969615697860718 0.1582990884780884 0.5078564286231995 -1.7125871181488037 1.3305619955062866 1.5939357280731201 -0.7873560786247253 0.1164809539914131 -0.3963597714900970 0.9803125262260437 0.6791338920593262 0.1994892060756683 1.0568689107894897 -0.9775199294090271 0.4645289480686188 0.4866637885570526 -0.8238134384155273 -1.6006084680557251 0.3717284500598907 -2.4438674449920654 -0.7240639328956604 0.1032073348760605 -0.6067346334457397 0.5922721028327942 0.8218560814857483 0.4117565453052521 -1.0829926729202271 0.5115098953247070 -0.4204367399215698 1.7441525459289551 1.0466898679733276 -0.6239895820617676 0.2614021599292755 0.1074001789093018 1.3855154514312744 1.6128758192062378 0.4417652487754822 0.0549643300473690 -0.6044042110443115 0.2773737907409668 1.4951211214065552 0.0378365665674210 -1.1136986017227173
1.2134845256805420 1.5600111484527588 -0.7209531068801880 -0.3187105059623718 -0.8469354510307312 -0.8274793028831482 -1.5349532365798950 0.8931704759597778 0.6082367300987244 -2.0784106254577637 -1.5544972419738770 0.9553270339965820 -1.4836267232894897 0.0016817864961922 1.0361754894256592 0.1937697827816010 -0.6813962459564209 1.2484939098358154 1.6122218370437622 0.2869711518287659 -0.4505101740360260 -0.4063179790973663 0.3579691648483276 2.3451724052429199 1.2820317745208740 -0.8410559296607971 0.2251840531826019 -0.7069028019905090 -0.0658699721097946 -0.4822381436824799 -2.0425369739532471 -0.2047855556011200 -0.6079368591308594 0.5169655680656433 1.7171663045883179 0.0144170690327883 0.9469907879829407 1.1516865491867065 -1.3877043724060059 0.5458207130432129 -1.4126279354095459 -1.6890854835510254 -0.5095152854919434 -2.1998405456542969 0.9950908422470093 -0.3798465728759766 0.0684906020760536 0.9676979780197144 -0.8588383197784424 -0.5015337467193604 -1.2012578248977661 0.9748284816741943 0.0084635913372040 0.5962699055671692 0.2123561799526215 -2.4037833213806152 -0.5021898150444031 -0.2257640212774277 -0.6942826509475708 -1.1588778495788574 -0.7311176061630249 0.5931288003921509 -0.5882208347320557 0.4280358552932739 -0.2256972044706345 0.3625158071517944 -0.7497267723083496 -1.7727758884429932 -1.4532654285430908 -0.8210567235946655 -0.8624554872512817 0.5223953127861023 -1.6711076498031616 0.0235678181052208 0.3203004896640778 -0.2453647553920746 1.6131178140640259 0.8195109367370605 0.4140879511833191 -1.2454591989517212 -0.4541383385658264 0.4267619550228119 -0.2520174682140350 0.1351294070482254 0.0515951327979565 -1.9278393983840942 1.0714656114578247 0.2325412780046463 -1.8541036844253540 0.4346569478511810 1.2249455451965332 -0.7977260351181030 -0.7653253674507141 1.1421976089477539 2.2995209693908691 1.2793949842453003 -0.5026358366012573 -1.4233334064483643 0.9348345398902893 0.3783037662506104 2.0064733028411865 0.6647979617118835 0.8387494683265686 2.2831645011901855 -1.6696516275405884 0.6755179166793823 1.1517056226730347 -1.4289574623107910 0.9957234263420105 1.2045722007751465 2.2975211143493652 0.4020950198173523 -1.0207556486129761 0.6422328948974609 -0.5163149833679199 -1.9734746217727661 -0.6164459586143494 -1.1781810522079468 0.0687747076153755 -0.6704708933830261 -1.2590353488922119 -0.2747307121753693 -1.5282840728759766 0.9674454927444458 0.1078026369214058 0.6659497022628784 -0.3965641856193542 -0.6668305397033691
