-0.1956207007169724 -0.4076876044273376 1.1376794576644897 -1.3706060647964478 0.2595634460449219 0.5521103739738464 0.1164612099528313 1.1577428579330444 -0.2904879152774811 0.6889488697052002 0.7157219052314758 -0.2541808784008026 0.0116179101169109 -0.7707384824752808 -0.5660338401794434 0.1324777007102966 -1.5264127254486084 0.1238997355103493 -0.4601669609546661 -0.7898674011230469 1.3272846937179565 1.1802498102188110 0.1201278865337372 -0.1965702474117279 -0.7275635600090027 0.5043979287147522 -1.5755552053451538 0.5794259905815125 -2.6157579421997070 -2.2291522026062012 -0.9904840588569641 -1.0530490875244141 1.2890198230743408 -1.6102283000946045 -0.5513467788696289 -1.0211536884307861 -1.0050761699676514 0.2271432131528854 0.9351257681846619 -0.0299227423965931 -0.5838238000869751 1.0047593116760254 0.0464017465710640 0.0599542669951916 -0.0835349708795547 -0.1290815025568008 0.2290621399879456 0.6322647333145142 0.9969983100891113 1.3608343601226807 0.9976469278335571 0.7669548988342285 -0.3541840910911560 -0.5834415555000305 -1.0943241119384766 1.3347706794738770 1.9969811439514160 0.5732629895210266 0.0813748985528946 -0.1754397302865982 0.8433544039726257 -0.3100977241992950 0.7366659641265869 0.7530074715614319 1.9102239608764648 -0.7911505103111267 -0.1759015470743179 -0.9651988744735718 0.3943679034709930 0.6617432236671448 -1.0393583774566650 -0.0816281437873840 -0.5154469013214111 -0.8158648014068604 -0.1530275940895081 0.8493635654449463 -1.7575249671936035 -0.7112147808074951 1.7676099538803101 0.3600646257400513 0.0593588203191757 0.6259644627571106 -1.8293530941009521 -0.5468362569808960 0.8685508370399475 -0.6421352624893188 0.5666303634643555 2.3443012237548828 1.9394687414169312 1.0157285928726196 1.0852200984954834 0.2181146293878555 0.6373391151428223 -0.7320229411125183 -0.5176237821578979 -1.0091224908828735 1.1258269548416138 -0.6014289855957031 -0.6872139573097229 0.7578428983688354 -2.2132818698883057 1.6680442094802856 0.2765611708164215 -1.6194082498550415 -1.0461874008178711 -0.1681184470653534 0.4024456739425659 -0.5146722197532654 -0.5900131464004517 0.3003057241439819 -0.7226085662841797 0.6985812783241272 -1.3653593063354492 0.3331062495708466 0.0405905023217201 0.7476709485054016 -0.0159839838743210 -0.0757836028933525 -1.3123797178268433 -0.6798939704895020 0.0830710604786873 0.2051015049219131 0.4313817024230957 -0.7771183252334595 -0.3292708992958069 -0.4617004394531250 -0.2787946760654449 0.2320892065763474
-0.3648204505443573 1.4304950237274170 1.2653346061706543 -1.2016927003860474 0.9395545125007629 -1.0090017318725586 1.3453463315963745 0.4622003138065338 0.4142869412899017 -0.3975996971130371 1.5891121625900269 1.2439320087432861 -0.8220237493515015 0.8152238130569458 0.5032287836074829 0.4305106401443481 0.6444476246833801 -0.3093430697917938 1.3871289491653442 0.3298241198062897 0.1632436364889145 -1.3238790035247803 1.1379665136337280 0.2464735954999924 -1.5169447660446167 -0.5826273560523987 0.2644512653350830 0.7939035892486572 -0.4551789760589600 1.1457039117813110 -1.7342168092727661 0.5242961645126343 -0.3907430171966553 0.3342785239219666 -0.5164834856987000 -1.1561101675033569 -0.5057841539382935 0.1785075813531876 -0.4212064743041992 -0.3748375773429871 -0.9323028326034546 0.6079173088073730 -1.4778250455856323 0.2079578489065170 1.0658118724822998 0.7949529290199280 -0.3024255633354187 3.0214335918426514 0.3414093852043152 -0.2534302473068237 0.5365187525749207 -0.0999738201498985 0.8130244016647339 0.1792677193880081 -0.1214203983545303 -0.2241382151842117 0.4503596127033234 0.0848679393529892 0.3952989578247070 -0.0836722701787949 -0.3814744055271149 -0.8734973669052124 -1.6659607887268066 -0.4793207049369812 -0.2992781996726990 -1.0109021663665771 0.3754860758781433 2.5764868259429932 2.0587115287780762 -0.6322630643844604 0.7122734785079956 -0.0870741307735443 0.8358413577079773 -0.8869586586952209 -0.5847764611244202 1.7012802362442017 -0.4533052444458008 1.6736130714416504 -0.5660293698310852 1.3469508886337280 -1.5923666954040527 0.0967255905270576 2.2361850738525391 -1.1029649972915649 0.6707934141159058 0.6491453647613525 -2.4442980289459229 0.5314781069755554 -0.6659818291664124 1.8144634962081909 -0.5440819859504700 -0.1463276147842407 1.1840473413467407 -1.5639235973358154 0.6566850543022156 -1.1212269067764282 0.5061124563217163 -0.1286244541406631 0.9513099789619446 0.6505116224288940 0.7591181993484497 0.1168843507766724 -0.0027239487972111 0.3507870733737946 -1.8169980049133301 0.2504449486732483 0.3285211026668549 -0.4129850268363953 0.1305330544710159 0.1623589247465134 1.5894532203674316 1.7090957164764404 -1.6291451454162598 -1.9539264440536499 0.7953907251358032 -0.9648494720458984 1.2457071542739868 -0.2310978919267654 0.0757602527737617 -0.2440302371978760 -0.8298825621604919 -2.8981564044952393 0.5505924820899963 0.6304688453674316 0.7809612751007080 -0.5912196040153503 0.8072031140327454 -2.7910332679748535
0.7742315530776978 -0.2962980270385742 1.9247884750366211 0.8232360482215881 -0.0615941211581230 0.8672974109649658 0.0089116794988513 -1.3998118638992310 -0.5269653201103210 0.2148219645023346 0.0882565304636955 -1.5888282060623169 0.3474352657794952 0.0921936854720116 -1.8456699848175049 -0.1665538102388382 0.1121432259678841 -0.0827480629086494 -0.1095797568559647 1.2533109188079834 1.4359285831451416 1.1885888576507568 0.5043829679489136 -1.9103181362152100 0.6316528320312500 -0.2948273122310638 -0.5891439914703369 -0.7663790583610535 2.0190920829772949 -1.0977202653884888 -0.9782437682151794 0.6031830906867981 -0.6306869387626648 0.6486963629722595 0.9361212849617004 1.2842828035354614 0.3000199794769287 -1.6510715484619141 -0.0637979507446289 0.4374160766601562 0.3176230490207672 0.3372908532619476 -1.5100580453872681 -1.5043945312500000 -0.8597593903541565 -0.8717148900032043 -0.3984695076942444 2.5901722908020020 -0.9521251320838928 -0.9732576012611389 0.8403257727622986 1.8099652528762817 0.9114466309547424 1.3565971851348877 0.8175951838493347 0.0566381178796291 1.3680894374847412 -1.0206046104431152 -0.1221436038613319 -0.9994314908981323 -1.3794941902160645 -0.6342777609825134 -1.4710721969604492 -0.2197605222463608 -0.9659957289695740 -1.3664877414703369 -1.0069289207458496 -0.8023546934127808 0.2444404363632202 -0.3286814689636230 1.1289839744567871 -1.2843717336654663 0.3102549910545349 0.0354056619107723 0.0606696940958500 -0.0709520503878593 0.4775971174240112 0.4481559991836548 0.7764422893524170 0.5987378954887390 -2.1303915977478027 1.8851761817932129 -0.6256201267242432 1.6730264425277710 1.4139249324798584 -0.1194201931357384 0.9883218407630920 -1.3470351696014404 1.6414790153503418 -0.0656292587518692 0.2726933658123016 0.7822691202163696 -0.1021013930439949 0.5076958537101746 -1.8580529689788818 -2.5433628559112549 -1.4973920583724976 1.5619138479232788 0.1967891454696655 -0.6575424075126648 1.5423151254653931 1.6025733947753906 0.4557717144489288 -0.8254207372665405 0.5231842994689941 -0.2978437840938568 -0.2468106895685196 -0.0626529827713966 -0.8052111864089966 -1.3357446193695068 0.6348693370819092 -2.0436689853668213 -0.0932269394397736 0.3007453680038452 0.7559933066368103 0.7309709787368774 -0.8031981587409973 -0.0160646643489599 -1.1225742101669312 -0.7107755541801453 0.7688829302787781 1.0919933319091797 -0.8378653526306152 -1.1015132665634155 2.0385687351226807 -1.9417189359664917 0.3657175004482269 -0.3602714240550995
-0.3788166046142578 -0.7354649901390076 0.1970836818218231 -2.0022804737091064 -0.4390808641910553 1.4481760263442993 -1.9063600301742554 -0.6148284673690796 1.5857477188110352 -1.8250826597213745 0.8567379713058472 0.5215844511985779 1.0074670314788818 -0.1061725988984108 -0.5353615880012512 -1.5308921337127686 1.1386612653732300 -0.5726140737533569 -1.6654826402664185 -0.0390942655503750 -0.2385276556015015 -0.2535133957862854 -0.8167539238929749 1.0508453845977783 -0.2142283022403717 0.4059815108776093 0.2122402489185333 0.7900543808937073 0.3014891147613525 -0.7990361452102661 -0.3060614466667175 -0.2902146875858307 -0.0595828443765640 0.0367295555770397 0.0069936355575919 -0.3629424571990967 0.4876179695129395 0.0628788843750954 -0.2216113507747650 0.1792154461145401 0.3695167005062103 -0.7146327495574951 -0.9936575889587402 -0.4548400640487671 1.0164858102798462 -1.1286715269088745 -2.5788667201995850 -0.3779431283473969 -0.0102264890447259 -0.1203211173415184 0.3501408100128174 0.4760310947895050 0.3625338375568390 1.2958487272262573 -0.0226975437253714 1.5100555419921875 -0.8542369604110718 -0.9014019966125488 -0.7644309997558594 -0.3760709166526794 0.2127672433853149 0.0699251070618629 -1.5927623510360718 0.6457566618919373 1.3927946090698242 -1.1462454795837402 0.2015651762485504 -0.6987301111221313 -1.0104428529739380 -0.1208335757255554 0.2128687500953674 0.5220297574996948 -0.2396257817745209 -0.8975003361701965 -1.0011165142059326 1.0685456991195679 0.7113234996795654 0.0688393786549568 0.7659061551094055 0.8294017314910889 0.4186530411243439 0.0996361970901489 1.1621609926223755 -0.7713845968246460 0.2444017380475998 -2.2162859439849854 -1.3892109394073486 -0.5518369674682617 -0.3663658797740936 1.1674740314483643 -0.9711108803749084 0.0497837811708450 0.8173193335533142 1.3478078842163086 0.2931785583496094 0.4797483086585999 -0.2498433440923691 -0.3689988553524017 1.2948311567306519 -0.0040626008994877 -0.5496473312377930 -1.2486132383346558 0.3710517287254333 -0.3849671483039856 -0.7463386654853821 0.2703653275966644 1.5288178920745850 0.3756950497627258 0.1844329684972763 0.1800027340650558 0.9343312382698059 1.1455407142639160 0.8625902533531189 0.4068125784397125 0.1884068399667740 -0.3131425678730011 -0.5008076429367065 0.9192222952842712 1.7230564355850220 -1.7010293006896973 -0.0110134072601795 0.8717741966247559 -0.3618605434894562 0.2855782806873322 -0.3617430031299591 0.5271162390708923 -1.6906079053878784 -1.3877207040786743
0.2487475275993347 0.5238981842994690 1.5571383237838745 -0.4224746227264404 -2.2013106346130371 0.2248614877462387 -0.5878553986549377 -0.6777710318565369 0.2140963226556778 -0.6264236569404602 0.6779552698135376 -1.0660896301269531 0.9611483812332153 -0.1115215718746185 -0.2060311734676361 1.0171470642089844 0.3784485459327698 0.9105911850929260 0.5098428130149841 -0.3453350067138672 -0.3524961471557617 -0.7929702401161194 -0.1079626455903053 1.7910190820693970 0.0184979271143675 0.4951937794685364 -0.5677232146263123 -1.5390840768814087 1.0389899015426636 -1.3711593151092529 0.9948432445526123 -1.1795654296875000 1.5974650382995605 -1.2037106752395630 1.2532740831375122 0.6819925308227539 -0.3433158993721008 0.8615914583206177 0.0758264362812042 0.2636657655239105 0.1856495887041092 0.2718699574470520 1.6595257520675659 -0.4614919722080231 0.6855168342590332 -0.6582071781158447 0.6165137290954590 -1.8752599954605103 -0.1719466745853424 -0.3490492403507233 -0.4018143117427826 0.9895154833793640 2.1668441295623779 -0.6029738187789917 -0.4279399812221527 0.1622841805219650 -1.3430304527282715 1.5380918979644775 0.0515467189252377 -0.1886221915483475 -0.2256461083889008 1.4050709009170532 1.5435934066772461 0.0738940238952637 -1.9839053153991699 2.2861766815185547 -1.0011450052261353 -0.0008740480407141 0.4504123032093048 -0.9108322262763977 -0.0871315374970436 -1.4926745891571045 -1.2876939773559570 -0.8961488604545593 0.8642076253890991 -0.0773845314979553 -0.0520855337381363 0.0640886351466179 -0.0193543732166290 0.9390182495117188 -0.9038411974906921 0.9481294155120850 -0.6386991739273071 0.8982927799224854 0.3880683481693268 0.1380204856395721 0.7683071494102478 -0.3999240398406982 -0.8492187857627869 -0.3587122261524200 2.0328960418701172 0.6119868159294128 0.1046739146113396 -1.0024994611740112 -0.6520319581031799 -1.0497390031814575 -0.7451720833778381 0.1649569272994995 0.3924434781074524 -1.1306235790252686 0.0972832292318344 2.6171548366546631 0.3679358065128326 -0.2095070630311966 -1.1619892120361328 -0.0011932016350329 0.5921170711517334 -1.8458931446075439 -0.7877394556999207 0.6085014343261719 0.7110021114349365 0.7633076310157776 0.2532225847244263 2.0112965106964111 1.0619724988937378 -1.2667860984802246 -0.3157822787761688 0.0157437976449728 1.1954579353332520 0.4899307787418365 1.3327054977416992 -1.4775898456573486 -2.7276222705841064 0.4336103796958923 -0.7518472075462341 0.2374092042446136 0.5452999472618103 -0.1073805391788483
1.3239364624023438 1.6086617708206177 0.2573355138301849 0.7800506353378296 0.6890138387680054 0.2987668216228485 0.2114654481410980 2.3870542049407959 -0.6032130718231201 -0.2873158156871796 -0.7621444463729858 1.1914738416671753 -0.9324463009834290 1.7977337837219238 1.0244665145874023 0.3560443520545959 0.3952277302742004 -1.1730498075485229 -0.1081757843494415 0.7370794415473938 -0.3056868612766266 -1.0031117200851440 0.2957693040370941 -1.6978666782379150 0.8826137185096741 -1.7602179050445557 -0.2502723038196564 -2.4519157409667969 -0.3924213051795959 0.6405919790267944 -0.3116708397865295 -0.2512676715850830 -1.4042072296142578 0.1758592724800110 -1.1294058561325073 0.1041505560278893 0.5414658188819885 -0.5843831896781921 -0.2357130497694016 0.0624579079449177 0.0621154978871346 -0.2491747885942459 1.4566463232040405 -0.1410719901323318 1.3045328855514526 -0.1463333368301392 -1.1356934309005737 -0.2807196974754333 -1.2549239397048950 -1.2740671634674072 -1.4422745704650879 0.7276670932769775 -1.5767754316329956 -0.6161997318267822 -0.0374711006879807 -0.6894750595092773 0.9591712355613708 -0.2077857255935669 0.4435958564281464 -1.0166691541671753 0.6455754637718201 -1.7770845890045166 2.9754474163055420 -0.2915031313896179 1.0525553226470947 0.8935458660125732 1.9885787963867188 0.6641655564308167 0.2450471818447113 -1.8962922096252441 -1.5046516656875610 -0.5450911521911621 -1.2147837877273560 -0.4888161420822144 -0.2714438140392303 1.3488743305206299 1.7248362302780151 -1.6190330982208252 -0.2105917483568192 -0.8589771389961243 -1.2173871994018555 0.4611168205738068 0.8736841082572937 -1.1489101648330688 0.5030928850173950 0.8397185802459717 -0.1205721497535706 -0.5732066035270691 -0.4990431368350983 -0.0604408793151379 0.4171639978885651 -0.4528011083602905 -1.2796992063522339 0.5451232194900513 -0.0814614072442055 0.5298126935958862 -0.1467873752117157 -0.2390080392360687 0.9964525699615479 0.1352084279060364 1.5873985290527344 -0.5225030183792114 1.4726990461349487 -0.6732892990112305 0.7303542494773865 -1.2000949382781982 -0.9309191107749939 0.1651300340890884 -1.0973756313323975 -0.0001481447689002 0.0285616125911474 -0.0546666793525219 0.3807859420776367 -0.0994064584374428 -0.4963406026363373 -0.2510183751583099 1.0495990514755249 0.7506356835365295 0.5517252683639526 -0.0016319755231962 -1.7110986709594727 0.1132867634296417 0.4194031059741974 0.1825968176126480 -0.2145126461982727 0.4216195940971375 -1.6921638250350952 -0.8863870501518250
0.6729225516319275 -0.0654243454337120 0.8583199977874756 -0.9555010795593262 1.2019284963607788 0.0246059931814671 -0.6136705875396729 -0.4971594512462616 -1.6837539672851562 -0.6065630316734314 -0.1907021105289459 -2.2449955940246582 -0.4422202408313751 1.0202534198760986 0.7338837385177612 0.1360029578208923 -0.2967576086521149 -0.7677469253540039 0.5324719548225403 -0.4998075366020203 0.8933899998664856 1.9260603189468384 -1.1837815046310425 0.4550448358058929 0.6172704100608826 0.0060915383510292 0.8896088004112244 -2.1204192638397217 1.6479114294052124 1.4786753654479980 -0.3633208870887756 -0.0866067036986351 -1.6958830356597900 1.1073830127716064 -0.7823362350463867 -1.3074181079864502 -0.4846345782279968 0.6463713049888611 -0.3495045602321625 -0.9196624755859375 -0.3813315331935883 -0.3635047972202301 -0.9341341853141785 -0.0744068473577499 0.6284222602844238 -0.8008643388748169 -0.0878688395023346 -0.6605300307273865 0.0308398995548487 0.5062769651412964 0.3020186424255371 -0.4898548722267151 -1.0433963537216187 -1.4307353496551514 -0.3136178255081177 -0.4418233335018158 -0.8737825155258179 0.4806880950927734 -0.1363455206155777 0.9680471420288086 1.9199953079223633 -0.4936399757862091 -0.3939972519874573 -1.2629461288452148 0.1003175824880600 -0.4469967186450958 -0.8269518017768860 0.2505909800529480 1.4887481927871704 0.4888430237770081 -1.0559208393096924 -0.4799286425113678 0.8498835563659668 -0.3721518516540527 -1.9224902391433716 -0.6570522785186768 -0.4910789430141449 -0.5859733223915100 -0.6692541241645813 -0.7742354273796082 -0.0231891199946404 -1.3425433635711670 -0.5466616749763489 -1.4119471311569214 0.3276408910751343 1.3342585563659668 0.1391507983207703 -0.5758606195449829 0.6206439733505249 -1.4853032827377319 2.4004542827606201 -1.3510391712188721 -1.0587552785873413 -0.8395239114761353 0.0750847235321999 0.3570618927478790 1.4142726659774780 0.5386856794357300 -0.0333215966820717 -1.1036317348480225 1.2234359979629517 0.5242896676063538 0.7234838604927063 1.3304672241210938 0.3931297957897186 0.5469394922256470 -0.1759799718856812 2.0994133949279785 -1.8750743865966797 0.2446876168251038 1.7264658212661743 -1.1242550611495972 0.5626662373542786 -0.8806125521659851 0.2495769262313843 0.0913948118686676 0.2038319259881973 -0.8787528872489929 0.0541837736964226 0.1188201233744621 0.6083261966705322 0.8149228096008301 2.3764846324920654 0.5110439658164978 -0.4708867669105530 -0.3594514131546021 1.0348082780838013 1.5157748460769653
-0.0034584770910442 -0.3796756863594055 -0.4350669682025909 0.4557161033153534 0.2198785990476608 -0.1695281267166138 -0.3099860846996307 -0.7211285829544067 1.2814695835113525 -1.3476338386535645 -0.0991761013865471 -1.6909397840499878 -0.6455911397933960 -0.3831099271774292 -1.0512353181838989 0.9365585446357727 -0.5055043697357178 1.7913262844085693 -1.3123544454574585 0.9782912135124207 0.0045383237302303 0.0098243290558457 -0.8788277506828308 0.5212287306785583 -1.4390534162521362 0.3657255470752716 -1.9541106224060059 0.6349726319313049 -0.0619523599743843 0.6943746209144592 0.2022636383771896 0.3127070367336273 -0.8473243117332458 -0.5876841545104980 3.0182061195373535 -0.5506047010421753 -0.1067270264029503 0.6454882025718689 0.1159595921635628 -0.7772005796432495 -0.2988240122795105 0.1177443340420723 -1.2456921339035034 2.0475232601165771 1.2335712909698486 0.7214999794960022 -1.1177451610565186 1.8240060806274414 -2.2899096012115479 1.3373109102249146 0.4356666803359985 1.1017280817031860 1.0804467201232910 0.7119276523590088 -0.7987970709800720 -0.9857807755470276 0.3836016058921814 1.8741989135742188 2.2886288166046143 1.5964832305908203 0.5044949650764465 -1.0733674764633179 -0.5086355209350586 0.0335297770798206 0.7117349505424500 -0.2499749660491943 1.9579697847366333 -2.4043262004852295 0.2045424431562424 0.0882234871387482 -1.7003736495971680 -1.3667768239974976 -1.1586670875549316 0.0613488964736462 -0.2092189788818359 -1.0277041196823120 -2.0514633655548096 -0.7158873081207275 -0.4368353784084320 0.5672234892845154 0.1607590764760971 -0.7283022999763489 -0.5018886923789978 1.6234201192855835 -1.0122820138931274 -0.2024376094341278 -0.3706958889961243 0.5431767702102661 -0.9632331132888794 -1.0945745706558228 1.0857317447662354 -0.2368974387645721 1.0269762277603149 0.2615797221660614 0.1261563897132874 0.5144401192665100 -0.1566040962934494 -1.9399198293685913 0.3877223432064056 -0.6275631785392761 -0.9529957175254822 0.8116322755813599 0.2726773023605347 -0.6079657077789307 1.6512647867202759 -0.4081535339355469 -0.1122250705957413 0.2118992209434509 -0.2329823225736618 -1.2281423807144165 -1.3158730268478394 -0.1092800647020340 0.5325278639793396 -1.1076233386993408 -0.3907220959663391 -0.0229403097182512 -0.6966657042503357 -0.5160615444183350 0.2893984913825989 1.2450536489486694 -1.0041275024414062 -1.6476575136184692 0.3396978080272675 -0.7136762738227844 0.7025198936462402 1.4010521173477173 -1.1917175054550171 0.2324490845203400
0.0920133739709854 0.6906938552856445 -1.1033589839935303 0.2160019874572754 1.3228157758712769 -1.1316579580307007 1.3539752960205078 -1.3040505647659302 -0.3011013567447662 -1.1121762990951538 -0.1867991536855698 1.0243076086044312 -0.0352166742086411 -0.3021737337112427 0.4751184880733490 0.2959207594394684 0.0899317190051079 0.1706316918134689 -0.6449477672576904 0.1383292376995087 0.8987593650817871 0.3804342448711395 0.0547389276325703 0.0064510558731854 -1.8790254592895508 2.2983670234680176 0.1133145168423653 0.7319015860557556 -0.3200580775737762 2.2596433162689209 0.1680846065282822 -1.2503927946090698 -2.6431035995483398 -0.5043339729309082 0.8338156938552856 -0.7950978875160217 0.6185326576232910 0.1586026102304459 0.6674131751060486 1.4363350868225098 -1.0034322738647461 0.7460078597068787 -0.9821008443832397 -0.5740633010864258 1.1755694150924683 0.3338791131973267 -0.2132700979709625 -0.0945876017212868 0.8478499054908752 1.0605903863906860 -0.6722453236579895 0.0495183393359184 -0.5079056620597839 -0.7696468234062195 1.0377273559570312 -0.0960900112986565 -0.3806936442852020 -0.3884848952293396 0.5254462361335754 -0.6244921684265137 1.1535323858261108 -0.9786559343338013 -0.7843310236930847 1.6629352569580078 0.4258956313133240 0.8375886678695679 -0.3310288488864899 0.1563734561204910 -1.6673060655593872 -0.5737016201019287 -1.0710877180099487 0.7882547974586487 -1.1386655569076538 0.4301353693008423 0.4487833380699158 -0.7422779798507690 -0.5871239900588989 0.6991902589797974 0.5214846730232239 0.9713439345359802 -0.4826613664627075 1.3110880851745605 -0.5945411920547485 -0.0397345833480358 -1.6970463991165161 1.3203072547912598 -1.2808682918548584 0.9142830371856689 -0.0405468754470348 -0.3932784795761108 -0.2642619609832764 0.7748598456382751 0.3654016852378845 -0.7495302557945251 -0.7588082551956177 -1.0448924303054810 1.6619042158126831 0.1041870042681694 -0.3646450638771057 1.4901636838912964 -0.7263557910919189 -0.6372690796852112 0.1610289663076401 -1.8834130764007568 1.0463321208953857 0.1159205362200737 0.0788136795163155 0.1261051744222641 -0.0432438179850578 -0.8702427148818970 -0.0626972317695618 -1.8033618927001953 -2.4462282657623291 0.2089560925960541 -0.7035405039787292 -1.0855516195297241 1.7066704034805298 -0.0803149268031120 -0.2223043590784073 2.3730740547180176 0.0747031271457672 1.1759340763092041 -0.2718915045261383 -0.6290501952171326 -0.3824788033962250 1.6366139650344849 -0.7596409916877747 -0.2517444789409637
0.8157176375389099 1.0391863584518433 1.2846231460571289 0.3563579618930817 -0.2671734094619751 -0.3925076723098755 1.8911955356597900 -0.3049258291721344 1.4898175001144409 0.2712130546569824 0.2378786206245422 -0.5144249796867371 -0.6620839834213257 0.9164205789566040 -0.8159915804862976 -0.1425352692604065 -0.0812869369983673 0.4241565763950348 -1.0555437803268433 0.2170641869306564 0.9257870316505432 -0.0926918387413025 1.2885138988494873 0.1511263549327850 -1.2410660982131958 0.2548211216926575 -0.3431941270828247 -1.3337435722351074 1.6132961511611938 0.4997354149818420 0.1260048151016235 -0.8255977034568787 -0.1165872663259506 -0.3340694308280945 0.5462800860404968 -0.7761139869689941 0.3798879683017731 -0.3594995141029358 1.5826989412307739 1.3761518001556396 -1.4137778282165527 1.9398554563522339 0.9764536023139954 0.0987192243337631 0.4054663777351379 -0.2429584562778473 1.9607917070388794 -0.8158880472183228 0.6074901819229126 0.0265029389411211 -1.6012196540832520 0.7161561846733093 1.4557255506515503 0.3985297977924347 -0.4642416834831238 0.9216878414154053 3.1457648277282715 -0.9239256978034973 -0.4824191331863403 0.6854020357131958 0.0023195950780064 -1.1368101835250854 0.4943620264530182 1.8636564016342163 -0.8081672191619873 0.3835042119026184 -0.1013149768114090 -1.8814358711242676 0.0161031391471624 -0.6190448999404907 -0.5951801538467407 -0.1928196698427200 0.7611781954765320 0.0477498732507229 0.7608130574226379 -0.5901986956596375 0.0138235799968243 -2.5333476066589355 -0.5785653591156006 2.2425327301025391 1.4328534603118896 -0.8166350126266479 -0.6167511940002441 1.5584540367126465 -0.8411207199096680 -0.4424545764923096 -0.7336987853050232 -0.1044234409928322 0.2211486101150513 -1.1409374475479126 0.2050172388553619 -0.7226165533065796 -0.2881751060485840 -2.4910800457000732 -0.9490441679954529 0.8190786242485046 -0.1433239877223969 -0.2011345773935318 0.2203175276517868 -0.4464167058467865 0.8551474213600159 0.5008612871170044 0.5819343328475952 1.4867550134658813 0.3802275359630585 -0.4640429019927979 0.4514774978160858 0.0894443318247795 1.1967741250991821 0.1464880257844925 -0.2079235315322876 1.8634070158004761 0.1202603578567505 -2.1104216575622559 0.8633289933204651 -1.0065892934799194 0.5991815328598022 0.4428254961967468 1.2012455463409424 -0.2838187813758850 0.6548535823822021 -0.4529108107089996 0.3879461884498596 -0.2883124351501465 0.4269411861896515 0.0937009081244469 -0.4846031367778778 -1.0188655853271484
0.0029935964848846 1.5596657991409302 0.1822508424520493 1.8701460361480713 -0.0711589083075523 -0.7797291874885559 -0.7315498590469360 -1.1509121656417847 2.5001857280731201 -0.3208752274513245 0.0661544352769852 2.0280325412750244 0.3224509656429291 -0.0786565616726875 0.9192035198211670 -2.6610586643218994 0.1430781632661819 -0.3235143125057220 0.9816839694976807 0.4463289380073547 -0.7092365026473999 0.6094034314155579 -0.3500171899795532 1.0778071880340576 -0.1528612524271011 -1.0071991682052612 0.8580718040466309 0.3414800763130188 1.1702046394348145 0.0165085159242153 -0.2968780398368835 -0.6675717234611511 -0.5010371208190918 -0.2079553753137589 0.3810086548328400 -0.5887809395790100 0.7182586193084717 0.1590053290128708 0.0085380347445607 -0.6869431734085083 0.5840184688568115 -0.2643127739429474 1.1364392042160034 -0.6718109250068665 -0.9733507037162781 -0.3645388782024384 -1.1144018173217773 1.3499306440353394 0.7911400198936462 0.2289033085107803 -0.3501946628093719 -0.7289337515830994 -0.3548958599567413 -0.0910137593746185 0.7725481390953064 -0.9075630903244019 0.8447644710540771 1.7131111621856689 -1.1128696203231812 1.1141027212142944 0.3203915357589722 -0.5740013122558594 0.3216790556907654 1.9735963344573975 1.9929862022399902 0.4520637094974518 0.6965953111648560 0.0073976116254926 -0.6796601414680481 -0.2040310949087143 -0.6116734147071838 0.1791572570800781 -0.7537360787391663 -0.8563908934593201 0.2377247661352158 0.2154867500066757 0.3146288692951202 0.6259314417839050 0.2205312401056290 1.0903304815292358 -0.9574794173240662 -1.4667912721633911 1.3304303884506226 -0.2266952097415924 -0.0381465554237366 0.9315031170845032 1.3974235057830811 -1.2678645849227905 -0.2469423711299896 0.8999388813972473 -0.3078581690788269 1.3730500936508179 1.1491625308990479 0.9029108285903931 0.8765217661857605 -0.9906898140907288 0.7562453150749207 2.3081152439117432 1.0302582979202271 -1.9066541194915771 -1.1714563369750977 -0.7754653692245483 -0.0299824606627226 0.5671640634536743 0.8208211064338684 -0.6327881813049316 1.4343105554580688 0.6058116555213928 -0.2586680054664612 -0.3161456286907196 -0.2508529722690582 0.1411158442497253 0.3538704812526703 -1.2797166109085083 -0.1884544938802719 0.4473973214626312 0.3348983526229858 -0.3134466111660004 0.8488922119140625 1.4461586475372314 -0.1509920954704285 -0.9001014828681946 1.3775376081466675 0.8865498900413513 0.5275417566299438 -0.7557669281959534 -0.4806558489799500 1.7324728965759277
0.6420131921768188 -1.4935058355331421 -1.2499647140502930 -2.1081802845001221 -0.1230684742331505 0.3639596402645111 -0.7058560252189636 -0.3991292417049408 -0.2072364091873169 -0.0291548632085323 -0.3596880137920380 1.3562239408493042 2.0779902935028076 -0.4203041493892670 -0.7636582255363464 0.3196038901805878 -0.8241757154464722 0.0398542694747448 -1.6528260707855225 0.2773828506469727 0.6841695904731750 -0.0575065352022648 -1.5177967548370361 1.5127620697021484 0.6243501305580139 0.2818107604980469 -0.4882881343364716 0.2463547587394714 -0.1152104735374451 0.4696720242500305 0.0409753583371639 0.4660185277462006 1.4189858436584473 0.2365052551031113 -1.5398761034011841 -1.2467281818389893 -0.1173042207956314 -2.0092163085937500 1.7365999221801758 -1.5225981473922729 1.0296512842178345 0.0621077045798302 -2.9705710411071777 0.5506262183189392 -1.0252393484115601 0.7091541290283203 -0.9131221771240234 0.2117682397365570 0.5932645201683044 -0.6652038693428040 -1.4225215911865234 0.4821481108665466 0.7427987456321716 -0.6296641230583191 -0.1923162937164307 2.3727190494537354 0.9137970805168152 0.2915946245193481 0.6511500477790833 -1.8070024251937866 1.4076867103576660 -1.4867504835128784 -0.4619965553283691 -0.4660007357597351 0.8543238043785095 2.5225226879119873 -0.3282224237918854 -0.5966280102729797 -0.8354146480560303 -1.4270449876785278 0.0787219181656837 -1.0334992408752441 -0.2180061936378479 0.4260990023612976 0.4799197316169739 -1.8864878416061401 -1.2410192489624023 0.3403972983360291 -1.5716717243194580 0.8451865911483765 0.3242930769920349 -0.6235132217407227 -0.7133433818817139 -0.2031155228614807 -0.6988728046417236 -0.6851300597190857 -0.4799434840679169 1.0360547304153442 -0.7774910926818848 0.2523843348026276 0.0897942781448364 -0.1138828098773956 -0.3831732273101807 0.5869461297988892 1.7765678167343140 1.6713707447052002 0.9134858846664429 -1.0462726354598999 0.4277096986770630 -0.2922948896884918 -1.7429311275482178 -0.0769468322396278 0.1205405518412590 0.4574286937713623 0.9052255153656006 0.1689086407423019 -0.2551172375679016 0.0058362274430692 0.3459962904453278 1.5061355829238892 1.6912484169006348 1.8257477283477783 1.3172307014465332 -0.4362620711326599 2.0257666110992432 0.8599947094917297 -0.0587554164230824 1.2980816364288330 0.5695470571517944 -1.7528213262557983 -0.0259225796908140 -0.9673901796340942 -0.8690184950828552 0.6769286990165710 -0.7777522802352905 1.0649255514144897 0.8655574917793274 -0.1026769280433655
0.7802699208259583 0.4084244072437286 0.3032906949520111 -0.4300879836082458 0.2476873993873596 1.2694271802902222 0.9434863924980164 -1.2678557634353638 -2.1007502079010010 0.2419359982013702 0.3081313073635101 -0.0205975417047739 0.2594209909439087 0.1293352693319321 0.1489982306957245 -0.7605848908424377 1.2807101011276245 -0.2975772917270660 0.2708465754985809 0.7501033544540405 -0.8048481941223145 -0.2012866735458374 -0.2335743159055710 -2.4751093387603760 -0.8272815942764282 0.4768859446048737 -0.2104701548814774 0.5339468717575073 0.2043431997299194 0.8707045316696167 0.2195294499397278 0.7626934051513672 -0.9497148990631104 1.1810051202774048 2.0393249988555908 0.0084439339116216 -0.5793027877807617 -0.9028183817863464 1.0307708978652954 -1.6856609582901001 0.5743727087974548 1.1775660514831543 0.8944091796875000 -0.2002306133508682 -0.5139935016632080 -0.6664702296257019 -0.4101993441581726 -1.5898303985595703 -0.5096111297607422 1.8694038391113281 0.3690007030963898 0.0200698059052229 -0.8389838933944702 -0.9521215558052063 -0.4922792613506317 1.6442652940750122 1.4292174577713013 1.7893258333206177 0.6564553380012512 -0.2395478487014771 0.1530743390321732 -0.4274540245532990 -1.5271526575088501 0.6666405200958252 1.1111340522766113 2.2355661392211914 -1.0564459562301636 0.4076485335826874 -1.3895008563995361 -0.7994217276573181 -1.0711400508880615 0.4900134801864624 -0.0017124017467722 -0.7181233167648315 -0.5607932806015015 -0.1167151257395744 0.4952636957168579 -1.0976581573486328 -0.2888436913490295 -1.6916794776916504 0.2032620757818222 -1.4233338832855225 -0.5139304399490356 -0.4923472106456757 0.7712626457214355 -1.4308104515075684 0.2657478153705597 0.4693714976310730 1.1249802112579346 0.0837557539343834 -1.1593869924545288 -1.1942682266235352 0.3852118551731110 1.1496409177780151 1.2154930830001831 1.1467657089233398 0.0194883365184069 0.7480525374412537 -1.0144966840744019 -0.3312868177890778 0.9061754941940308 -1.7910881042480469 0.1344629079103470 1.8413798809051514 -0.0064689642749727 0.2805534005165100 1.4965857267379761 -1.1871935129165649 -1.0817494392395020 -0.2836689054965973 -1.0343619585037231 0.2736105620861053 -0.0169512573629618 -0.8627029657363892 0.1000297591090202 0.5025900006294250 1.4634544849395752 -1.1543246507644653 0.1157386153936386 1.2230467796325684 0.7865746617317200 1.3542685508728027 -1.7760032415390015 -0.9612129330635071 -1.8410420417785645 -0.0344867631793022 1.3709577322006226 -0.3668913841247559
-0.0768671408295631 -0.1239977702498436 -0.5557143688201904 -1.2477647066116333 1.2138285636901855 0.8699003458023071 0.7052111029624939 -0.1956694275140762 -0.3257987201213837 -0.1474664360284805 0.9152224659919739 1.1830437183380127 0.8045862913131714 0.6120361089706421 1.0739684104919434 1.0853157043457031 1.1455367803573608 -0.6600486636161804 -0.5642604827880859 0.0502118654549122 -2.7671766281127930 0.9611259102821350 -1.2820072174072266 -0.2817905247211456 1.2196681499481201 -0.9128329157829285 -0.5210365056991577 -1.7762622833251953 -2.0502648353576660 -1.4816854000091553 -0.3328010737895966 -0.2767138779163361 0.1586006283760071 -2.1941545009613037 0.8224688172340393 -1.1146659851074219 -0.3807080686092377 0.5836820006370544 -0.8502481579780579 -1.1405212879180908 -0.0613302588462830 -1.1402503252029419 -0.0647205188870430 0.1160033941268921 0.9768512845039368 -0.4310523271560669 0.4974002242088318 -2.3132266998291016 0.7427920699119568 0.3916634321212769 1.3511906862258911 1.9567559957504272 1.1881613731384277 -0.7867206931114197 2.6090552806854248 0.7013575434684753 2.2637052536010742 1.3625543117523193 -0.0904520153999329 -0.7639302611351013 0.0531046502292156 -1.7310479879379272 0.8787649273872375 -0.8081215620040894 0.9566093683242798 -0.6775838136672974 0.3311351537704468 -0.4738134443759918 1.7495304346084595 0.4722183048725128 1.7835508584976196 0.5786017775535583 1.5204392671585083 0.7820705175399780 1.7264229059219360 -0.3015860915184021 1.9465190172195435 -0.3069409728050232 -1.5859092473983765 -1.0307223796844482 -0.5991629958152771 -0.3460020720958710 -0.8258696794509888 -0.0114916600286961 -0.3039140701293945 -1.0282603502273560 0.3090761303901672 0.2195268422365189 -1.2123023271560669 0.4858519434928894 0.3409093320369720 -1.1848602294921875 -1.4307628870010376 0.9789182543754578 0.4818389713764191 -0.3045254647731781 -0.4771329462528229 0.3187419474124908 1.4164800643920898 -0.5252583026885986 -0.4967236518859863 0.6877128481864929 0.6002825498580933 0.5216489434242249 -0.9668372273445129 1.0166405439376831 0.0057153808884323 0.9623592495918274 -0.8544314503669739 -1.0217139720916748 -0.9621292352676392 -0.1212927624583244 -1.1657073497772217 -0.2570922970771790 0.0350977033376694 1.2229534387588501 0.2355387359857559 -1.4803836345672607 1.5572793483734131 -0.4090119004249573 -0.6696264147758484 -0.9888947606086731 0.4591764509677887 0.5972095131874084 0.7934466004371643 -2.0030074119567871 0.4798212051391602 -0.4228852987289429
-0.2946124076843262 -0.7260010242462158 -0.1191417947411537 -0.1004239246249199 -0.5487540364265442 0.2622701525688171 0.4279078543186188 0.0251304376870394 -0.3708811402320862 -1.1896703243255615 -1.1481956243515015 -0.3752518594264984 -0.7843348383903503 0.4113667607307434 -0.7662975192070007 0.3484422266483307 0.9811790585517883 1.6058256626129150 -1.0541723966598511 -0.8099958896636963 0.2171056419610977 -1.1461411714553833 0.2960744798183441 -0.6444677710533142 0.9347268939018250 -0.3894000351428986 0.3112738728523254 -0.9619131088256836 -0.9250020384788513 1.3558371067047119 -0.9059497117996216 0.2033338993787766 -0.4930891394615173 -0.2802757918834686 0.4271579384803772 -0.1336158961057663 -1.4570369720458984 -0.7264444231987000 -0.6431155800819397 -0.5700460672378540 -0.9137579798698425 1.8082921504974365 0.1641638576984406 0.1927679181098938 -0.4946725666522980 -0.3920091986656189 -0.1813204139471054 0.2941622734069824 -0.5031040906906128 0.1834650933742523 1.8357678651809692 2.1837518215179443 0.7455376982688904 -0.0833797305822372 -0.9800128936767578 2.0445895195007324 0.9716966152191162 1.1929346323013306 0.7507349848747253 0.2056006044149399 0.2037312239408493 -0.1560657173395157 -1.3952003717422485 1.8931891918182373 1.6751998662948608 0.4543242156505585 -0.3052956759929657 -1.5862720012664795 1.1194878816604614 -0.4472222924232483 1.6002135276794434 -0.4026944339275360 -0.9708483815193176 -0.7132745981216431 0.3047018945217133 0.1272356957197189 0.7531372308731079 0.7540232539176941 0.6023041605949402 1.3696469068527222 0.6048724651336670 -0.6885895729064941 0.7865537405014038 0.1017647907137871 -0.1606639325618744 -1.3779207468032837 0.2126186937093735 0.0173260793089867 1.2755682468414307 -0.8971267938613892 -0.8160285353660583 0.5230420231819153 -0.3216405212879181 -0.0965452417731285 -0.1270309090614319 0.8924968838691711 -0.5001614689826965 -0.2443822026252747 -0.5157938599586487 0.6723880171775818 0.0022672293707728 1.2815823554992676 -0.3722765445709229 -0.8727862238883972 1.1447465419769287 -0.4874643683433533 -1.7047941684722900 0.5024027824401855 0.5086128711700439 -1.3482712507247925 0.8650261759757996 0.7646039724349976 -0.1222014427185059 0.5157990455627441 0.1046096161007881 0.3595928251743317 1.0174064636230469 0.0975813418626785 -2.1450948715209961 1.2070375680923462 -1.0902805328369141 0.6122759580612183 1.4432339668273926 0.1625509262084961 1.2383741140365601 -0.2977179884910583 1.1866534948348999 -1.8682373762130737
-0.7350562810897827 1.4648159742355347 1.4947651624679565 1.6751593351364136 0.2572357058525085 0.2750909924507141 0.6357771158218384 -1.3689253330230713 0.6422322988510132 -0.6104520559310913 -2.1040449142456055 1.2655359506607056 0.8281817436218262 0.1849900633096695 -0.6202788352966309 0.3876832127571106 0.0571261495351791 -0.2027256935834885 0.0415762886404991 -0.0072207916527987 -1.5777361392974854 0.6218048930168152 0.5988439321517944 -0.8531697392463684 0.7320598363876343 2.1883320808410645 1.9503359794616699 0.2100413590669632 -0.0461552627384663 -0.3615735769271851 0.7358381748199463 0.8651263117790222 -1.0702700614929199 1.1205154657363892 -0.0164928380399942 1.0485112667083740 0.8749127388000488 0.5965205430984497 0.9777973294258118 0.9808223247528076 -1.0353654623031616 0.2475503087043762 2.0376539230346680 0.7814906239509583 -0.2280493974685669 2.3230521678924561 0.3731140792369843 0.5518214702606201 0.5814811587333679 -1.0837376117706299 -1.0424777269363403 2.2862205505371094 -0.0554973222315311 1.2410300970077515 -0.6097230911254883 -0.4649759232997894 1.0679874420166016 -0.1725049167871475 -0.5237355828285217 -2.0485525131225586 0.4109965562820435 -1.3134431838989258 0.6908188462257385 -2.3982017040252686 0.1517373770475388 0.2373499125242233 -0.0615159645676613 1.0439780950546265 0.5570091009140015 -0.8482425808906555 0.1756710261106491 1.3411824703216553 -0.0640592798590660 0.1912655234336853 1.2137802839279175 0.6903213262557983 0.7759237885475159 -1.1682863235473633 1.5807977914810181 -0.8807185888290405 -1.4077973365783691 0.8001511693000793 -0.5796992182731628 1.0679335594177246 0.0292342863976955 2.5318448543548584 -1.3709166049957275 -1.6501657962799072 0.8663602471351624 -0.8847430348396301 -0.6393376588821411 -0.1677303016185760 0.1018656194210052 0.2333983927965164 -0.2475966513156891 0.6037728190422058 -1.2037400007247925 -1.6033794879913330 -0.6166698932647705 0.3040090203285217 1.0127799510955811 -0.3859045207500458 1.0625412464141846 0.8224336504936218 -0.3281293511390686 -0.0563234649598598 0.6778542399406433 1.3760193586349487 2.3581347465515137 -0.7657816410064697 -1.8223164081573486 0.3679014444351196 -0.8222171664237976 0.8798484206199646 1.2588857412338257 -0.0515780821442604 0.0200718175619841 -1.6846312284469604 0.3523667752742767 0.1667871475219727 -0.1348668932914734 0.5709196329116821 -0.5893199443817139 -0.9076168537139893 0.4279579818248749 0.8931665420532227 0.1451161056756973 -1.5056535005569458
0.4718956649303436 1.7090963125228882 -1.7850710153579712 -0.9553151130676270 -0.9119855165481567 0.7265847325325012 0.8734310269355774 1.5576488971710205 0.2960501909255981 -0.9516505599021912 -0.2818059325218201 -0.0044734477996826 -0.4818997979164124 0.0848601013422012 -0.4618238806724548 0.2871719598770142 1.3961325883865356 0.0098407063633204 -1.8061219453811646 0.0739466547966003 -0.4159354567527771 0.4118135273456573 0.2274754345417023 -0.7773908972740173 0.0390833541750908 -0.8905971646308899 -1.4010783433914185 -0.2290032804012299 -1.0178548097610474 -1.5614690780639648 0.5211935639381409 -1.4721696376800537 0.0946652591228485 0.7946070432662964 1.5963112115859985 -0.0014380847569555 1.0143907070159912 -0.4320821762084961 -0.5795978307723999 0.0743056684732437 0.2244346439838409 0.8921917676925659 0.1455978006124496 0.5483061075210571 -0.4345203638076782 -0.7923473715782166 1.4716989994049072 0.3429863452911377 0.4818177521228790 0.5546476244926453 -1.2282470464706421 -0.6150535941123962 -0.2818072736263275 -0.6432889699935913 -0.4036941528320312 0.2554890811443329 1.0801320075988770 1.0210558176040649 0.1348517537117004 -0.8191205263137817 -0.4007034301757812 -0.0822299942374229 -0.0023023223038763 -1.1186302900314331 1.5104042291641235 -0.8567636013031006 0.2858238518238068 0.6908155083656311 0.9263147115707397 0.9885814785957336 -3.2169179916381836 0.6840310096740723 -1.4756497144699097 0.7094730734825134 -0.8509997725486755 -2.0081975460052490 1.5484112501144409 0.7382088899612427 0.1323281377553940 -0.1135144010186195 0.1185232549905777 0.9528018832206726 1.0858001708984375 -1.7045626640319824 -2.2404348850250244 -1.8651626110076904 0.1192892417311668 -1.2394745349884033 1.7255147695541382 -0.5105112195014954 1.0335239171981812 0.4435797631740570 0.8841395974159241 -1.7559632062911987 -0.6893244981765747 -0.0845350623130798 0.2330033779144287 0.6207817196846008 -1.2476583719253540 1.5062867403030396 -0.3392305076122284 -0.8158437013626099 0.3697659075260162 0.5146150588989258 0.0806605145335197 -2.2147858142852783 1.2703648805618286 0.5603720545768738 -1.2423412799835205 0.9444942474365234 -0.8191542029380798 -0.9955233931541443 1.0836849212646484 -0.0357899293303490 -0.3675965368747711 -0.9889526367187500 1.9505600929260254 -0.6310143470764160 -0.4462381899356842 0.5144603848457336 -0.1515794247388840 0.6097753643989563 0.1781898736953735 -1.4601900577545166 -1.5610903501510620 2.8307399749755859 -0.3836674988269806 0.0091311540454626
-0.3468490242958069 0.1751625239849091 -0.3321699202060699 0.0118633145466447 0.0361583940684795 0.9780057072639465 -0.5715110898017883 -0.1195552200078964 1.2830466032028198 -0.1487132459878922 -1.8716522455215454 1.6117074489593506 1.0107673406600952 -0.1779670864343643 -0.3689570128917694 -0.1688057035207748 -0.4765297472476959 -1.8206366300582886 0.2240619659423828 1.3138833045959473 0.0171361695975065 0.8896679878234863 2.2680671215057373 -1.0069688558578491 -0.5885854363441467 -1.5646755695343018 0.8858869671821594 0.2791163325309753 -0.5962281823158264 1.3031482696533203 0.8102609515190125 -0.9507299661636353 0.2653416395187378 0.8113273978233337 0.5675353407859802 -0.7066525220870972 -0.3717570304870605 -1.3762028217315674 -0.8474418520927429 2.0848033428192139 -0.9047675132751465 -0.9180501699447632 -0.3912552893161774 -0.8088056445121765 -0.2611749768257141 0.5447813868522644 0.7304946780204773 0.7419346570968628 -0.9726625084877014 -0.4598977863788605 -0.4010126888751984 0.0283017139881849 2.0335164070129395 -0.5823467969894409 -0.1236292719841003 1.0677068233489990 0.8858895897865295 0.4760752320289612 -1.2515217065811157 -0.2745340764522552 -0.6729242801666260 -0.1697002351284027 0.4136393666267395 -1.0871702432632446 0.4419794380664825 -0.4130495488643646 -1.5813627243041992 -0.6407716870307922 -0.9890289902687073 1.5183979272842407 0.4050672650337219 -0.7783209681510925 0.1836697310209274 0.0151045918464661 1.6672828197479248 -0.0097343148663640 -1.4936923980712891 0.6523358821868896 0.0600378140807152 0.1516025811433792 1.5835661888122559 -1.1235454082489014 -1.0827115774154663 1.4614559412002563 0.6065237522125244 -1.8901165723800659 -0.4708625376224518 0.8875377774238586 0.7888575196266174 0.2081092894077301 -0.6082119941711426 -1.0398023128509521 -0.5358302593231201 0.2058928906917572 -0.1222042217850685 0.0680739954113960 -0.4416277706623077 -1.6834763288497925 -0.1995351761579514 -0.2311258018016815 -0.2917898893356323 0.6893857717514038 1.1170073747634888 0.4187723994255066 -0.9239697456359863 -2.2392868995666504 -1.0399684906005859 0.5908850431442261 -1.1590403318405151 1.8195019960403442 0.4893561899662018 0.0201588738709688 -0.3327849209308624 0.8755862712860107 -1.4724451303482056 1.4066061973571777 -1.8548204898834229 -1.5732389688491821 -1.1837751865386963 -1.4223114252090454 0.2500985264778137 0.2501941621303558 -0.9703556895256042 -0.0075811236165464 -1.9134197235107422 0.7431200742721558 -0.8068311810493469 1.8152415752410889
-0.2483713179826736 0.9972027540206909 -1.5935823917388916 1.5582704544067383 -0.7202689051628113 -0.6151214241981506 -0.2847910523414612 2.9317045211791992 0.2750156223773956 -0.3221169710159302 1.0949705839157104 -0.5567943453788757 2.0090644359588623 0.2157221734523773 -0.6466630697250366 -1.1435378789901733 -0.5971828699111938 2.0073761940002441 0.3360325992107391 -0.7516552805900574 -0.1907835453748703 -2.1670606136322021 0.7889487743377686 -1.1646350622177124 -0.3573597967624664 -0.4857161045074463 2.0589601993560791 1.2015534639358521 -1.4489696025848389 0.1100962311029434 0.2197086066007614 -0.7890073060989380 0.2133047729730606 -0.5481969118118286 -1.3563115596771240 1.0622653961181641 0.6976153254508972 1.5913245677947998 -0.1380539089441299 0.9417903423309326 -0.4989443421363831 -0.5836873054504395 -1.0100121498107910 -0.3765977323055267 1.5169035196304321 0.5238416790962219 -0.0841482505202293 0.4405560791492462 -1.3631068468093872 0.1871524006128311 -0.0395235158503056 -0.0031893600244075 0.9911703467369080 -0.3852706253528595 -0.7821112871170044 -1.1543846130371094 -0.4086929261684418 -1.5332753658294678 1.1781105995178223 1.3419479131698608 0.3904141783714294 -0.8017572164535522 0.0872435644268990 0.1417899578809738 -0.3834449648857117 -0.2469560503959656 1.0806686878204346 -0.9338755011558533 1.9783695936203003 -1.2503323554992676 -0.7881436347961426 -0.9962742924690247 1.3144185543060303 -0.3661411106586456 0.3619127571582794 -1.7277107238769531 -0.8950003385543823 -0.3679277598857880 -1.1419810056686401 0.2638942301273346 1.0721064805984497 0.3797043561935425 0.1345900297164917 1.0963672399520874 0.4089592099189758 0.6457778811454773 0.5878550410270691 0.8335952162742615 0.4201393127441406 0.5727128386497498 0.7220619320869446 0.3771260082721710 1.0634083747863770 0.5650197863578796 -0.6627065539360046 -0.8728246688842773 -0.2013779729604721 0.0912605896592140 1.0321760177612305 -1.0272029638290405 -1.6339685916900635 0.5444026589393616 -1.0870492458343506 0.5324278473854065 0.7436849474906921 -0.3369067013263702 -1.0353777408599854 0.5481089949607849 1.8357135057449341 -2.2516362667083740 -0.2838769853115082 -1.0545386075973511 0.1445298641920090 1.6443897485733032 0.5850322246551514 0.7304465770721436 -0.1321807056665421 -0.5169975757598877 -0.6717684268951416 -0.1948642879724503 -1.1094814538955688 0.8316755294799805 -0.2981644272804260 1.2349992990493774 -0.6752219796180725 0.6576027870178223 1.0280019044876099 0.1238453835248947
-0.3184469342231750 -0.6898459196090698 -0.9716044664382935 0.6912361383438110 0.3471543490886688 -0.3809694945812225 0.1825775504112244 -0.1464312374591827 0.9085734486579895 -0.3566555082798004 0.0920327380299568 -0.4564855992794037 -1.5577697753906250 -0.1394694894552231 -0.5939311981201172 0.5732245445251465 -0.7486009001731873 -0.2762386798858643 0.7564767599105835 -1.8144643306732178 -0.4437057673931122 -0.2904285192489624 -1.2680333852767944 -1.0110900402069092 0.1076869145035744 0.7409380674362183 0.2683551907539368 0.0776640921831131 0.0987176597118378 0.3515472114086151 -0.3512086272239685 -0.6247672438621521 0.9420183897018433 -0.6002079248428345 0.9507983922958374 -0.0345789194107056 0.6878617405891418 0.2366007119417191 0.3030464053153992 0.8808526396751404 0.0784513354301453 -0.1152253448963165 1.6219265460968018 0.6988463997840881 -0.8567547202110291 0.9031431674957275 0.7566937208175659 -0.2549314498901367 -0.5049373507499695 -0.7824710011482239 1.6386903524398804 0.5434400439262390 -0.2478513121604919 -0.0085103651508689 0.3963645994663239 2.4416623115539551 0.6323718428611755 -1.0794699192047119 1.6163444519042969 -1.5617945194244385 0.8626329302787781 -0.7896723747253418 0.7203532457351685 1.2790174484252930 -0.8048205971717834 1.8238809108734131 -0.7010459303855896 -0.4688895642757416 -1.0049378871917725 -0.4730373024940491 -0.2127100825309753 0.4798838496208191 0.7313049435615540 -0.7334296107292175 0.5703122019767761 1.8201473951339722 1.0865474939346313 -1.2243841886520386 1.4986788034439087 -0.7839169502258301 0.7129397988319397 -0.9733784198760986 0.2473302632570267 0.0844297334551811 1.1921138763427734 -1.7359241247177124 -0.7896580100059509 -0.0636990442872047 0.1577848047018051 -0.5025256276130676 -0.0375737026333809 0.9160955548286438 0.7935283780097961 -2.1691482067108154 -1.5867162942886353 -2.4844789505004883 -2.1288802623748779 -2.1401934623718262 -0.5203472971916199 -0.0328865833580494 -1.0051472187042236 -1.4036641120910645 0.3882884979248047 -0.3984825611114502 0.5330272912979126 1.3825204372406006 1.7490444183349609 -1.7566682100296021 -1.5669962167739868 1.0496569871902466 0.9213790297508240 0.2557590305805206 -0.9384271502494812 0.4553983807563782 -0.8284881711006165 0.7442203760147095 -0.3983754515647888 0.2599005699157715 0.1897513568401337 -2.3124525547027588 -0.7569803595542908 -0.6075631380081177 -0.8442263603210449 -1.3017866611480713 -1.4565103054046631 0.1413577944040298 -0.6657373905181885 -0.0117536392062902
-0.0200855862349272 -0.4585937857627869 -1.4849294424057007 0.4433026015758514 -0.7581264376640320 -0.3871655464172363 -0.1995240747928619 -0.1752285808324814 0.8662933111190796 -1.7161010503768921 -0.9595157504081726 -0.5823185443878174 -0.7039037346839905 0.3527796268463135 0.9757098555564880 -0.1378776729106903 0.4895080029964447 0.6776061654090881 1.1039139032363892 -1.3925733566284180 -0.0356851257383823 2.5348947048187256 0.0218138508498669 -0.9412021040916443 -0.7546160221099854 -0.5919633507728577 2.1010928153991699 0.8352801203727722 -3.0416591167449951 0.9435321092605591 -0.9274928569793701 1.9683570861816406 0.1047485247254372 0.1708505749702454 0.4777702689170837 -0.0446362532675266 0.5698838829994202 -0.1057868599891663 -0.3085126578807831 0.6960828304290771 0.3098712265491486 1.6939791440963745 0.3088748455047607 0.8605306744575500 -0.9411180615425110 -0.5892596840858459 -2.1006510257720947 -0.1800162941217422 1.3796648979187012 -1.8751021623611450 -0.0282198805361986 0.8937993049621582 -0.6768239736557007 -1.4219745397567749 0.2852458655834198 0.4385851621627808 1.0093185901641846 1.3722438812255859 -0.4258755743503571 -1.0561854839324951 0.8914054036140442 -1.9092973470687866 -0.2615510523319244 2.1803550720214844 -0.1893935650587082 0.6855741143226624 0.1243038699030876 1.2651765346527100 0.3776497542858124 -1.8803001642227173 -0.1677566766738892 -0.1235825791954994 1.4104114770889282 -0.6587110757827759 0.7330078482627869 -0.8109921813011169 -0.8267643451690674 -0.4923242926597595 -0.0403327643871307 0.8332874774932861 -0.4471785128116608 -2.3033361434936523 0.3098610341548920 0.4095583856105804 -0.0534601695835590 -0.5396812558174133 -0.7688098549842834 -0.1758296936750412 -1.4700318574905396 1.3965002298355103 0.1464981585741043 0.5758279561996460 0.2715777754783630 1.3159409761428833 1.8422828912734985 -0.3167065382003784 -0.0724736675620079 0.5868390202522278 0.2570262849330902 1.5128699541091919 1.5564887523651123 -0.2516935765743256 0.0394384004175663 -0.3808398842811584 0.3571732044219971 -0.6266805529594421 -2.1038441658020020 1.4178954362869263 0.0622777268290520 0.0069707571528852 1.7838176488876343 -0.7901573777198792 -1.0826187133789062 -1.8810589313507080 -0.4383547306060791 0.1815462857484818 -1.8611966371536255 -1.6828285455703735 -2.2646753787994385 0.1265028566122055 1.6508047580718994 0.5810047388076782 -1.2662792205810547 -2.1370303630828857 0.8505696654319763 0.1893068701028824 2.1540236473083496 -0.1753279864788055
0.9249771833419800 0.0164275728166103 0.2178839296102524 0.7441297769546509 -0.2218065559864044 0.0817543044686317 -0.6338155865669250 -0.2022564709186554 -2.6741130352020264 0.7335458397865295 1.3019980192184448 2.2985107898712158 0.5058255195617676 -0.1895290017127991 -0.6083067655563354 -0.3907317221164703 0.0643562078475952 0.4409048557281494 -0.0330734737217426 1.1385359764099121 -1.1577175855636597 1.0994087457656860 0.3328688442707062 -0.3856154382228851 -0.6067511439323425 -1.2793158292770386 0.6117625832557678 0.6605761051177979 0.8938776850700378 0.6548162698745728 -0.5460333824157715 -1.4794099330902100 -0.7751870155334473 -0.7842600345611572 -0.1142099052667618 1.6210975646972656 0.0405502058565617 0.4840710759162903 0.6077490448951721 0.5365917682647705 1.5324500799179077 -0.9250413179397583 -1.0557276010513306 -1.8459162712097168 -1.3606624603271484 -0.8231946825981140 0.6499435305595398 -0.8966763615608215 -0.6202644705772400 -0.0626615732908249 0.3515084981918335 0.2080709636211395 -0.5483417510986328 -0.1609083712100983 -0.5540719032287598 -1.2171387672424316 1.3730928897857666 0.7486790418624878 -0.5410274267196655 -0.8340520858764648 0.2221148163080215 0.0924624279141426 -0.2080921977758408 -0.2477932870388031 1.3225520849227905 0.6957762241363525 -0.1649407297372818 -1.2751345634460449 -0.5116843581199646 0.5810785889625549 -0.5152989029884338 -1.5113742351531982 -0.5990669131278992 1.1362589597702026 -1.2265019416809082 1.9077476263046265 1.2374516725540161 0.5100474357604980 -0.3987149298191071 -0.4913527667522430 -1.3413197994232178 -1.0126109123229980 0.2922197580337524 -1.0922428369522095 -0.0280338749289513 -0.1777994036674500 -1.6907050609588623 -0.5285691022872925 -0.2090212553739548 0.7033225297927856 0.4904766082763672 1.4815224409103394 -0.8600146770477295 -1.2628573179244995 0.2812506258487701 -0.2777070701122284 1.1303476095199585 -0.6064260601997375 -1.3356263637542725 -0.4471415877342224 -0.2083566635847092 1.1695952415466309 -1.8335837125778198 -0.5507336258888245 -0.8631111383438110 0.1565413475036621 0.9288467168807983 -0.1401441395282745 -1.2870548963546753 0.0255910288542509 1.0279498100280762 1.4309473037719727 1.4393374919891357 1.0850591659545898 0.3627634346485138 1.2775597572326660 -0.2612180113792419 -0.1993213444948196 -0.0688482075929642 1.5922675132751465 0.6305464506149292 -0.5235271453857422 0.6269317269325256 0.5358100533485413 -0.2777760028839111 -1.4198787212371826 -1.3522424697875977 -1.2913845777511597
-0.1111290380358696 0.8991302251815796 -1.2519066333770752 -0.0084118265658617 -1.5875619649887085 -2.0598375797271729 -1.0041788816452026 -1.1475663185119629 1.9937108755111694 -0.2236630618572235 -0.2368026077747345 0.6631753444671631 0.5586892962455750 -0.3286880850791931 -0.7847006916999817 -1.5272946357727051 1.8698263168334961 1.6131097078323364 0.0495910160243511 -0.4681394696235657 -0.0318070277571678 -0.1735532134771347 -0.3516988754272461 -0.0718018934130669 1.5999109745025635 0.3424957394599915 0.3154449462890625 -0.4582758545875549 -0.2938387393951416 -1.8704141378402710 -0.0623888261616230 -0.8512760996818542 -0.3397799730300903 -0.1924830973148346 0.6948298811912537 1.0425827503204346 -0.9487695693969727 0.1499260663986206 -1.5252375602722168 1.3851248025894165 -0.1130506694316864 0.8381306529045105 -1.5177165269851685 -0.5802279114723206 1.7132487297058105 -0.3057579100131989 0.0021142906043679 -0.6619170904159546 1.1319977045059204 0.2981153726577759 -1.2199269533157349 0.5568294525146484 -1.1128969192504883 1.6660622358322144 -0.3723110258579254 0.3604671359062195 -1.1892228126525879 -0.7341510057449341 0.1505591124296188 0.8454434871673584 -1.5265463590621948 -0.9121949076652527 -0.2680460810661316 1.8052585124969482 -0.4527071118354797 -0.7453017830848694 -0.6526414752006531 0.4652997553348541 0.2307144403457642 -0.5764997601509094 -0.6870723962783813 1.5887550115585327 1.5468933582305908 -0.4320768713951111 -1.9305732250213623 -0.2695882022380829 0.3309675157070160 1.0077394247055054 2.2553598880767822 -0.9144735336303711 1.4197155237197876 1.0712493658065796 -1.9091516733169556 -1.1921912431716919 -1.2689968347549438 2.5490667819976807 0.7553371787071228 0.0139867924153805 -0.2917106449604034 -0.7044858932495117 -0.1299252361059189 -0.8213390111923218 -0.2779763042926788 0.5814877748489380 1.4876247644424438 -0.9006177186965942 0.4565827548503876 0.6335374712944031 0.5991746187210083 0.9982693791389465 -0.9567471742630005 -0.2427139282226562 -0.9454150795936584 0.1396436095237732 -0.0276050046086311 1.1136826276779175 1.2670795917510986 0.8538344502449036 0.7204797863960266 -0.4806807041168213 0.8031529188156128 -0.1781124919652939 -1.0461325645446777 0.7107934951782227 -0.8453700542449951 0.8786937594413757 1.4587327241897583 1.7459329366683960 0.5519184470176697 0.3182702660560608 -1.1264593601226807 -0.8640459775924683 0.5562453269958496 -0.6262416243553162 -0.2624521255493164 -0.2658036947250366 2.0814318656921387 -0.7781668305397034
-0.1896131336688995 -0.2931864857673645 -2.0419909954071045 -0.5342270731925964 0.8511712551116943 1.2268041372299194 -0.1017560809850693 -0.2044447362422943 -0.6252631545066833 0.5553798079490662 0.5964855551719666 0.5419605970382690 0.5660501718521118 -1.0880495309829712 -1.5426856279373169 0.4080320894718170 -1.4008220434188843 -0.5973329544067383 -1.2379071712493896 0.0890786126255989 -0.4544561207294464 0.1881430745124817 -2.4041380882263184 0.0611961856484413 -0.3490435779094696 -0.0692555084824562 -0.1174404099583626 -0.6923292279243469 0.1327171027660370 -0.0980570912361145 -1.3434953689575195 0.4068004190921783 0.8529717922210693 0.4019266963005066 -0.9981742501258850 -1.4683570861816406 0.9142375588417053 0.8848257064819336 0.4762863218784332 -1.1387255191802979 -0.9855213165283203 0.8213968276977539 0.0174687821418047 -0.2858845889568329 -0.4462030231952667 -1.0343843698501587 0.5991930961608887 -1.9458943605422974 -0.0579735673964024 -0.9412434101104736 0.3142603635787964 1.2893648147583008 0.6246505379676819 0.3599178791046143 -1.6848846673965454 0.4299703240394592 -0.5593651533126831 0.1268681287765503 0.5025809407234192 -0.0307353585958481 0.4688059687614441 -1.7760978937149048 1.3666148185729980 0.0410022363066673 0.0718716084957123 0.4294827878475189 0.1756289601325989 0.2110046744346619 0.5112672448158264 1.1018266677856445 -1.2503131628036499 0.4242064952850342 -1.4455189704895020 -1.0931901931762695 -1.4075226783752441 -1.8090121746063232 -0.8478389978408813 -1.1721770763397217 0.9026237130165100 1.0055031776428223 1.7982214689254761 0.2572710216045380 -1.0319509506225586 0.6676458716392517 1.0466721057891846 -0.4223684668540955 0.0395070202648640 -0.1941773742437363 0.4695481956005096 -0.4002017676830292 -0.6327413916587830 1.3046033382415771 1.3528591394424438 -0.2687216401100159 1.3571238517761230 2.0385119915008545 0.3370260894298553 -0.0863228365778923 0.5334874987602234 -1.3327870368957520 0.2765545845031738 0.0071008638478816 0.2143015563488007 -0.4703435599803925 -0.6858986616134644 -1.0700525045394897 0.9013167023658752 -0.5372396707534790 -0.2867980599403381 -0.7043601274490356 1.0143262147903442 -0.1821209490299225 0.6351322531700134 0.2339956462383270 -0.6936651468276978 -0.4671849310398102 -0.2541519105434418 -0.6477317214012146 1.3734774589538574 -2.2420961856842041 0.0296519957482815 -0.3635497987270355 -1.3026340007781982 -1.2384682893753052 -0.1149384304881096 2.0623095035552979 -0.4122167527675629 1.1006280183792114
0.8664559721946716 1.1820948123931885 0.4083096981048584 1.4018300771713257 -0.8544512391090393 2.6472449302673340 -1.0091942548751831 -0.4482595622539520 -0.4016224443912506 1.3643010854721069 1.7159065008163452 -0.0773461610078812 -1.4951444864273071 1.0129323005676270 1.1146349906921387 0.6610171198844910 -0.3608099520206451 -0.1944379061460495 1.6290856599807739 -0.3845788836479187 -2.7719247341156006 0.8410026431083679 -0.2680352628231049 -1.0259846448898315 0.6992425322532654 -0.3140324056148529 1.3508372306823730 -0.4277009963989258 -0.7539264559745789 0.4657908976078033 0.2956299781799316 -0.6650633811950684 0.1899238079786301 -0.1908758282661438 1.2164521217346191 -0.7886375784873962 -0.8398170471191406 -0.3013967573642731 1.5593457221984863 0.0202461555600166 1.1164150238037109 0.5593588352203369 1.0550645589828491 0.6229624748229980 -0.7972053289413452 -1.4353067874908447 -0.1200189366936684 0.6599738001823425 0.9831613302230835 -0.7573158740997314 -0.8037108182907104 0.0034124157391489 -1.2045402526855469 1.0033484697341919 0.1870464980602264 0.5829694271087646 2.6437320709228516 -1.8882035017013550 -1.3979873657226562 -0.1297352910041809 0.0498216003179550 0.1547276526689529 -0.2900280952453613 0.5181210637092590 0.1409976929426193 0.8751960992813110 -0.5750538110733032 1.3802329301834106 0.8463667035102844 -0.1226525008678436 0.8019540309906006 0.9727101325988770 -0.3882361650466919 -0.3460758924484253 0.3545254170894623 -1.0380432605743408 -0.1661142855882645 -1.6615036725997925 0.7335088849067688 -0.0188169758766890 -0.2212306261062622 0.6546922326087952 0.2216669768095016 -0.2899232506752014 -2.8085248470306396 -0.7801427245140076 -1.1754519939422607 0.2391191422939301 -0.8928974270820618 -0.3217255473136902 0.3136003911495209 -0.9565718173980713 1.2531306743621826 0.7597417235374451 1.3769921064376831 -2.3106789588928223 -1.2240779399871826 -1.2137943506240845 -0.5333200693130493 -1.2052422761917114 0.0864697843790054 0.3721238374710083 -1.6914662122726440 -1.2105340957641602 -1.4113141298294067 -0.9465991258621216 -0.6671630144119263 0.9034839272499084 0.9993136525154114 -0.4163411259651184 -0.0066595510579646 0.4734111726284027 -0.7894200682640076 -0.1491920053958893 -0.8786318898200989 -1.4054472446441650 1.3758012056350708 -1.2901709079742432 0.2938889861106873 -0.0138011528179049 0.7317493557929993 -0.4668028354644775 0.5903706550598145 2.0400223731994629 -0.6810019612312317 0.6934756636619568 -1.0492211580276489 -0.2337093949317932
1.5968440771102905 -2.4978654384613037 -0.8131842613220215 1.8423236608505249 0.2733876109123230 -0.5961154699325562 0.5256205797195435 0.0754264444112778 0.5829263329505920 0.0345459505915642 -0.8489948511123657 0.8853836059570312 1.8159519433975220 1.3421945571899414 -0.8883296847343445 1.1983749866485596 1.8319473266601562 -0.2529842853546143 -0.9728015661239624 -2.0173845291137695 -0.1931932568550110 0.0862447321414948 0.5497627258300781 -1.5322778224945068 -1.0158588886260986 -0.1456210464239120 0.2570943236351013 0.1660343706607819 1.4215795993804932 -2.1185646057128906 0.0241745077073574 0.8522022962570190 0.0229673292487860 -1.3106703758239746 -0.1973965615034103 0.3161243498325348 0.5703366994857788 -0.2717139422893524 0.7703587412834167 0.9585560560226440 0.9686715602874756 1.3683986663818359 0.0337410792708397 -0.4205799698829651 1.0161453485488892 -1.1827253103256226 -0.2726310193538666 -1.9187673330307007 -0.3561666905879974 1.8188182115554810 -0.2747320830821991 0.5005319714546204 1.4444903135299683 1.3352231979370117 0.3406819105148315 1.8089832067489624 -0.2835157513618469 -0.9238894581794739 0.3244355022907257 -0.9301357269287109 -0.4399167597293854 -0.3036677837371826 -0.5600011944770813 0.3760060966014862 0.9151564240455627 -0.2037098854780197 1.4546926021575928 -2.2722234725952148 -0.4655511677265167 -1.0825097560882568 -0.9792863130569458 0.0194152686744928 -0.8149623870849609 -0.9052128195762634 -1.7187792062759399 0.5335965752601624 0.3627451956272125 -1.1555396318435669 1.2667903900146484 -0.7878188490867615 -0.9279041290283203 1.2603185176849365 -1.8600292205810547 -0.2884942293167114 -0.5090029239654541 -0.4813780486583710 -2.1550662517547607 1.7112200260162354 0.2381559908390045 -1.2325080633163452 1.2144986391067505 -0.2181301862001419 0.8043684959411621 0.9589517712593079 0.4248004853725433 -0.2680059373378754 1.2156612873077393 -0.0606066510081291 -2.2013347148895264 -1.7331800460815430 0.7356837391853333 -1.4864013195037842 -1.2306184768676758 -0.6674355268478394 -1.1289186477661133 0.7488422989845276 0.1155111044645309 -0.2092848420143127 -0.1655838042497635 -0.9699887633323669 0.4495702087879181 -0.0282498449087143 0.7199849486351013 0.1159050688147545 0.1279951035976410 -0.2182269096374512 -0.2166606187820435 0.9978327751159668 -1.7883734703063965 0.6224464178085327 -1.7005977630615234 -0.5131352543830872 0.3303696811199188 0.3709956705570221 1.8286845684051514 0.7384795546531677 -0.9081176519393921 -1.1706339120864868
0.0268596652895212 0.1441136449575424 -1.0144239664077759 0.2255497127771378 0.9824334383010864 0.3173352181911469 -0.0112708471715450 -1.1625554561614990 -1.9624758958816528 0.7143335342407227 1.1200084686279297 0.1200705394148827 0.6121630668640137 1.3906909227371216 0.2547457814216614 -1.6057690382003784 0.8628697395324707 -0.9056025147438049 -0.0298915151506662 1.4174381494522095 -0.6867027282714844 -0.6256340742111206 0.8021292090415955 0.5293366909027100 0.5954453349113464 -0.6458602547645569 -1.8964509963989258 0.0758447349071503 -2.7729103565216064 0.5856655836105347 -1.4604760408401489 -0.3489729464054108 -0.1782045066356659 1.1321613788604736 -0.5674566626548767 -0.8680458664894104 0.6153830289840698 -0.2550060451030731 0.4539364278316498 0.2426437288522720 1.7125282287597656 -0.7501717209815979 0.5716171264648438 0.5671174526214600 0.6301191449165344 -2.0910365581512451 -1.2272682189941406 0.1462042778730392 -1.6643157005310059 -1.3216578960418701 0.0222231019288301 -1.5437769889831543 -1.3434606790542603 -0.8289870619773865 -0.2074501514434814 0.5425320863723755 -1.6631385087966919 -0.0750845149159431 -1.1420282125473022 -0.6840048432350159 0.6639570593833923 -2.3269596099853516 0.1282527148723602 0.6535418033599854 -1.1389073133468628 0.5517224073410034 -0.1720013916492462 -0.5003718733787537 1.0124986171722412 0.0812239497900009 0.2166708707809448 0.7347226738929749 0.0787145942449570 0.9096580147743225 -0.4054927229881287 1.2603436708450317 1.2465953826904297 0.7465885281562805 -0.2829391062259674 -1.4088633060455322 -0.4913203120231628 0.2789184749126434 -0.2340873330831528 0.7864536046981812 0.0255348086357117 0.6838610172271729 0.7426221966743469 -0.9739192128181458 0.2911377549171448 2.2009451389312744 0.7802505493164062 -1.4050453901290894 0.6951073408126831 1.6864261627197266 1.2610379457473755 -0.2768919467926025 -1.1701871156692505 1.3180927038192749 -1.1215730905532837 -0.6157084703445435 -1.1738551855087280 0.4348453283309937 0.7803015112876892 -0.1460302025079727 0.2129642218351364 0.2195515632629395 1.4172844886779785 1.7241579294204712 0.3671208322048187 1.2295870780944824 -0.3974034190177917 0.0503006912767887 -0.7359264492988586 0.1669746637344360 0.2597979307174683 0.6429508924484253 -0.2449900060892105 0.0038922801613808 -0.5383651852607727 -0.1971648186445236 -1.0868457555770874 1.0628592967987061 -0.4289808273315430 -0.6042367815971375 -0.8598297834396362 0.1962558478116989 -0.6632118225097656 -0.4734566211700439
0.0713912174105644 -0.9208323955535889 0.1309336423873901 -0.6745738387107849 -0.8329980373382568 -1.0727930068969727 -0.0792715921998024 -1.5404031276702881 0.4222828745841980 -2.6200218200683594 -0.1646567881107330 -0.6197496652603149 -0.3802886009216309 1.1192570924758911 -0.0523838140070438 -0.9332290887832642 -0.9454225897789001 0.6691689491271973 -0.2322077304124832 -0.5880270004272461 2.4475252628326416 0.6878103613853455 0.3571642637252808 -0.7927178144454956 1.0686012506484985 -0.7147452831268311 0.4498036503791809 0.7937683463096619 -0.5146965980529785 -1.2197102308273315 0.6586810350418091 -0.4953900873661041 0.5781139135360718 -0.4121605753898621 -0.7890872359275818 -1.5232719182968140 1.9561126232147217 -0.1716025471687317 0.7357733845710754 -0.0098101282492280 1.0958925485610962 0.3802847564220428 -0.6585245728492737 0.8086141943931580 -0.1961052119731903 0.0977071374654770 -0.9102498888969421 -0.9224079251289368 -0.8134003281593323 0.7843394875526428 -2.0774090290069580 0.6210747957229614 -1.4310402870178223 0.9024340510368347 0.1985381841659546 -0.5724767446517944 -0.1858250945806503 -0.3983637988567352 0.1336514055728912 -0.0055314633063972 -1.6437079906463623 -2.3998100757598877 -1.0058008432388306 0.0176022648811340 0.8402863740921021 -0.3738768100738525 2.8867328166961670 -1.1666074991226196 0.6484935879707336 0.9383121132850647 2.0664489269256592 -0.3598013222217560 1.3033150434494019 0.4805996119976044 -1.5277751684188843 0.3671143949031830 -0.5014910697937012 1.4230287075042725 -1.1937553882598877 0.3549386858940125 0.2616057097911835 1.2602794170379639 -0.2920662164688110 2.8022000789642334 0.7945541739463806 -0.6141417026519775 0.5243029594421387 -1.4265903234481812 -1.9168064594268799 0.7851545810699463 1.8291509151458740 -1.0754207372665405 1.9028987884521484 -0.7332352995872498 0.6632210612297058 0.2722825109958649 0.4418501853942871 -0.5852516889572144 -0.6295192241668701 -0.5341195464134216 0.3920514881610870 -0.8925065994262695 -0.7304406166076660 0.0536683276295662 -0.2023978233337402 1.2526496648788452 -0.6843771338462830 -0.3039959967136383 0.9888269305229187 -1.2428611516952515 -1.3132324218750000 0.1773172467947006 0.5503366589546204 0.4557345211505890 0.6589478850364685 -0.2260406911373138 -0.6258643269538879 -0.3274236321449280 0.6918854713439941 0.4553843438625336 1.2346818447113037 0.9377682805061340 -0.8819280266761780 -0.7768329977989197 0.4732009768486023 -1.3148801326751709 -0.0118201896548271 0.4939085841178894
-1.0354796648025513 0.9673603773117065 1.5318315029144287 -0.7653229236602783 0.8576263189315796 0.9914821386337280 -0.3466808795928955 0.3588088452816010 0.9303230643272400 -0.9827017188072205 -1.2513879537582397 -0.8452329635620117 1.4693480730056763 -0.1550243198871613 0.0019427910447121 -0.7817939519882202 -0.4144582748413086 -1.6458684206008911 0.3227705061435699 0.3945850431919098 -1.3811676502227783 2.1384351253509521 -0.1238803714513779 0.5189435482025146 -1.1857594251632690 0.1126080229878426 -0.4313154816627502 0.0530597493052483 -0.3838727474212646 -1.1449750661849976 0.5908364653587341 0.9329335689544678 0.6154065132141113 -0.6616570949554443 1.2396031618118286 1.3454262018203735 0.9893621802330017 0.1905597150325775 0.9216266870498657 -0.8539258837699890 -0.8102074861526489 1.1115102767944336 -2.6494226455688477 -0.9559657573699951 0.0374806746840477 -0.8892920613288879 0.5345326066017151 0.9367040991783142 -0.5593515634536743 -0.2263536453247070 0.8834605813026428 0.5989770293235779 -1.4683541059494019 -1.4897289276123047 0.1416519880294800 1.8585628271102905 0.1670645326375961 -1.7851588726043701 1.4718788862228394 -1.1744657754898071 -0.6184732913970947 -0.2566042542457581 -0.1634720712900162 -0.7949551343917847 0.0489535667002201 1.1848180294036865 0.1530615836381912 -0.5033453702926636 2.3032069206237793 -1.0253272056579590 -1.1649857759475708 0.2291043400764465 0.6706453561782837 -0.3741215169429779 -0.0587598197162151 -0.2370156943798065 0.6785024404525757 2.4071230888366699 -0.1248060166835785 -1.4504729509353638 -0.8668635487556458 0.1112693473696709 0.2696396708488464 0.3170829415321350 -2.1308195590972900 -0.6839537024497986 0.1781961172819138 0.1717466562986374 -0.6093327999114990 1.0243129730224609 -0.3407074511051178 -0.8969768285751343 0.7970484495162964 1.0545997619628906 -1.2385324239730835 1.2200793027877808 0.0805570483207703 0.3601551055908203 -1.6870307922363281 -1.7432650327682495 -0.6039295792579651 -0.2972448468208313 0.9644746780395508 0.1164710298180580 0.4317089021205902 -0.4783733189105988 -0.6462672352790833 0.7604864835739136 0.7697910070419312 0.7820445895195007 0.9558415412902832 1.6146088838577271 -1.3502811193466187 -0.6978914737701416 -2.3744738101959229 0.5661191940307617 0.5959829688072205 -0.0536760054528713 0.7238108515739441 -0.8221302628517151 0.4063758254051208 0.6123019456863403 -0.9470834732055664 -0.4170731604099274 1.1476005315780640 0.7138715386390686 -0.4283131659030914 -0.1996345818042755
-0.0099007831886411 0.7554321289062500 -0.7345781326293945 -0.7813908457756042 0.3206432461738586 0.0754323974251747 -0.7997681498527527 0.2122317105531693 -0.3686611056327820 -0.0221077483147383 -0.8538686633110046 -0.5055550932884216 -0.3146605193614960 -0.7677767276763916 0.9382336735725403 0.7739204168319702 0.3815969228744507 -0.2704255282878876 -0.8575008511543274 -0.0685137286782265 0.2089504450559616 -0.5224245786666870 2.3384649753570557 -0.4724299013614655 1.9556638002395630 -0.2710326910018921 -0.5598160624504089 -0.7180258035659790 0.0431615337729454 -0.7153564095497131 0.8238639235496521 1.1576255559921265 -1.3272987604141235 -0.9197762012481689 0.2106459438800812 2.0182578563690186 0.8503258824348450 -0.3101437687873840 0.4386832118034363 -0.5564620494842529 -0.2760262489318848 0.7247236371040344 -1.0755764245986938 -1.2833149433135986 -0.2202945202589035 0.2638861835002899 0.0698742270469666 0.5691010355949402 -0.7738984227180481 0.4771776795387268 1.6794854402542114 1.8380246162414551 0.8891143202781677 -0.2460339963436127 1.0843049287796021 -0.2235435992479324 -0.3092707693576813 -0.7814790606498718 0.1918856203556061 2.0857288837432861 -0.1539006084203720 0.4337936639785767 0.9466708302497864 -0.5719660520553589 -1.1899980306625366 -0.6873701810836792 1.3205120563507080 -0.2697564065456390 -0.6604743599891663 -0.5534678697586060 1.4959259033203125 -0.5205487012863159 1.4494246244430542 1.1552354097366333 1.4777218103408813 0.1171737909317017 -0.2254423499107361 -1.5149381160736084 -0.4758772253990173 0.2083335816860199 0.0054670874960721 0.5466635227203369 -0.3731206655502319 0.5247392654418945 0.3683412373065948 -1.6448639631271362 -0.3150970339775085 1.0494301319122314 -0.1256656348705292 0.7778213620185852 -0.4955246150493622 -1.0691435337066650 -1.2317928075790405 -1.1831600666046143 -0.5307713747024536 -0.2418482452630997 -0.3325611948966980 0.5208688974380493 0.7231750488281250 1.8685096502304077 -0.6104623079299927 -0.4835748672485352 1.1701714992523193 1.0588089227676392 -1.1834114789962769 -0.1203722655773163 -0.1799001246690750 1.4612370729446411 -0.3449491262435913 0.9039806127548218 -0.7371637821197510 -0.9728727340698242 0.3108388185501099 -0.7045754194259644 1.8244884014129639 -1.9285382032394409 0.0156068783253431 1.0245236158370972 0.8509420752525330 -1.6514140367507935 0.2597476541996002 -0.7186056971549988 1.3178461790084839 -0.4342745840549469 -1.2018437385559082 -0.1365999579429626 0.5224815607070923 -1.5835651159286499
-0.0436466671526432 0.7650279998779297 0.5182861089706421 1.9304476976394653 0.1854750216007233 0.5469371080398560 -0.1042105481028557 0.3284846842288971 -0.4858554899692535 1.2403585910797119 0.0631670430302620 0.7468853592872620 -0.9751558303833008 0.4651110172271729 0.0459097921848297 2.3499491214752197 -0.2522107958793640 -1.0754305124282837 -1.4877675771713257 -0.4077813625335693 0.3737705051898956 0.5266000032424927 0.9218334555625916 0.6564650535583496 -0.7774170041084290 0.8477492928504944 0.1740193217992783 -1.5048214197158813 -1.0087063312530518 0.3791096806526184 1.9873127937316895 -1.0732157230377197 -0.9583355188369751 -1.4447259902954102 -0.3282490670681000 0.6737378239631653 -0.0602820217609406 -0.5890319943428040 0.5463756918907166 2.0852780342102051 -0.5037853121757507 0.9315834045410156 0.1331761330366135 0.7672369480133057 0.7335915565490723 -0.2498574703931808 -1.8391695022583008 -1.3913173675537109 0.9048936367034912 0.5023481845855713 -0.5536634922027588 -0.9532991647720337 0.6247331500053406 -0.1141988039016724 0.3456496596336365 0.5620987415313721 -1.9041520357131958 -0.0875267386436462 2.1704783439636230 1.2335567474365234 -1.5172945261001587 0.6342664361000061 1.1593418121337891 -1.1393593549728394 0.3260069489479065 0.0302321854978800 -1.1371499300003052 1.2816926240921021 -2.1079404354095459 -0.0609117746353149 0.1854925453662872 0.7769299745559692 -0.6793543696403503 0.1108640506863594 -1.0980316400527954 2.9093697071075439 0.1453706920146942 0.5420321822166443 -0.0785153508186340 -0.0798907205462456 0.1399309784173965 1.0477262735366821 -0.3412439525127411 -1.5551612377166748 -0.9657351970672607 -0.1037449166178703 -0.4336413741111755 0.8181934952735901 1.1477426290512085 1.6177324056625366 0.2775163948535919 1.2776756286621094 0.6264373660087585 -0.8266923427581787 2.2099936008453369 2.3742585182189941 1.0833042860031128 -0.0456308349967003 -0.9699627757072449 0.5391353964805603 -0.0850189775228500 -1.0502225160598755 0.3688270151615143 0.7734639644622803 -0.5456686615943909 -0.7653782367706299 -1.6754521131515503 -0.1393687725067139 0.5234832763671875 -0.3055322170257568 -0.8851677179336548 -0.5567703843116760 -1.2086982727050781 1.3809200525283813 0.5346673130989075 -1.8360195159912109 0.8947154879570007 -1.1357949972152710 2.1806483268737793 -0.7675331234931946 0.0512845851480961 1.6122387647628784 0.9083048105239868 -0.1552741676568985 0.2108301073312759 0.1089251562952995 0.0085528567433357 1.3019815683364868
-0.2651911079883575 -0.5508288741111755 0.6950272917747498 0.4269976615905762 -0.1827611923217773 -0.7079867124557495 1.7705308198928833 0.0806649252772331 -0.9447708725929260 1.3070433139801025 -0.1127342134714127 0.5042733550071716 1.9290783405303955 -0.6974695324897766 0.1333546191453934 2.1359415054321289 -1.2574195861816406 0.7896649241447449 -0.5598619580268860 0.9107002019882202 -0.0682756453752518 1.6691745519638062 0.6291736960411072 -0.8510149717330933 2.5696146488189697 0.1280117630958557 -0.0563529655337334 1.6880146265029907 2.2802453041076660 -0.5788753628730774 1.5155299901962280 -0.4264432191848755 0.6856361031532288 0.6749008893966675 -0.9084450006484985 0.5735760927200317 -0.1599694788455963 -0.8295436501502991 0.6240109801292419 0.0822614431381226 2.2294266223907471 0.0504483096301556 -1.0766255855560303 -0.2471896708011627 0.7416712641716003 0.7091534137725830 -0.3020662665367126 -1.2224373817443848 -1.0360168218612671 1.3879494667053223 -0.5529938340187073 -0.7307915091514587 -0.4902340471744537 0.1924247890710831 -0.1935576349496841 1.2632892131805420 -1.1890696287155151 -0.4455671906471252 0.4514462053775787 1.0650058984756470 0.2760061919689178 -1.1818161010742188 -0.5535082221031189 1.3520666360855103 -0.8019455075263977 -0.5249569416046143 -0.3568514287471771 -1.6298274993896484 -1.2173516750335693 1.9539656639099121 -0.1495628058910370 -0.0300721861422062 -0.1102081835269928 0.7551702857017517 -0.1880236268043518 -1.6062378883361816 -0.3761748075485229 -0.9373193383216858 0.9452530741691589 -0.0263533387333155 -2.9960069656372070 0.7779587507247925 1.8731621503829956 0.6772144436836243 -0.2931250929832458 -1.1407402753829956 -1.9462977647781372 0.1592916846275330 0.5417770147323608 -0.2973508834838867 -1.7972277402877808 1.3043514490127563 -0.6132810711860657 -0.4577025175094604 0.0913691818714142 -1.4115407466888428 0.3180771470069885 0.5303613543510437 0.6916926503181458 0.9817523360252380 -0.8079451918601990 -0.8061758279800415 0.3050430417060852 0.5757876038551331 -0.4669840335845947 0.1204183027148247 1.8422367572784424 -1.8608263731002808 1.6174309253692627 0.4130083918571472 0.9986551403999329 0.1411269307136536 -0.2867169380187988 0.2856679856777191 -0.3433834910392761 -0.5380988121032715 -0.1689141541719437 0.3961471319198608 -1.7264188528060913 -1.9945870637893677 2.4419047832489014 -2.6088643074035645 -0.1596000045537949 0.4736672341823578 -0.0824806541204453 0.8784015774726868 0.1156261265277863 -1.5726280212402344
-1.2664490938186646 0.4545993804931641 -1.6695164442062378 -1.7799116373062134 -0.5492970943450928 1.4682040214538574 0.3443928658962250 1.1937818527221680 -0.3378055095672607 1.6451915502548218 -1.6181881427764893 -1.4682328701019287 0.3519584536552429 0.6710578799247742 -0.9777076840400696 -1.6544176340103149 0.7820491790771484 0.5386137366294861 0.3030771911144257 -0.2289265841245651 1.8849310874938965 1.6444659233093262 1.4324215650558472 -0.4351957738399506 0.1191573664546013 1.1941363811492920 -0.1703975051641464 -1.2832946777343750 0.0503019280731678 -1.0185376405715942 -0.1364797800779343 -0.8546699285507202 -0.4116698801517487 -1.2053929567337036 -1.8071863651275635 0.1363777071237564 1.0732983350753784 0.6689687967300415 -0.8367519974708557 2.7864089012145996 -0.2693673968315125 -2.8068253993988037 1.1128805875778198 -0.1029308214783669 0.8193210959434509 -0.5923675894737244 -1.5333883762359619 0.8134347796440125 0.4951120316982269 0.6201705932617188 -0.6157068014144897 0.2261571586132050 3.0367906093597412 -0.9833464026451111 -0.5461711883544922 -0.4414573311805725 -1.0853995084762573 1.4203809499740601 0.1719333529472351 1.7763807773590088 0.6608862876892090 0.0953741297125816 1.9709459543228149 -1.3366014957427979 -0.7622830271720886 0.5660681724548340 0.1954844892024994 0.5953294634819031 0.0027250135317445 -0.5220196843147278 -1.0034509897232056 -1.4546573162078857 -0.3398842215538025 -1.1702263355255127 -1.0029985904693604 0.1013664603233337 -0.5894927978515625 -1.5348118543624878 0.3666381835937500 -0.8751085996627808 1.7187544107437134 -1.4681134223937988 1.1206754446029663 -0.4786651730537415 0.2365649640560150 -0.2155829668045044 0.0696603059768677 -0.1796463727951050 -0.0495532378554344 0.4063896834850311 -1.3729255199432373 0.9263217449188232 -0.1019571870565414 -0.5744646787643433 0.1225262880325317 0.5991906523704529 -1.6589587926864624 -1.6205837726593018 1.3528618812561035 0.2750156521797180 -0.1443936973810196 0.9775652289390564 1.3778768777847290 -1.1289519071578979 0.4500337541103363 -0.1903494745492935 1.1204377412796021 0.2792190015316010 -0.0045542619191110 -1.6840884685516357 0.4740605354309082 0.9500236511230469 -0.2117885202169418 0.9517472386360168 0.9105534553527832 0.2418867051601410 2.6734387874603271 0.5552019476890564 0.1744756251573563 -0.6997580528259277 1.1707891225814819 -0.8273140192031860 -1.0302174091339111 0.4072967171669006 2.5108404159545898 -0.4279406964778900 0.0205783601850271 -1.0243504047393799
0.9061841964721680 0.7814984321594238 -1.3680971860885620 -0.0698952525854111 0.3580626845359802 0.5032635331153870 -0.1197362467646599 -0.6364423036575317 1.2167743444442749 -0.1314216852188110 -1.1286783218383789 0.1658726483583450 -0.0309395994991064 0.9444022774696350 -0.9353595376014709 -1.0631369352340698 -1.2816451787948608 -0.0208269283175468 -0.9856076836585999 -0.2947790026664734 -0.9826456904411316 0.2349126785993576 0.3199966847896576 -0.0370828285813332 -1.0875287055969238 0.3860797882080078 0.8780157566070557 -0.5193289518356323 1.0108215808868408 -0.2665386199951172 -0.3525958955287933 0.0388800017535686 1.0184754133224487 -0.3032095432281494 -0.0307996086776257 1.3370745182037354 0.4296657443046570 1.5106846094131470 -1.2570503950119019 0.6604868173599243 -0.4862961769104004 -1.1946561336517334 -0.4860818386077881 -0.4668182730674744 -0.3542316257953644 0.5175731182098389 -1.9499366283416748 0.7208800911903381 -0.4578766226768494 -0.0298283845186234 -1.0889978408813477 1.8472716808319092 -0.2574068009853363 -0.1704535782337189 -0.0353846661746502 -1.3621292114257812 2.7301757335662842 -0.2123004943132401 -2.0560548305511475 0.0297806095331907 -0.6952559351921082 0.5834808349609375 0.5033398866653442 -0.1782048642635345 -0.9057490229606628 0.4540486037731171 -0.4097352027893066 0.8810150027275085 -0.3790768086910248 -0.8871430158615112 1.9729554653167725 1.0448150634765625 2.1515328884124756 1.0504142045974731 1.2714786529541016 1.7828751802444458 0.4646083414554596 0.2525412440299988 0.5689866542816162 1.1534343957901001 -0.2025611698627472 0.5319756865501404 -0.1922516226768494 1.1039447784423828 -1.0103245973587036 -0.6039313673973083 1.2675734758377075 2.1534583568572998 1.1989958286285400 0.9545874595642090 -0.3295512795448303 0.8220916986465454 -0.5646360516548157 -0.2048537731170654 0.7762135863304138 -0.3376815617084503 0.2423930764198303 -0.6920952200889587 -1.2548047304153442 -0.1700085252523422 0.1220977604389191 -2.6172671318054199 1.2564469575881958 -0.5328634381294250 -0.6899976730346680 -1.0220458507537842 0.8970964550971985 1.7624123096466064 0.8770887255668640 -0.7556890845298767 1.4375188350677490 0.9477423429489136 0.6246791481971741 -0.1121181100606918 -0.5217291712760925 1.8953522443771362 0.1969931423664093 1.4735809564590454 0.5168561935424805 -0.6177791357040405 0.5733039975166321 -0.5444143414497375 -1.4520078897476196 0.4771313667297363 1.1646009683609009 0.1382517516613007 -0.4109098315238953 0.7321907877922058
2.4821200370788574 -1.8274434804916382 0.2416900545358658 0.5230593085289001 0.0779455080628395 -1.2780182361602783 0.5122959613800049 -0.3627563118934631 1.9168716669082642 -0.5864300727844238 -0.1130991652607918 -1.1533408164978027 0.9261979460716248 -2.0936822891235352 -0.4953740537166595 -1.8775831460952759 -0.3004684746265411 1.2415597438812256 -0.3050836026668549 -0.5646361112594604 -0.4889828860759735 1.8002047538757324 0.9087364077568054 -1.9862089157104492 -0.1456658095121384 1.5648549795150757 0.9445002675056458 -0.5235348939895630 0.0549784302711487 0.5025284290313721 -0.0995255932211876 0.4887793660163879 0.1181701570749283 0.4739796519279480 -0.9413761496543884 -0.7043710947036743 -1.1711796522140503 -1.1586040258407593 -0.8160133361816406 1.4308536052703857 0.0008794228779152 -0.6019282341003418 -1.1111994981765747 0.6035711765289307 0.3407329916954041 -0.1638282388448715 1.5253798961639404 -0.0001754281256581 0.1423981785774231 1.8302215337753296 0.7931156754493713 -0.7806818485260010 0.2551311552524567 0.7653543949127197 -0.7495983839035034 -1.2262111902236938 1.9998506307601929 -0.4076974391937256 1.6215610504150391 -1.7412592172622681 -0.3035898506641388 0.6829541921615601 -1.0159727334976196 -0.7980334162712097 -1.7903825044631958 -1.8532288074493408 -0.8525565862655640 1.7111722230911255 1.2367045879364014 -0.9116328954696655 -0.4818749725818634 -1.1070642471313477 -0.9938896894454956 0.1869077235460281 1.0325669050216675 1.1120024919509888 -0.0753424465656281 0.0785830318927765 0.2285186052322388 0.4104235172271729 0.3652730584144592 -0.2958447933197021 0.8138546347618103 -1.5193606615066528 -0.2059496492147446 -0.6479519009590149 -0.4544207751750946 0.6282703876495361 0.9173970222473145 0.5758600831031799 -0.2741498947143555 0.8791316151618958 0.0314815863966942 0.8947256803512573 -0.7254700064659119 -0.4756397604942322 1.3513040542602539 -0.3275749087333679 -0.3627429008483887 0.1180104538798332 -0.0924337953329086 2.5588438510894775 1.2392116785049438 0.3110496699810028 0.8617104291915894 0.8272463679313660 -0.8800476193428040 -0.5182713270187378 0.9410200715065002 0.7273726463317871 0.2116980254650116 -1.2213263511657715 1.7769736051559448 0.5638772845268250 -1.4211347103118896 0.3591801822185516 -0.1244955062866211 0.2872885763645172 1.1241085529327393 0.2366906851530075 -0.5905322432518005 -0.6860696673393250 -0.0667938292026520 0.4347868263721466 -0.4361847639083862 2.5020232200622559 0.5320947766304016 -0.0666332542896271
-0.3623856306076050 -0.6349130868911743 1.1961642503738403 0.9295936226844788 2.2646360397338867 0.2142140418291092 -0.7915992736816406 -1.7084647417068481 0.5822963714599609 1.0078167915344238 -0.5384974479675293 -0.9562965631484985 -0.1977419704198837 1.8633265495300293 -0.3325164616107941 -2.6026875972747803 0.5752688050270081 0.3685977756977081 0.7015495300292969 -0.8201335072517395 1.0153331756591797 -0.8496012091636658 0.0801766812801361 1.5615642070770264 0.8223403096199036 -0.0454248487949371 -0.3491010963916779 0.5705706477165222 -0.0783235132694244 1.3240046501159668 0.4708399772644043 0.3889997899532318 0.6724718809127808 -0.4692257344722748 -1.5218821763992310 -0.4991555511951447 1.2530194520950317 0.5782034397125244 -0.6227279305458069 -0.1442755311727524 0.9064552187919617 -1.7255252599716187 -0.1861758232116699 1.1293292045593262 0.4060851037502289 -1.8494377136230469 -1.8842118978500366 -0.4289002716541290 0.5051962733268738 -0.0035262673627585 0.6987244486808777 1.4023613929748535 0.7765088677406311 2.3726069927215576 1.2869992256164551 -2.2321555614471436 -0.5292455554008484 -0.3909508585929871 -1.5482925176620483 0.5563313961029053 0.5279411673545837 0.4812753796577454 -2.1215641498565674 1.1790642738342285 0.6570670008659363 0.5881997346878052 0.3514462113380432 -0.1767122745513916 -1.0584119558334351 0.3512708246707916 0.6037719249725342 -0.5941045284271240 -0.1181249767541885 -0.5118530988693237 -0.2146877795457840 -0.0137152085080743 0.7893459796905518 -0.8136678338050842 -0.0342844985425472 -0.0690759420394897 1.0565814971923828 1.5421282052993774 0.3508085906505585 -2.8877851963043213 -0.6690554618835449 0.4351072907447815 -1.4384671449661255 0.3679479658603668 0.6984425783157349 -1.9763488769531250 -0.7988797426223755 0.8502263426780701 -2.8152892589569092 -0.5849545001983643 0.1639112383127213 2.1431419849395752 -1.4321955442428589 1.5066428184509277 -1.6559649705886841 -0.3771239817142487 -1.0864049196243286 1.3725515604019165 1.0338633060455322 -0.1684923917055130 -2.5216929912567139 -0.7600704431533813 -1.1048847436904907 -1.1993782520294189 -0.4049301743507385 0.3586631715297699 0.3070344030857086 -0.6215786933898926 0.7632926702499390 -0.6759769320487976 0.8148996233940125 -0.7833890914916992 0.6574217677116394 0.5780388712882996 0.9003791213035583 -2.8971016407012939 0.9862213134765625 -0.6606875061988831 -0.0294657256454229 1.0169832706451416 -0.4933898150920868 1.2661799192428589 0.4195895493030548 -1.7497806549072266
0.2084920853376389 -0.5173119902610779 1.2933696508407593 0.5168938636779785 0.3857166469097137 -1.8400893211364746 0.1441082954406738 -1.6495678424835205 0.6314978599548340 0.0272646471858025 0.2857379019260406 0.5143380761146545 -0.4077859818935394 1.8293954133987427 3.0274186134338379 -0.0870409980416298 1.8968617916107178 0.5862497091293335 -0.8055765032768250 0.0401046648621559 0.0205312389880419 -0.7996304035186768 2.0149214267730713 1.6222219467163086 -0.7398780584335327 -1.3766933679580688 0.2763703763484955 0.8302721977233887 -0.9843394756317139 0.5408762097358704 -0.0228720735758543 0.4933786094188690 -0.9261018037796021 -1.4234398603439331 -0.9546746611595154 -0.9032462835311890 -0.7354597449302673 2.0790801048278809 -0.1692622601985931 -1.8571157455444336 0.1257135868072510 1.9355580806732178 -2.0659725666046143 1.7137837409973145 -0.7571652531623840 -1.1518224477767944 1.7004922628402710 0.7936506867408752 -0.8167340755462646 -0.9237438440322876 0.2899019420146942 1.1807413101196289 -1.0485357046127319 1.1441618204116821 0.2125436067581177 0.2049468010663986 -1.6665450334548950 -0.3739292621612549 0.9832132458686829 1.5987198352813721 0.2676142752170563 -1.2146276235580444 -0.6406571269035339 -0.2510429918766022 0.0566320866346359 0.9231272339820862 0.2333630025386810 -0.4327430427074432 1.5656620264053345 0.6303921341896057 0.4967183172702789 0.3918552100658417 1.1171965599060059 0.0395252890884876 0.0728360116481781 -0.4503663480281830 0.2668468654155731 -1.3807042837142944 -1.3262600898742676 1.0990406274795532 -0.0310947913676500 0.3040559589862823 0.2853463590145111 0.0283508133143187 0.3905498385429382 -1.2520796060562134 -0.7965984940528870 -1.0049962997436523 0.3319032490253448 0.2083377838134766 -0.0225978232920170 -0.8747149705886841 0.1855411380529404 -0.4663586616516113 -0.5358495712280273 0.1184450760483742 0.7470563054084778 -1.1919672489166260 -0.1312396228313446 0.6573415398597717 -1.7812521457672119 -0.4668336212635040 0.2457154393196106 -0.3768064081668854 -1.8284399509429932 -0.4441690146923065 1.5224970579147339 -0.2238817512989044 0.8047206401824951 0.3271797299385071 -0.7422984838485718 -0.9663223624229431 -0.2971887290477753 -0.9941403865814209 -1.1289957761764526 -1.6798638105392456 1.3624587059020996 0.5943784117698669 -1.1533656120300293 0.2823063135147095 -1.0277693271636963 0.3888269662857056 -0.5185276865959167 1.8773837089538574 0.8119662404060364 -0.6986035704612732 -0.0100664030760527 1.6485308408737183
-0.8447145223617554 -1.1468119621276855 -0.7614470124244690 -0.9432426095008850 -0.9419051408767700 -1.0010905265808105 -0.3576038181781769 -0.5454333424568176 -0.6253187656402588 0.0221380479633808 -1.2456190586090088 -0.0053410315886140 -0.5122669339179993 1.1539442539215088 0.3783255517482758 -0.3835804760456085 0.6098532080650330 -0.4384919703006744 -0.4262959659099579 1.1306701898574829 -1.0043855905532837 -0.1481269896030426 2.1827394962310791 1.1530718803405762 -0.2741762697696686 -0.1196516975760460 -0.1067578345537186 0.7849298715591431 0.3801933526992798 -0.5223624706268311 0.0155513957142830 -1.7308377027511597 0.1695675253868103 -0.3326992392539978 1.1309390068054199 0.7697248458862305 0.6688823103904724 -1.3257294893264771 0.9934723973274231 -0.2168943881988525 0.1046729683876038 -0.2092697620391846 0.3677342236042023 0.0960814878344536 -0.2107015550136566 1.4281530380249023 0.1484504640102386 0.1180035918951035 0.4325481951236725 -0.0283970106393099 0.9081698656082153 0.6850383877754211 0.7230366468429565 0.9988542795181274 2.5030102729797363 -1.7840248346328735 -0.9498952031135559 1.2636421918869019 0.3003715574741364 -0.8190338015556335 1.6258341073989868 0.9608252048492432 1.5714666843414307 -0.8007358312606812 -0.0385148078203201 -0.1663318127393723 0.7140794396400452 0.5303149819374084 1.5269020795822144 0.0905102118849754 -1.3350174427032471 0.4033342301845551 -2.2408242225646973 1.4834343194961548 0.5261082053184509 0.0941195935010910 0.1035966500639915 1.0568856000900269 -2.0220749378204346 -0.8745732307434082 1.4538419246673584 0.9084832668304443 -0.3779238760471344 -0.4378522038459778 1.4135688543319702 -0.5823755860328674 -0.5599849224090576 -1.4767504930496216 -0.3991346061229706 1.7675919532775879 0.3114221692085266 1.1786988973617554 0.3709677457809448 -0.3755320012569427 0.9825026392936707 -0.0311392955482006 0.7771905064582825 -2.4891979694366455 1.1029391288757324 0.1077306047081947 -0.3668532967567444 -1.1826219558715820 -2.6377155780792236 0.2178471684455872 0.4027519524097443 -0.6158497929573059 0.6234891414642334 -1.8694539070129395 0.9228192567825317 -0.7208372950553894 -1.2851010560989380 -2.5817244052886963 -0.5658656358718872 0.1578731238842010 -1.2068184614181519 -0.4597396850585938 -1.1548418998718262 -3.4529972076416016 0.9691278338432312 -0.4860568642616272 0.4898488223552704 0.4333813786506653 -1.0962246656417847 2.1870410442352295 -1.4203792810440063 0.1983986049890518 0.0964368060231209 -1.2605689764022827
-0.6029496192932129 -0.0475536361336708 1.3013644218444824 -0.7495290637016296 0.6400073766708374 -1.0517772436141968 -0.7180084586143494 -0.5414103269577026 0.2610258460044861 0.4231894612312317 -0.4673628211021423 -1.7505277395248413 0.1024265959858894 0.4840300977230072 0.6540562510490417 1.2920778989791870 0.4281410872936249 0.7418090701103210 -2.1492846012115479 0.1219038814306259 -0.5660341978073120 0.1803910732269287 1.0162659883499146 -1.6386618614196777 -0.7096246480941772 0.7104801535606384 -0.7591483592987061 -0.4263594448566437 -0.0136015620082617 -1.6182311773300171 0.1823817044496536 0.5471277832984924 0.8913742899894714 0.6337732672691345 0.6052477359771729 -0.9428163766860962 -0.3084760308265686 1.5628536939620972 0.5738469362258911 -0.9359382390975952 1.8536615371704102 1.0319292545318604 -0.3712204992771149 0.8896700739860535 -0.2767078280448914 0.5701634883880615 -0.9765691161155701 0.6908655762672424 -1.1981164216995239 1.2854207754135132 1.1621505022048950 -1.0446071624755859 -0.7993429899215698 -1.1678121089935303 1.0331263542175293 0.1330009400844574 -1.4357305765151978 -1.7236392498016357 -0.4489252567291260 -1.8414523601531982 0.2449469268321991 -0.8509000539779663 0.9848402738571167 0.0927260890603065 -2.1223855018615723 1.8712702989578247 -0.5854864120483398 1.5071358680725098 -0.7758601903915405 0.2049020230770111 -2.3783497810363770 -1.3157285451889038 -0.9087302088737488 -0.7176744937896729 0.4418205320835114 0.4759528636932373 -0.1169563904404640 -0.9286770224571228 -0.2047517001628876 0.8627859354019165 -0.9480315446853638 -0.2610760033130646 -0.2737958431243896 -0.6324980258941650 2.4107177257537842 0.0174993909895420 -0.9105646014213562 -0.0674886256456375 1.0867623090744019 0.5305523276329041 -0.4076001644134521 -0.3651070892810822 -0.6034658551216125 1.2963759899139404 2.0437574386596680 0.9165368080139160 0.2999770045280457 0.3653850555419922 0.7447497844696045 2.8182580471038818 1.7743879556655884 0.7389381527900696 1.5166915655136108 -0.1819956004619598 -0.3748478889465332 1.0035703182220459 -0.0747949033975601 0.3703830838203430 -1.0301036834716797 0.4514271914958954 -0.0126398773863912 -0.1661721318960190 -0.9788448214530945 2.2376801967620850 0.6290611028671265 -0.1530212163925171 0.0583005882799625 0.6142756938934326 0.3138658404350281 -0.2416536957025528 1.4974659681320190 -1.7537814378738403 1.8379154205322266 0.1755723357200623 -0.0885897502303123 0.8978570699691772 -0.6916778087615967 0.9466636776924133
1.0169390439987183 0.3044023513793945 1.9751710891723633 -0.3131062090396881 0.3231033086776733 0.7741795778274536 1.3206217288970947 0.4438285827636719 1.2870088815689087 -0.2588452994823456 0.9589311480522156 -1.2716255187988281 1.8047252893447876 -0.3842423260211945 -0.7891818284988403 -0.9934229254722595 -0.3851382732391357 1.3683748245239258 0.5329674482345581 1.0312590599060059 0.6510109305381775 0.4026139378547668 -0.2057974189519882 1.0304423570632935 -1.3157438039779663 -0.0719261467456818 -1.0956219434738159 0.7348223328590393 0.9631851911544800 0.5416868925094604 -0.2091049849987030 1.5272135734558105 0.1110083758831024 0.8959135413169861 0.0892886072397232 -1.0305664539337158 -0.0659597739577293 1.1802810430526733 -0.3034024834632874 -2.8189179897308350 -0.1868036389350891 2.2823402881622314 0.6741988062858582 -0.0422967821359634 -1.0117129087448120 -0.6297827959060669 -0.6594392061233521 0.3668635487556458 0.1648347079753876 1.5525600910186768 -0.8506965637207031 -0.7358444333076477 -0.3773160576820374 0.5533850789070129 -0.7780300378799438 -0.5658038258552551 -0.0272240731865168 -0.1399683952331543 0.1732442528009415 -0.0786369070410728 0.0943235009908676 0.5860126614570618 -0.4209643900394440 0.2610541284084320 0.0006569874240085 0.5599312186241150 1.2253195047378540 0.5893943905830383 0.1164717301726341 -1.8160192966461182 0.5337300896644592 2.1287608146667480 1.2252719402313232 -1.1442072391510010 1.5745277404785156 0.9686167240142822 0.7995224595069885 1.6875773668289185 0.2943556606769562 0.1562807857990265 0.3301789760589600 -0.8205173015594482 -1.5032105445861816 1.0314148664474487 1.2765223979949951 -1.4108037948608398 -1.2663766145706177 0.9491921067237854 0.5079736113548279 1.1787348985671997 -0.2046991735696793 -0.4411671459674835 -2.9569249153137207 0.8128297328948975 2.0698256492614746 -0.9739069938659668 0.3499687314033508 -0.3138223886489868 -1.3865336179733276 0.6308156847953796 0.4369204640388489 1.1131145954132080 0.3165558576583862 -1.0720593929290771 -1.0509587526321411 -0.3561749160289764 0.5523687601089478 -0.7163978815078735 1.0622527599334717 -0.2177593111991882 0.8481439948081970 -0.9328237175941467 -0.2840217947959900 -0.3823328018188477 0.8089605569839478 0.4453696608543396 0.3912841677665710 -0.1549830883741379 0.4533470869064331 -0.0919179767370224 -0.3671661913394928 -0.0819566249847412 -0.7640852332115173 -0.2864411771297455 0.5259136557579041 -0.9340028166770935 0.1057898849248886 -0.6321529746055603
